<?xml version="1.0"?>
<MethodSetup Method="BDT::BDT">
  <GeneralInfo>
    <Info name="TMVA Release" value="4.2.1 [262657]"/>
    <Info name="ROOT Release" value="6.04/02 [394242]"/>
    <Info name="Creator" value="atrisovi"/>
    <Info name="Date" value="Fri Oct 30 16:50:41 2015"/>
    <Info name="Host" value="Linux lcgapp-slc6-physical1.cern.ch 2.6.32-504.23.4.el6.x86_64 #1 SMP Wed Jun 10 07:47:59 CEST 2015 x86_64 x86_64 x86_64 GNU/Linux"/>
    <Info name="Dir" value="/afs/cern.ch/work/a/atrisovi/public/Step4_TMVA"/>
    <Info name="Training events" value="2000"/>
    <Info name="TrainingTime" value="1.63080411e+01"/>
    <Info name="AnalysisType" value="Classification"/>
  </GeneralInfo>
  <Options>
    <Option name="V" modified="Yes">False</Option>
    <Option name="VerbosityLevel" modified="No">Default</Option>
    <Option name="VarTransform" modified="No">None</Option>
    <Option name="H" modified="Yes">False</Option>
    <Option name="CreateMVAPdfs" modified="No">False</Option>
    <Option name="IgnoreNegWeightsInTraining" modified="No">False</Option>
    <Option name="NTrees" modified="Yes">850</Option>
    <Option name="MaxDepth" modified="Yes">3</Option>
    <Option name="MinNodeSize" modified="Yes">2.5%</Option>
    <Option name="nCuts" modified="Yes">20</Option>
    <Option name="BoostType" modified="Yes">AdaBoost</Option>
    <Option name="AdaBoostR2Loss" modified="No">quadratic</Option>
    <Option name="UseBaggedBoost" modified="Yes">True</Option>
    <Option name="Shrinkage" modified="No">1.000000e+00</Option>
    <Option name="AdaBoostBeta" modified="Yes">5.000000e-01</Option>
    <Option name="UseRandomisedTrees" modified="No">False</Option>
    <Option name="UseNvars" modified="No">4</Option>
    <Option name="UsePoissonNvars" modified="No">True</Option>
    <Option name="BaggedSampleFraction" modified="Yes">5.000000e-01</Option>
    <Option name="UseYesNoLeaf" modified="No">True</Option>
    <Option name="NegWeightTreatment" modified="No">inverseboostnegweights</Option>
    <Option name="Css" modified="No">1.000000e+00</Option>
    <Option name="Cts_sb" modified="No">1.000000e+00</Option>
    <Option name="Ctb_ss" modified="No">1.000000e+00</Option>
    <Option name="Cbb" modified="No">1.000000e+00</Option>
    <Option name="NodePurityLimit" modified="No">5.000000e-01</Option>
    <Option name="SeparationType" modified="Yes">giniindex</Option>
    <Option name="DoBoostMonitor" modified="No">False</Option>
    <Option name="UseFisherCuts" modified="No">False</Option>
    <Option name="MinLinCorrForFisher" modified="No">8.000000e-01</Option>
    <Option name="UseExclusiveVars" modified="No">False</Option>
    <Option name="DoPreselection" modified="No">False</Option>
    <Option name="SigToBkgFraction" modified="No">1.000000e+00</Option>
    <Option name="PruneMethod" modified="No">nopruning</Option>
    <Option name="PruneStrength" modified="No">0.000000e+00</Option>
    <Option name="PruningValFraction" modified="No">5.000000e-01</Option>
    <Option name="nEventsMin" modified="No">0</Option>
    <Option name="UseBaggedGrad" modified="No">False</Option>
    <Option name="GradBaggingFraction" modified="No">5.000000e-01</Option>
    <Option name="UseNTrainEvents" modified="No">0</Option>
    <Option name="NNodesMax" modified="No">0</Option>
  </Options>
  <Variables NVar="16">
    <Variable VarIndex="0" Expression="D_DIRA_OWNPV" Label="D_dira" Title="D_dira" Unit="" Internal="D_dira" Type="F" Min="9.99899924e-01" Max="1.00000000e+00"/>
    <Variable VarIndex="1" Expression="D_IPCHI2_OWNPV" Label="D_ipchi" Title="D_ipchi" Unit="" Internal="D_ipchi" Type="F" Min="1.25734059e-05" Max="2.93587418e+01"/>
    <Variable VarIndex="2" Expression="D_ENDVERTEX_CHI2" Label="D_edchi" Title="D_edchi" Unit="" Internal="D_edchi" Type="F" Min="1.32976621e-02" Max="1.79160042e+01"/>
    <Variable VarIndex="3" Expression="piplus_PT" Label="pi_pt" Title="pi_pt" Unit="" Internal="pi_pt" Type="F" Min="3.00254852e+02" Max="1.26722646e+04"/>
    <Variable VarIndex="4" Expression="log(piplus_IPCHI2_OWNPV)" Label="pi_ipchi" Title="pi_ipchi" Unit="" Internal="pi_ipchi" Type="F" Min="1.79495215e+00" Max="9.88039970e+00"/>
    <Variable VarIndex="5" Expression="log(piplus_P)" Label="pi_p" Title="pi_p" Unit="" Internal="pi_p" Type="F" Min="7.60153866e+00" Max="1.25063572e+01"/>
    <Variable VarIndex="6" Expression="max(muminus_P,muplus_P)" Label="max_mu_p" Title="max_mu_p" Unit="" Internal="max_mu_p" Type="F" Min="3.57376245e+03" Max="3.20239062e+05"/>
    <Variable VarIndex="7" Expression="min(muminus_P,muplus_P)" Label="min_mu_p" Title="min_mu_p" Unit="" Internal="min_mu_p" Type="F" Min="3.02818823e+03" Max="1.60492578e+05"/>
    <Variable VarIndex="8" Expression="max(muminus_PT,muplus_PT)" Label="max_mu_pt" Title="max_mu_pt" Unit="" Internal="max_mu_pt" Type="F" Min="4.19728210e+02" Max="2.01567441e+04"/>
    <Variable VarIndex="9" Expression="min(muminus_PT,muplus_PT)" Label="min_mu_pt" Title="min_mu_pt" Unit="" Internal="min_mu_pt" Type="F" Min="4.00446411e+02" Max="1.07823311e+04"/>
    <Variable VarIndex="10" Expression="log(D_TAU)" Label="D_tau" Title="D_tau" Unit="" Internal="D_tau" Type="F" Min="-9.22151470e+00" Max="-3.33075023e+00"/>
    <Variable VarIndex="11" Expression="log(min(muminus_IPCHI2_OWNPV,muplus_IPCHI2_OWNPV))" Label="min_mu_ip" Title="min_mu_ip" Unit="" Internal="min_mu_ip" Type="F" Min="1.79293251e+00" Max="9.05229855e+00"/>
    <Variable VarIndex="12" Expression="log(max(muminus_IPCHI2_OWNPV,muplus_IPCHI2_OWNPV))" Label="max_mu_ip" Title="max_mu_ip" Unit="" Internal="max_mu_ip" Type="F" Min="1.89573157e+00" Max="1.02229290e+01"/>
    <Variable VarIndex="13" Expression="D_PT" Label="D_pt" Title="D_pt" Unit="" Internal="D_pt" Type="F" Min="9.62692547e+00" Max="3.20237441e+04"/>
    <Variable VarIndex="14" Expression="log(D_FDCHI2_OWNPV)" Label="D_fd" Title="D_fd" Unit="" Internal="D_fd" Type="F" Min="1.92333925e+00" Max="1.31021833e+01"/>
    <Variable VarIndex="15" Expression="D_P" Label="D_p" Title="D_p" Unit="" Internal="D_p" Type="F" Min="9.93117578e+03" Max="5.44629188e+05"/>
  </Variables>
  <Spectators NSpec="0"/>
  <Classes NClass="2">
    <Class Name="Signal" Index="0"/>
    <Class Name="Background" Index="1"/>
  </Classes>
  <Transformations NTransformations="0"/>
  <MVAPdfs/>
  <Weights NTrees="850" AnalysisType="0">
    <BinaryTree type="DecisionTree" boostWeight="6.6211096623875643e-01" itree="0">
      <Node pos="s" depth="0" NCoef="0" IVar="0" Cut="9.9999523162841797e-01" cType="0" res="-9.9000000000000000e+01" rms="0.0000000000000000e+00" purity="5.0680935382843018e-01" nType="0">
        <Node pos="l" depth="1" NCoef="0" IVar="1" Cut="4.7443747520446777e+00" cType="1" res="-9.9000000000000000e+01" rms="0.0000000000000000e+00" purity="8.1869685649871826e-01" nType="0">
          <Node pos="l" depth="2" NCoef="0" IVar="-1" Cut="2.5816709995269775e+00" cType="0" res="-9.9000000000000000e+01" rms="0.0000000000000000e+00" purity="8.8275861740112305e-01" nType="1"/>
          <Node pos="r" depth="2" NCoef="0" IVar="4" Cut="5.1779661178588867e+00" cType="0" res="-9.9000000000000000e+01" rms="0.0000000000000000e+00" purity="5.2380955219268799e-01" nType="0">
            <Node pos="l" depth="3" NCoef="0" IVar="-1" Cut="0.0000000000000000e+00" cType="1" res="-9.9000000000000000e+01" rms="0.0000000000000000e+00" purity="7.6923078298568726e-01" nType="1"/>
            <Node pos="r" depth="3" NCoef="0" IVar="-1" Cut="0.0000000000000000e+00" cType="1" res="-9.9000000000000000e+01" rms="0.0000000000000000e+00" purity="3.5135135054588318e-01" nType="-1"/>
          </Node>
        </Node>
        <Node pos="r" depth="1" NCoef="0" IVar="4" Cut="4.1379747390747070e+00" cType="0" res="-9.9000000000000000e+01" rms="0.0000000000000000e+00" purity="3.4370371699333191e-01" nType="0">
          <Node pos="l" depth="2" NCoef="0" IVar="1" Cut="1.1900498390197754e+01" cType="1" res="-9.9000000000000000e+01" rms="0.0000000000000000e+00" purity="5.6108599901199341e-01" nType="0">
            <Node pos="l" depth="3" NCoef="0" IVar="-1" Cut="0.0000000000000000e+00" cType="1" res="-9.9000000000000000e+01" rms="0.0000000000000000e+00" purity="7.1428573131561279e-01" nType="1"/>
            <Node pos="r" depth="3" NCoef="0" IVar="-1" Cut="0.0000000000000000e+00" cType="1" res="-9.9000000000000000e+01" rms="0.0000000000000000e+00" purity="1.5000000596046448e-01" nType="-1"/>
          </Node>
          <Node pos="r" depth="2" NCoef="0" IVar="-1" Cut="3.4137730598449707e+00" cType="0" res="-9.9000000000000000e+01" rms="0.0000000000000000e+00" purity="2.3788546025753021e-01" nType="-1"/>
        </Node>
      </Node>
    </BinaryTree>
    <BinaryTree type="DecisionTree" boostWeight="6.3493507570003327e-01" itree="1">
      <Node pos="s" depth="0" NCoef="0" IVar="4" Cut="3.2369623184204102e+00" cType="0" res="-9.9000000000000000e+01" rms="0.0000000000000000e+00" purity="4.6519583463668823e-01" nType="0">
        <Node pos="l" depth="1" NCoef="0" IVar="0" Cut="9.9999523162841797e-01" cType="0" res="-9.9000000000000000e+01" rms="0.0000000000000000e+00" purity="6.4849835634231567e-01" nType="0">
          <Node pos="l" depth="2" NCoef="0" IVar="6" Cut="8.8151585937500000e+04" cType="1" res="-9.9000000000000000e+01" rms="0.0000000000000000e+00" purity="8.6255353689193726e-01" nType="0">
            <Node pos="l" depth="3" NCoef="0" IVar="-1" Cut="0.0000000000000000e+00" cType="1" res="-9.9000000000000000e+01" rms="0.0000000000000000e+00" purity="9.1390758752822876e-01" nType="1"/>
            <Node pos="r" depth="3" NCoef="0" IVar="-1" Cut="0.0000000000000000e+00" cType="1" res="-9.9000000000000000e+01" rms="0.0000000000000000e+00" purity="4.4459587335586548e-01" nType="-1"/>
          </Node>
          <Node pos="r" depth="2" NCoef="0" IVar="8" Cut="1.6158341064453125e+03" cType="1" res="-9.9000000000000000e+01" rms="0.0000000000000000e+00" purity="4.4632294774055481e-01" nType="0">
            <Node pos="l" depth="3" NCoef="0" IVar="-1" Cut="0.0000000000000000e+00" cType="1" res="-9.9000000000000000e+01" rms="0.0000000000000000e+00" purity="5.9777694940567017e-01" nType="1"/>
            <Node pos="r" depth="3" NCoef="0" IVar="-1" Cut="0.0000000000000000e+00" cType="1" res="-9.9000000000000000e+01" rms="0.0000000000000000e+00" purity="2.5948485732078552e-01" nType="-1"/>
          </Node>
        </Node>
        <Node pos="r" depth="1" NCoef="0" IVar="5" Cut="9.2896966934204102e+00" cType="0" res="-9.9000000000000000e+01" rms="0.0000000000000000e+00" purity="2.2669267654418945e-01" nType="0">
          <Node pos="l" depth="2" NCoef="0" IVar="0" Cut="9.9997240304946899e-01" cType="0" res="-9.9000000000000000e+01" rms="0.0000000000000000e+00" purity="3.6906328797340393e-01" nType="0">
            <Node pos="l" depth="3" NCoef="0" IVar="-1" Cut="0.0000000000000000e+00" cType="1" res="-9.9000000000000000e+01" rms="0.0000000000000000e+00" purity="5.5234313011169434e-01" nType="1"/>
            <Node pos="r" depth="3" NCoef="0" IVar="-1" Cut="0.0000000000000000e+00" cType="1" res="-9.9000000000000000e+01" rms="0.0000000000000000e+00" purity="1.4291925728321075e-01" nType="-1"/>
          </Node>
          <Node pos="r" depth="2" NCoef="0" IVar="-1" Cut="1.2457636718750000e+03" cType="0" res="-9.9000000000000000e+01" rms="0.0000000000000000e+00" purity="9.5907382667064667e-02" nType="-1"/>
        </Node>
      </Node>
    </BinaryTree>
    <BinaryTree type="DecisionTree" boostWeight="6.2785054656878203e-01" itree="2">
      <Node pos="s" depth="0" NCoef="0" IVar="4" Cut="2.8283417224884033e+00" cType="0" res="-9.9000000000000000e+01" rms="0.0000000000000000e+00" purity="4.9438390135765076e-01" nType="0">
        <Node pos="l" depth="1" NCoef="0" IVar="0" Cut="9.9996674060821533e-01" cType="0" res="-9.9000000000000000e+01" rms="0.0000000000000000e+00" purity="6.1434698104858398e-01" nType="0">
          <Node pos="l" depth="2" NCoef="0" IVar="1" Cut="6.9830536842346191e+00" cType="1" res="-9.9000000000000000e+01" rms="0.0000000000000000e+00" purity="7.2062534093856812e-01" nType="0">
            <Node pos="l" depth="3" NCoef="0" IVar="-1" Cut="0.0000000000000000e+00" cType="1" res="-9.9000000000000000e+01" rms="0.0000000000000000e+00" purity="7.8564625978469849e-01" nType="1"/>
            <Node pos="r" depth="3" NCoef="0" IVar="-1" Cut="0.0000000000000000e+00" cType="1" res="-9.9000000000000000e+01" rms="0.0000000000000000e+00" purity="3.6722692847251892e-01" nType="-1"/>
          </Node>
          <Node pos="r" depth="2" NCoef="0" IVar="-1" Cut="7.6490058898925781e+00" cType="1" res="-9.9000000000000000e+01" rms="0.0000000000000000e+00" purity="2.4826148152351379e-01" nType="-1"/>
        </Node>
        <Node pos="r" depth="1" NCoef="0" IVar="-1" Cut="1.4264633789062500e+03" cType="0" res="-9.9000000000000000e+01" rms="0.0000000000000000e+00" purity="1.7142891883850098e-01" nType="-1"/>
      </Node>
    </BinaryTree>
    <BinaryTree type="DecisionTree" boostWeight="3.4158769673695705e-01" itree="3">
      <Node pos="s" depth="0" NCoef="0" IVar="4" Cut="3.9594018459320068e+00" cType="0" res="-9.9000000000000000e+01" rms="0.0000000000000000e+00" purity="4.9668958783149719e-01" nType="0">
        <Node pos="l" depth="1" NCoef="0" IVar="1" Cut="1.3089401721954346e+00" cType="1" res="-9.9000000000000000e+01" rms="0.0000000000000000e+00" purity="6.4448535442352295e-01" nType="0">
          <Node pos="l" depth="2" NCoef="0" IVar="-1" Cut="2.5092357421875000e+04" cType="1" res="-9.9000000000000000e+01" rms="0.0000000000000000e+00" purity="8.9672696590423584e-01" nType="1"/>
          <Node pos="r" depth="2" NCoef="0" IVar="0" Cut="9.9999558925628662e-01" cType="0" res="-9.9000000000000000e+01" rms="0.0000000000000000e+00" purity="5.6326943635940552e-01" nType="0">
            <Node pos="l" depth="3" NCoef="0" IVar="-1" Cut="0.0000000000000000e+00" cType="1" res="-9.9000000000000000e+01" rms="0.0000000000000000e+00" purity="7.1628081798553467e-01" nType="1"/>
            <Node pos="r" depth="3" NCoef="0" IVar="-1" Cut="0.0000000000000000e+00" cType="1" res="-9.9000000000000000e+01" rms="0.0000000000000000e+00" purity="4.6722620725631714e-01" nType="-1"/>
          </Node>
        </Node>
        <Node pos="r" depth="1" NCoef="0" IVar="13" Cut="7.5616131591796875e+02" cType="0" res="-9.9000000000000000e+01" rms="0.0000000000000000e+00" purity="3.6729231476783752e-01" nType="0">
          <Node pos="l" depth="2" NCoef="0" IVar="2" Cut="7.8490204811096191e+00" cType="1" res="-9.9000000000000000e+01" rms="0.0000000000000000e+00" purity="4.2922329902648926e-01" nType="0">
            <Node pos="l" depth="3" NCoef="0" IVar="-1" Cut="0.0000000000000000e+00" cType="1" res="-9.9000000000000000e+01" rms="0.0000000000000000e+00" purity="5.2033972740173340e-01" nType="1"/>
            <Node pos="r" depth="3" NCoef="0" IVar="-1" Cut="0.0000000000000000e+00" cType="1" res="-9.9000000000000000e+01" rms="0.0000000000000000e+00" purity="2.3905855417251587e-01" nType="-1"/>
          </Node>
          <Node pos="r" depth="2" NCoef="0" IVar="-1" Cut="4.2305717468261719e+00" cType="0" res="-9.9000000000000000e+01" rms="0.0000000000000000e+00" purity="8.5556395351886749e-02" nType="-1"/>
        </Node>
      </Node>
    </BinaryTree>
    <BinaryTree type="DecisionTree" boostWeight="5.7897853135325761e-01" itree="4">
      <Node pos="s" depth="0" NCoef="0" IVar="4" Cut="3.6000967025756836e+00" cType="0" res="-9.9000000000000000e+01" rms="0.0000000000000000e+00" purity="4.9336013197898865e-01" nType="0">
        <Node pos="l" depth="1" NCoef="0" IVar="0" Cut="9.9998098611831665e-01" cType="0" res="-9.9000000000000000e+01" rms="0.0000000000000000e+00" purity="6.6083228588104248e-01" nType="0">
          <Node pos="l" depth="2" NCoef="0" IVar="1" Cut="9.6668367385864258e+00" cType="1" res="-9.9000000000000000e+01" rms="0.0000000000000000e+00" purity="7.6013940572738647e-01" nType="0">
            <Node pos="l" depth="3" NCoef="0" IVar="-1" Cut="0.0000000000000000e+00" cType="1" res="-9.9000000000000000e+01" rms="0.0000000000000000e+00" purity="8.0195182561874390e-01" nType="1"/>
            <Node pos="r" depth="3" NCoef="0" IVar="-1" Cut="0.0000000000000000e+00" cType="1" res="-9.9000000000000000e+01" rms="0.0000000000000000e+00" purity="3.3355200290679932e-01" nType="-1"/>
          </Node>
          <Node pos="r" depth="2" NCoef="0" IVar="6" Cut="1.5908325195312500e+04" cType="1" res="-9.9000000000000000e+01" rms="0.0000000000000000e+00" purity="4.5548328757286072e-01" nType="0">
            <Node pos="l" depth="3" NCoef="0" IVar="-1" Cut="0.0000000000000000e+00" cType="1" res="-9.9000000000000000e+01" rms="0.0000000000000000e+00" purity="6.2497407197952271e-01" nType="1"/>
            <Node pos="r" depth="3" NCoef="0" IVar="-1" Cut="0.0000000000000000e+00" cType="1" res="-9.9000000000000000e+01" rms="0.0000000000000000e+00" purity="3.3474248647689819e-01" nType="-1"/>
          </Node>
        </Node>
        <Node pos="r" depth="1" NCoef="0" IVar="3" Cut="1.3637056884765625e+03" cType="0" res="-9.9000000000000000e+01" rms="0.0000000000000000e+00" purity="2.7925255894660950e-01" nType="0">
          <Node pos="l" depth="2" NCoef="0" IVar="0" Cut="9.9999576807022095e-01" cType="0" res="-9.9000000000000000e+01" rms="0.0000000000000000e+00" purity="5.5203717947006226e-01" nType="0">
            <Node pos="l" depth="3" NCoef="0" IVar="-1" Cut="0.0000000000000000e+00" cType="1" res="-9.9000000000000000e+01" rms="0.0000000000000000e+00" purity="8.5500448942184448e-01" nType="1"/>
            <Node pos="r" depth="3" NCoef="0" IVar="-1" Cut="0.0000000000000000e+00" cType="1" res="-9.9000000000000000e+01" rms="0.0000000000000000e+00" purity="3.2537177205085754e-01" nType="-1"/>
          </Node>
          <Node pos="r" depth="2" NCoef="0" IVar="-1" Cut="2.2839777469635010e+00" cType="0" res="-9.9000000000000000e+01" rms="0.0000000000000000e+00" purity="2.0906795561313629e-01" nType="-1"/>
        </Node>
      </Node>
    </BinaryTree>
    <BinaryTree type="DecisionTree" boostWeight="3.9770602676747979e-01" itree="5">
      <Node pos="s" depth="0" NCoef="0" IVar="4" Cut="2.9517374038696289e+00" cType="0" res="-9.9000000000000000e+01" rms="0.0000000000000000e+00" purity="5.0256168842315674e-01" nType="0">
        <Node pos="l" depth="1" NCoef="0" IVar="0" Cut="9.9994874000549316e-01" cType="0" res="-9.9000000000000000e+01" rms="0.0000000000000000e+00" purity="5.9127992391586304e-01" nType="0">
          <Node pos="l" depth="2" NCoef="0" IVar="1" Cut="5.2385621070861816e+00" cType="1" res="-9.9000000000000000e+01" rms="0.0000000000000000e+00" purity="6.3904780149459839e-01" nType="0">
            <Node pos="l" depth="3" NCoef="0" IVar="-1" Cut="0.0000000000000000e+00" cType="1" res="-9.9000000000000000e+01" rms="0.0000000000000000e+00" purity="7.3101598024368286e-01" nType="1"/>
            <Node pos="r" depth="3" NCoef="0" IVar="-1" Cut="0.0000000000000000e+00" cType="1" res="-9.9000000000000000e+01" rms="0.0000000000000000e+00" purity="4.9871492385864258e-01" nType="-1"/>
          </Node>
          <Node pos="r" depth="2" NCoef="0" IVar="4" Cut="4.3297171592712402e+00" cType="0" res="-9.9000000000000000e+01" rms="0.0000000000000000e+00" purity="3.0783048272132874e-01" nType="0">
            <Node pos="l" depth="3" NCoef="0" IVar="-1" Cut="0.0000000000000000e+00" cType="1" res="-9.9000000000000000e+01" rms="0.0000000000000000e+00" purity="5.1665371656417847e-01" nType="1"/>
            <Node pos="r" depth="3" NCoef="0" IVar="-1" Cut="0.0000000000000000e+00" cType="1" res="-9.9000000000000000e+01" rms="0.0000000000000000e+00" purity="1.6093318164348602e-01" nType="-1"/>
          </Node>
        </Node>
        <Node pos="r" depth="1" NCoef="0" IVar="3" Cut="1.3650875244140625e+03" cType="0" res="-9.9000000000000000e+01" rms="0.0000000000000000e+00" purity="3.0423301458358765e-01" nType="0">
          <Node pos="l" depth="2" NCoef="0" IVar="-1" Cut="0.0000000000000000e+00" cType="1" res="-9.9000000000000000e+01" rms="0.0000000000000000e+00" purity="7.5264018774032593e-01" nType="1"/>
          <Node pos="r" depth="2" NCoef="0" IVar="-1" Cut="8.9275827407836914e+00" cType="0" res="-9.9000000000000000e+01" rms="0.0000000000000000e+00" purity="2.1816340088844299e-01" nType="-1"/>
        </Node>
      </Node>
    </BinaryTree>
    <BinaryTree type="DecisionTree" boostWeight="3.9028882302211843e-01" itree="6">
      <Node pos="s" depth="0" NCoef="0" IVar="0" Cut="9.9999523162841797e-01" cType="0" res="-9.9000000000000000e+01" rms="0.0000000000000000e+00" purity="4.7284886240959167e-01" nType="0">
        <Node pos="l" depth="1" NCoef="0" IVar="4" Cut="4.1251821517944336e+00" cType="0" res="-9.9000000000000000e+01" rms="0.0000000000000000e+00" purity="6.9153982400894165e-01" nType="0">
          <Node pos="l" depth="2" NCoef="0" IVar="-1" Cut="6.3209462165832520e+00" cType="1" res="-9.9000000000000000e+01" rms="0.0000000000000000e+00" purity="8.0104726552963257e-01" nType="1"/>
          <Node pos="r" depth="2" NCoef="0" IVar="12" Cut="4.7964553833007812e+00" cType="0" res="-9.9000000000000000e+01" rms="0.0000000000000000e+00" purity="5.2638512849807739e-01" nType="0">
            <Node pos="l" depth="3" NCoef="0" IVar="-1" Cut="0.0000000000000000e+00" cType="1" res="-9.9000000000000000e+01" rms="0.0000000000000000e+00" purity="6.6558271646499634e-01" nType="1"/>
            <Node pos="r" depth="3" NCoef="0" IVar="-1" Cut="0.0000000000000000e+00" cType="1" res="-9.9000000000000000e+01" rms="0.0000000000000000e+00" purity="3.1790646910667419e-01" nType="-1"/>
          </Node>
        </Node>
        <Node pos="r" depth="1" NCoef="0" IVar="2" Cut="7.6036925315856934e+00" cType="1" res="-9.9000000000000000e+01" rms="0.0000000000000000e+00" purity="3.6048620939254761e-01" nType="0">
          <Node pos="l" depth="2" NCoef="0" IVar="13" Cut="6.4418963623046875e+02" cType="0" res="-9.9000000000000000e+01" rms="0.0000000000000000e+00" purity="4.5468518137931824e-01" nType="0">
            <Node pos="l" depth="3" NCoef="0" IVar="-1" Cut="0.0000000000000000e+00" cType="1" res="-9.9000000000000000e+01" rms="0.0000000000000000e+00" purity="5.1240330934524536e-01" nType="1"/>
            <Node pos="r" depth="3" NCoef="0" IVar="-1" Cut="0.0000000000000000e+00" cType="1" res="-9.9000000000000000e+01" rms="0.0000000000000000e+00" purity="1.3750964403152466e-01" nType="-1"/>
          </Node>
          <Node pos="r" depth="2" NCoef="0" IVar="-1" Cut="3.4113900661468506e+00" cType="0" res="-9.9000000000000000e+01" rms="0.0000000000000000e+00" purity="1.9151189923286438e-01" nType="-1"/>
        </Node>
      </Node>
    </BinaryTree>
    <BinaryTree type="DecisionTree" boostWeight="3.4718963089824167e-01" itree="7">
      <Node pos="s" depth="0" NCoef="0" IVar="4" Cut="5.2647395133972168e+00" cType="0" res="-9.9000000000000000e+01" rms="0.0000000000000000e+00" purity="4.8138308525085449e-01" nType="0">
        <Node pos="l" depth="1" NCoef="0" IVar="14" Cut="7.1384077072143555e+00" cType="0" res="-9.9000000000000000e+01" rms="0.0000000000000000e+00" purity="7.3679679632186890e-01" nType="0">
          <Node pos="l" depth="2" NCoef="0" IVar="-1" Cut="8.2689752578735352e+00" cType="1" res="-9.9000000000000000e+01" rms="0.0000000000000000e+00" purity="8.7859976291656494e-01" nType="1"/>
          <Node pos="r" depth="2" NCoef="0" IVar="5" Cut="8.8253936767578125e+00" cType="1" res="-9.9000000000000000e+01" rms="0.0000000000000000e+00" purity="4.9359592795372009e-01" nType="0">
            <Node pos="l" depth="3" NCoef="0" IVar="-1" Cut="0.0000000000000000e+00" cType="1" res="-9.9000000000000000e+01" rms="0.0000000000000000e+00" purity="7.9272294044494629e-01" nType="1"/>
            <Node pos="r" depth="3" NCoef="0" IVar="-1" Cut="0.0000000000000000e+00" cType="1" res="-9.9000000000000000e+01" rms="0.0000000000000000e+00" purity="3.5592868924140930e-01" nType="-1"/>
          </Node>
        </Node>
        <Node pos="r" depth="1" NCoef="0" IVar="11" Cut="3.0138204097747803e+00" cType="0" res="-9.9000000000000000e+01" rms="0.0000000000000000e+00" purity="3.9851844310760498e-01" nType="0">
          <Node pos="l" depth="2" NCoef="0" IVar="1" Cut="1.7761871337890625e+01" cType="1" res="-9.9000000000000000e+01" rms="0.0000000000000000e+00" purity="4.8366820812225342e-01" nType="0">
            <Node pos="l" depth="3" NCoef="0" IVar="-1" Cut="0.0000000000000000e+00" cType="1" res="-9.9000000000000000e+01" rms="0.0000000000000000e+00" purity="5.1952236890792847e-01" nType="1"/>
            <Node pos="r" depth="3" NCoef="0" IVar="-1" Cut="0.0000000000000000e+00" cType="1" res="-9.9000000000000000e+01" rms="0.0000000000000000e+00" purity="1.3702750205993652e-01" nType="-1"/>
          </Node>
          <Node pos="r" depth="2" NCoef="0" IVar="-1" Cut="9.2641345214843750e+02" cType="0" res="-9.9000000000000000e+01" rms="0.0000000000000000e+00" purity="2.9732292890548706e-01" nType="-1"/>
        </Node>
      </Node>
    </BinaryTree>
    <BinaryTree type="DecisionTree" boostWeight="2.8193043109672661e-01" itree="8">
      <Node pos="s" depth="0" NCoef="0" IVar="4" Cut="5.9175276756286621e+00" cType="0" res="-9.9000000000000000e+01" rms="0.0000000000000000e+00" purity="4.8403513431549072e-01" nType="0">
        <Node pos="l" depth="1" NCoef="0" IVar="-1" Cut="7.3811831474304199e+00" cType="1" res="-9.9000000000000000e+01" rms="0.0000000000000000e+00" purity="8.4485977888107300e-01" nType="1"/>
        <Node pos="r" depth="1" NCoef="0" IVar="1" Cut="1.1846390724182129e+01" cType="1" res="-9.9000000000000000e+01" rms="0.0000000000000000e+00" purity="4.2936041951179504e-01" nType="0">
          <Node pos="l" depth="2" NCoef="0" IVar="11" Cut="2.3497564792633057e+00" cType="0" res="-9.9000000000000000e+01" rms="0.0000000000000000e+00" purity="4.6475780010223389e-01" nType="0">
            <Node pos="l" depth="3" NCoef="0" IVar="-1" Cut="0.0000000000000000e+00" cType="1" res="-9.9000000000000000e+01" rms="0.0000000000000000e+00" purity="5.2458226680755615e-01" nType="1"/>
            <Node pos="r" depth="3" NCoef="0" IVar="-1" Cut="0.0000000000000000e+00" cType="1" res="-9.9000000000000000e+01" rms="0.0000000000000000e+00" purity="2.4904641509056091e-01" nType="-1"/>
          </Node>
          <Node pos="r" depth="2" NCoef="0" IVar="-1" Cut="1.4375720977783203e+01" cType="1" res="-9.9000000000000000e+01" rms="0.0000000000000000e+00" purity="4.2705867439508438e-02" nType="-1"/>
        </Node>
      </Node>
    </BinaryTree>
    <BinaryTree type="DecisionTree" boostWeight="3.4104586371149076e-01" itree="9">
      <Node pos="s" depth="0" NCoef="0" IVar="0" Cut="9.9999523162841797e-01" cType="0" res="-9.9000000000000000e+01" rms="0.0000000000000000e+00" purity="4.4548636674880981e-01" nType="0">
        <Node pos="l" depth="1" NCoef="0" IVar="0" Cut="9.9999934434890747e-01" cType="0" res="-9.9000000000000000e+01" rms="0.0000000000000000e+00" purity="6.3561421632766724e-01" nType="0">
          <Node pos="l" depth="2" NCoef="0" IVar="-1" Cut="4.1182456016540527e+00" cType="0" res="-9.9000000000000000e+01" rms="0.0000000000000000e+00" purity="8.8298791646957397e-01" nType="1"/>
          <Node pos="r" depth="2" NCoef="0" IVar="8" Cut="1.6509963378906250e+03" cType="1" res="-9.9000000000000000e+01" rms="0.0000000000000000e+00" purity="5.2629810571670532e-01" nType="0">
            <Node pos="l" depth="3" NCoef="0" IVar="-1" Cut="0.0000000000000000e+00" cType="1" res="-9.9000000000000000e+01" rms="0.0000000000000000e+00" purity="7.1434640884399414e-01" nType="1"/>
            <Node pos="r" depth="3" NCoef="0" IVar="-1" Cut="0.0000000000000000e+00" cType="1" res="-9.9000000000000000e+01" rms="0.0000000000000000e+00" purity="3.9710092544555664e-01" nType="-1"/>
          </Node>
        </Node>
        <Node pos="r" depth="1" NCoef="0" IVar="-1" Cut="2.0876746177673340e+00" cType="0" res="-9.9000000000000000e+01" rms="0.0000000000000000e+00" purity="3.6075571179389954e-01" nType="-1"/>
      </Node>
    </BinaryTree>
    <BinaryTree type="DecisionTree" boostWeight="3.2745606399891469e-01" itree="10">
      <Node pos="s" depth="0" NCoef="0" IVar="5" Cut="9.0055141448974609e+00" cType="0" res="-9.9000000000000000e+01" rms="0.0000000000000000e+00" purity="5.1622772216796875e-01" nType="0">
        <Node pos="l" depth="1" NCoef="0" IVar="1" Cut="8.3907260894775391e+00" cType="1" res="-9.9000000000000000e+01" rms="0.0000000000000000e+00" purity="5.7283699512481689e-01" nType="0">
          <Node pos="l" depth="2" NCoef="0" IVar="3" Cut="2.6586186523437500e+03" cType="1" res="-9.9000000000000000e+01" rms="0.0000000000000000e+00" purity="6.1240512132644653e-01" nType="0">
            <Node pos="l" depth="3" NCoef="0" IVar="-1" Cut="0.0000000000000000e+00" cType="1" res="-9.9000000000000000e+01" rms="0.0000000000000000e+00" purity="6.4671230316162109e-01" nType="1"/>
            <Node pos="r" depth="3" NCoef="0" IVar="-1" Cut="0.0000000000000000e+00" cType="1" res="-9.9000000000000000e+01" rms="0.0000000000000000e+00" purity="3.6509007215499878e-01" nType="-1"/>
          </Node>
          <Node pos="r" depth="2" NCoef="0" IVar="11" Cut="3.4234347343444824e+00" cType="0" res="-9.9000000000000000e+01" rms="0.0000000000000000e+00" purity="4.0008535981178284e-01" nType="0">
            <Node pos="l" depth="3" NCoef="0" IVar="-1" Cut="0.0000000000000000e+00" cType="1" res="-9.9000000000000000e+01" rms="0.0000000000000000e+00" purity="5.1848089694976807e-01" nType="1"/>
            <Node pos="r" depth="3" NCoef="0" IVar="-1" Cut="0.0000000000000000e+00" cType="1" res="-9.9000000000000000e+01" rms="0.0000000000000000e+00" purity="1.6517719626426697e-01" nType="-1"/>
          </Node>
        </Node>
        <Node pos="r" depth="1" NCoef="0" IVar="4" Cut="4.4901738166809082e+00" cType="0" res="-9.9000000000000000e+01" rms="0.0000000000000000e+00" purity="3.7961429357528687e-01" nType="0">
          <Node pos="l" depth="2" NCoef="0" IVar="3" Cut="7.2401416015625000e+02" cType="0" res="-9.9000000000000000e+01" rms="0.0000000000000000e+00" purity="5.9390622377395630e-01" nType="0">
            <Node pos="l" depth="3" NCoef="0" IVar="-1" Cut="0.0000000000000000e+00" cType="1" res="-9.9000000000000000e+01" rms="0.0000000000000000e+00" purity="8.6948066949844360e-01" nType="1"/>
            <Node pos="r" depth="3" NCoef="0" IVar="-1" Cut="0.0000000000000000e+00" cType="1" res="-9.9000000000000000e+01" rms="0.0000000000000000e+00" purity="4.7689491510391235e-01" nType="-1"/>
          </Node>
          <Node pos="r" depth="2" NCoef="0" IVar="-1" Cut="1.0629803466796875e+03" cType="0" res="-9.9000000000000000e+01" rms="0.0000000000000000e+00" purity="2.6194876432418823e-01" nType="-1"/>
        </Node>
      </Node>
    </BinaryTree>
    <BinaryTree type="DecisionTree" boostWeight="3.6251975535130648e-01" itree="11">
      <Node pos="s" depth="0" NCoef="0" IVar="5" Cut="9.5062837600708008e+00" cType="0" res="-9.9000000000000000e+01" rms="0.0000000000000000e+00" purity="4.3797522783279419e-01" nType="0">
        <Node pos="l" depth="1" NCoef="0" IVar="1" Cut="5.9280748367309570e+00" cType="1" res="-9.9000000000000000e+01" rms="0.0000000000000000e+00" purity="5.7102286815643311e-01" nType="0">
          <Node pos="l" depth="2" NCoef="0" IVar="-1" Cut="-6.9224104881286621e+00" cType="0" res="-9.9000000000000000e+01" rms="0.0000000000000000e+00" purity="6.8247538805007935e-01" nType="1"/>
          <Node pos="r" depth="2" NCoef="0" IVar="-1" Cut="-7.2290163040161133e+00" cType="0" res="-9.9000000000000000e+01" rms="0.0000000000000000e+00" purity="2.8766497969627380e-01" nType="-1"/>
        </Node>
        <Node pos="r" depth="1" NCoef="0" IVar="4" Cut="3.1347851753234863e+00" cType="0" res="-9.9000000000000000e+01" rms="0.0000000000000000e+00" purity="3.4458813071250916e-01" nType="0">
          <Node pos="l" depth="2" NCoef="0" IVar="2" Cut="7.3993215560913086e+00" cType="1" res="-9.9000000000000000e+01" rms="0.0000000000000000e+00" purity="4.3349343538284302e-01" nType="0">
            <Node pos="l" depth="3" NCoef="0" IVar="-1" Cut="0.0000000000000000e+00" cType="1" res="-9.9000000000000000e+01" rms="0.0000000000000000e+00" purity="5.0671619176864624e-01" nType="1"/>
            <Node pos="r" depth="3" NCoef="0" IVar="-1" Cut="0.0000000000000000e+00" cType="1" res="-9.9000000000000000e+01" rms="0.0000000000000000e+00" purity="2.6804226636886597e-01" nType="-1"/>
          </Node>
          <Node pos="r" depth="2" NCoef="0" IVar="-1" Cut="6.3238665771484375e+02" cType="0" res="-9.9000000000000000e+01" rms="0.0000000000000000e+00" purity="1.6405758261680603e-01" nType="-1"/>
        </Node>
      </Node>
    </BinaryTree>
    <BinaryTree type="DecisionTree" boostWeight="3.0148886605314568e-01" itree="12">
      <Node pos="s" depth="0" NCoef="0" IVar="5" Cut="8.9500026702880859e+00" cType="0" res="-9.9000000000000000e+01" rms="0.0000000000000000e+00" purity="4.8064020276069641e-01" nType="0">
        <Node pos="l" depth="1" NCoef="0" IVar="4" Cut="4.9339604377746582e+00" cType="0" res="-9.9000000000000000e+01" rms="0.0000000000000000e+00" purity="5.5471128225326538e-01" nType="0">
          <Node pos="l" depth="2" NCoef="0" IVar="-1" Cut="9.9999600648880005e-01" cType="0" res="-9.9000000000000000e+01" rms="0.0000000000000000e+00" purity="7.3938095569610596e-01" nType="1"/>
          <Node pos="r" depth="2" NCoef="0" IVar="13" Cut="8.2086663818359375e+02" cType="0" res="-9.9000000000000000e+01" rms="0.0000000000000000e+00" purity="4.9500116705894470e-01" nType="0">
            <Node pos="l" depth="3" NCoef="0" IVar="-1" Cut="0.0000000000000000e+00" cType="1" res="-9.9000000000000000e+01" rms="0.0000000000000000e+00" purity="5.2626514434814453e-01" nType="1"/>
            <Node pos="r" depth="3" NCoef="0" IVar="-1" Cut="0.0000000000000000e+00" cType="1" res="-9.9000000000000000e+01" rms="0.0000000000000000e+00" purity="2.2679167985916138e-01" nType="-1"/>
          </Node>
        </Node>
        <Node pos="r" depth="1" NCoef="0" IVar="3" Cut="5.2250982666015625e+02" cType="0" res="-9.9000000000000000e+01" rms="0.0000000000000000e+00" purity="3.2629522681236267e-01" nType="0">
          <Node pos="l" depth="2" NCoef="0" IVar="4" Cut="4.9019589424133301e+00" cType="0" res="-9.9000000000000000e+01" rms="0.0000000000000000e+00" purity="4.8724260926246643e-01" nType="0">
            <Node pos="l" depth="3" NCoef="0" IVar="-1" Cut="0.0000000000000000e+00" cType="1" res="-9.9000000000000000e+01" rms="0.0000000000000000e+00" purity="7.2489041090011597e-01" nType="1"/>
            <Node pos="r" depth="3" NCoef="0" IVar="-1" Cut="0.0000000000000000e+00" cType="1" res="-9.9000000000000000e+01" rms="0.0000000000000000e+00" purity="3.6010146141052246e-01" nType="-1"/>
          </Node>
          <Node pos="r" depth="2" NCoef="0" IVar="-1" Cut="4.7526193237304688e+02" cType="1" res="-9.9000000000000000e+01" rms="0.0000000000000000e+00" purity="1.8336279690265656e-01" nType="-1"/>
        </Node>
      </Node>
    </BinaryTree>
    <BinaryTree type="DecisionTree" boostWeight="2.3489419279760487e-01" itree="13">
      <Node pos="s" depth="0" NCoef="0" IVar="4" Cut="5.6291570663452148e+00" cType="0" res="-9.9000000000000000e+01" rms="0.0000000000000000e+00" purity="5.0112813711166382e-01" nType="0">
        <Node pos="l" depth="1" NCoef="0" IVar="-1" Cut="5.0310254096984863e+00" cType="1" res="-9.9000000000000000e+01" rms="0.0000000000000000e+00" purity="8.1182140111923218e-01" nType="1"/>
        <Node pos="r" depth="1" NCoef="0" IVar="-1" Cut="8.2364540100097656e+00" cType="0" res="-9.9000000000000000e+01" rms="0.0000000000000000e+00" purity="4.2978498339653015e-01" nType="-1"/>
      </Node>
    </BinaryTree>
    <BinaryTree type="DecisionTree" boostWeight="3.8798115540915212e-01" itree="14">
      <Node pos="s" depth="0" NCoef="0" IVar="4" Cut="2.1800768375396729e+00" cType="0" res="-9.9000000000000000e+01" rms="0.0000000000000000e+00" purity="4.9868541955947876e-01" nType="0">
        <Node pos="l" depth="1" NCoef="0" IVar="9" Cut="1.1949329833984375e+03" cType="0" res="-9.9000000000000000e+01" rms="0.0000000000000000e+00" purity="5.4885756969451904e-01" nType="0">
          <Node pos="l" depth="2" NCoef="0" IVar="-1" Cut="7.5100039062500000e+04" cType="1" res="-9.9000000000000000e+01" rms="0.0000000000000000e+00" purity="7.2811448574066162e-01" nType="1"/>
          <Node pos="r" depth="2" NCoef="0" IVar="9" Cut="5.1331182861328125e+02" cType="1" res="-9.9000000000000000e+01" rms="0.0000000000000000e+00" purity="5.0597929954528809e-01" nType="0">
            <Node pos="l" depth="3" NCoef="0" IVar="-1" Cut="0.0000000000000000e+00" cType="1" res="-9.9000000000000000e+01" rms="0.0000000000000000e+00" purity="9.3523401021957397e-01" nType="1"/>
            <Node pos="r" depth="3" NCoef="0" IVar="-1" Cut="0.0000000000000000e+00" cType="1" res="-9.9000000000000000e+01" rms="0.0000000000000000e+00" purity="4.1642951965332031e-01" nType="-1"/>
          </Node>
        </Node>
        <Node pos="r" depth="1" NCoef="0" IVar="-1" Cut="7.1801190376281738e+00" cType="1" res="-9.9000000000000000e+01" rms="0.0000000000000000e+00" purity="1.4209352433681488e-01" nType="-1"/>
      </Node>
    </BinaryTree>
    <BinaryTree type="DecisionTree" boostWeight="3.2357800118299707e-01" itree="15">
      <Node pos="s" depth="0" NCoef="0" IVar="2" Cut="1.0164116859436035e+01" cType="1" res="-9.9000000000000000e+01" rms="0.0000000000000000e+00" purity="5.0705993175506592e-01" nType="0">
        <Node pos="l" depth="1" NCoef="0" IVar="1" Cut="8.3882207870483398e+00" cType="1" res="-9.9000000000000000e+01" rms="0.0000000000000000e+00" purity="5.5205059051513672e-01" nType="0">
          <Node pos="l" depth="2" NCoef="0" IVar="4" Cut="2.1403410434722900e+00" cType="0" res="-9.9000000000000000e+01" rms="0.0000000000000000e+00" purity="5.9692895412445068e-01" nType="0">
            <Node pos="l" depth="3" NCoef="0" IVar="-1" Cut="0.0000000000000000e+00" cType="1" res="-9.9000000000000000e+01" rms="0.0000000000000000e+00" purity="6.2780290842056274e-01" nType="1"/>
            <Node pos="r" depth="3" NCoef="0" IVar="-1" Cut="0.0000000000000000e+00" cType="1" res="-9.9000000000000000e+01" rms="0.0000000000000000e+00" purity="3.2254999876022339e-01" nType="-1"/>
          </Node>
          <Node pos="r" depth="2" NCoef="0" IVar="-1" Cut="1.0470699310302734e+01" cType="0" res="-9.9000000000000000e+01" rms="0.0000000000000000e+00" purity="3.6735028028488159e-01" nType="-1"/>
        </Node>
        <Node pos="r" depth="1" NCoef="0" IVar="10" Cut="-6.9743547439575195e+00" cType="0" res="-9.9000000000000000e+01" rms="0.0000000000000000e+00" purity="2.6800131797790527e-01" nType="0">
          <Node pos="l" depth="2" NCoef="0" IVar="4" Cut="3.3100459575653076e+00" cType="0" res="-9.9000000000000000e+01" rms="0.0000000000000000e+00" purity="4.5330595970153809e-01" nType="0">
            <Node pos="l" depth="3" NCoef="0" IVar="-1" Cut="0.0000000000000000e+00" cType="1" res="-9.9000000000000000e+01" rms="0.0000000000000000e+00" purity="6.2757301330566406e-01" nType="1"/>
            <Node pos="r" depth="3" NCoef="0" IVar="-1" Cut="0.0000000000000000e+00" cType="1" res="-9.9000000000000000e+01" rms="0.0000000000000000e+00" purity="2.8921434283256531e-01" nType="-1"/>
          </Node>
          <Node pos="r" depth="2" NCoef="0" IVar="-1" Cut="2.4092235565185547e+00" cType="0" res="-9.9000000000000000e+01" rms="0.0000000000000000e+00" purity="1.4378063380718231e-01" nType="-1"/>
        </Node>
      </Node>
    </BinaryTree>
    <BinaryTree type="DecisionTree" boostWeight="1.2116837138169508e-01" itree="16">
      <Node pos="s" depth="0" NCoef="0" IVar="4" Cut="2.1799733638763428e+00" cType="0" res="-9.9000000000000000e+01" rms="0.0000000000000000e+00" purity="4.6956583857536316e-01" nType="0">
        <Node pos="l" depth="1" NCoef="0" IVar="11" Cut="6.7993407249450684e+00" cType="0" res="-9.9000000000000000e+01" rms="0.0000000000000000e+00" purity="5.0211453437805176e-01" nType="0">
          <Node pos="l" depth="2" NCoef="0" IVar="-1" Cut="0.0000000000000000e+00" cType="1" res="-9.9000000000000000e+01" rms="0.0000000000000000e+00" purity="9.0975427627563477e-01" nType="1"/>
          <Node pos="r" depth="2" NCoef="0" IVar="5" Cut="8.2345981597900391e+00" cType="0" res="-9.9000000000000000e+01" rms="0.0000000000000000e+00" purity="4.8578166961669922e-01" nType="0">
            <Node pos="l" depth="3" NCoef="0" IVar="-1" Cut="0.0000000000000000e+00" cType="1" res="-9.9000000000000000e+01" rms="0.0000000000000000e+00" purity="5.0099283456802368e-01" nType="1"/>
            <Node pos="r" depth="3" NCoef="0" IVar="-1" Cut="0.0000000000000000e+00" cType="1" res="-9.9000000000000000e+01" rms="0.0000000000000000e+00" purity="1.7369386553764343e-01" nType="-1"/>
          </Node>
        </Node>
        <Node pos="r" depth="1" NCoef="0" IVar="-1" Cut="5.2398931884765625e+02" cType="1" res="-9.9000000000000000e+01" rms="0.0000000000000000e+00" purity="1.9469659030437469e-01" nType="-1"/>
      </Node>
    </BinaryTree>
    <BinaryTree type="DecisionTree" boostWeight="2.9390983636739831e-01" itree="17">
      <Node pos="s" depth="0" NCoef="0" IVar="4" Cut="2.1554546356201172e+00" cType="0" res="-9.9000000000000000e+01" rms="0.0000000000000000e+00" purity="5.1304990053176880e-01" nType="0">
        <Node pos="l" depth="1" NCoef="0" IVar="1" Cut="1.6567916870117188e+01" cType="1" res="-9.9000000000000000e+01" rms="0.0000000000000000e+00" purity="5.4792249202728271e-01" nType="0">
          <Node pos="l" depth="2" NCoef="0" IVar="8" Cut="3.5298242187500000e+03" cType="1" res="-9.9000000000000000e+01" rms="0.0000000000000000e+00" purity="5.6885778903961182e-01" nType="0">
            <Node pos="l" depth="3" NCoef="0" IVar="-1" Cut="0.0000000000000000e+00" cType="1" res="-9.9000000000000000e+01" rms="0.0000000000000000e+00" purity="6.0928231477737427e-01" nType="1"/>
            <Node pos="r" depth="3" NCoef="0" IVar="-1" Cut="0.0000000000000000e+00" cType="1" res="-9.9000000000000000e+01" rms="0.0000000000000000e+00" purity="3.6928108334541321e-01" nType="-1"/>
          </Node>
          <Node pos="r" depth="2" NCoef="0" IVar="-1" Cut="4.4454865455627441e+00" cType="0" res="-9.9000000000000000e+01" rms="0.0000000000000000e+00" purity="2.3007735610008240e-01" nType="-1"/>
        </Node>
        <Node pos="r" depth="1" NCoef="0" IVar="-1" Cut="4.6046571731567383e+00" cType="0" res="-9.9000000000000000e+01" rms="0.0000000000000000e+00" purity="1.4076161384582520e-01" nType="-1"/>
      </Node>
    </BinaryTree>
    <BinaryTree type="DecisionTree" boostWeight="4.1517454370820173e-01" itree="18">
      <Node pos="s" depth="0" NCoef="0" IVar="4" Cut="3.9711327552795410e+00" cType="0" res="-9.9000000000000000e+01" rms="0.0000000000000000e+00" purity="5.0176519155502319e-01" nType="0">
        <Node pos="l" depth="1" NCoef="0" IVar="12" Cut="3.6927657127380371e+00" cType="1" res="-9.9000000000000000e+01" rms="0.0000000000000000e+00" purity="6.2457478046417236e-01" nType="0">
          <Node pos="l" depth="2" NCoef="0" IVar="-1" Cut="0.0000000000000000e+00" cType="1" res="-9.9000000000000000e+01" rms="0.0000000000000000e+00" purity="9.5991516113281250e-01" nType="1"/>
          <Node pos="r" depth="2" NCoef="0" IVar="10" Cut="-7.0181665420532227e+00" cType="0" res="-9.9000000000000000e+01" rms="0.0000000000000000e+00" purity="5.8436006307601929e-01" nType="0">
            <Node pos="l" depth="3" NCoef="0" IVar="-1" Cut="0.0000000000000000e+00" cType="1" res="-9.9000000000000000e+01" rms="0.0000000000000000e+00" purity="6.6489583253860474e-01" nType="1"/>
            <Node pos="r" depth="3" NCoef="0" IVar="-1" Cut="0.0000000000000000e+00" cType="1" res="-9.9000000000000000e+01" rms="0.0000000000000000e+00" purity="3.0965629220008850e-01" nType="-1"/>
          </Node>
        </Node>
        <Node pos="r" depth="1" NCoef="0" IVar="1" Cut="1.1425560712814331e+00" cType="0" res="-9.9000000000000000e+01" rms="0.0000000000000000e+00" purity="4.0202835202217102e-01" nType="0">
          <Node pos="l" depth="2" NCoef="0" IVar="1" Cut="5.5024771690368652e+00" cType="1" res="-9.9000000000000000e+01" rms="0.0000000000000000e+00" purity="4.7250375151634216e-01" nType="0">
            <Node pos="l" depth="3" NCoef="0" IVar="-1" Cut="0.0000000000000000e+00" cType="1" res="-9.9000000000000000e+01" rms="0.0000000000000000e+00" purity="6.0185557603836060e-01" nType="1"/>
            <Node pos="r" depth="3" NCoef="0" IVar="-1" Cut="0.0000000000000000e+00" cType="1" res="-9.9000000000000000e+01" rms="0.0000000000000000e+00" purity="2.3018707334995270e-01" nType="-1"/>
          </Node>
          <Node pos="r" depth="2" NCoef="0" IVar="-1" Cut="5.6689868164062500e+02" cType="1" res="-9.9000000000000000e+01" rms="0.0000000000000000e+00" purity="2.2993408143520355e-01" nType="-1"/>
        </Node>
      </Node>
    </BinaryTree>
    <BinaryTree type="DecisionTree" boostWeight="4.1197595098418011e-01" itree="19">
      <Node pos="s" depth="0" NCoef="0" IVar="13" Cut="1.4221309814453125e+03" cType="0" res="-9.9000000000000000e+01" rms="0.0000000000000000e+00" purity="4.4819492101669312e-01" nType="0">
        <Node pos="l" depth="1" NCoef="0" IVar="4" Cut="4.8832020759582520e+00" cType="0" res="-9.9000000000000000e+01" rms="0.0000000000000000e+00" purity="5.0423759222030640e-01" nType="0">
          <Node pos="l" depth="2" NCoef="0" IVar="2" Cut="9.0171873569488525e-01" cType="0" res="-9.9000000000000000e+01" rms="0.0000000000000000e+00" purity="6.5824639797210693e-01" nType="0">
            <Node pos="l" depth="3" NCoef="0" IVar="-1" Cut="0.0000000000000000e+00" cType="1" res="-9.9000000000000000e+01" rms="0.0000000000000000e+00" purity="7.4636465311050415e-01" nType="1"/>
            <Node pos="r" depth="3" NCoef="0" IVar="-1" Cut="0.0000000000000000e+00" cType="1" res="-9.9000000000000000e+01" rms="0.0000000000000000e+00" purity="2.8531813621520996e-01" nType="-1"/>
          </Node>
          <Node pos="r" depth="2" NCoef="0" IVar="6" Cut="2.4384710937500000e+04" cType="1" res="-9.9000000000000000e+01" rms="0.0000000000000000e+00" purity="4.5037108659744263e-01" nType="0">
            <Node pos="l" depth="3" NCoef="0" IVar="-1" Cut="0.0000000000000000e+00" cType="1" res="-9.9000000000000000e+01" rms="0.0000000000000000e+00" purity="5.4988777637481689e-01" nType="1"/>
            <Node pos="r" depth="3" NCoef="0" IVar="-1" Cut="0.0000000000000000e+00" cType="1" res="-9.9000000000000000e+01" rms="0.0000000000000000e+00" purity="3.4463739395141602e-01" nType="-1"/>
          </Node>
        </Node>
        <Node pos="r" depth="1" NCoef="0" IVar="9" Cut="5.0577496337890625e+02" cType="1" res="-9.9000000000000000e+01" rms="0.0000000000000000e+00" purity="2.6631546020507812e-01" nType="0">
          <Node pos="l" depth="2" NCoef="0" IVar="-1" Cut="0.0000000000000000e+00" cType="1" res="-9.9000000000000000e+01" rms="0.0000000000000000e+00" purity="9.8096609115600586e-01" nType="1"/>
          <Node pos="r" depth="2" NCoef="0" IVar="7" Cut="1.2876625976562500e+04" cType="0" res="-9.9000000000000000e+01" rms="0.0000000000000000e+00" purity="1.4190453290939331e-01" nType="0">
            <Node pos="l" depth="3" NCoef="0" IVar="-1" Cut="0.0000000000000000e+00" cType="1" res="-9.9000000000000000e+01" rms="0.0000000000000000e+00" purity="5.3105628490447998e-01" nType="1"/>
            <Node pos="r" depth="3" NCoef="0" IVar="-1" Cut="0.0000000000000000e+00" cType="1" res="-9.9000000000000000e+01" rms="0.0000000000000000e+00" purity="8.4058918058872223e-02" nType="-1"/>
          </Node>
        </Node>
      </Node>
    </BinaryTree>
    <BinaryTree type="DecisionTree" boostWeight="2.9872837970166466e-01" itree="20">
      <Node pos="s" depth="0" NCoef="0" IVar="13" Cut="4.2471391601562500e+03" cType="0" res="-9.9000000000000000e+01" rms="0.0000000000000000e+00" purity="4.8701265454292297e-01" nType="0">
        <Node pos="l" depth="1" NCoef="0" IVar="4" Cut="2.5106375217437744e+00" cType="0" res="-9.9000000000000000e+01" rms="0.0000000000000000e+00" purity="6.4810252189636230e-01" nType="0">
          <Node pos="l" depth="2" NCoef="0" IVar="-1" Cut="3.4393353462219238e+00" cType="1" res="-9.9000000000000000e+01" rms="0.0000000000000000e+00" purity="6.9004750251770020e-01" nType="1"/>
          <Node pos="r" depth="2" NCoef="0" IVar="-1" Cut="0.0000000000000000e+00" cType="1" res="-9.9000000000000000e+01" rms="0.0000000000000000e+00" purity="2.8926235437393188e-01" nType="-1"/>
        </Node>
        <Node pos="r" depth="1" NCoef="0" IVar="9" Cut="4.6893545532226562e+02" cType="1" res="-9.9000000000000000e+01" rms="0.0000000000000000e+00" purity="4.2312622070312500e-01" nType="0">
          <Node pos="l" depth="2" NCoef="0" IVar="-1" Cut="0.0000000000000000e+00" cType="1" res="-9.9000000000000000e+01" rms="0.0000000000000000e+00" purity="1.0000000000000000e+00" nType="1"/>
          <Node pos="r" depth="2" NCoef="0" IVar="-1" Cut="4.1299923706054688e+02" cType="0" res="-9.9000000000000000e+01" rms="0.0000000000000000e+00" purity="3.9308017492294312e-01" nType="-1"/>
        </Node>
      </Node>
    </BinaryTree>
    <BinaryTree type="DecisionTree" boostWeight="1.8186755585145967e-01" itree="21">
      <Node pos="s" depth="0" NCoef="0" IVar="14" Cut="3.9175329208374023e+00" cType="0" res="-9.9000000000000000e+01" rms="0.0000000000000000e+00" purity="5.0702661275863647e-01" nType="0">
        <Node pos="l" depth="1" NCoef="0" IVar="4" Cut="6.1210289001464844e+00" cType="0" res="-9.9000000000000000e+01" rms="0.0000000000000000e+00" purity="5.2828830480575562e-01" nType="0">
          <Node pos="l" depth="2" NCoef="0" IVar="-1" Cut="1.0169681396484375e+03" cType="0" res="-9.9000000000000000e+01" rms="0.0000000000000000e+00" purity="7.9754072427749634e-01" nType="1"/>
          <Node pos="r" depth="2" NCoef="0" IVar="4" Cut="2.2029557228088379e+00" cType="0" res="-9.9000000000000000e+01" rms="0.0000000000000000e+00" purity="5.0018298625946045e-01" nType="0">
            <Node pos="l" depth="3" NCoef="0" IVar="-1" Cut="0.0000000000000000e+00" cType="1" res="-9.9000000000000000e+01" rms="0.0000000000000000e+00" purity="5.2816736698150635e-01" nType="1"/>
            <Node pos="r" depth="3" NCoef="0" IVar="-1" Cut="0.0000000000000000e+00" cType="1" res="-9.9000000000000000e+01" rms="0.0000000000000000e+00" purity="2.6032909750938416e-01" nType="-1"/>
          </Node>
        </Node>
        <Node pos="r" depth="1" NCoef="0" IVar="-1" Cut="0.0000000000000000e+00" cType="1" res="-9.9000000000000000e+01" rms="0.0000000000000000e+00" purity="9.0918540954589844e-02" nType="-1"/>
      </Node>
    </BinaryTree>
    <BinaryTree type="DecisionTree" boostWeight="3.4707316812042061e-01" itree="22">
      <Node pos="s" depth="0" NCoef="0" IVar="0" Cut="9.9998092651367188e-01" cType="0" res="-9.9000000000000000e+01" rms="0.0000000000000000e+00" purity="4.9859482049942017e-01" nType="0">
        <Node pos="l" depth="1" NCoef="0" IVar="2" Cut="1.1070772171020508e+01" cType="1" res="-9.9000000000000000e+01" rms="0.0000000000000000e+00" purity="5.8096170425415039e-01" nType="0">
          <Node pos="l" depth="2" NCoef="0" IVar="-1" Cut="2.7612943649291992e+00" cType="1" res="-9.9000000000000000e+01" rms="0.0000000000000000e+00" purity="6.1199879646301270e-01" nType="1"/>
          <Node pos="r" depth="2" NCoef="0" IVar="-1" Cut="0.0000000000000000e+00" cType="1" res="-9.9000000000000000e+01" rms="0.0000000000000000e+00" purity="2.8598168492317200e-01" nType="-1"/>
        </Node>
        <Node pos="r" depth="1" NCoef="0" IVar="9" Cut="1.1892871093750000e+03" cType="0" res="-9.9000000000000000e+01" rms="0.0000000000000000e+00" purity="4.1145578026771545e-01" nType="0">
          <Node pos="l" depth="2" NCoef="0" IVar="2" Cut="7.4167103767395020e+00" cType="0" res="-9.9000000000000000e+01" rms="0.0000000000000000e+00" purity="6.8325483798980713e-01" nType="0">
            <Node pos="l" depth="3" NCoef="0" IVar="-1" Cut="0.0000000000000000e+00" cType="1" res="-9.9000000000000000e+01" rms="0.0000000000000000e+00" purity="8.7293803691864014e-01" nType="1"/>
            <Node pos="r" depth="3" NCoef="0" IVar="-1" Cut="0.0000000000000000e+00" cType="1" res="-9.9000000000000000e+01" rms="0.0000000000000000e+00" purity="3.8354215025901794e-01" nType="-1"/>
          </Node>
          <Node pos="r" depth="2" NCoef="0" IVar="9" Cut="5.1660522460937500e+02" cType="1" res="-9.9000000000000000e+01" rms="0.0000000000000000e+00" purity="3.5683971643447876e-01" nType="0">
            <Node pos="l" depth="3" NCoef="0" IVar="-1" Cut="0.0000000000000000e+00" cType="1" res="-9.9000000000000000e+01" rms="0.0000000000000000e+00" purity="7.5905048847198486e-01" nType="1"/>
            <Node pos="r" depth="3" NCoef="0" IVar="-1" Cut="0.0000000000000000e+00" cType="1" res="-9.9000000000000000e+01" rms="0.0000000000000000e+00" purity="3.0445894598960876e-01" nType="-1"/>
          </Node>
        </Node>
      </Node>
    </BinaryTree>
    <BinaryTree type="DecisionTree" boostWeight="3.6469913470927029e-01" itree="23">
      <Node pos="s" depth="0" NCoef="0" IVar="6" Cut="1.5233355468750000e+04" cType="0" res="-9.9000000000000000e+01" rms="0.0000000000000000e+00" purity="4.4805672764778137e-01" nType="0">
        <Node pos="l" depth="1" NCoef="0" IVar="2" Cut="6.8035407066345215e+00" cType="0" res="-9.9000000000000000e+01" rms="0.0000000000000000e+00" purity="5.0361013412475586e-01" nType="0">
          <Node pos="l" depth="2" NCoef="0" IVar="15" Cut="5.3199601562500000e+04" cType="0" res="-9.9000000000000000e+01" rms="0.0000000000000000e+00" purity="6.4089995622634888e-01" nType="0">
            <Node pos="l" depth="3" NCoef="0" IVar="-1" Cut="0.0000000000000000e+00" cType="1" res="-9.9000000000000000e+01" rms="0.0000000000000000e+00" purity="7.2649914026260376e-01" nType="1"/>
            <Node pos="r" depth="3" NCoef="0" IVar="-1" Cut="0.0000000000000000e+00" cType="1" res="-9.9000000000000000e+01" rms="0.0000000000000000e+00" purity="4.5578923821449280e-01" nType="-1"/>
          </Node>
          <Node pos="r" depth="2" NCoef="0" IVar="10" Cut="-6.4394035339355469e+00" cType="0" res="-9.9000000000000000e+01" rms="0.0000000000000000e+00" purity="4.4379565119743347e-01" nType="0">
            <Node pos="l" depth="3" NCoef="0" IVar="-1" Cut="0.0000000000000000e+00" cType="1" res="-9.9000000000000000e+01" rms="0.0000000000000000e+00" purity="6.6268950700759888e-01" nType="1"/>
            <Node pos="r" depth="3" NCoef="0" IVar="-1" Cut="0.0000000000000000e+00" cType="1" res="-9.9000000000000000e+01" rms="0.0000000000000000e+00" purity="3.7754908204078674e-01" nType="-1"/>
          </Node>
        </Node>
        <Node pos="r" depth="1" NCoef="0" IVar="9" Cut="4.9430798339843750e+02" cType="1" res="-9.9000000000000000e+01" rms="0.0000000000000000e+00" purity="3.4675300121307373e-01" nType="0">
          <Node pos="l" depth="2" NCoef="0" IVar="-1" Cut="0.0000000000000000e+00" cType="1" res="-9.9000000000000000e+01" rms="0.0000000000000000e+00" purity="1.0000000000000000e+00" nType="1"/>
          <Node pos="r" depth="2" NCoef="0" IVar="-1" Cut="1.7755653076171875e+03" cType="0" res="-9.9000000000000000e+01" rms="0.0000000000000000e+00" purity="2.9064297676086426e-01" nType="-1"/>
        </Node>
      </Node>
    </BinaryTree>
    <BinaryTree type="DecisionTree" boostWeight="4.2292717600797891e-01" itree="24">
      <Node pos="s" depth="0" NCoef="0" IVar="0" Cut="9.9998569488525391e-01" cType="0" res="-9.9000000000000000e+01" rms="0.0000000000000000e+00" purity="4.4794464111328125e-01" nType="0">
        <Node pos="l" depth="1" NCoef="0" IVar="13" Cut="4.2471391601562500e+03" cType="1" res="-9.9000000000000000e+01" rms="0.0000000000000000e+00" purity="5.4038226604461670e-01" nType="0">
          <Node pos="l" depth="2" NCoef="0" IVar="13" Cut="1.0127949218750000e+03" cType="0" res="-9.9000000000000000e+01" rms="0.0000000000000000e+00" purity="6.6589564085006714e-01" nType="0">
            <Node pos="l" depth="3" NCoef="0" IVar="-1" Cut="0.0000000000000000e+00" cType="1" res="-9.9000000000000000e+01" rms="0.0000000000000000e+00" purity="7.4858009815216064e-01" nType="1"/>
            <Node pos="r" depth="3" NCoef="0" IVar="-1" Cut="0.0000000000000000e+00" cType="1" res="-9.9000000000000000e+01" rms="0.0000000000000000e+00" purity="2.4874639511108398e-01" nType="-1"/>
          </Node>
          <Node pos="r" depth="2" NCoef="0" IVar="0" Cut="9.9999934434890747e-01" cType="0" res="-9.9000000000000000e+01" rms="0.0000000000000000e+00" purity="3.8149437308311462e-01" nType="0">
            <Node pos="l" depth="3" NCoef="0" IVar="-1" Cut="0.0000000000000000e+00" cType="1" res="-9.9000000000000000e+01" rms="0.0000000000000000e+00" purity="7.8999519348144531e-01" nType="1"/>
            <Node pos="r" depth="3" NCoef="0" IVar="-1" Cut="0.0000000000000000e+00" cType="1" res="-9.9000000000000000e+01" rms="0.0000000000000000e+00" purity="3.0795028805732727e-01" nType="-1"/>
          </Node>
        </Node>
        <Node pos="r" depth="1" NCoef="0" IVar="9" Cut="5.1587268066406250e+02" cType="1" res="-9.9000000000000000e+01" rms="0.0000000000000000e+00" purity="3.6755412817001343e-01" nType="0">
          <Node pos="l" depth="2" NCoef="0" IVar="-1" Cut="0.0000000000000000e+00" cType="1" res="-9.9000000000000000e+01" rms="0.0000000000000000e+00" purity="7.1740472316741943e-01" nType="1"/>
          <Node pos="r" depth="2" NCoef="0" IVar="-1" Cut="2.0689246654510498e+00" cType="0" res="-9.9000000000000000e+01" rms="0.0000000000000000e+00" purity="3.3163517713546753e-01" nType="-1"/>
        </Node>
      </Node>
    </BinaryTree>
    <BinaryTree type="DecisionTree" boostWeight="4.5776431922718036e-01" itree="25">
      <Node pos="s" depth="0" NCoef="0" IVar="2" Cut="4.2428054809570312e+00" cType="1" res="-9.9000000000000000e+01" rms="0.0000000000000000e+00" purity="5.1848137378692627e-01" nType="0">
        <Node pos="l" depth="1" NCoef="0" IVar="6" Cut="3.2776113281250000e+04" cType="1" res="-9.9000000000000000e+01" rms="0.0000000000000000e+00" purity="6.2826287746429443e-01" nType="0">
          <Node pos="l" depth="2" NCoef="0" IVar="13" Cut="6.4899914550781250e+02" cType="0" res="-9.9000000000000000e+01" rms="0.0000000000000000e+00" purity="6.9631969928741455e-01" nType="0">
            <Node pos="l" depth="3" NCoef="0" IVar="-1" Cut="0.0000000000000000e+00" cType="1" res="-9.9000000000000000e+01" rms="0.0000000000000000e+00" purity="7.3824536800384521e-01" nType="1"/>
            <Node pos="r" depth="3" NCoef="0" IVar="-1" Cut="0.0000000000000000e+00" cType="1" res="-9.9000000000000000e+01" rms="0.0000000000000000e+00" purity="2.6162004470825195e-01" nType="-1"/>
          </Node>
          <Node pos="r" depth="2" NCoef="0" IVar="5" Cut="1.0590782165527344e+01" cType="0" res="-9.9000000000000000e+01" rms="0.0000000000000000e+00" purity="4.2834571003913879e-01" nType="0">
            <Node pos="l" depth="3" NCoef="0" IVar="-1" Cut="0.0000000000000000e+00" cType="1" res="-9.9000000000000000e+01" rms="0.0000000000000000e+00" purity="7.2324120998382568e-01" nType="1"/>
            <Node pos="r" depth="3" NCoef="0" IVar="-1" Cut="0.0000000000000000e+00" cType="1" res="-9.9000000000000000e+01" rms="0.0000000000000000e+00" purity="3.3398348093032837e-01" nType="-1"/>
          </Node>
        </Node>
        <Node pos="r" depth="1" NCoef="0" IVar="1" Cut="6.9906296730041504e+00" cType="0" res="-9.9000000000000000e+01" rms="0.0000000000000000e+00" purity="4.1168522834777832e-01" nType="0">
          <Node pos="l" depth="2" NCoef="0" IVar="1" Cut="9.4956874847412109e+00" cType="1" res="-9.9000000000000000e+01" rms="0.0000000000000000e+00" purity="6.0485684871673584e-01" nType="0">
            <Node pos="l" depth="3" NCoef="0" IVar="-1" Cut="0.0000000000000000e+00" cType="1" res="-9.9000000000000000e+01" rms="0.0000000000000000e+00" purity="8.3890318870544434e-01" nType="1"/>
            <Node pos="r" depth="3" NCoef="0" IVar="-1" Cut="0.0000000000000000e+00" cType="1" res="-9.9000000000000000e+01" rms="0.0000000000000000e+00" purity="4.0905034542083740e-01" nType="-1"/>
          </Node>
          <Node pos="r" depth="2" NCoef="0" IVar="12" Cut="6.5892629623413086e+00" cType="0" res="-9.9000000000000000e+01" rms="0.0000000000000000e+00" purity="3.3068880438804626e-01" nType="0">
            <Node pos="l" depth="3" NCoef="0" IVar="-1" Cut="0.0000000000000000e+00" cType="1" res="-9.9000000000000000e+01" rms="0.0000000000000000e+00" purity="7.4666219949722290e-01" nType="1"/>
            <Node pos="r" depth="3" NCoef="0" IVar="-1" Cut="0.0000000000000000e+00" cType="1" res="-9.9000000000000000e+01" rms="0.0000000000000000e+00" purity="2.9768428206443787e-01" nType="-1"/>
          </Node>
        </Node>
      </Node>
    </BinaryTree>
    <BinaryTree type="DecisionTree" boostWeight="2.0246269203479189e-01" itree="26">
      <Node pos="s" depth="0" NCoef="0" IVar="7" Cut="2.5301148437500000e+04" cType="1" res="-9.9000000000000000e+01" rms="0.0000000000000000e+00" purity="4.7679010033607483e-01" nType="0">
        <Node pos="l" depth="1" NCoef="0" IVar="0" Cut="9.9997621774673462e-01" cType="0" res="-9.9000000000000000e+01" rms="0.0000000000000000e+00" purity="5.0098490715026855e-01" nType="0">
          <Node pos="l" depth="2" NCoef="0" IVar="-1" Cut="9.9999886751174927e-01" cType="0" res="-9.9000000000000000e+01" rms="0.0000000000000000e+00" purity="5.5926269292831421e-01" nType="1"/>
          <Node pos="r" depth="2" NCoef="0" IVar="-1" Cut="6.0257482528686523e+00" cType="1" res="-9.9000000000000000e+01" rms="0.0000000000000000e+00" purity="3.9113813638687134e-01" nType="-1"/>
        </Node>
        <Node pos="r" depth="1" NCoef="0" IVar="5" Cut="9.3520307540893555e+00" cType="0" res="-9.9000000000000000e+01" rms="0.0000000000000000e+00" purity="2.7607548236846924e-01" nType="0">
          <Node pos="l" depth="2" NCoef="0" IVar="-1" Cut="0.0000000000000000e+00" cType="1" res="-9.9000000000000000e+01" rms="0.0000000000000000e+00" purity="5.9856373071670532e-01" nType="1"/>
          <Node pos="r" depth="2" NCoef="0" IVar="-1" Cut="0.0000000000000000e+00" cType="1" res="-9.9000000000000000e+01" rms="0.0000000000000000e+00" purity="9.7750142216682434e-02" nType="-1"/>
        </Node>
      </Node>
    </BinaryTree>
    <BinaryTree type="DecisionTree" boostWeight="3.4133565934908905e-01" itree="27">
      <Node pos="s" depth="0" NCoef="0" IVar="2" Cut="9.4064540863037109e+00" cType="1" res="-9.9000000000000000e+01" rms="0.0000000000000000e+00" purity="5.2908647060394287e-01" nType="0">
        <Node pos="l" depth="1" NCoef="0" IVar="14" Cut="5.6330375671386719e+00" cType="1" res="-9.9000000000000000e+01" rms="0.0000000000000000e+00" purity="5.6701964139938354e-01" nType="0">
          <Node pos="l" depth="2" NCoef="0" IVar="5" Cut="1.0142757415771484e+01" cType="1" res="-9.9000000000000000e+01" rms="0.0000000000000000e+00" purity="6.5772515535354614e-01" nType="0">
            <Node pos="l" depth="3" NCoef="0" IVar="-1" Cut="0.0000000000000000e+00" cType="1" res="-9.9000000000000000e+01" rms="0.0000000000000000e+00" purity="7.3073166608810425e-01" nType="1"/>
            <Node pos="r" depth="3" NCoef="0" IVar="-1" Cut="0.0000000000000000e+00" cType="1" res="-9.9000000000000000e+01" rms="0.0000000000000000e+00" purity="3.3946633338928223e-01" nType="-1"/>
          </Node>
          <Node pos="r" depth="2" NCoef="0" IVar="3" Cut="1.4785415039062500e+03" cType="0" res="-9.9000000000000000e+01" rms="0.0000000000000000e+00" purity="4.9746406078338623e-01" nType="0">
            <Node pos="l" depth="3" NCoef="0" IVar="-1" Cut="0.0000000000000000e+00" cType="1" res="-9.9000000000000000e+01" rms="0.0000000000000000e+00" purity="7.4809449911117554e-01" nType="1"/>
            <Node pos="r" depth="3" NCoef="0" IVar="-1" Cut="0.0000000000000000e+00" cType="1" res="-9.9000000000000000e+01" rms="0.0000000000000000e+00" purity="4.4221386313438416e-01" nType="-1"/>
          </Node>
        </Node>
        <Node pos="r" depth="1" NCoef="0" IVar="1" Cut="4.4869184494018555e+00" cType="0" res="-9.9000000000000000e+01" rms="0.0000000000000000e+00" purity="3.3724254369735718e-01" nType="0">
          <Node pos="l" depth="2" NCoef="0" IVar="2" Cut="1.2276711463928223e+01" cType="0" res="-9.9000000000000000e+01" rms="0.0000000000000000e+00" purity="5.9877884387969971e-01" nType="0">
            <Node pos="l" depth="3" NCoef="0" IVar="-1" Cut="0.0000000000000000e+00" cType="1" res="-9.9000000000000000e+01" rms="0.0000000000000000e+00" purity="7.8513854742050171e-01" nType="1"/>
            <Node pos="r" depth="3" NCoef="0" IVar="-1" Cut="0.0000000000000000e+00" cType="1" res="-9.9000000000000000e+01" rms="0.0000000000000000e+00" purity="4.4768846035003662e-01" nType="-1"/>
          </Node>
          <Node pos="r" depth="2" NCoef="0" IVar="-1" Cut="5.0310544967651367e+00" cType="0" res="-9.9000000000000000e+01" rms="0.0000000000000000e+00" purity="1.9197545945644379e-01" nType="-1"/>
        </Node>
      </Node>
    </BinaryTree>
    <BinaryTree type="DecisionTree" boostWeight="3.6700866470320809e-01" itree="28">
      <Node pos="s" depth="0" NCoef="0" IVar="10" Cut="-7.7356538772583008e+00" cType="0" res="-9.9000000000000000e+01" rms="0.0000000000000000e+00" purity="5.2947419881820679e-01" nType="0">
        <Node pos="l" depth="1" NCoef="0" IVar="14" Cut="5.2841334342956543e+00" cType="1" res="-9.9000000000000000e+01" rms="0.0000000000000000e+00" purity="5.7136893272399902e-01" nType="0">
          <Node pos="l" depth="2" NCoef="0" IVar="-1" Cut="6.0992749023437500e+02" cType="0" res="-9.9000000000000000e+01" rms="0.0000000000000000e+00" purity="7.9093098640441895e-01" nType="1"/>
          <Node pos="r" depth="2" NCoef="0" IVar="3" Cut="1.0348151855468750e+03" cType="0" res="-9.9000000000000000e+01" rms="0.0000000000000000e+00" purity="5.0221455097198486e-01" nType="0">
            <Node pos="l" depth="3" NCoef="0" IVar="-1" Cut="0.0000000000000000e+00" cType="1" res="-9.9000000000000000e+01" rms="0.0000000000000000e+00" purity="6.6580903530120850e-01" nType="1"/>
            <Node pos="r" depth="3" NCoef="0" IVar="-1" Cut="0.0000000000000000e+00" cType="1" res="-9.9000000000000000e+01" rms="0.0000000000000000e+00" purity="4.2089769244194031e-01" nType="-1"/>
          </Node>
        </Node>
        <Node pos="r" depth="1" NCoef="0" IVar="10" Cut="-7.9493246078491211e+00" cType="1" res="-9.9000000000000000e+01" rms="0.0000000000000000e+00" purity="2.6558139920234680e-01" nType="0">
          <Node pos="l" depth="2" NCoef="0" IVar="12" Cut="3.5084609985351562e+00" cType="0" res="-9.9000000000000000e+01" rms="0.0000000000000000e+00" purity="4.0432438254356384e-01" nType="0">
            <Node pos="l" depth="3" NCoef="0" IVar="-1" Cut="0.0000000000000000e+00" cType="1" res="-9.9000000000000000e+01" rms="0.0000000000000000e+00" purity="7.2068512439727783e-01" nType="1"/>
            <Node pos="r" depth="3" NCoef="0" IVar="-1" Cut="0.0000000000000000e+00" cType="1" res="-9.9000000000000000e+01" rms="0.0000000000000000e+00" purity="2.2290021181106567e-01" nType="-1"/>
          </Node>
          <Node pos="r" depth="2" NCoef="0" IVar="-1" Cut="1.0781824218750000e+04" cType="0" res="-9.9000000000000000e+01" rms="0.0000000000000000e+00" purity="7.9544022679328918e-02" nType="-1"/>
        </Node>
      </Node>
    </BinaryTree>
    <BinaryTree type="DecisionTree" boostWeight="2.5902909102450000e-01" itree="29">
      <Node pos="s" depth="0" NCoef="0" IVar="13" Cut="1.1352220458984375e+03" cType="0" res="-9.9000000000000000e+01" rms="0.0000000000000000e+00" purity="5.3145986795425415e-01" nType="0">
        <Node pos="l" depth="1" NCoef="0" IVar="0" Cut="9.9991959333419800e-01" cType="0" res="-9.9000000000000000e+01" rms="0.0000000000000000e+00" purity="5.6468093395233154e-01" nType="0">
          <Node pos="l" depth="2" NCoef="0" IVar="-1" Cut="3.9096375000000000e+04" cType="1" res="-9.9000000000000000e+01" rms="0.0000000000000000e+00" purity="5.8257770538330078e-01" nType="1"/>
          <Node pos="r" depth="2" NCoef="0" IVar="-1" Cut="0.0000000000000000e+00" cType="1" res="-9.9000000000000000e+01" rms="0.0000000000000000e+00" purity="1.7856460809707642e-01" nType="-1"/>
        </Node>
        <Node pos="r" depth="1" NCoef="0" IVar="5" Cut="9.0385179519653320e+00" cType="0" res="-9.9000000000000000e+01" rms="0.0000000000000000e+00" purity="3.5564908385276794e-01" nType="0">
          <Node pos="l" depth="2" NCoef="0" IVar="9" Cut="5.3539306640625000e+02" cType="1" res="-9.9000000000000000e+01" rms="0.0000000000000000e+00" purity="5.8688557147979736e-01" nType="0">
            <Node pos="l" depth="3" NCoef="0" IVar="-1" Cut="0.0000000000000000e+00" cType="1" res="-9.9000000000000000e+01" rms="0.0000000000000000e+00" purity="8.0928295850753784e-01" nType="1"/>
            <Node pos="r" depth="3" NCoef="0" IVar="-1" Cut="0.0000000000000000e+00" cType="1" res="-9.9000000000000000e+01" rms="0.0000000000000000e+00" purity="3.8539522886276245e-01" nType="-1"/>
          </Node>
          <Node pos="r" depth="2" NCoef="0" IVar="-1" Cut="3.4140825271606445e+00" cType="0" res="-9.9000000000000000e+01" rms="0.0000000000000000e+00" purity="8.0301217734813690e-02" nType="-1"/>
        </Node>
      </Node>
    </BinaryTree>
    <BinaryTree type="DecisionTree" boostWeight="2.2090571113419047e-01" itree="30">
      <Node pos="s" depth="0" NCoef="0" IVar="8" Cut="3.0642729492187500e+03" cType="1" res="-9.9000000000000000e+01" rms="0.0000000000000000e+00" purity="4.6541544795036316e-01" nType="0">
        <Node pos="l" depth="1" NCoef="0" IVar="13" Cut="1.4776352539062500e+03" cType="0" res="-9.9000000000000000e+01" rms="0.0000000000000000e+00" purity="4.9882012605667114e-01" nType="0">
          <Node pos="l" depth="2" NCoef="0" IVar="-1" Cut="2.8000544921875000e+04" cType="1" res="-9.9000000000000000e+01" rms="0.0000000000000000e+00" purity="5.5245405435562134e-01" nType="1"/>
          <Node pos="r" depth="2" NCoef="0" IVar="-1" Cut="2.2921645641326904e+00" cType="0" res="-9.9000000000000000e+01" rms="0.0000000000000000e+00" purity="3.5332429409027100e-01" nType="-1"/>
        </Node>
        <Node pos="r" depth="1" NCoef="0" IVar="13" Cut="7.6470610351562500e+03" cType="0" res="-9.9000000000000000e+01" rms="0.0000000000000000e+00" purity="3.1601554155349731e-01" nType="0">
          <Node pos="l" depth="2" NCoef="0" IVar="-1" Cut="0.0000000000000000e+00" cType="1" res="-9.9000000000000000e+01" rms="0.0000000000000000e+00" purity="6.5981382131576538e-01" nType="1"/>
          <Node pos="r" depth="2" NCoef="0" IVar="11" Cut="3.3096120357513428e+00" cType="1" res="-9.9000000000000000e+01" rms="0.0000000000000000e+00" purity="2.3231512308120728e-01" nType="0">
            <Node pos="l" depth="3" NCoef="0" IVar="-1" Cut="0.0000000000000000e+00" cType="1" res="-9.9000000000000000e+01" rms="0.0000000000000000e+00" purity="5.0028455257415771e-01" nType="1"/>
            <Node pos="r" depth="3" NCoef="0" IVar="-1" Cut="0.0000000000000000e+00" cType="1" res="-9.9000000000000000e+01" rms="0.0000000000000000e+00" purity="1.1532234400510788e-01" nType="-1"/>
          </Node>
        </Node>
      </Node>
    </BinaryTree>
    <BinaryTree type="DecisionTree" boostWeight="2.5594864531929390e-01" itree="31">
      <Node pos="s" depth="0" NCoef="0" IVar="1" Cut="1.3980360031127930e+01" cType="1" res="-9.9000000000000000e+01" rms="0.0000000000000000e+00" purity="4.6303379535675049e-01" nType="0">
        <Node pos="l" depth="1" NCoef="0" IVar="10" Cut="-7.6803975105285645e+00" cType="0" res="-9.9000000000000000e+01" rms="0.0000000000000000e+00" purity="4.8989823460578918e-01" nType="0">
          <Node pos="l" depth="2" NCoef="0" IVar="2" Cut="1.0243415832519531e+01" cType="1" res="-9.9000000000000000e+01" rms="0.0000000000000000e+00" purity="5.3137493133544922e-01" nType="0">
            <Node pos="l" depth="3" NCoef="0" IVar="-1" Cut="0.0000000000000000e+00" cType="1" res="-9.9000000000000000e+01" rms="0.0000000000000000e+00" purity="5.6431794166564941e-01" nType="1"/>
            <Node pos="r" depth="3" NCoef="0" IVar="-1" Cut="0.0000000000000000e+00" cType="1" res="-9.9000000000000000e+01" rms="0.0000000000000000e+00" purity="3.2365578413009644e-01" nType="-1"/>
          </Node>
          <Node pos="r" depth="2" NCoef="0" IVar="-1" Cut="4.3448410034179688e+00" cType="0" res="-9.9000000000000000e+01" rms="0.0000000000000000e+00" purity="2.3169896006584167e-01" nType="-1"/>
        </Node>
        <Node pos="r" depth="1" NCoef="0" IVar="-1" Cut="9.9996173381805420e-01" cType="0" res="-9.9000000000000000e+01" rms="0.0000000000000000e+00" purity="1.4148183166980743e-01" nType="-1"/>
      </Node>
    </BinaryTree>
    <BinaryTree type="DecisionTree" boostWeight="2.0778629861222137e-01" itree="32">
      <Node pos="s" depth="0" NCoef="0" IVar="4" Cut="6.2632064819335938e+00" cType="0" res="-9.9000000000000000e+01" rms="0.0000000000000000e+00" purity="4.7542750835418701e-01" nType="0">
        <Node pos="l" depth="1" NCoef="0" IVar="-1" Cut="1.9763466796875000e+04" cType="0" res="-9.9000000000000000e+01" rms="0.0000000000000000e+00" purity="8.1752842664718628e-01" nType="1"/>
        <Node pos="r" depth="1" NCoef="0" IVar="1" Cut="1.2072059631347656e+01" cType="1" res="-9.9000000000000000e+01" rms="0.0000000000000000e+00" purity="4.5382511615753174e-01" nType="0">
          <Node pos="l" depth="2" NCoef="0" IVar="2" Cut="5.9882755279541016e+00" cType="1" res="-9.9000000000000000e+01" rms="0.0000000000000000e+00" purity="4.8366588354110718e-01" nType="0">
            <Node pos="l" depth="3" NCoef="0" IVar="-1" Cut="0.0000000000000000e+00" cType="1" res="-9.9000000000000000e+01" rms="0.0000000000000000e+00" purity="5.3904253244400024e-01" nType="1"/>
            <Node pos="r" depth="3" NCoef="0" IVar="-1" Cut="0.0000000000000000e+00" cType="1" res="-9.9000000000000000e+01" rms="0.0000000000000000e+00" purity="3.9751961827278137e-01" nType="-1"/>
          </Node>
          <Node pos="r" depth="2" NCoef="0" IVar="-1" Cut="9.9996733665466309e-01" cType="0" res="-9.9000000000000000e+01" rms="0.0000000000000000e+00" purity="1.9216631352901459e-01" nType="-1"/>
        </Node>
      </Node>
    </BinaryTree>
    <BinaryTree type="DecisionTree" boostWeight="1.4855472037903025e-01" itree="33">
      <Node pos="s" depth="0" NCoef="0" IVar="2" Cut="1.4317641258239746e+01" cType="0" res="-9.9000000000000000e+01" rms="0.0000000000000000e+00" purity="4.9090948700904846e-01" nType="0">
        <Node pos="l" depth="1" NCoef="0" IVar="-1" Cut="0.0000000000000000e+00" cType="1" res="-9.9000000000000000e+01" rms="0.0000000000000000e+00" purity="8.2562470436096191e-01" nType="1"/>
        <Node pos="r" depth="1" NCoef="0" IVar="2" Cut="1.0889021873474121e+01" cType="1" res="-9.9000000000000000e+01" rms="0.0000000000000000e+00" purity="4.7752642631530762e-01" nType="0">
          <Node pos="l" depth="2" NCoef="0" IVar="2" Cut="5.6638097763061523e-01" cType="0" res="-9.9000000000000000e+01" rms="0.0000000000000000e+00" purity="5.0380891561508179e-01" nType="0">
            <Node pos="l" depth="3" NCoef="0" IVar="-1" Cut="0.0000000000000000e+00" cType="1" res="-9.9000000000000000e+01" rms="0.0000000000000000e+00" purity="5.2444458007812500e-01" nType="1"/>
            <Node pos="r" depth="3" NCoef="0" IVar="-1" Cut="0.0000000000000000e+00" cType="1" res="-9.9000000000000000e+01" rms="0.0000000000000000e+00" purity="2.0625980198383331e-01" nType="-1"/>
          </Node>
          <Node pos="r" depth="2" NCoef="0" IVar="-1" Cut="1.5919114257812500e+04" cType="0" res="-9.9000000000000000e+01" rms="0.0000000000000000e+00" purity="2.3842038214206696e-01" nType="-1"/>
        </Node>
      </Node>
    </BinaryTree>
    <BinaryTree type="DecisionTree" boostWeight="1.8646343192980813e-01" itree="34">
      <Node pos="s" depth="0" NCoef="0" IVar="1" Cut="2.0710243225097656e+01" cType="0" res="-9.9000000000000000e+01" rms="0.0000000000000000e+00" purity="4.3886291980743408e-01" nType="0">
        <Node pos="l" depth="1" NCoef="0" IVar="-1" Cut="0.0000000000000000e+00" cType="1" res="-9.9000000000000000e+01" rms="0.0000000000000000e+00" purity="7.0098531246185303e-01" nType="1"/>
        <Node pos="r" depth="1" NCoef="0" IVar="1" Cut="1.6742979049682617e+01" cType="1" res="-9.9000000000000000e+01" rms="0.0000000000000000e+00" purity="4.2208713293075562e-01" nType="0">
          <Node pos="l" depth="2" NCoef="0" IVar="13" Cut="1.9839885253906250e+03" cType="1" res="-9.9000000000000000e+01" rms="0.0000000000000000e+00" purity="4.3188545107841492e-01" nType="0">
            <Node pos="l" depth="3" NCoef="0" IVar="-1" Cut="0.0000000000000000e+00" cType="1" res="-9.9000000000000000e+01" rms="0.0000000000000000e+00" purity="5.1310414075851440e-01" nType="1"/>
            <Node pos="r" depth="3" NCoef="0" IVar="-1" Cut="0.0000000000000000e+00" cType="1" res="-9.9000000000000000e+01" rms="0.0000000000000000e+00" purity="3.9922025799751282e-01" nType="-1"/>
          </Node>
          <Node pos="r" depth="2" NCoef="0" IVar="-1" Cut="0.0000000000000000e+00" cType="1" res="-9.9000000000000000e+01" rms="0.0000000000000000e+00" purity="1.0956130921840668e-01" nType="-1"/>
        </Node>
      </Node>
    </BinaryTree>
    <BinaryTree type="DecisionTree" boostWeight="2.4968953035767888e-01" itree="35">
      <Node pos="s" depth="0" NCoef="0" IVar="11" Cut="2.0982844829559326e+00" cType="0" res="-9.9000000000000000e+01" rms="0.0000000000000000e+00" purity="4.3405553698539734e-01" nType="0">
        <Node pos="l" depth="1" NCoef="0" IVar="8" Cut="4.8888315429687500e+03" cType="1" res="-9.9000000000000000e+01" rms="0.0000000000000000e+00" purity="4.5867902040481567e-01" nType="0">
          <Node pos="l" depth="2" NCoef="0" IVar="9" Cut="5.6475823974609375e+02" cType="1" res="-9.9000000000000000e+01" rms="0.0000000000000000e+00" purity="4.7994512319564819e-01" nType="0">
            <Node pos="l" depth="3" NCoef="0" IVar="-1" Cut="0.0000000000000000e+00" cType="1" res="-9.9000000000000000e+01" rms="0.0000000000000000e+00" purity="6.1783200502395630e-01" nType="1"/>
            <Node pos="r" depth="3" NCoef="0" IVar="-1" Cut="0.0000000000000000e+00" cType="1" res="-9.9000000000000000e+01" rms="0.0000000000000000e+00" purity="4.2547243833541870e-01" nType="-1"/>
          </Node>
          <Node pos="r" depth="2" NCoef="0" IVar="-1" Cut="0.0000000000000000e+00" cType="1" res="-9.9000000000000000e+01" rms="0.0000000000000000e+00" purity="1.7060939967632294e-01" nType="-1"/>
        </Node>
        <Node pos="r" depth="1" NCoef="0" IVar="-1" Cut="3.1957225799560547e+00" cType="1" res="-9.9000000000000000e+01" rms="0.0000000000000000e+00" purity="1.9386829435825348e-01" nType="-1"/>
      </Node>
    </BinaryTree>
    <BinaryTree type="DecisionTree" boostWeight="3.0044605358848508e-01" itree="36">
      <Node pos="s" depth="0" NCoef="0" IVar="4" Cut="2.5160553455352783e+00" cType="0" res="-9.9000000000000000e+01" rms="0.0000000000000000e+00" purity="4.7458431124687195e-01" nType="0">
        <Node pos="l" depth="1" NCoef="0" IVar="6" Cut="6.1888597656250000e+04" cType="0" res="-9.9000000000000000e+01" rms="0.0000000000000000e+00" purity="5.1867407560348511e-01" nType="0">
          <Node pos="l" depth="2" NCoef="0" IVar="-1" Cut="3.1650674343109131e+00" cType="0" res="-9.9000000000000000e+01" rms="0.0000000000000000e+00" purity="7.6009052991867065e-01" nType="1"/>
          <Node pos="r" depth="2" NCoef="0" IVar="1" Cut="2.7612943649291992e+00" cType="1" res="-9.9000000000000000e+01" rms="0.0000000000000000e+00" purity="4.9272695183753967e-01" nType="0">
            <Node pos="l" depth="3" NCoef="0" IVar="-1" Cut="0.0000000000000000e+00" cType="1" res="-9.9000000000000000e+01" rms="0.0000000000000000e+00" purity="6.0514408349990845e-01" nType="1"/>
            <Node pos="r" depth="3" NCoef="0" IVar="-1" Cut="0.0000000000000000e+00" cType="1" res="-9.9000000000000000e+01" rms="0.0000000000000000e+00" purity="4.1832417249679565e-01" nType="-1"/>
          </Node>
        </Node>
        <Node pos="r" depth="1" NCoef="0" IVar="11" Cut="2.8777971267700195e+00" cType="0" res="-9.9000000000000000e+01" rms="0.0000000000000000e+00" purity="2.6717910170555115e-01" nType="0">
          <Node pos="l" depth="2" NCoef="0" IVar="11" Cut="3.5676341056823730e+00" cType="1" res="-9.9000000000000000e+01" rms="0.0000000000000000e+00" purity="4.5215189456939697e-01" nType="0">
            <Node pos="l" depth="3" NCoef="0" IVar="-1" Cut="0.0000000000000000e+00" cType="1" res="-9.9000000000000000e+01" rms="0.0000000000000000e+00" purity="7.1423190832138062e-01" nType="1"/>
            <Node pos="r" depth="3" NCoef="0" IVar="-1" Cut="0.0000000000000000e+00" cType="1" res="-9.9000000000000000e+01" rms="0.0000000000000000e+00" purity="2.2017548978328705e-01" nType="-1"/>
          </Node>
          <Node pos="r" depth="2" NCoef="0" IVar="-1" Cut="2.8538120117187500e+03" cType="0" res="-9.9000000000000000e+01" rms="0.0000000000000000e+00" purity="1.0552624613046646e-01" nType="-1"/>
        </Node>
      </Node>
    </BinaryTree>
    <BinaryTree type="DecisionTree" boostWeight="3.1754774289335153e-01" itree="37">
      <Node pos="s" depth="0" NCoef="0" IVar="0" Cut="9.9997156858444214e-01" cType="0" res="-9.9000000000000000e+01" rms="0.0000000000000000e+00" purity="4.8853465914726257e-01" nType="0">
        <Node pos="l" depth="1" NCoef="0" IVar="2" Cut="7.3993215560913086e+00" cType="1" res="-9.9000000000000000e+01" rms="0.0000000000000000e+00" purity="5.3695762157440186e-01" nType="0">
          <Node pos="l" depth="2" NCoef="0" IVar="8" Cut="4.7354965820312500e+03" cType="1" res="-9.9000000000000000e+01" rms="0.0000000000000000e+00" purity="5.8619815111160278e-01" nType="0">
            <Node pos="l" depth="3" NCoef="0" IVar="-1" Cut="0.0000000000000000e+00" cType="1" res="-9.9000000000000000e+01" rms="0.0000000000000000e+00" purity="6.2243795394897461e-01" nType="1"/>
            <Node pos="r" depth="3" NCoef="0" IVar="-1" Cut="0.0000000000000000e+00" cType="1" res="-9.9000000000000000e+01" rms="0.0000000000000000e+00" purity="2.0223754644393921e-01" nType="-1"/>
          </Node>
          <Node pos="r" depth="2" NCoef="0" IVar="-1" Cut="2.9654445648193359e+00" cType="0" res="-9.9000000000000000e+01" rms="0.0000000000000000e+00" purity="3.3399745821952820e-01" nType="-1"/>
        </Node>
        <Node pos="r" depth="1" NCoef="0" IVar="9" Cut="9.5949316406250000e+02" cType="0" res="-9.9000000000000000e+01" rms="0.0000000000000000e+00" purity="3.7839508056640625e-01" nType="0">
          <Node pos="l" depth="2" NCoef="0" IVar="-1" Cut="8.1222553253173828e+00" cType="1" res="-9.9000000000000000e+01" rms="0.0000000000000000e+00" purity="6.4158523082733154e-01" nType="1"/>
          <Node pos="r" depth="2" NCoef="0" IVar="7" Cut="9.5325117187500000e+03" cType="0" res="-9.9000000000000000e+01" rms="0.0000000000000000e+00" purity="3.1528794765472412e-01" nType="0">
            <Node pos="l" depth="3" NCoef="0" IVar="-1" Cut="0.0000000000000000e+00" cType="1" res="-9.9000000000000000e+01" rms="0.0000000000000000e+00" purity="5.0297856330871582e-01" nType="1"/>
            <Node pos="r" depth="3" NCoef="0" IVar="-1" Cut="0.0000000000000000e+00" cType="1" res="-9.9000000000000000e+01" rms="0.0000000000000000e+00" purity="2.5086697936058044e-01" nType="-1"/>
          </Node>
        </Node>
      </Node>
    </BinaryTree>
    <BinaryTree type="DecisionTree" boostWeight="2.7266529699053754e-01" itree="38">
      <Node pos="s" depth="0" NCoef="0" IVar="10" Cut="-5.2943382263183594e+00" cType="1" res="-9.9000000000000000e+01" rms="0.0000000000000000e+00" purity="4.2416608333587646e-01" nType="0">
        <Node pos="l" depth="1" NCoef="0" IVar="0" Cut="9.9996197223663330e-01" cType="1" res="-9.9000000000000000e+01" rms="0.0000000000000000e+00" purity="4.3353402614593506e-01" nType="0">
          <Node pos="l" depth="2" NCoef="0" IVar="12" Cut="4.2741093635559082e+00" cType="0" res="-9.9000000000000000e+01" rms="0.0000000000000000e+00" purity="5.2219110727310181e-01" nType="0">
            <Node pos="l" depth="3" NCoef="0" IVar="-1" Cut="0.0000000000000000e+00" cType="1" res="-9.9000000000000000e+01" rms="0.0000000000000000e+00" purity="6.2825000286102295e-01" nType="1"/>
            <Node pos="r" depth="3" NCoef="0" IVar="-1" Cut="0.0000000000000000e+00" cType="1" res="-9.9000000000000000e+01" rms="0.0000000000000000e+00" purity="3.9287891983985901e-01" nType="-1"/>
          </Node>
          <Node pos="r" depth="2" NCoef="0" IVar="0" Cut="9.9999821186065674e-01" cType="0" res="-9.9000000000000000e+01" rms="0.0000000000000000e+00" purity="4.0338033437728882e-01" nType="0">
            <Node pos="l" depth="3" NCoef="0" IVar="-1" Cut="0.0000000000000000e+00" cType="1" res="-9.9000000000000000e+01" rms="0.0000000000000000e+00" purity="5.8529341220855713e-01" nType="1"/>
            <Node pos="r" depth="3" NCoef="0" IVar="-1" Cut="0.0000000000000000e+00" cType="1" res="-9.9000000000000000e+01" rms="0.0000000000000000e+00" purity="3.6336249113082886e-01" nType="-1"/>
          </Node>
        </Node>
        <Node pos="r" depth="1" NCoef="0" IVar="-1" Cut="0.0000000000000000e+00" cType="1" res="-9.9000000000000000e+01" rms="0.0000000000000000e+00" purity="6.6904306411743164e-02" nType="-1"/>
      </Node>
    </BinaryTree>
    <BinaryTree type="DecisionTree" boostWeight="3.0883757321510136e-01" itree="39">
      <Node pos="s" depth="0" NCoef="0" IVar="4" Cut="3.3350374698638916e+00" cType="0" res="-9.9000000000000000e+01" rms="0.0000000000000000e+00" purity="5.1152843236923218e-01" nType="0">
        <Node pos="l" depth="1" NCoef="0" IVar="0" Cut="9.9993824958801270e-01" cType="0" res="-9.9000000000000000e+01" rms="0.0000000000000000e+00" purity="5.7653057575225830e-01" nType="0">
          <Node pos="l" depth="2" NCoef="0" IVar="9" Cut="1.7305776367187500e+03" cType="1" res="-9.9000000000000000e+01" rms="0.0000000000000000e+00" purity="6.0062640905380249e-01" nType="0">
            <Node pos="l" depth="3" NCoef="0" IVar="-1" Cut="0.0000000000000000e+00" cType="1" res="-9.9000000000000000e+01" rms="0.0000000000000000e+00" purity="6.2902343273162842e-01" nType="1"/>
            <Node pos="r" depth="3" NCoef="0" IVar="-1" Cut="0.0000000000000000e+00" cType="1" res="-9.9000000000000000e+01" rms="0.0000000000000000e+00" purity="3.6936414241790771e-01" nType="-1"/>
          </Node>
          <Node pos="r" depth="2" NCoef="0" IVar="-1" Cut="1.6549190673828125e+03" cType="1" res="-9.9000000000000000e+01" rms="0.0000000000000000e+00" purity="3.2641652226448059e-01" nType="-1"/>
        </Node>
        <Node pos="r" depth="1" NCoef="0" IVar="8" Cut="2.2374843750000000e+03" cType="1" res="-9.9000000000000000e+01" rms="0.0000000000000000e+00" purity="4.0525984764099121e-01" nType="0">
          <Node pos="l" depth="2" NCoef="0" IVar="6" Cut="1.9127335937500000e+04" cType="0" res="-9.9000000000000000e+01" rms="0.0000000000000000e+00" purity="4.5381900668144226e-01" nType="0">
            <Node pos="l" depth="3" NCoef="0" IVar="-1" Cut="0.0000000000000000e+00" cType="1" res="-9.9000000000000000e+01" rms="0.0000000000000000e+00" purity="5.9733676910400391e-01" nType="1"/>
            <Node pos="r" depth="3" NCoef="0" IVar="-1" Cut="0.0000000000000000e+00" cType="1" res="-9.9000000000000000e+01" rms="0.0000000000000000e+00" purity="3.0039432644844055e-01" nType="-1"/>
          </Node>
          <Node pos="r" depth="2" NCoef="0" IVar="-1" Cut="4.5056550781250000e+04" cType="1" res="-9.9000000000000000e+01" rms="0.0000000000000000e+00" purity="1.8999095261096954e-01" nType="-1"/>
        </Node>
      </Node>
    </BinaryTree>
    <BinaryTree type="DecisionTree" boostWeight="2.1423599274019328e-01" itree="40">
      <Node pos="s" depth="0" NCoef="0" IVar="10" Cut="-5.2943382263183594e+00" cType="1" res="-9.9000000000000000e+01" rms="0.0000000000000000e+00" purity="4.2300546169281006e-01" nType="0">
        <Node pos="l" depth="1" NCoef="0" IVar="13" Cut="4.3349355468750000e+03" cType="1" res="-9.9000000000000000e+01" rms="0.0000000000000000e+00" purity="4.3824177980422974e-01" nType="0">
          <Node pos="l" depth="2" NCoef="0" IVar="4" Cut="2.1573674678802490e+00" cType="0" res="-9.9000000000000000e+01" rms="0.0000000000000000e+00" purity="4.8608076572418213e-01" nType="0">
            <Node pos="l" depth="3" NCoef="0" IVar="-1" Cut="0.0000000000000000e+00" cType="1" res="-9.9000000000000000e+01" rms="0.0000000000000000e+00" purity="5.0982081890106201e-01" nType="1"/>
            <Node pos="r" depth="3" NCoef="0" IVar="-1" Cut="0.0000000000000000e+00" cType="1" res="-9.9000000000000000e+01" rms="0.0000000000000000e+00" purity="2.0486350357532501e-01" nType="-1"/>
          </Node>
          <Node pos="r" depth="2" NCoef="0" IVar="3" Cut="3.4282092285156250e+03" cType="0" res="-9.9000000000000000e+01" rms="0.0000000000000000e+00" purity="3.4172156453132629e-01" nType="0">
            <Node pos="l" depth="3" NCoef="0" IVar="-1" Cut="0.0000000000000000e+00" cType="1" res="-9.9000000000000000e+01" rms="0.0000000000000000e+00" purity="8.2639622688293457e-01" nType="1"/>
            <Node pos="r" depth="3" NCoef="0" IVar="-1" Cut="0.0000000000000000e+00" cType="1" res="-9.9000000000000000e+01" rms="0.0000000000000000e+00" purity="2.9906293749809265e-01" nType="-1"/>
          </Node>
        </Node>
        <Node pos="r" depth="1" NCoef="0" IVar="-1" Cut="0.0000000000000000e+00" cType="1" res="-9.9000000000000000e+01" rms="0.0000000000000000e+00" purity="2.6582527905702591e-02" nType="-1"/>
      </Node>
    </BinaryTree>
    <BinaryTree type="DecisionTree" boostWeight="1.3082523672656352e-01" itree="41">
      <Node pos="s" depth="0" NCoef="0" IVar="5" Cut="8.2312488555908203e+00" cType="0" res="-9.9000000000000000e+01" rms="0.0000000000000000e+00" purity="4.6739974617958069e-01" nType="0">
        <Node pos="l" depth="1" NCoef="0" IVar="10" Cut="-5.4993057250976562e+00" cType="1" res="-9.9000000000000000e+01" rms="0.0000000000000000e+00" purity="4.8414573073387146e-01" nType="0">
          <Node pos="l" depth="2" NCoef="0" IVar="12" Cut="6.9026308059692383e+00" cType="0" res="-9.9000000000000000e+01" rms="0.0000000000000000e+00" purity="5.0075858831405640e-01" nType="0">
            <Node pos="l" depth="3" NCoef="0" IVar="-1" Cut="0.0000000000000000e+00" cType="1" res="-9.9000000000000000e+01" rms="0.0000000000000000e+00" purity="8.2043951749801636e-01" nType="1"/>
            <Node pos="r" depth="3" NCoef="0" IVar="-1" Cut="0.0000000000000000e+00" cType="1" res="-9.9000000000000000e+01" rms="0.0000000000000000e+00" purity="4.8184338212013245e-01" nType="-1"/>
          </Node>
          <Node pos="r" depth="2" NCoef="0" IVar="-1" Cut="0.0000000000000000e+00" cType="1" res="-9.9000000000000000e+01" rms="0.0000000000000000e+00" purity="1.1554181575775146e-01" nType="-1"/>
        </Node>
        <Node pos="r" depth="1" NCoef="0" IVar="-1" Cut="0.0000000000000000e+00" cType="1" res="-9.9000000000000000e+01" rms="0.0000000000000000e+00" purity="1.6825766861438751e-01" nType="-1"/>
      </Node>
    </BinaryTree>
    <BinaryTree type="DecisionTree" boostWeight="2.1883976277965461e-01" itree="42">
      <Node pos="s" depth="0" NCoef="0" IVar="11" Cut="2.4843006134033203e+00" cType="0" res="-9.9000000000000000e+01" rms="0.0000000000000000e+00" purity="4.4984439015388489e-01" nType="0">
        <Node pos="l" depth="1" NCoef="0" IVar="6" Cut="7.6137179687500000e+04" cType="1" res="-9.9000000000000000e+01" rms="0.0000000000000000e+00" purity="4.8596969246864319e-01" nType="0">
          <Node pos="l" depth="2" NCoef="0" IVar="5" Cut="1.0294161796569824e+01" cType="1" res="-9.9000000000000000e+01" rms="0.0000000000000000e+00" purity="5.0511133670806885e-01" nType="0">
            <Node pos="l" depth="3" NCoef="0" IVar="-1" Cut="0.0000000000000000e+00" cType="1" res="-9.9000000000000000e+01" rms="0.0000000000000000e+00" purity="5.3248059749603271e-01" nType="1"/>
            <Node pos="r" depth="3" NCoef="0" IVar="-1" Cut="0.0000000000000000e+00" cType="1" res="-9.9000000000000000e+01" rms="0.0000000000000000e+00" purity="3.4667614102363586e-01" nType="-1"/>
          </Node>
          <Node pos="r" depth="2" NCoef="0" IVar="-1" Cut="0.0000000000000000e+00" cType="1" res="-9.9000000000000000e+01" rms="0.0000000000000000e+00" purity="2.4607335031032562e-01" nType="-1"/>
        </Node>
        <Node pos="r" depth="1" NCoef="0" IVar="10" Cut="-8.0437250137329102e+00" cType="1" res="-9.9000000000000000e+01" rms="0.0000000000000000e+00" purity="3.1815403699874878e-01" nType="0">
          <Node pos="l" depth="2" NCoef="0" IVar="-1" Cut="0.0000000000000000e+00" cType="1" res="-9.9000000000000000e+01" rms="0.0000000000000000e+00" purity="7.5033986568450928e-01" nType="1"/>
          <Node pos="r" depth="2" NCoef="0" IVar="-1" Cut="1.1663804687500000e+04" cType="0" res="-9.9000000000000000e+01" rms="0.0000000000000000e+00" purity="2.3555131256580353e-01" nType="-1"/>
        </Node>
      </Node>
    </BinaryTree>
    <BinaryTree type="DecisionTree" boostWeight="2.8650465526551977e-01" itree="43">
      <Node pos="s" depth="0" NCoef="0" IVar="4" Cut="5.2686567306518555e+00" cType="0" res="-9.9000000000000000e+01" rms="0.0000000000000000e+00" purity="4.6756869554519653e-01" nType="0">
        <Node pos="l" depth="1" NCoef="0" IVar="6" Cut="5.1257890625000000e+04" cType="1" res="-9.9000000000000000e+01" rms="0.0000000000000000e+00" purity="6.4520114660263062e-01" nType="0">
          <Node pos="l" depth="2" NCoef="0" IVar="2" Cut="6.6482167243957520e+00" cType="1" res="-9.9000000000000000e+01" rms="0.0000000000000000e+00" purity="7.1919322013854980e-01" nType="0">
            <Node pos="l" depth="3" NCoef="0" IVar="-1" Cut="0.0000000000000000e+00" cType="1" res="-9.9000000000000000e+01" rms="0.0000000000000000e+00" purity="8.2566237449645996e-01" nType="1"/>
            <Node pos="r" depth="3" NCoef="0" IVar="-1" Cut="0.0000000000000000e+00" cType="1" res="-9.9000000000000000e+01" rms="0.0000000000000000e+00" purity="4.4002154469490051e-01" nType="-1"/>
          </Node>
          <Node pos="r" depth="2" NCoef="0" IVar="-1" Cut="0.0000000000000000e+00" cType="1" res="-9.9000000000000000e+01" rms="0.0000000000000000e+00" purity="3.0941829085350037e-01" nType="-1"/>
        </Node>
        <Node pos="r" depth="1" NCoef="0" IVar="3" Cut="2.3828093261718750e+03" cType="0" res="-9.9000000000000000e+01" rms="0.0000000000000000e+00" purity="4.2173326015472412e-01" nType="0">
          <Node pos="l" depth="2" NCoef="0" IVar="-1" Cut="2.8267777343750000e+04" cType="1" res="-9.9000000000000000e+01" rms="0.0000000000000000e+00" purity="7.5296831130981445e-01" nType="1"/>
          <Node pos="r" depth="2" NCoef="0" IVar="-1" Cut="2.5334326171875000e+03" cType="1" res="-9.9000000000000000e+01" rms="0.0000000000000000e+00" purity="3.9715638756752014e-01" nType="-1"/>
        </Node>
      </Node>
    </BinaryTree>
    <BinaryTree type="DecisionTree" boostWeight="2.2448768497066210e-01" itree="44">
      <Node pos="s" depth="0" NCoef="0" IVar="5" Cut="9.9295597076416016e+00" cType="1" res="-9.9000000000000000e+01" rms="0.0000000000000000e+00" purity="4.8124971985816956e-01" nType="0">
        <Node pos="l" depth="1" NCoef="0" IVar="10" Cut="-5.4672360420227051e+00" cType="1" res="-9.9000000000000000e+01" rms="0.0000000000000000e+00" purity="5.2804780006408691e-01" nType="0">
          <Node pos="l" depth="2" NCoef="0" IVar="-1" Cut="1.5103656005859375e+03" cType="0" res="-9.9000000000000000e+01" rms="0.0000000000000000e+00" purity="5.4794818162918091e-01" nType="1"/>
          <Node pos="r" depth="2" NCoef="0" IVar="-1" Cut="0.0000000000000000e+00" cType="1" res="-9.9000000000000000e+01" rms="0.0000000000000000e+00" purity="8.8353805243968964e-02" nType="-1"/>
        </Node>
        <Node pos="r" depth="1" NCoef="0" IVar="4" Cut="3.5490996837615967e+00" cType="1" res="-9.9000000000000000e+01" rms="0.0000000000000000e+00" purity="3.6094713211059570e-01" nType="0">
          <Node pos="l" depth="2" NCoef="0" IVar="11" Cut="3.2526874542236328e+00" cType="0" res="-9.9000000000000000e+01" rms="0.0000000000000000e+00" purity="5.8797580003738403e-01" nType="0">
            <Node pos="l" depth="3" NCoef="0" IVar="-1" Cut="0.0000000000000000e+00" cType="1" res="-9.9000000000000000e+01" rms="0.0000000000000000e+00" purity="8.4206491708755493e-01" nType="1"/>
            <Node pos="r" depth="3" NCoef="0" IVar="-1" Cut="0.0000000000000000e+00" cType="1" res="-9.9000000000000000e+01" rms="0.0000000000000000e+00" purity="4.3544393777847290e-01" nType="-1"/>
          </Node>
          <Node pos="r" depth="2" NCoef="0" IVar="-1" Cut="8.5775970458984375e+02" cType="0" res="-9.9000000000000000e+01" rms="0.0000000000000000e+00" purity="2.3538130521774292e-01" nType="-1"/>
        </Node>
      </Node>
    </BinaryTree>
    <BinaryTree type="DecisionTree" boostWeight="1.9356321476838920e-01" itree="45">
      <Node pos="s" depth="0" NCoef="0" IVar="1" Cut="1.2582324981689453e+01" cType="1" res="-9.9000000000000000e+01" rms="0.0000000000000000e+00" purity="4.8401260375976562e-01" nType="0">
        <Node pos="l" depth="1" NCoef="0" IVar="5" Cut="8.0686645507812500e+00" cType="0" res="-9.9000000000000000e+01" rms="0.0000000000000000e+00" purity="5.1174628734588623e-01" nType="0">
          <Node pos="l" depth="2" NCoef="0" IVar="4" Cut="7.5702719688415527e+00" cType="1" res="-9.9000000000000000e+01" rms="0.0000000000000000e+00" purity="5.2859205007553101e-01" nType="0">
            <Node pos="l" depth="3" NCoef="0" IVar="-1" Cut="0.0000000000000000e+00" cType="1" res="-9.9000000000000000e+01" rms="0.0000000000000000e+00" purity="5.4663884639739990e-01" nType="1"/>
            <Node pos="r" depth="3" NCoef="0" IVar="-1" Cut="0.0000000000000000e+00" cType="1" res="-9.9000000000000000e+01" rms="0.0000000000000000e+00" purity="1.7928595840930939e-01" nType="-1"/>
          </Node>
          <Node pos="r" depth="2" NCoef="0" IVar="-1" Cut="0.0000000000000000e+00" cType="1" res="-9.9000000000000000e+01" rms="0.0000000000000000e+00" purity="7.4443213641643524e-02" nType="-1"/>
        </Node>
        <Node pos="r" depth="1" NCoef="0" IVar="11" Cut="3.9496412277221680e+00" cType="0" res="-9.9000000000000000e+01" rms="0.0000000000000000e+00" purity="2.7236384153366089e-01" nType="0">
          <Node pos="l" depth="2" NCoef="0" IVar="12" Cut="5.8406057357788086e+00" cType="1" res="-9.9000000000000000e+01" rms="0.0000000000000000e+00" purity="3.7465602159500122e-01" nType="0">
            <Node pos="l" depth="3" NCoef="0" IVar="-1" Cut="0.0000000000000000e+00" cType="1" res="-9.9000000000000000e+01" rms="0.0000000000000000e+00" purity="5.6982439756393433e-01" nType="1"/>
            <Node pos="r" depth="3" NCoef="0" IVar="-1" Cut="0.0000000000000000e+00" cType="1" res="-9.9000000000000000e+01" rms="0.0000000000000000e+00" purity="2.4849897623062134e-01" nType="-1"/>
          </Node>
          <Node pos="r" depth="2" NCoef="0" IVar="-1" Cut="0.0000000000000000e+00" cType="1" res="-9.9000000000000000e+01" rms="0.0000000000000000e+00" purity="8.7071813642978668e-02" nType="-1"/>
        </Node>
      </Node>
    </BinaryTree>
    <BinaryTree type="DecisionTree" boostWeight="1.8521226711354458e-01" itree="46">
      <Node pos="s" depth="0" NCoef="0" IVar="2" Cut="1.4310555458068848e+01" cType="0" res="-9.9000000000000000e+01" rms="0.0000000000000000e+00" purity="4.6243929862976074e-01" nType="0">
        <Node pos="l" depth="1" NCoef="0" IVar="-1" Cut="0.0000000000000000e+00" cType="1" res="-9.9000000000000000e+01" rms="0.0000000000000000e+00" purity="8.7618702650070190e-01" nType="1"/>
