<?xml version="1.0"?>
<MethodSetup Method="BDT::BDTD">
  <GeneralInfo>
    <Info name="TMVA Release" value="4.2.1 [262657]"/>
    <Info name="ROOT Release" value="6.04/02 [394242]"/>
    <Info name="Creator" value="atrisovi"/>
    <Info name="Date" value="Fri Oct 30 16:51:02 2015"/>
    <Info name="Host" value="Linux lcgapp-slc6-physical1.cern.ch 2.6.32-504.23.4.el6.x86_64 #1 SMP Wed Jun 10 07:47:59 CEST 2015 x86_64 x86_64 x86_64 GNU/Linux"/>
    <Info name="Dir" value="/afs/cern.ch/work/a/atrisovi/public/Step4_TMVA"/>
    <Info name="Training events" value="2000"/>
    <Info name="TrainingTime" value="8.74390984e+00"/>
    <Info name="AnalysisType" value="Classification"/>
  </GeneralInfo>
  <Options>
    <Option name="V" modified="Yes">False</Option>
    <Option name="VerbosityLevel" modified="No">Default</Option>
    <Option name="VarTransform" modified="Yes">Decorrelate</Option>
    <Option name="H" modified="Yes">False</Option>
    <Option name="CreateMVAPdfs" modified="No">False</Option>
    <Option name="IgnoreNegWeightsInTraining" modified="No">False</Option>
    <Option name="NTrees" modified="Yes">400</Option>
    <Option name="MaxDepth" modified="Yes">3</Option>
    <Option name="MinNodeSize" modified="Yes">5%</Option>
    <Option name="nCuts" modified="Yes">20</Option>
    <Option name="BoostType" modified="Yes">AdaBoost</Option>
    <Option name="AdaBoostR2Loss" modified="No">quadratic</Option>
    <Option name="UseBaggedBoost" modified="No">False</Option>
    <Option name="Shrinkage" modified="No">1.000000e+00</Option>
    <Option name="AdaBoostBeta" modified="No">5.000000e-01</Option>
    <Option name="UseRandomisedTrees" modified="No">False</Option>
    <Option name="UseNvars" modified="No">4</Option>
    <Option name="UsePoissonNvars" modified="No">True</Option>
    <Option name="BaggedSampleFraction" modified="No">6.000000e-01</Option>
    <Option name="UseYesNoLeaf" modified="No">True</Option>
    <Option name="NegWeightTreatment" modified="No">inverseboostnegweights</Option>
    <Option name="Css" modified="No">1.000000e+00</Option>
    <Option name="Cts_sb" modified="No">1.000000e+00</Option>
    <Option name="Ctb_ss" modified="No">1.000000e+00</Option>
    <Option name="Cbb" modified="No">1.000000e+00</Option>
    <Option name="NodePurityLimit" modified="No">5.000000e-01</Option>
    <Option name="SeparationType" modified="Yes">giniindex</Option>
    <Option name="DoBoostMonitor" modified="No">False</Option>
    <Option name="UseFisherCuts" modified="No">False</Option>
    <Option name="MinLinCorrForFisher" modified="No">8.000000e-01</Option>
    <Option name="UseExclusiveVars" modified="No">False</Option>
    <Option name="DoPreselection" modified="No">False</Option>
    <Option name="SigToBkgFraction" modified="No">1.000000e+00</Option>
    <Option name="PruneMethod" modified="No">nopruning</Option>
    <Option name="PruneStrength" modified="No">0.000000e+00</Option>
    <Option name="PruningValFraction" modified="No">5.000000e-01</Option>
    <Option name="nEventsMin" modified="No">0</Option>
    <Option name="UseBaggedGrad" modified="No">False</Option>
    <Option name="GradBaggingFraction" modified="No">6.000000e-01</Option>
    <Option name="UseNTrainEvents" modified="No">0</Option>
    <Option name="NNodesMax" modified="No">0</Option>
  </Options>
  <Variables NVar="16">
    <Variable VarIndex="0" Expression="D_DIRA_OWNPV" Label="D_dira" Title="D_dira" Unit="" Internal="D_dira" Type="F" Min="9.99899924e-01" Max="1.00000000e+00"/>
    <Variable VarIndex="1" Expression="D_IPCHI2_OWNPV" Label="D_ipchi" Title="D_ipchi" Unit="" Internal="D_ipchi" Type="F" Min="1.25734059e-05" Max="2.93587418e+01"/>
    <Variable VarIndex="2" Expression="D_ENDVERTEX_CHI2" Label="D_edchi" Title="D_edchi" Unit="" Internal="D_edchi" Type="F" Min="1.32976621e-02" Max="1.79160042e+01"/>
    <Variable VarIndex="3" Expression="piplus_PT" Label="pi_pt" Title="pi_pt" Unit="" Internal="pi_pt" Type="F" Min="3.00254852e+02" Max="1.26722646e+04"/>
    <Variable VarIndex="4" Expression="log(piplus_IPCHI2_OWNPV)" Label="pi_ipchi" Title="pi_ipchi" Unit="" Internal="pi_ipchi" Type="F" Min="1.79495215e+00" Max="9.88039970e+00"/>
    <Variable VarIndex="5" Expression="log(piplus_P)" Label="pi_p" Title="pi_p" Unit="" Internal="pi_p" Type="F" Min="7.60153866e+00" Max="1.25063572e+01"/>
    <Variable VarIndex="6" Expression="max(muminus_P,muplus_P)" Label="max_mu_p" Title="max_mu_p" Unit="" Internal="max_mu_p" Type="F" Min="3.57376245e+03" Max="3.20239062e+05"/>
    <Variable VarIndex="7" Expression="min(muminus_P,muplus_P)" Label="min_mu_p" Title="min_mu_p" Unit="" Internal="min_mu_p" Type="F" Min="3.02818823e+03" Max="1.60492578e+05"/>
    <Variable VarIndex="8" Expression="max(muminus_PT,muplus_PT)" Label="max_mu_pt" Title="max_mu_pt" Unit="" Internal="max_mu_pt" Type="F" Min="4.19728210e+02" Max="2.01567441e+04"/>
    <Variable VarIndex="9" Expression="min(muminus_PT,muplus_PT)" Label="min_mu_pt" Title="min_mu_pt" Unit="" Internal="min_mu_pt" Type="F" Min="4.00446411e+02" Max="1.07823311e+04"/>
    <Variable VarIndex="10" Expression="log(D_TAU)" Label="D_tau" Title="D_tau" Unit="" Internal="D_tau" Type="F" Min="-9.22151470e+00" Max="-3.33075023e+00"/>
    <Variable VarIndex="11" Expression="log(min(muminus_IPCHI2_OWNPV,muplus_IPCHI2_OWNPV))" Label="min_mu_ip" Title="min_mu_ip" Unit="" Internal="min_mu_ip" Type="F" Min="1.79293251e+00" Max="9.05229855e+00"/>
    <Variable VarIndex="12" Expression="log(max(muminus_IPCHI2_OWNPV,muplus_IPCHI2_OWNPV))" Label="max_mu_ip" Title="max_mu_ip" Unit="" Internal="max_mu_ip" Type="F" Min="1.89573157e+00" Max="1.02229290e+01"/>
    <Variable VarIndex="13" Expression="D_PT" Label="D_pt" Title="D_pt" Unit="" Internal="D_pt" Type="F" Min="9.62692547e+00" Max="3.20237441e+04"/>
    <Variable VarIndex="14" Expression="log(D_FDCHI2_OWNPV)" Label="D_fd" Title="D_fd" Unit="" Internal="D_fd" Type="F" Min="1.92333925e+00" Max="1.31021833e+01"/>
    <Variable VarIndex="15" Expression="D_P" Label="D_p" Title="D_p" Unit="" Internal="D_p" Type="F" Min="9.93117578e+03" Max="5.44629188e+05"/>
  </Variables>
  <Spectators NSpec="0"/>
  <Classes NClass="2">
    <Class Name="Signal" Index="0"/>
    <Class Name="Background" Index="1"/>
  </Classes>
  <Transformations NTransformations="1">
    <Transform Name="Decorrelation">
      <Selection>
        <Input NInputs="16">
          <Input Type="Variable" Label="D_dira" Expression="D_DIRA_OWNPV"/>
          <Input Type="Variable" Label="D_ipchi" Expression="D_IPCHI2_OWNPV"/>
          <Input Type="Variable" Label="D_edchi" Expression="D_ENDVERTEX_CHI2"/>
          <Input Type="Variable" Label="pi_pt" Expression="piplus_PT"/>
          <Input Type="Variable" Label="pi_ipchi" Expression="log(piplus_IPCHI2_OWNPV)"/>
          <Input Type="Variable" Label="pi_p" Expression="log(piplus_P)"/>
          <Input Type="Variable" Label="max_mu_p" Expression="max(muminus_P,muplus_P)"/>
          <Input Type="Variable" Label="min_mu_p" Expression="min(muminus_P,muplus_P)"/>
          <Input Type="Variable" Label="max_mu_pt" Expression="max(muminus_PT,muplus_PT)"/>
          <Input Type="Variable" Label="min_mu_pt" Expression="min(muminus_PT,muplus_PT)"/>
          <Input Type="Variable" Label="D_tau" Expression="log(D_TAU)"/>
          <Input Type="Variable" Label="min_mu_ip" Expression="log(min(muminus_IPCHI2_OWNPV,muplus_IPCHI2_OWNPV))"/>
          <Input Type="Variable" Label="max_mu_ip" Expression="log(max(muminus_IPCHI2_OWNPV,muplus_IPCHI2_OWNPV))"/>
          <Input Type="Variable" Label="D_pt" Expression="D_PT"/>
          <Input Type="Variable" Label="D_fd" Expression="log(D_FDCHI2_OWNPV)"/>
          <Input Type="Variable" Label="D_p" Expression="D_P"/>
        </Input>
        <Output NOutputs="16">
          <Output Type="Variable" Label="D_dira" Expression="D_DIRA_OWNPV"/>
          <Output Type="Variable" Label="D_ipchi" Expression="D_IPCHI2_OWNPV"/>
          <Output Type="Variable" Label="D_edchi" Expression="D_ENDVERTEX_CHI2"/>
          <Output Type="Variable" Label="pi_pt" Expression="piplus_PT"/>
          <Output Type="Variable" Label="pi_ipchi" Expression="log(piplus_IPCHI2_OWNPV)"/>
          <Output Type="Variable" Label="pi_p" Expression="log(piplus_P)"/>
          <Output Type="Variable" Label="max_mu_p" Expression="max(muminus_P,muplus_P)"/>
          <Output Type="Variable" Label="min_mu_p" Expression="min(muminus_P,muplus_P)"/>
          <Output Type="Variable" Label="max_mu_pt" Expression="max(muminus_PT,muplus_PT)"/>
          <Output Type="Variable" Label="min_mu_pt" Expression="min(muminus_PT,muplus_PT)"/>
          <Output Type="Variable" Label="D_tau" Expression="log(D_TAU)"/>
          <Output Type="Variable" Label="min_mu_ip" Expression="log(min(muminus_IPCHI2_OWNPV,muplus_IPCHI2_OWNPV))"/>
          <Output Type="Variable" Label="max_mu_ip" Expression="log(max(muminus_IPCHI2_OWNPV,muplus_IPCHI2_OWNPV))"/>
          <Output Type="Variable" Label="D_pt" Expression="D_PT"/>
          <Output Type="Variable" Label="D_fd" Expression="log(D_FDCHI2_OWNPV)"/>
          <Output Type="Variable" Label="D_p" Expression="D_P"/>
        </Output>
      </Selection>
      <Matrix Rows="16" Columns="16">
        6.856727989285531e+04 1.176509801860590e-01 1.257519843698756e-02 6.892625943830420e-04 -1.357598266201390e-01 -4.877736134521161e-01 -5.467953026582098e-06 -1.463587062766863e-05 5.779527653512266e-04 6.314766787317772e-04 -6.599608650111796e-01 -1.663415984476127e-02 -5.764422215805123e-02 -6.327606763448960e-04 6.112679879219884e-02 3.354492640355904e-06 1.176509801860590e-01 2.425497136093072e-01 -1.599600924914725e-02 2.879773704182032e-06 -6.023825088023300e-03 -4.966608259450120e-03 1.869532514866652e-06 4.491238603016214e-06 -5.412775396483722e-05 -1.314864605743897e-04 -1.673658140844082e-02 -1.382190840058254e-02 -5.081972463251557e-03 4.265223087945757e-05 -4.300565206436013e-03 -2.235576925165439e-06 1.257519843698756e-02 -1.599600924914726e-02 2.761000787762350e-01 -1.550470292591598e-04 7.944898036054672e-03 -6.832410829532336e-03 -2.459881851855003e-07 -3.865537776106044e-06 -2.107269779871213e-04 -1.133332358338100e-04 2.961645107348092e-02 -4.812417904672383e-03 3.585626209090772e-03 1.497898362431936e-04 1.222100062355791e-03 9.164648969055277e-07 6.892625943830361e-04 2.879773704182454e-06 -1.550470292591599e-04 3.097466710027372e-03 2.090285354418419e-04 -2.925443356213524e-05 6.283362520332535e-05 6.168145557702944e-05 1.560228588432218e-03 1.476639220382771e-03 -1.664585006384278e-03 -5.061777107955946e-05 5.004438226195371e-04 -1.774152462730568e-03 1.029281626361733e-03 -4.423637178043479e-05 -1.357598266201389e-01 -6.023825088023297e-03 7.944898036054677e-03 2.090285354417947e-04 9.631953590893125e-01 1.668110882562404e-01 -2.773039290466398e-05 -4.034597228124101e-05 5.927750110264434e-04 7.217840633499745e-04 -3.001593700134615e-01 5.040019466334651e-03 1.627489109760931e-01 -5.171383741967033e-04 -4.727871594906641e-01 2.121925990025372e-05 -4.877736134521160e-01 -4.966608259450118e-03 -6.832410829532340e-03 -2.925443356212921e-05 1.668110882562404e-01 2.547426291125907e+00 4.649477795433597e-05 4.313342571503756e-05 5.749041302761696e-04 8.427883830529224e-04 -1.474952840490492e-01 -3.640186501169972e-02 -1.224342026977067e-01 -4.283735219306017e-04 6.334571546817114e-02 -5.694908039372211e-05 -5.467953026582066e-06 1.869532514866657e-06 -2.459881851854548e-07 6.283362520332517e-05 -2.773039290466484e-05 4.649477795433594e-05 7.204026245233398e-05 6.720848867228805e-06 -5.901415580787054e-05 5.167693237329919e-06 -6.888337588652177e-06 5.465078385164720e-06 1.788664333258762e-05 -5.623230764794460e-07 -4.196170760896456e-07 -2.963047967255696e-05 -1.463587062766873e-05 4.491238603016221e-06 -3.865537776106024e-06 6.168145557702932e-05 -4.034597228124072e-05 4.313342571503744e-05 6.720848867228808e-06 1.427763353552209e-04 3.989627692294983e-06 -9.700089103158475e-05 -3.324459263895489e-05 5.900587495886433e-06 4.862038417611345e-05 6.553782208862009e-06 1.685997329533510e-05 -2.654953127265244e-05 5.779527653512309e-04 -5.412775396483750e-05 -2.107269779871212e-04 1.560228588432218e-03 5.927750110264121e-04 5.749041302761742e-04 -5.901415580786991e-05 3.989627692295251e-06 2.902611249920283e-03 1.306130524400677e-03 -1.770296661983174e-03 -8.143492975882812e-05 2.425901502886984e-04 -1.821002010934154e-03 1.030942773381671e-03 1.992756790950655e-05 6.314766787317723e-04 -1.314864605743893e-04 -1.133332358338101e-04 1.476639220382770e-03 7.217840633500130e-04 8.427883830529173e-04 5.167693237330052e-06 -9.700089103158464e-05 1.306130524400676e-03 4.293232040301755e-03 -9.701046823241473e-04 -3.240157318785459e-04 -2.201507065406743e-04 -1.663577380584317e-03 8.604072390587802e-04 1.385343606540148e-05 -6.599608650111795e-01 -1.673658140844079e-02 2.961645107348095e-02 -1.664585006384407e-03 -3.001593700134615e-01 -1.474952840490493e-01 -6.888337588650304e-06 -3.324459263895601e-05 -1.770296661983089e-03 -9.701046823242542e-04 5.046886529887709e+00 -3.376148310966452e-01 -2.786500755346134e-01 2.035327603474671e-03 -1.298848612266672e+00 2.434550598723720e-06 -1.663415984476121e-02 -1.382190840058255e-02 -4.812417904672379e-03 -5.061777107957782e-05 5.040019466334727e-03 -3.640186501169965e-02 5.465078385164993e-06 5.900587495886299e-06 -8.143492975881553e-05 -3.240157318785610e-04 -3.376148310966456e-01 1.077119688762098e+00 -2.127165847868381e-01 -7.666287609963890e-06 -1.868005293352775e-01 1.634563036511707e-08 -5.764422215805139e-02 -5.081972463251558e-03 3.585626209090792e-03 5.004438226194642e-04 1.627489109760932e-01 -1.224342026977067e-01 1.788664333258886e-05 4.862038417611292e-05 2.425901502887463e-04 -2.201507065407344e-04 -2.786500755346137e-01 -2.127165847868381e-01 1.410779967199424e+00 -2.764370797875372e-04 -7.312266670586447e-01 -1.491112332364068e-05 -6.327606763448801e-04 4.265223087945643e-05 1.497898362431939e-04 -1.774152462730568e-03 -5.171383741968289e-04 -4.283735219305853e-04 -5.623230764796510e-07 6.553782208861846e-06 -1.821002010934154e-03 -1.663577380584318e-03 2.035327603474326e-03 -7.666287610013239e-06 -2.764370797877312e-04 2.023652570508486e-03 -1.158193675484309e-03 -1.148196646553994e-05 6.112679879219900e-02 -4.300565206436020e-03 1.222100062355737e-03 1.029281626361945e-03 -4.727871594906641e-01 6.334571546817125e-02 -4.196170760929575e-07 1.685997329533676e-05 1.030942773381532e-03 8.604072390589553e-04 -1.298848612266671e+00 -1.868005293352776e-01 -7.312266670586453e-01 -1.158193675484874e-03 2.130716828406328e+00 -1.105779379775071e-06 3.354492640355991e-06 -2.235576925165448e-06 9.164648969055063e-07 -4.423637178043463e-05 2.121925990025351e-05 -5.694908039372201e-05 -2.963047967255696e-05 -2.654953127265244e-05 1.992756790950684e-05 1.385343606540162e-05 2.434550598722816e-06 1.634563036499570e-08 -1.491112332364107e-05 -1.148196646554011e-05 -1.105779379773769e-06 3.843999507988193e-05 
      </Matrix>
      <Matrix Rows="16" Columns="16">
        4.728710853533010e+04 1.106764469685864e-01 -5.406114777217303e-03 8.162336452626742e-05 -5.960138190152570e-02 -2.266405189562012e-01 7.407609332731717e-07 -6.962322698118986e-06 9.322443536165952e-05 1.074732538068641e-04 -6.523363408481974e-01 -4.549754290146843e-02 -2.086331263399134e-02 -1.431140545487247e-04 -1.508226535763443e-01 -1.046342743337003e-05 1.106764469685864e-01 1.653983241509432e-01 8.793248905783283e-03 1.176300468200780e-04 -1.840011001220420e-02 -1.217483803366860e-02 1.237618132316466e-05 7.685444962440476e-06 5.403560254275592e-05 7.999468284828710e-05 -3.618024017889605e-02 -1.611381189091125e-02 -1.981356308863234e-02 -7.445888984935961e-05 -5.188777994195463e-02 -1.411854319661131e-05 -5.406114777217300e-03 8.793248905783282e-03 2.507357920810732e-01 -2.787629922493345e-05 1.477002153977629e-02 -7.746260697733093e-03 -4.208688150514696e-06 -2.643258396269832e-06 7.142296667122262e-05 -6.597937958915587e-05 3.290681276060806e-02 -6.197580553331289e-03 1.813096647491548e-02 -8.670420215876994e-05 -4.381437795457620e-03 7.634371017072244e-06 8.162336452626708e-05 1.176300468200780e-04 -2.787629922493341e-05 2.711248115740533e-03 -3.192661895493504e-05 5.810464527481923e-04 7.905325048379608e-05 8.298423976931243e-05 9.916615940239624e-04 7.565606716876473e-04 -1.192611329705263e-03 1.761191680780719e-04 1.049748792806671e-03 -1.074788095057848e-03 -6.233318772795022e-04 -6.298074051950868e-05 -5.960138190152575e-02 -1.840011001220421e-02 1.477002153977629e-02 -3.192661895493488e-05 9.334490438286388e-01 2.722846104938094e-02 -3.595441365119282e-05 -3.716997012941599e-05 5.539539153010941e-04 6.225612064056515e-04 -9.178564995403225e-02 -8.797834770026713e-02 -7.955462523693638e-02 -4.796375847095228e-04 -5.427166584463401e-02 2.965069656446971e-05 -2.266405189562012e-01 -1.217483803366860e-02 -7.746260697733092e-03 5.810464527481924e-04 2.722846104938093e-02 2.602926692935488e+00 1.100515302827903e-04 1.010872708813112e-04 6.725145449539568e-04 7.491930896614087e-04 -1.132846736946556e-03 2.158417389841871e-02 -3.335949515152303e-02 -5.573885123951293e-04 -1.173024282222271e-02 -1.122787602830030e-04 7.407609332731650e-07 1.237618132316466e-05 -4.208688150514695e-06 7.905325048379608e-05 -3.595441365119284e-05 1.100515302827903e-04 9.395538248730973e-05 1.372278852645745e-05 -6.855489553569967e-05 -5.155062942552200e-06 1.383485128981919e-05 7.257040100392282e-07 4.490484739028694e-06 3.484461204179381e-06 -1.090657465870962e-05 -4.624358697466542e-05 -6.962322698118983e-06 7.685444962440474e-06 -2.643258396269828e-06 8.298423976931240e-05 -3.716997012941598e-05 1.010872708813112e-04 1.372278852645742e-05 1.453010093768657e-04 -9.185026495095093e-06 -1.275113016603978e-04 -2.290369610912136e-05 -1.015947994884856e-05 2.302977192761187e-05 5.183278568636316e-06 3.122270866111894e-05 -3.524427774244115e-05 9.322443536165932e-05 5.403560254275596e-05 7.142296667122261e-05 9.916615940239628e-04 5.539539153010942e-04 6.725145449539570e-04 -6.855489553569961e-05 -9.185026495095102e-06 2.311620003934665e-03 6.158944084236254e-04 -1.562925540683147e-03 1.825868957143461e-04 9.547480083403545e-04 -1.256493887180803e-03 -4.453111845947700e-04 3.308669956623999e-05 1.074732538068638e-04 7.999468284828714e-05 -6.597937958915587e-05 7.565606716876475e-04 6.225612064056515e-04 7.491930896614087e-04 -5.155062942552179e-06 -1.275113016603978e-04 6.158944084236254e-04 3.532582169058405e-03 -1.024103442911914e-03 1.873717049431585e-04 6.685213633998595e-04 -9.384544681182461e-04 -1.015903407713881e-03 2.437031729291685e-05 -6.523363408481968e-01 -3.618024017889607e-02 3.290681276060804e-02 -1.192611329705264e-03 -9.178564995403221e-02 -1.132846736946536e-03 1.383485128981920e-05 -2.290369610912136e-05 -1.562925540683148e-03 -1.024103442911914e-03 4.349883219512640e+00 -9.478514832451521e-02 1.421166911474503e-02 1.670110473063829e-03 -1.741836789388291e+00 -9.277259908700147e-06 -4.549754290146843e-02 -1.611381189091126e-02 -6.197580553331289e-03 1.761191680780721e-04 -8.797834770026723e-02 2.158417389841870e-02 7.257040100392333e-07 -1.015947994884855e-05 1.825868957143462e-04 1.873717049431585e-04 -9.478514832451548e-02 1.228242457940273e+00 -3.899022653887984e-01 -2.857170443155137e-04 -3.248995008472486e-03 7.281290966515878e-06 -2.086331263399144e-02 -1.981356308863231e-02 1.813096647491547e-02 1.049748792806671e-03 -7.955462523693629e-02 -3.335949515152302e-02 4.490484739028700e-06 2.302977192761186e-05 9.547480083403542e-04 6.685213633998595e-04 1.421166911474527e-02 -3.899022653887985e-01 1.067701530858856e+00 -8.747532867290496e-04 -1.961695778182997e-01 -5.982204038896720e-06 -1.431140545487244e-04 -7.445888984935964e-05 -8.670420215876992e-05 -1.074788095057848e-03 -4.796375847095228e-04 -5.573885123951293e-04 3.484461204179386e-06 5.183278568636331e-06 -1.256493887180803e-03 -9.384544681182461e-04 1.670110473063828e-03 -2.857170443155136e-04 -8.747532867290499e-04 1.425124536255076e-03 3.936515499223674e-04 -2.198394505262906e-05 -1.508226535763444e-01 -5.188777994195465e-02 -4.381437795457618e-03 -6.233318772795018e-04 -5.427166584463406e-02 -1.173024282222273e-02 -1.090657465870963e-05 3.122270866111894e-05 -4.453111845947695e-04 -1.015903407713881e-03 -1.741836789388291e+00 -3.248995008472636e-03 -1.961695778182995e-01 3.936515499223670e-04 1.519433511021602e+00 5.779556499519399e-06 -1.046342743337001e-05 -1.411854319661131e-05 7.634371017072244e-06 -6.298074051950867e-05 2.965069656446973e-05 -1.122787602830030e-04 -4.624358697466542e-05 -3.524427774244116e-05 3.308669956624003e-05 2.437031729291686e-05 -9.277259908700169e-06 7.281290966515883e-06 -5.982204038896706e-06 -2.198394505262907e-05 5.779556499519395e-06 5.630277938761828e-05 
      </Matrix>
      <Matrix Rows="16" Columns="16">
        5.263787026801587e+04 1.070092526580070e-01 7.076985129724066e-03 4.280107204826995e-04 -5.676485491519058e-02 -3.809491737618068e-01 -9.185904778183267e-06 -1.595201859151085e-05 4.548534057165695e-04 3.856067838088793e-04 -9.312130790890587e-01 1.669972979443321e-02 -6.050521190591380e-05 -4.904985817982621e-04 4.718576159357949e-03 3.595560195495190e-06 1.070092526580070e-01 1.755510947105542e-01 -4.453052531781455e-03 -1.007249563396268e-04 1.153413403839537e-02 -1.121836249607228e-02 2.591129729248022e-06 5.870049975673771e-06 -1.855117765797066e-04 -2.645488226534071e-04 -2.538701207907613e-02 -2.457045163835714e-03 -5.450082003574726e-03 1.559088115558942e-04 -2.638426675236976e-02 -4.324723623565692e-06 7.076985129724069e-03 -4.453052531781454e-03 2.556671374810449e-01 -1.858865924799716e-04 2.013389186089872e-02 -1.572283504865135e-03 6.599695390155132e-08 1.767362877704498e-06 -2.358273542654153e-04 -2.671943650122025e-04 4.033870676183571e-02 -3.401837686415460e-03 1.635003067681602e-02 1.766634564891968e-04 2.839211205540447e-03 1.733730050635369e-06 4.280107204826995e-04 -1.007249563396268e-04 -1.858865924799716e-04 2.651252704559185e-03 5.175842985432286e-04 3.326544603808234e-04 6.788458649394635e-05 7.241038333684583e-05 1.069404028786809e-03 8.702142861366326e-04 -1.277597767706765e-03 2.725251330543117e-04 1.138310527373417e-03 -1.221102530806140e-03 -3.376735011512963e-04 -5.082201766380076e-05 -5.676485491519079e-02 1.153413403839537e-02 2.013389186089873e-02 5.175842985432283e-04 8.283178972898795e-01 8.813617696017384e-02 -3.004537261931650e-05 -4.466526065696115e-05 1.006350259664038e-03 1.241204974637006e-03 -1.296031887745691e-01 -8.751915460815587e-02 -5.505533398687727e-02 -9.011803037082056e-04 -1.626440121771753e-01 2.372661698419543e-05 -3.809491737618068e-01 -1.121836249607227e-02 -1.572283504865138e-03 3.326544603808233e-04 8.813617696017385e-02 2.447176866976657e+00 6.214502185049539e-05 5.779361061166507e-05 7.849133185359671e-04 9.421416180115400e-04 -1.199858361025358e-01 -9.168674604049895e-03 -7.698408689295733e-02 -6.350099231151388e-04 5.140408723877124e-02 -6.943895376877505e-05 -9.185904778183262e-06 2.591129729248018e-06 6.599695390154814e-08 6.788458649394633e-05 -3.004537261931651e-05 6.214502185049539e-05 7.944342745805125e-05 8.214676393646269e-06 -5.976691343995679e-05 2.145868960723013e-06 2.058549854823294e-06 5.121171873398664e-06 1.183089912294527e-05 -8.068953480694333e-07 -2.420681993155660e-06 -3.475566752775376e-05 -1.595201859151084e-05 5.870049975673775e-06 1.767362877704500e-06 7.241038333684582e-05 -4.466526065696116e-05 5.779361061166508e-05 8.214676393646262e-06 1.420327483869444e-04 3.175339038806070e-06 -1.076890565101768e-04 -3.113558976885809e-05 -2.375401142455452e-06 3.189072448575318e-05 1.236214744178623e-08 2.897723540259919e-05 -2.885488386232511e-05 4.548534057165694e-04 -1.855117765797065e-04 -2.358273542654153e-04 1.069404028786809e-03 1.006350259664038e-03 7.849133185359670e-04 -5.976691343995680e-05 3.175339038806084e-06 2.340286800378119e-03 6.762649523146390e-04 -1.484603859124525e-03 2.610650176726639e-04 9.796339761470989e-04 -1.291791672950724e-03 -1.915785402046090e-04 2.276794101399404e-05 3.856067838088790e-04 -2.645488226534071e-04 -2.671943650122026e-04 8.702142861366325e-04 1.241204974637006e-03 9.421416180115402e-04 2.145868960722997e-06 -1.076890565101768e-04 6.762649523146390e-04 3.577906322658096e-03 -8.776963758364159e-04 1.995902297357133e-04 7.078626173110749e-04 -1.033814645389671e-03 -6.585307331268789e-04 1.731816437835732e-05 -9.312130790890588e-01 -2.538701207907619e-02 4.033870676183575e-02 -1.277597767706766e-03 -1.296031887745698e-01 -1.199858361025358e-01 2.058549854823310e-06 -3.113558976885807e-05 -1.484603859124526e-03 -8.776963758364170e-04 4.313221250222263e+00 -1.678907846183574e-01 -2.114422297788721e-02 1.666378041172690e-03 -1.585758175819454e+00 -1.052220482497980e-06 1.669972979443320e-02 -2.457045163835716e-03 -3.401837686415463e-03 2.725251330543118e-04 -8.751915460815587e-02 -9.168674604049881e-03 5.121171873398662e-06 -2.375401142455447e-06 2.610650176726640e-04 1.995902297357133e-04 -1.678907846183575e-01 1.109216898875927e+00 -3.494875105001950e-01 -3.470611008408727e-04 -3.923102305322470e-02 1.519270986489239e-06 -6.050521190588512e-05 -5.450082003574728e-03 1.635003067681602e-02 1.138310527373417e-03 -5.505533398687726e-02 -7.698408689295733e-02 1.183089912294528e-05 3.189072448575318e-05 9.796339761470989e-04 7.078626173110749e-04 -2.114422297788717e-02 -3.494875105001949e-01 1.090053588420129e+00 -9.417865729264323e-04 -2.783664062283952e-01 -1.119730530124365e-05 -4.904985817982620e-04 1.559088115558941e-04 1.766634564891968e-04 -1.221102530806140e-03 -9.011803037082056e-04 -6.350099231151388e-04 -8.068953480694045e-07 1.236214744177437e-08 -1.291791672950723e-03 -1.033814645389671e-03 1.666378041172689e-03 -3.470611008408726e-04 -9.417865729264323e-04 1.484646153520256e-03 1.127619476687091e-04 -1.385052526440164e-05 4.718576159358156e-03 -2.638426675236973e-02 2.839211205540434e-03 -3.376735011512958e-04 -1.626440121771749e-01 5.140408723877123e-02 -2.420681993155662e-06 2.897723540259918e-05 -1.915785402046085e-04 -6.585307331268785e-04 -1.585758175819454e+00 -3.923102305322471e-02 -2.783664062283952e-01 1.127619476687086e-04 1.502442669683715e+00 -9.663627195860127e-07 3.595560195495188e-06 -4.324723623565692e-06 1.733730050635368e-06 -5.082201766380076e-05 2.372661698419543e-05 -6.943895376877505e-05 -3.475566752775375e-05 -2.885488386232511e-05 2.276794101399405e-05 1.731816437835732e-05 -1.052220482497979e-06 1.519270986489240e-06 -1.119730530124365e-05 -1.385052526440164e-05 -9.663627195860148e-07 4.406881197497638e-05 
      </Matrix>
    </Transform>
  </Transformations>
  <MVAPdfs/>
  <Weights NTrees="400" AnalysisType="0">
    <BinaryTree type="DecisionTree" boostWeight="4.3681388410061367e-01" itree="0">
      <Node pos="s" depth="0" NCoef="0" IVar="4" Cut="4.3740706443786621e+00" cType="0" res="-9.9000000000000000e+01" rms="0.0000000000000000e+00" purity="5.0000000000000000e-01" nType="0">
        <Node pos="l" depth="1" NCoef="0" IVar="1" Cut="1.2895225286483765e+00" cType="1" res="-9.9000000000000000e+01" rms="0.0000000000000000e+00" purity="6.7870968580245972e-01" nType="0">
          <Node pos="l" depth="2" NCoef="0" IVar="-1" Cut="1.7392858505249023e+01" cType="0" res="-9.9000000000000000e+01" rms="0.0000000000000000e+00" purity="7.6650565862655640e-01" nType="1"/>
          <Node pos="r" depth="2" NCoef="0" IVar="-1" Cut="0.0000000000000000e+00" cType="1" res="-9.9000000000000000e+01" rms="0.0000000000000000e+00" purity="3.2467532157897949e-01" nType="-1"/>
        </Node>
        <Node pos="r" depth="1" NCoef="0" IVar="13" Cut="-1.3427003622055054e+00" cType="0" res="-9.9000000000000000e+01" rms="0.0000000000000000e+00" purity="3.8693878054618835e-01" nType="0">
          <Node pos="l" depth="2" NCoef="0" IVar="1" Cut="8.2077568769454956e-01" cType="1" res="-9.9000000000000000e+01" rms="0.0000000000000000e+00" purity="4.7747749090194702e-01" nType="0">
            <Node pos="l" depth="3" NCoef="0" IVar="-1" Cut="0.0000000000000000e+00" cType="1" res="-9.9000000000000000e+01" rms="0.0000000000000000e+00" purity="5.5917161703109741e-01" nType="1"/>
            <Node pos="r" depth="3" NCoef="0" IVar="-1" Cut="0.0000000000000000e+00" cType="1" res="-9.9000000000000000e+01" rms="0.0000000000000000e+00" purity="2.1698112785816193e-01" nType="-1"/>
          </Node>
          <Node pos="r" depth="2" NCoef="0" IVar="-1" Cut="1.7431014776229858e+00" cType="1" res="-9.9000000000000000e+01" rms="0.0000000000000000e+00" purity="1.4836795628070831e-01" nType="-1"/>
        </Node>
      </Node>
    </BinaryTree>
    <BinaryTree type="DecisionTree" boostWeight="3.9430144752809260e-01" itree="1">
      <Node pos="s" depth="0" NCoef="0" IVar="4" Cut="4.0439248085021973e+00" cType="0" res="-9.9000000000000000e+01" rms="0.0000000000000000e+00" purity="4.6497792005538940e-01" nType="0">
        <Node pos="l" depth="1" NCoef="0" IVar="14" Cut="1.7392858505249023e+01" cType="0" res="-9.9000000000000000e+01" rms="0.0000000000000000e+00" purity="5.9977632761001587e-01" nType="0">
          <Node pos="l" depth="2" NCoef="0" IVar="-1" Cut="3.8107934594154358e-01" cType="1" res="-9.9000000000000000e+01" rms="0.0000000000000000e+00" purity="7.0742350816726685e-01" nType="1"/>
          <Node pos="r" depth="2" NCoef="0" IVar="10" Cut="-4.2583927154541016e+01" cType="0" res="-9.9000000000000000e+01" rms="0.0000000000000000e+00" purity="4.0212181210517883e-01" nType="0">
            <Node pos="l" depth="3" NCoef="0" IVar="-1" Cut="0.0000000000000000e+00" cType="1" res="-9.9000000000000000e+01" rms="0.0000000000000000e+00" purity="5.8976340293884277e-01" nType="1"/>
            <Node pos="r" depth="3" NCoef="0" IVar="-1" Cut="0.0000000000000000e+00" cType="1" res="-9.9000000000000000e+01" rms="0.0000000000000000e+00" purity="1.7342254519462585e-01" nType="-1"/>
          </Node>
        </Node>
        <Node pos="r" depth="1" NCoef="0" IVar="8" Cut="1.8017021417617798e+00" cType="1" res="-9.9000000000000000e+01" rms="0.0000000000000000e+00" purity="3.4043496847152710e-01" nType="0">
          <Node pos="l" depth="2" NCoef="0" IVar="10" Cut="-4.3163314819335938e+01" cType="0" res="-9.9000000000000000e+01" rms="0.0000000000000000e+00" purity="4.2201462388038635e-01" nType="0">
            <Node pos="l" depth="3" NCoef="0" IVar="-1" Cut="0.0000000000000000e+00" cType="1" res="-9.9000000000000000e+01" rms="0.0000000000000000e+00" purity="5.1518309116363525e-01" nType="1"/>
            <Node pos="r" depth="3" NCoef="0" IVar="-1" Cut="0.0000000000000000e+00" cType="1" res="-9.9000000000000000e+01" rms="0.0000000000000000e+00" purity="2.2332534193992615e-01" nType="-1"/>
          </Node>
          <Node pos="r" depth="2" NCoef="0" IVar="-1" Cut="8.9855068922042847e-01" cType="0" res="-9.9000000000000000e+01" rms="0.0000000000000000e+00" purity="1.9788663089275360e-01" nType="-1"/>
        </Node>
      </Node>
    </BinaryTree>
    <BinaryTree type="DecisionTree" boostWeight="3.6761623964479778e-01" itree="2">
      <Node pos="s" depth="0" NCoef="0" IVar="2" Cut="1.6625999212265015e+00" cType="1" res="-9.9000000000000000e+01" rms="0.0000000000000000e+00" purity="4.3514183163642883e-01" nType="0">
        <Node pos="l" depth="1" NCoef="0" IVar="1" Cut="7.0532160997390747e-01" cType="1" res="-9.9000000000000000e+01" rms="0.0000000000000000e+00" purity="5.0096988677978516e-01" nType="0">
          <Node pos="l" depth="2" NCoef="0" IVar="9" Cut="2.1618468761444092e+00" cType="1" res="-9.9000000000000000e+01" rms="0.0000000000000000e+00" purity="5.8237957954406738e-01" nType="0">
            <Node pos="l" depth="3" NCoef="0" IVar="-1" Cut="0.0000000000000000e+00" cType="1" res="-9.9000000000000000e+01" rms="0.0000000000000000e+00" purity="6.6310226917266846e-01" nType="1"/>
            <Node pos="r" depth="3" NCoef="0" IVar="-1" Cut="0.0000000000000000e+00" cType="1" res="-9.9000000000000000e+01" rms="0.0000000000000000e+00" purity="4.0654423832893372e-01" nType="-1"/>
          </Node>
          <Node pos="r" depth="2" NCoef="0" IVar="-1" Cut="1.8911815881729126e+00" cType="1" res="-9.9000000000000000e+01" rms="0.0000000000000000e+00" purity="3.1740093231201172e-01" nType="-1"/>
        </Node>
        <Node pos="r" depth="1" NCoef="0" IVar="-1" Cut="4.6337833404541016e+00" cType="0" res="-9.9000000000000000e+01" rms="0.0000000000000000e+00" purity="2.6812601089477539e-01" nType="-1"/>
      </Node>
    </BinaryTree>
    <BinaryTree type="DecisionTree" boostWeight="2.6618128165044985e-01" itree="3">
      <Node pos="s" depth="0" NCoef="0" IVar="4" Cut="4.7042164802551270e+00" cType="0" res="-9.9000000000000000e+01" rms="0.0000000000000000e+00" purity="4.6166965365409851e-01" nType="0">
        <Node pos="l" depth="1" NCoef="0" IVar="14" Cut="1.8222875595092773e+01" cType="0" res="-9.9000000000000000e+01" rms="0.0000000000000000e+00" purity="6.3852757215499878e-01" nType="0">
          <Node pos="l" depth="2" NCoef="0" IVar="-1" Cut="0.0000000000000000e+00" cType="1" res="-9.9000000000000000e+01" rms="0.0000000000000000e+00" purity="8.2288217544555664e-01" nType="1"/>
          <Node pos="r" depth="2" NCoef="0" IVar="10" Cut="-4.2874137878417969e+01" cType="0" res="-9.9000000000000000e+01" rms="0.0000000000000000e+00" purity="5.5163508653640747e-01" nType="0">
            <Node pos="l" depth="3" NCoef="0" IVar="-1" Cut="0.0000000000000000e+00" cType="1" res="-9.9000000000000000e+01" rms="0.0000000000000000e+00" purity="6.5003186464309692e-01" nType="1"/>
            <Node pos="r" depth="3" NCoef="0" IVar="-1" Cut="0.0000000000000000e+00" cType="1" res="-9.9000000000000000e+01" rms="0.0000000000000000e+00" purity="3.5787680745124817e-01" nType="-1"/>
          </Node>
        </Node>
        <Node pos="r" depth="1" NCoef="0" IVar="-1" Cut="5.9240323305130005e-01" cType="0" res="-9.9000000000000000e+01" rms="0.0000000000000000e+00" purity="3.9690366387367249e-01" nType="-1"/>
      </Node>
    </BinaryTree>
    <BinaryTree type="DecisionTree" boostWeight="3.4969250141971947e-01" itree="4">
      <Node pos="s" depth="0" NCoef="0" IVar="8" Cut="1.8664177656173706e+00" cType="1" res="-9.9000000000000000e+01" rms="0.0000000000000000e+00" purity="5.0049495697021484e-01" nType="0">
        <Node pos="l" depth="1" NCoef="0" IVar="10" Cut="-4.2605335235595703e+01" cType="0" res="-9.9000000000000000e+01" rms="0.0000000000000000e+00" purity="5.5998277664184570e-01" nType="0">
          <Node pos="l" depth="2" NCoef="0" IVar="-1" Cut="3.7880685329437256e+00" cType="0" res="-9.9000000000000000e+01" rms="0.0000000000000000e+00" purity="6.6344386339187622e-01" nType="1"/>
          <Node pos="r" depth="2" NCoef="0" IVar="14" Cut="1.8051660537719727e+01" cType="0" res="-9.9000000000000000e+01" rms="0.0000000000000000e+00" purity="4.5856177806854248e-01" nType="0">
            <Node pos="l" depth="3" NCoef="0" IVar="-1" Cut="0.0000000000000000e+00" cType="1" res="-9.9000000000000000e+01" rms="0.0000000000000000e+00" purity="6.2099361419677734e-01" nType="1"/>
            <Node pos="r" depth="3" NCoef="0" IVar="-1" Cut="0.0000000000000000e+00" cType="1" res="-9.9000000000000000e+01" rms="0.0000000000000000e+00" purity="3.6002662777900696e-01" nType="-1"/>
          </Node>
        </Node>
        <Node pos="r" depth="1" NCoef="0" IVar="15" Cut="1.5754854679107666e+00" cType="0" res="-9.9000000000000000e+01" rms="0.0000000000000000e+00" purity="3.6245843768119812e-01" nType="0">
          <Node pos="l" depth="2" NCoef="0" IVar="-1" Cut="0.0000000000000000e+00" cType="1" res="-9.9000000000000000e+01" rms="0.0000000000000000e+00" purity="6.7147880792617798e-01" nType="1"/>
          <Node pos="r" depth="2" NCoef="0" IVar="13" Cut="2.4395711719989777e-01" cType="0" res="-9.9000000000000000e+01" rms="0.0000000000000000e+00" purity="2.9774221777915955e-01" nType="0">
            <Node pos="l" depth="3" NCoef="0" IVar="-1" Cut="0.0000000000000000e+00" cType="1" res="-9.9000000000000000e+01" rms="0.0000000000000000e+00" purity="5.4037040472030640e-01" nType="1"/>
            <Node pos="r" depth="3" NCoef="0" IVar="-1" Cut="0.0000000000000000e+00" cType="1" res="-9.9000000000000000e+01" rms="0.0000000000000000e+00" purity="2.1011359989643097e-01" nType="-1"/>
          </Node>
        </Node>
      </Node>
    </BinaryTree>
    <BinaryTree type="DecisionTree" boostWeight="2.7034419141183275e-01" itree="5">
      <Node pos="s" depth="0" NCoef="0" IVar="2" Cut="1.6625999212265015e+00" cType="1" res="-9.9000000000000000e+01" rms="0.0000000000000000e+00" purity="4.8262459039688110e-01" nType="0">
        <Node pos="l" depth="1" NCoef="0" IVar="13" Cut="-5.2465569972991943e-01" cType="0" res="-9.9000000000000000e+01" rms="0.0000000000000000e+00" purity="5.3001672029495239e-01" nType="0">
          <Node pos="l" depth="2" NCoef="0" IVar="-1" Cut="1.8376624584197998e-01" cType="1" res="-9.9000000000000000e+01" rms="0.0000000000000000e+00" purity="6.2372332811355591e-01" nType="1"/>
          <Node pos="r" depth="2" NCoef="0" IVar="9" Cut="2.2118253707885742e+00" cType="1" res="-9.9000000000000000e+01" rms="0.0000000000000000e+00" purity="4.3287864327430725e-01" nType="0">
            <Node pos="l" depth="3" NCoef="0" IVar="-1" Cut="0.0000000000000000e+00" cType="1" res="-9.9000000000000000e+01" rms="0.0000000000000000e+00" purity="5.2499145269393921e-01" nType="1"/>
            <Node pos="r" depth="3" NCoef="0" IVar="-1" Cut="0.0000000000000000e+00" cType="1" res="-9.9000000000000000e+01" rms="0.0000000000000000e+00" purity="2.0237420499324799e-01" nType="-1"/>
          </Node>
        </Node>
        <Node pos="r" depth="1" NCoef="0" IVar="4" Cut="3.6699419021606445e+00" cType="0" res="-9.9000000000000000e+01" rms="0.0000000000000000e+00" purity="3.5591489076614380e-01" nType="0">
          <Node pos="l" depth="2" NCoef="0" IVar="10" Cut="-4.2752285003662109e+01" cType="0" res="-9.9000000000000000e+01" rms="0.0000000000000000e+00" purity="4.3907913565635681e-01" nType="0">
            <Node pos="l" depth="3" NCoef="0" IVar="-1" Cut="0.0000000000000000e+00" cType="1" res="-9.9000000000000000e+01" rms="0.0000000000000000e+00" purity="5.4921030998229980e-01" nType="1"/>
            <Node pos="r" depth="3" NCoef="0" IVar="-1" Cut="0.0000000000000000e+00" cType="1" res="-9.9000000000000000e+01" rms="0.0000000000000000e+00" purity="2.7096298336982727e-01" nType="-1"/>
          </Node>
          <Node pos="r" depth="2" NCoef="0" IVar="-1" Cut="0.0000000000000000e+00" cType="1" res="-9.9000000000000000e+01" rms="0.0000000000000000e+00" purity="2.1528936922550201e-01" nType="-1"/>
        </Node>
      </Node>
    </BinaryTree>
    <BinaryTree type="DecisionTree" boostWeight="2.3646995375405558e-01" itree="6">
      <Node pos="s" depth="0" NCoef="0" IVar="11" Cut="3.9209277629852295e+00" cType="0" res="-9.9000000000000000e+01" rms="0.0000000000000000e+00" purity="4.5007210969924927e-01" nType="0">
        <Node pos="l" depth="1" NCoef="0" IVar="-1" Cut="1.8777081966400146e+00" cType="1" res="-9.9000000000000000e+01" rms="0.0000000000000000e+00" purity="6.5660375356674194e-01" nType="1"/>
        <Node pos="r" depth="1" NCoef="0" IVar="8" Cut="1.8664177656173706e+00" cType="1" res="-9.9000000000000000e+01" rms="0.0000000000000000e+00" purity="4.2540964484214783e-01" nType="0">
          <Node pos="l" depth="2" NCoef="0" IVar="4" Cut="3.7730507850646973e+00" cType="0" res="-9.9000000000000000e+01" rms="0.0000000000000000e+00" purity="4.7155544161796570e-01" nType="0">
            <Node pos="l" depth="3" NCoef="0" IVar="-1" Cut="0.0000000000000000e+00" cType="1" res="-9.9000000000000000e+01" rms="0.0000000000000000e+00" purity="5.4664188623428345e-01" nType="1"/>
            <Node pos="r" depth="3" NCoef="0" IVar="-1" Cut="0.0000000000000000e+00" cType="1" res="-9.9000000000000000e+01" rms="0.0000000000000000e+00" purity="3.7691333889961243e-01" nType="-1"/>
          </Node>
          <Node pos="r" depth="2" NCoef="0" IVar="-1" Cut="8.8356578350067139e-01" cType="0" res="-9.9000000000000000e+01" rms="0.0000000000000000e+00" purity="3.1534588336944580e-01" nType="-1"/>
        </Node>
      </Node>
    </BinaryTree>
    <BinaryTree type="DecisionTree" boostWeight="2.4770899072041458e-01" itree="7">
      <Node pos="s" depth="0" NCoef="0" IVar="1" Cut="1.2895225286483765e+00" cType="1" res="-9.9000000000000000e+01" rms="0.0000000000000000e+00" purity="4.5379379391670227e-01" nType="0">
        <Node pos="l" depth="1" NCoef="0" IVar="12" Cut="1.4390650987625122e+00" cType="0" res="-9.9000000000000000e+01" rms="0.0000000000000000e+00" purity="4.9037599563598633e-01" nType="0">
          <Node pos="l" depth="2" NCoef="0" IVar="14" Cut="1.8183862686157227e+01" cType="0" res="-9.9000000000000000e+01" rms="0.0000000000000000e+00" purity="5.2979916334152222e-01" nType="0">
            <Node pos="l" depth="3" NCoef="0" IVar="-1" Cut="0.0000000000000000e+00" cType="1" res="-9.9000000000000000e+01" rms="0.0000000000000000e+00" purity="7.2299021482467651e-01" nType="1"/>
            <Node pos="r" depth="3" NCoef="0" IVar="-1" Cut="0.0000000000000000e+00" cType="1" res="-9.9000000000000000e+01" rms="0.0000000000000000e+00" purity="4.6360966563224792e-01" nType="-1"/>
          </Node>
          <Node pos="r" depth="2" NCoef="0" IVar="-1" Cut="1.2387528419494629e+00" cType="1" res="-9.9000000000000000e+01" rms="0.0000000000000000e+00" purity="3.2540979981422424e-01" nType="-1"/>
        </Node>
        <Node pos="r" depth="1" NCoef="0" IVar="-1" Cut="2.6431696414947510e+00" cType="0" res="-9.9000000000000000e+01" rms="0.0000000000000000e+00" purity="2.8891569375991821e-01" nType="-1"/>
      </Node>
    </BinaryTree>
    <BinaryTree type="DecisionTree" boostWeight="2.1923360543989262e-01" itree="8">
      <Node pos="s" depth="0" NCoef="0" IVar="1" Cut="1.2895225286483765e+00" cType="1" res="-9.9000000000000000e+01" rms="0.0000000000000000e+00" purity="4.9446973204612732e-01" nType="0">
        <Node pos="l" depth="1" NCoef="0" IVar="10" Cut="-4.3327140808105469e+01" cType="0" res="-9.9000000000000000e+01" rms="0.0000000000000000e+00" purity="5.2729129791259766e-01" nType="0">
          <Node pos="l" depth="2" NCoef="0" IVar="15" Cut="8.8356578350067139e-01" cType="0" res="-9.9000000000000000e+01" rms="0.0000000000000000e+00" purity="5.6749790906906128e-01" nType="0">
            <Node pos="l" depth="3" NCoef="0" IVar="-1" Cut="0.0000000000000000e+00" cType="1" res="-9.9000000000000000e+01" rms="0.0000000000000000e+00" purity="6.4598649740219116e-01" nType="1"/>
            <Node pos="r" depth="3" NCoef="0" IVar="-1" Cut="0.0000000000000000e+00" cType="1" res="-9.9000000000000000e+01" rms="0.0000000000000000e+00" purity="4.9339371919631958e-01" nType="-1"/>
          </Node>
          <Node pos="r" depth="2" NCoef="0" IVar="13" Cut="-1.6599985957145691e-01" cType="0" res="-9.9000000000000000e+01" rms="0.0000000000000000e+00" purity="3.7977528572082520e-01" nType="0">
            <Node pos="l" depth="3" NCoef="0" IVar="-1" Cut="0.0000000000000000e+00" cType="1" res="-9.9000000000000000e+01" rms="0.0000000000000000e+00" purity="5.8810955286026001e-01" nType="1"/>
            <Node pos="r" depth="3" NCoef="0" IVar="-1" Cut="0.0000000000000000e+00" cType="1" res="-9.9000000000000000e+01" rms="0.0000000000000000e+00" purity="2.7001577615737915e-01" nType="-1"/>
          </Node>
        </Node>
        <Node pos="r" depth="1" NCoef="0" IVar="-1" Cut="2.6431696414947510e+00" cType="0" res="-9.9000000000000000e+01" rms="0.0000000000000000e+00" purity="3.4232571721076965e-01" nType="-1"/>
      </Node>
    </BinaryTree>
    <BinaryTree type="DecisionTree" boostWeight="2.1286420154078814e-01" itree="9">
      <Node pos="s" depth="0" NCoef="0" IVar="10" Cut="-4.3770305633544922e+01" cType="0" res="-9.9000000000000000e+01" rms="0.0000000000000000e+00" purity="5.0834745168685913e-01" nType="0">
        <Node pos="l" depth="1" NCoef="0" IVar="1" Cut="1.2112067639827728e-01" cType="1" res="-9.9000000000000000e+01" rms="0.0000000000000000e+00" purity="5.2799904346466064e-01" nType="0">
          <Node pos="l" depth="2" NCoef="0" IVar="-1" Cut="3.0654549598693848e+00" cType="0" res="-9.9000000000000000e+01" rms="0.0000000000000000e+00" purity="6.2599843740463257e-01" nType="1"/>
          <Node pos="r" depth="2" NCoef="0" IVar="9" Cut="1.7540907859802246e+00" cType="1" res="-9.9000000000000000e+01" rms="0.0000000000000000e+00" purity="4.7272434830665588e-01" nType="0">
            <Node pos="l" depth="3" NCoef="0" IVar="-1" Cut="0.0000000000000000e+00" cType="1" res="-9.9000000000000000e+01" rms="0.0000000000000000e+00" purity="5.4796171188354492e-01" nType="1"/>
            <Node pos="r" depth="3" NCoef="0" IVar="-1" Cut="0.0000000000000000e+00" cType="1" res="-9.9000000000000000e+01" rms="0.0000000000000000e+00" purity="3.8602179288864136e-01" nType="-1"/>
          </Node>
        </Node>
        <Node pos="r" depth="1" NCoef="0" IVar="-1" Cut="0.0000000000000000e+00" cType="1" res="-9.9000000000000000e+01" rms="0.0000000000000000e+00" purity="2.9673939943313599e-01" nType="-1"/>
      </Node>
    </BinaryTree>
    <BinaryTree type="DecisionTree" boostWeight="1.8260104908034480e-01" itree="10">
      <Node pos="s" depth="0" NCoef="0" IVar="12" Cut="1.3597189188003540e+00" cType="0" res="-9.9000000000000000e+01" rms="0.0000000000000000e+00" purity="4.9300679564476013e-01" nType="0">
        <Node pos="l" depth="1" NCoef="0" IVar="14" Cut="1.7392858505249023e+01" cType="0" res="-9.9000000000000000e+01" rms="0.0000000000000000e+00" purity="5.2050364017486572e-01" nType="0">
          <Node pos="l" depth="2" NCoef="0" IVar="-1" Cut="9.4335831701755524e-02" cType="1" res="-9.9000000000000000e+01" rms="0.0000000000000000e+00" purity="5.7968837022781372e-01" nType="1"/>
          <Node pos="r" depth="2" NCoef="0" IVar="-1" Cut="-4.3004005432128906e+01" cType="0" res="-9.9000000000000000e+01" rms="0.0000000000000000e+00" purity="4.1935142874717712e-01" nType="-1"/>
        </Node>
        <Node pos="r" depth="1" NCoef="0" IVar="-1" Cut="4.3781523704528809e+00" cType="0" res="-9.9000000000000000e+01" rms="0.0000000000000000e+00" purity="3.6014255881309509e-01" nType="-1"/>
      </Node>
    </BinaryTree>
    <BinaryTree type="DecisionTree" boostWeight="1.7376971258839283e-01" itree="11">
      <Node pos="s" depth="0" NCoef="0" IVar="2" Cut="1.6625999212265015e+00" cType="1" res="-9.9000000000000000e+01" rms="0.0000000000000000e+00" purity="4.9078872799873352e-01" nType="0">
        <Node pos="l" depth="1" NCoef="0" IVar="1" Cut="1.8737235069274902e+00" cType="1" res="-9.9000000000000000e+01" rms="0.0000000000000000e+00" purity="5.2354133129119873e-01" nType="0">
          <Node pos="l" depth="2" NCoef="0" IVar="8" Cut="1.3549602031707764e+00" cType="1" res="-9.9000000000000000e+01" rms="0.0000000000000000e+00" purity="5.4854619503021240e-01" nType="0">
            <Node pos="l" depth="3" NCoef="0" IVar="-1" Cut="0.0000000000000000e+00" cType="1" res="-9.9000000000000000e+01" rms="0.0000000000000000e+00" purity="6.3301366567611694e-01" nType="1"/>
            <Node pos="r" depth="3" NCoef="0" IVar="-1" Cut="0.0000000000000000e+00" cType="1" res="-9.9000000000000000e+01" rms="0.0000000000000000e+00" purity="4.8816350102424622e-01" nType="-1"/>
          </Node>
          <Node pos="r" depth="2" NCoef="0" IVar="-1" Cut="0.0000000000000000e+00" cType="1" res="-9.9000000000000000e+01" rms="0.0000000000000000e+00" purity="3.2212278246879578e-01" nType="-1"/>
        </Node>
        <Node pos="r" depth="1" NCoef="0" IVar="4" Cut="4.6337833404541016e+00" cType="0" res="-9.9000000000000000e+01" rms="0.0000000000000000e+00" purity="3.9980098605155945e-01" nType="0">
          <Node pos="l" depth="2" NCoef="0" IVar="-1" Cut="0.0000000000000000e+00" cType="1" res="-9.9000000000000000e+01" rms="0.0000000000000000e+00" purity="5.2656745910644531e-01" nType="1"/>
          <Node pos="r" depth="2" NCoef="0" IVar="-1" Cut="-4.2883979797363281e+01" cType="0" res="-9.9000000000000000e+01" rms="0.0000000000000000e+00" purity="3.4451857209205627e-01" nType="-1"/>
        </Node>
      </Node>
    </BinaryTree>
    <BinaryTree type="DecisionTree" boostWeight="1.9697559477226720e-01" itree="12">
      <Node pos="s" depth="0" NCoef="0" IVar="10" Cut="-4.3327140808105469e+01" cType="0" res="-9.9000000000000000e+01" rms="0.0000000000000000e+00" purity="5.0357770919799805e-01" nType="0">
        <Node pos="l" depth="1" NCoef="0" IVar="4" Cut="3.4569594860076904e+00" cType="0" res="-9.9000000000000000e+01" rms="0.0000000000000000e+00" purity="5.3205883502960205e-01" nType="0">
          <Node pos="l" depth="2" NCoef="0" IVar="-1" Cut="1.2112067639827728e-01" cType="1" res="-9.9000000000000000e+01" rms="0.0000000000000000e+00" purity="5.7910156250000000e-01" nType="1"/>
          <Node pos="r" depth="2" NCoef="0" IVar="-1" Cut="1.0223231315612793e+00" cType="0" res="-9.9000000000000000e+01" rms="0.0000000000000000e+00" purity="4.2154994606971741e-01" nType="-1"/>
        </Node>
        <Node pos="r" depth="1" NCoef="0" IVar="14" Cut="1.7429386138916016e+01" cType="0" res="-9.9000000000000000e+01" rms="0.0000000000000000e+00" purity="3.9491316676139832e-01" nType="0">
          <Node pos="l" depth="2" NCoef="0" IVar="1" Cut="2.6646453142166138e-01" cType="1" res="-9.9000000000000000e+01" rms="0.0000000000000000e+00" purity="4.6282145380973816e-01" nType="0">
            <Node pos="l" depth="3" NCoef="0" IVar="-1" Cut="0.0000000000000000e+00" cType="1" res="-9.9000000000000000e+01" rms="0.0000000000000000e+00" purity="5.9932386875152588e-01" nType="1"/>
            <Node pos="r" depth="3" NCoef="0" IVar="-1" Cut="0.0000000000000000e+00" cType="1" res="-9.9000000000000000e+01" rms="0.0000000000000000e+00" purity="3.6471620202064514e-01" nType="-1"/>
          </Node>
          <Node pos="r" depth="2" NCoef="0" IVar="-1" Cut="0.0000000000000000e+00" cType="1" res="-9.9000000000000000e+01" rms="0.0000000000000000e+00" purity="1.9420430064201355e-01" nType="-1"/>
        </Node>
      </Node>
    </BinaryTree>
    <BinaryTree type="DecisionTree" boostWeight="2.1719548758597698e-01" itree="13">
      <Node pos="s" depth="0" NCoef="0" IVar="2" Cut="1.6625999212265015e+00" cType="1" res="-9.9000000000000000e+01" rms="0.0000000000000000e+00" purity="4.9157372117042542e-01" nType="0">
        <Node pos="l" depth="1" NCoef="0" IVar="6" Cut="2.6005893945693970e-01" cType="1" res="-9.9000000000000000e+01" rms="0.0000000000000000e+00" purity="5.2524334192276001e-01" nType="0">
          <Node pos="l" depth="2" NCoef="0" IVar="-1" Cut="3.8316434621810913e-01" cType="0" res="-9.9000000000000000e+01" rms="0.0000000000000000e+00" purity="5.8130162954330444e-01" nType="1"/>
          <Node pos="r" depth="2" NCoef="0" IVar="1" Cut="2.1233205497264862e-01" cType="1" res="-9.9000000000000000e+01" rms="0.0000000000000000e+00" purity="4.4106230139732361e-01" nType="0">
            <Node pos="l" depth="3" NCoef="0" IVar="-1" Cut="0.0000000000000000e+00" cType="1" res="-9.9000000000000000e+01" rms="0.0000000000000000e+00" purity="5.7491803169250488e-01" nType="1"/>
            <Node pos="r" depth="3" NCoef="0" IVar="-1" Cut="0.0000000000000000e+00" cType="1" res="-9.9000000000000000e+01" rms="0.0000000000000000e+00" purity="3.6243841052055359e-01" nType="-1"/>
          </Node>
        </Node>
        <Node pos="r" depth="1" NCoef="0" IVar="11" Cut="2.1836395263671875e+00" cType="0" res="-9.9000000000000000e+01" rms="0.0000000000000000e+00" purity="3.9877140522003174e-01" nType="0">
          <Node pos="l" depth="2" NCoef="0" IVar="10" Cut="-4.2730163574218750e+01" cType="0" res="-9.9000000000000000e+01" rms="0.0000000000000000e+00" purity="4.5515108108520508e-01" nType="0">
            <Node pos="l" depth="3" NCoef="0" IVar="-1" Cut="0.0000000000000000e+00" cType="1" res="-9.9000000000000000e+01" rms="0.0000000000000000e+00" purity="5.4670959711074829e-01" nType="1"/>
            <Node pos="r" depth="3" NCoef="0" IVar="-1" Cut="0.0000000000000000e+00" cType="1" res="-9.9000000000000000e+01" rms="0.0000000000000000e+00" purity="3.1243318319320679e-01" nType="-1"/>
          </Node>
          <Node pos="r" depth="2" NCoef="0" IVar="-1" Cut="0.0000000000000000e+00" cType="1" res="-9.9000000000000000e+01" rms="0.0000000000000000e+00" purity="2.6693770289421082e-01" nType="-1"/>
        </Node>
      </Node>
    </BinaryTree>
    <BinaryTree type="DecisionTree" boostWeight="2.6687241319495569e-01" itree="14">
      <Node pos="s" depth="0" NCoef="0" IVar="9" Cut="1.4993993043899536e+00" cType="1" res="-9.9000000000000000e+01" rms="0.0000000000000000e+00" purity="4.7336927056312561e-01" nType="0">
        <Node pos="l" depth="1" NCoef="0" IVar="3" Cut="7.6924633979797363e-01" cType="0" res="-9.9000000000000000e+01" rms="0.0000000000000000e+00" purity="5.3583002090454102e-01" nType="0">
          <Node pos="l" depth="2" NCoef="0" IVar="10" Cut="-4.3267555236816406e+01" cType="0" res="-9.9000000000000000e+01" rms="0.0000000000000000e+00" purity="5.7360774278640747e-01" nType="0">
            <Node pos="l" depth="3" NCoef="0" IVar="-1" Cut="0.0000000000000000e+00" cType="1" res="-9.9000000000000000e+01" rms="0.0000000000000000e+00" purity="6.3208305835723877e-01" nType="1"/>
            <Node pos="r" depth="3" NCoef="0" IVar="-1" Cut="0.0000000000000000e+00" cType="1" res="-9.9000000000000000e+01" rms="0.0000000000000000e+00" purity="3.7959924340248108e-01" nType="-1"/>
          </Node>
          <Node pos="r" depth="2" NCoef="0" IVar="-1" Cut="0.0000000000000000e+00" cType="1" res="-9.9000000000000000e+01" rms="0.0000000000000000e+00" purity="3.7383264303207397e-01" nType="-1"/>
        </Node>
        <Node pos="r" depth="1" NCoef="0" IVar="13" Cut="-1.5412685275077820e-01" cType="0" res="-9.9000000000000000e+01" rms="0.0000000000000000e+00" purity="4.3654578924179077e-01" nType="0">
          <Node pos="l" depth="2" NCoef="0" IVar="6" Cut="1.5577796101570129e-01" cType="1" res="-9.9000000000000000e+01" rms="0.0000000000000000e+00" purity="5.5699563026428223e-01" nType="0">
            <Node pos="l" depth="3" NCoef="0" IVar="-1" Cut="0.0000000000000000e+00" cType="1" res="-9.9000000000000000e+01" rms="0.0000000000000000e+00" purity="6.7763262987136841e-01" nType="1"/>
            <Node pos="r" depth="3" NCoef="0" IVar="-1" Cut="0.0000000000000000e+00" cType="1" res="-9.9000000000000000e+01" rms="0.0000000000000000e+00" purity="4.2172211408615112e-01" nType="-1"/>
          </Node>
          <Node pos="r" depth="2" NCoef="0" IVar="12" Cut="3.1216757297515869e+00" cType="0" res="-9.9000000000000000e+01" rms="0.0000000000000000e+00" purity="3.8038775324821472e-01" nType="0">
            <Node pos="l" depth="3" NCoef="0" IVar="-1" Cut="0.0000000000000000e+00" cType="1" res="-9.9000000000000000e+01" rms="0.0000000000000000e+00" purity="5.2235192060470581e-01" nType="1"/>
            <Node pos="r" depth="3" NCoef="0" IVar="-1" Cut="0.0000000000000000e+00" cType="1" res="-9.9000000000000000e+01" rms="0.0000000000000000e+00" purity="3.2883399724960327e-01" nType="-1"/>
          </Node>
        </Node>
      </Node>
    </BinaryTree>
    <BinaryTree type="DecisionTree" boostWeight="1.8673163843618751e-01" itree="15">
      <Node pos="s" depth="0" NCoef="0" IVar="15" Cut="2.2674050331115723e+00" cType="0" res="-9.9000000000000000e+01" rms="0.0000000000000000e+00" purity="4.7912779450416565e-01" nType="0">
        <Node pos="l" depth="1" NCoef="0" IVar="-1" Cut="0.0000000000000000e+00" cType="1" res="-9.9000000000000000e+01" rms="0.0000000000000000e+00" purity="6.3383758068084717e-01" nType="1"/>
        <Node pos="r" depth="1" NCoef="0" IVar="2" Cut="1.0015921592712402e+00" cType="1" res="-9.9000000000000000e+01" rms="0.0000000000000000e+00" purity="4.6219304203987122e-01" nType="0">
          <Node pos="l" depth="2" NCoef="0" IVar="13" Cut="-5.8484834432601929e-01" cType="0" res="-9.9000000000000000e+01" rms="0.0000000000000000e+00" purity="5.1632541418075562e-01" nType="0">
            <Node pos="l" depth="3" NCoef="0" IVar="-1" Cut="0.0000000000000000e+00" cType="1" res="-9.9000000000000000e+01" rms="0.0000000000000000e+00" purity="5.8170783519744873e-01" nType="1"/>
            <Node pos="r" depth="3" NCoef="0" IVar="-1" Cut="0.0000000000000000e+00" cType="1" res="-9.9000000000000000e+01" rms="0.0000000000000000e+00" purity="4.3072676658630371e-01" nType="-1"/>
          </Node>
          <Node pos="r" depth="2" NCoef="0" IVar="-1" Cut="5.1211643218994141e-01" cType="0" res="-9.9000000000000000e+01" rms="0.0000000000000000e+00" purity="3.9889106154441833e-01" nType="-1"/>
        </Node>
      </Node>
    </BinaryTree>
    <BinaryTree type="DecisionTree" boostWeight="1.3778717827602188e-01" itree="16">
      <Node pos="s" depth="0" NCoef="0" IVar="1" Cut="-1.7097979784011841e-01" cType="1" res="-9.9000000000000000e+01" rms="0.0000000000000000e+00" purity="4.9068671464920044e-01" nType="0">
        <Node pos="l" depth="1" NCoef="0" IVar="-1" Cut="-9.9051785469055176e-01" cType="0" res="-9.9000000000000000e+01" rms="0.0000000000000000e+00" purity="6.2879747152328491e-01" nType="1"/>
        <Node pos="r" depth="1" NCoef="0" IVar="8" Cut="2.3833856582641602e+00" cType="1" res="-9.9000000000000000e+01" rms="0.0000000000000000e+00" purity="4.7404271364212036e-01" nType="0">
          <Node pos="l" depth="2" NCoef="0" IVar="0" Cut="5.2639617187500000e+04" cType="0" res="-9.9000000000000000e+01" rms="0.0000000000000000e+00" purity="4.9010252952575684e-01" nType="0">
            <Node pos="l" depth="3" NCoef="0" IVar="-1" Cut="0.0000000000000000e+00" cType="1" res="-9.9000000000000000e+01" rms="0.0000000000000000e+00" purity="5.3167122602462769e-01" nType="1"/>
            <Node pos="r" depth="3" NCoef="0" IVar="-1" Cut="0.0000000000000000e+00" cType="1" res="-9.9000000000000000e+01" rms="0.0000000000000000e+00" purity="4.2330494523048401e-01" nType="-1"/>
          </Node>
          <Node pos="r" depth="2" NCoef="0" IVar="-1" Cut="0.0000000000000000e+00" cType="1" res="-9.9000000000000000e+01" rms="0.0000000000000000e+00" purity="3.2562181353569031e-01" nType="-1"/>
        </Node>
      </Node>
    </BinaryTree>
    <BinaryTree type="DecisionTree" boostWeight="1.2711748914963633e-01" itree="17">
      <Node pos="s" depth="0" NCoef="0" IVar="1" Cut="1.8737235069274902e+00" cType="1" res="-9.9000000000000000e+01" rms="0.0000000000000000e+00" purity="4.8338007926940918e-01" nType="0">
        <Node pos="l" depth="1" NCoef="0" IVar="3" Cut="2.1977400779724121e+00" cType="1" res="-9.9000000000000000e+01" rms="0.0000000000000000e+00" purity="5.0073903799057007e-01" nType="0">
          <Node pos="l" depth="2" NCoef="0" IVar="4" Cut="4.4687652587890625e+00" cType="0" res="-9.9000000000000000e+01" rms="0.0000000000000000e+00" purity="5.2284723520278931e-01" nType="0">
            <Node pos="l" depth="3" NCoef="0" IVar="-1" Cut="0.0000000000000000e+00" cType="1" res="-9.9000000000000000e+01" rms="0.0000000000000000e+00" purity="6.0300087928771973e-01" nType="1"/>
            <Node pos="r" depth="3" NCoef="0" IVar="-1" Cut="0.0000000000000000e+00" cType="1" res="-9.9000000000000000e+01" rms="0.0000000000000000e+00" purity="4.8642906546592712e-01" nType="-1"/>
          </Node>
          <Node pos="r" depth="2" NCoef="0" IVar="-1" Cut="1.7367459833621979e-01" cType="1" res="-9.9000000000000000e+01" rms="0.0000000000000000e+00" purity="3.9783200621604919e-01" nType="-1"/>
        </Node>
        <Node pos="r" depth="1" NCoef="0" IVar="-1" Cut="2.4328246116638184e+00" cType="1" res="-9.9000000000000000e+01" rms="0.0000000000000000e+00" purity="3.5653513669967651e-01" nType="-1"/>
      </Node>
    </BinaryTree>
    <BinaryTree type="DecisionTree" boostWeight="1.9292358816158303e-01" itree="18">
      <Node pos="s" depth="0" NCoef="0" IVar="11" Cut="3.0103156566619873e+00" cType="0" res="-9.9000000000000000e+01" rms="0.0000000000000000e+00" purity="5.0076484680175781e-01" nType="0">
        <Node pos="l" depth="1" NCoef="0" IVar="14" Cut="1.8317884445190430e+01" cType="0" res="-9.9000000000000000e+01" rms="0.0000000000000000e+00" purity="5.6125992536544800e-01" nType="0">
          <Node pos="l" depth="2" NCoef="0" IVar="-1" Cut="0.0000000000000000e+00" cType="1" res="-9.9000000000000000e+01" rms="0.0000000000000000e+00" purity="7.1465641260147095e-01" nType="1"/>
          <Node pos="r" depth="2" NCoef="0" IVar="10" Cut="-4.3186431884765625e+01" cType="0" res="-9.9000000000000000e+01" rms="0.0000000000000000e+00" purity="5.1986402273178101e-01" nType="0">
            <Node pos="l" depth="3" NCoef="0" IVar="-1" Cut="0.0000000000000000e+00" cType="1" res="-9.9000000000000000e+01" rms="0.0000000000000000e+00" purity="5.6360918283462524e-01" nType="1"/>
            <Node pos="r" depth="3" NCoef="0" IVar="-1" Cut="0.0000000000000000e+00" cType="1" res="-9.9000000000000000e+01" rms="0.0000000000000000e+00" purity="3.1666502356529236e-01" nType="-1"/>
          </Node>
        </Node>
        <Node pos="r" depth="1" NCoef="0" IVar="13" Cut="-4.2574822902679443e-01" cType="0" res="-9.9000000000000000e+01" rms="0.0000000000000000e+00" purity="4.6595019102096558e-01" nType="0">
          <Node pos="l" depth="2" NCoef="0" IVar="2" Cut="6.0841590166091919e-01" cType="1" res="-9.9000000000000000e+01" rms="0.0000000000000000e+00" purity="5.2668374776840210e-01" nType="0">
            <Node pos="l" depth="3" NCoef="0" IVar="-1" Cut="0.0000000000000000e+00" cType="1" res="-9.9000000000000000e+01" rms="0.0000000000000000e+00" purity="6.3438957929611206e-01" nType="1"/>
            <Node pos="r" depth="3" NCoef="0" IVar="-1" Cut="0.0000000000000000e+00" cType="1" res="-9.9000000000000000e+01" rms="0.0000000000000000e+00" purity="4.5713073015213013e-01" nType="-1"/>
          </Node>
          <Node pos="r" depth="2" NCoef="0" IVar="-1" Cut="1.8107178211212158e+00" cType="1" res="-9.9000000000000000e+01" rms="0.0000000000000000e+00" purity="4.0826219320297241e-01" nType="-1"/>
        </Node>
      </Node>
    </BinaryTree>
    <BinaryTree type="DecisionTree" boostWeight="1.3971963250982858e-01" itree="19">
      <Node pos="s" depth="0" NCoef="0" IVar="1" Cut="1.8737235069274902e+00" cType="1" res="-9.9000000000000000e+01" rms="0.0000000000000000e+00" purity="5.0708317756652832e-01" nType="0">
        <Node pos="l" depth="1" NCoef="0" IVar="5" Cut="2.1088365554809570e+01" cType="0" res="-9.9000000000000000e+01" rms="0.0000000000000000e+00" purity="5.2359008789062500e-01" nType="0">
          <Node pos="l" depth="2" NCoef="0" IVar="12" Cut="1.7521953582763672e+00" cType="0" res="-9.9000000000000000e+01" rms="0.0000000000000000e+00" purity="5.3484523296356201e-01" nType="0">
            <Node pos="l" depth="3" NCoef="0" IVar="-1" Cut="0.0000000000000000e+00" cType="1" res="-9.9000000000000000e+01" rms="0.0000000000000000e+00" purity="5.6480729579925537e-01" nType="1"/>
            <Node pos="r" depth="3" NCoef="0" IVar="-1" Cut="0.0000000000000000e+00" cType="1" res="-9.9000000000000000e+01" rms="0.0000000000000000e+00" purity="4.6049705147743225e-01" nType="-1"/>
          </Node>
          <Node pos="r" depth="2" NCoef="0" IVar="-1" Cut="0.0000000000000000e+00" cType="1" res="-9.9000000000000000e+01" rms="0.0000000000000000e+00" purity="3.4745645523071289e-01" nType="-1"/>
        </Node>
        <Node pos="r" depth="1" NCoef="0" IVar="-1" Cut="2.4328246116638184e+00" cType="1" res="-9.9000000000000000e+01" rms="0.0000000000000000e+00" purity="3.8500940799713135e-01" nType="-1"/>
      </Node>
    </BinaryTree>
    <BinaryTree type="DecisionTree" boostWeight="1.6939664289402467e-01" itree="20">
      <Node pos="s" depth="0" NCoef="0" IVar="1" Cut="-1.7097979784011841e-01" cType="1" res="-9.9000000000000000e+01" rms="0.0000000000000000e+00" purity="5.0080335140228271e-01" nType="0">
        <Node pos="l" depth="1" NCoef="0" IVar="13" Cut="-9.9051785469055176e-01" cType="0" res="-9.9000000000000000e+01" rms="0.0000000000000000e+00" purity="6.1191183328628540e-01" nType="0">
          <Node pos="l" depth="2" NCoef="0" IVar="-1" Cut="0.0000000000000000e+00" cType="1" res="-9.9000000000000000e+01" rms="0.0000000000000000e+00" purity="7.3286068439483643e-01" nType="1"/>
          <Node pos="r" depth="2" NCoef="0" IVar="-1" Cut="0.0000000000000000e+00" cType="1" res="-9.9000000000000000e+01" rms="0.0000000000000000e+00" purity="4.9870622158050537e-01" nType="-1"/>
        </Node>
        <Node pos="r" depth="1" NCoef="0" IVar="3" Cut="2.0591814517974854e+00" cType="1" res="-9.9000000000000000e+01" rms="0.0000000000000000e+00" purity="4.8756569623947144e-01" nType="0">
          <Node pos="l" depth="2" NCoef="0" IVar="3" Cut="1.0280579328536987e+00" cType="0" res="-9.9000000000000000e+01" rms="0.0000000000000000e+00" purity="5.1059877872467041e-01" nType="0">
            <Node pos="l" depth="3" NCoef="0" IVar="-1" Cut="0.0000000000000000e+00" cType="1" res="-9.9000000000000000e+01" rms="0.0000000000000000e+00" purity="5.5180042982101440e-01" nType="1"/>
            <Node pos="r" depth="3" NCoef="0" IVar="-1" Cut="0.0000000000000000e+00" cType="1" res="-9.9000000000000000e+01" rms="0.0000000000000000e+00" purity="4.2680633068084717e-01" nType="-1"/>
          </Node>
          <Node pos="r" depth="2" NCoef="0" IVar="13" Cut="3.8316434621810913e-01" cType="0" res="-9.9000000000000000e+01" rms="0.0000000000000000e+00" purity="4.0711718797683716e-01" nType="0">
            <Node pos="l" depth="3" NCoef="0" IVar="-1" Cut="0.0000000000000000e+00" cType="1" res="-9.9000000000000000e+01" rms="0.0000000000000000e+00" purity="6.0683166980743408e-01" nType="1"/>
            <Node pos="r" depth="3" NCoef="0" IVar="-1" Cut="0.0000000000000000e+00" cType="1" res="-9.9000000000000000e+01" rms="0.0000000000000000e+00" purity="3.2401940226554871e-01" nType="-1"/>
          </Node>
        </Node>
      </Node>
    </BinaryTree>
    <BinaryTree type="DecisionTree" boostWeight="8.4129700815777031e-02" itree="21">
      <Node pos="s" depth="0" NCoef="0" IVar="15" Cut="2.9593248367309570e+00" cType="0" res="-9.9000000000000000e+01" rms="0.0000000000000000e+00" purity="4.9433645606040955e-01" nType="0">
        <Node pos="l" depth="1" NCoef="0" IVar="-1" Cut="0.0000000000000000e+00" cType="1" res="-9.9000000000000000e+01" rms="0.0000000000000000e+00" purity="6.6463339328765869e-01" nType="1"/>
        <Node pos="r" depth="1" NCoef="0" IVar="9" Cut="4.8399305343627930e-01" cType="1" res="-9.9000000000000000e+01" rms="0.0000000000000000e+00" purity="4.8376622796058655e-01" nType="0">
          <Node pos="l" depth="2" NCoef="0" IVar="-1" Cut="0.0000000000000000e+00" cType="1" res="-9.9000000000000000e+01" rms="0.0000000000000000e+00" purity="6.4701908826828003e-01" nType="1"/>
          <Node pos="r" depth="2" NCoef="0" IVar="-1" Cut="2.3183166980743408e+00" cType="1" res="-9.9000000000000000e+01" rms="0.0000000000000000e+00" purity="4.7304627299308777e-01" nType="-1"/>
        </Node>
      </Node>
    </BinaryTree>
    <BinaryTree type="DecisionTree" boostWeight="1.2424111307045230e-01" itree="22">
      <Node pos="s" depth="0" NCoef="0" IVar="1" Cut="-1.7097979784011841e-01" cType="1" res="-9.9000000000000000e+01" rms="0.0000000000000000e+00" purity="5.1049757003784180e-01" nType="0">
        <Node pos="l" depth="1" NCoef="0" IVar="-1" Cut="2.4741439819335938e+00" cType="0" res="-9.9000000000000000e+01" rms="0.0000000000000000e+00" purity="6.2957543134689331e-01" nType="1"/>
        <Node pos="r" depth="1" NCoef="0" IVar="4" Cut="2.7233414649963379e+00" cType="0" res="-9.9000000000000000e+01" rms="0.0000000000000000e+00" purity="4.9629110097885132e-01" nType="0">
          <Node pos="l" depth="2" NCoef="0" IVar="9" Cut="1.9582163095474243e+00" cType="1" res="-9.9000000000000000e+01" rms="0.0000000000000000e+00" purity="5.0732105970382690e-01" nType="0">
            <Node pos="l" depth="3" NCoef="0" IVar="-1" Cut="0.0000000000000000e+00" cType="1" res="-9.9000000000000000e+01" rms="0.0000000000000000e+00" purity="5.4209280014038086e-01" nType="1"/>
            <Node pos="r" depth="3" NCoef="0" IVar="-1" Cut="0.0000000000000000e+00" cType="1" res="-9.9000000000000000e+01" rms="0.0000000000000000e+00" purity="4.4270250201225281e-01" nType="-1"/>
          </Node>
          <Node pos="r" depth="2" NCoef="0" IVar="-1" Cut="0.0000000000000000e+00" cType="1" res="-9.9000000000000000e+01" rms="0.0000000000000000e+00" purity="3.7954649329185486e-01" nType="-1"/>
        </Node>
      </Node>
    </BinaryTree>
    <BinaryTree type="DecisionTree" boostWeight="1.2932657348013915e-01" itree="23">
      <Node pos="s" depth="0" NCoef="0" IVar="11" Cut="1.1890913248062134e+00" cType="0" res="-9.9000000000000000e+01" rms="0.0000000000000000e+00" purity="5.0199478864669800e-01" nType="0">
        <Node pos="l" depth="1" NCoef="0" IVar="2" Cut="2.1442134380340576e+00" cType="1" res="-9.9000000000000000e+01" rms="0.0000000000000000e+00" purity="5.1119542121887207e-01" nType="0">
          <Node pos="l" depth="2" NCoef="0" IVar="8" Cut="2.4423713684082031e+00" cType="1" res="-9.9000000000000000e+01" rms="0.0000000000000000e+00" purity="5.2944082021713257e-01" nType="0">
            <Node pos="l" depth="3" NCoef="0" IVar="-1" Cut="0.0000000000000000e+00" cType="1" res="-9.9000000000000000e+01" rms="0.0000000000000000e+00" purity="5.4448819160461426e-01" nType="1"/>
            <Node pos="r" depth="3" NCoef="0" IVar="-1" Cut="0.0000000000000000e+00" cType="1" res="-9.9000000000000000e+01" rms="0.0000000000000000e+00" purity="3.9114749431610107e-01" nType="-1"/>
          </Node>
          <Node pos="r" depth="2" NCoef="0" IVar="15" Cut="8.1223297119140625e-01" cType="0" res="-9.9000000000000000e+01" rms="0.0000000000000000e+00" purity="4.2768597602844238e-01" nType="0">
            <Node pos="l" depth="3" NCoef="0" IVar="-1" Cut="0.0000000000000000e+00" cType="1" res="-9.9000000000000000e+01" rms="0.0000000000000000e+00" purity="5.2396798133850098e-01" nType="1"/>
            <Node pos="r" depth="3" NCoef="0" IVar="-1" Cut="0.0000000000000000e+00" cType="1" res="-9.9000000000000000e+01" rms="0.0000000000000000e+00" purity="3.0361795425415039e-01" nType="-1"/>
          </Node>
        </Node>
        <Node pos="r" depth="1" NCoef="0" IVar="-1" Cut="0.0000000000000000e+00" cType="1" res="-9.9000000000000000e+01" rms="0.0000000000000000e+00" purity="3.6323601007461548e-01" nType="-1"/>
      </Node>
    </BinaryTree>
    <BinaryTree type="DecisionTree" boostWeight="1.3974966426058094e-01" itree="24">
      <Node pos="s" depth="0" NCoef="0" IVar="1" Cut="-1.7097979784011841e-01" cType="1" res="-9.9000000000000000e+01" rms="0.0000000000000000e+00" purity="4.8320567607879639e-01" nType="0">
        <Node pos="l" depth="1" NCoef="0" IVar="12" Cut="2.4741439819335938e+00" cType="0" res="-9.9000000000000000e+01" rms="0.0000000000000000e+00" purity="5.8686661720275879e-01" nType="0">
          <Node pos="l" depth="2" NCoef="0" IVar="-1" Cut="0.0000000000000000e+00" cType="1" res="-9.9000000000000000e+01" rms="0.0000000000000000e+00" purity="6.9592171907424927e-01" nType="1"/>
          <Node pos="r" depth="2" NCoef="0" IVar="-1" Cut="0.0000000000000000e+00" cType="1" res="-9.9000000000000000e+01" rms="0.0000000000000000e+00" purity="4.7044229507446289e-01" nType="-1"/>
        </Node>
        <Node pos="r" depth="1" NCoef="0" IVar="3" Cut="2.0591814517974854e+00" cType="1" res="-9.9000000000000000e+01" rms="0.0000000000000000e+00" purity="4.7095543146133423e-01" nType="0">
          <Node pos="l" depth="2" NCoef="0" IVar="8" Cut="1.7155404090881348e+00" cType="1" res="-9.9000000000000000e+01" rms="0.0000000000000000e+00" purity="4.8791036009788513e-01" nType="0">
            <Node pos="l" depth="3" NCoef="0" IVar="-1" Cut="0.0000000000000000e+00" cType="1" res="-9.9000000000000000e+01" rms="0.0000000000000000e+00" purity="5.2658075094223022e-01" nType="1"/>
            <Node pos="r" depth="3" NCoef="0" IVar="-1" Cut="0.0000000000000000e+00" cType="1" res="-9.9000000000000000e+01" rms="0.0000000000000000e+00" purity="4.2092087864875793e-01" nType="-1"/>
          </Node>
          <Node pos="r" depth="2" NCoef="0" IVar="13" Cut="3.8316434621810913e-01" cType="0" res="-9.9000000000000000e+01" rms="0.0000000000000000e+00" purity="4.1107496619224548e-01" nType="0">
            <Node pos="l" depth="3" NCoef="0" IVar="-1" Cut="0.0000000000000000e+00" cType="1" res="-9.9000000000000000e+01" rms="0.0000000000000000e+00" purity="5.6541055440902710e-01" nType="1"/>
            <Node pos="r" depth="3" NCoef="0" IVar="-1" Cut="0.0000000000000000e+00" cType="1" res="-9.9000000000000000e+01" rms="0.0000000000000000e+00" purity="3.4481236338615417e-01" nType="-1"/>
          </Node>
        </Node>
      </Node>
    </BinaryTree>
    <BinaryTree type="DecisionTree" boostWeight="9.5443318385395229e-02" itree="25">
      <Node pos="s" depth="0" NCoef="0" IVar="1" Cut="-1.7097979784011841e-01" cType="1" res="-9.9000000000000000e+01" rms="0.0000000000000000e+00" purity="4.7911536693572998e-01" nType="0">
        <Node pos="l" depth="1" NCoef="0" IVar="-1" Cut="2.4741439819335938e+00" cType="0" res="-9.9000000000000000e+01" rms="0.0000000000000000e+00" purity="5.8713018894195557e-01" nType="1"/>
        <Node pos="r" depth="1" NCoef="0" IVar="4" Cut="3.0534873008728027e+00" cType="0" res="-9.9000000000000000e+01" rms="0.0000000000000000e+00" purity="4.6644303202629089e-01" nType="0">
          <Node pos="l" depth="2" NCoef="0" IVar="2" Cut="1.4744323492050171e+00" cType="1" res="-9.9000000000000000e+01" rms="0.0000000000000000e+00" purity="4.8153129220008850e-01" nType="0">
            <Node pos="l" depth="3" NCoef="0" IVar="-1" Cut="0.0000000000000000e+00" cType="1" res="-9.9000000000000000e+01" rms="0.0000000000000000e+00" purity="5.0851541757583618e-01" nType="1"/>
            <Node pos="r" depth="3" NCoef="0" IVar="-1" Cut="0.0000000000000000e+00" cType="1" res="-9.9000000000000000e+01" rms="0.0000000000000000e+00" purity="4.2741256952285767e-01" nType="-1"/>
          </Node>
          <Node pos="r" depth="2" NCoef="0" IVar="-1" Cut="2.2977529525756836e+01" cType="0" res="-9.9000000000000000e+01" rms="0.0000000000000000e+00" purity="3.9512515068054199e-01" nType="-1"/>
        </Node>
      </Node>
    </BinaryTree>
    <BinaryTree type="DecisionTree" boostWeight="1.0981543966255963e-01" itree="26">
      <Node pos="s" depth="0" NCoef="0" IVar="15" Cut="2.9593248367309570e+00" cType="0" res="-9.9000000000000000e+01" rms="0.0000000000000000e+00" purity="4.7432881593704224e-01" nType="0">
        <Node pos="l" depth="1" NCoef="0" IVar="-1" Cut="0.0000000000000000e+00" cType="1" res="-9.9000000000000000e+01" rms="0.0000000000000000e+00" purity="6.2271636724472046e-01" nType="1"/>
        <Node pos="r" depth="1" NCoef="0" IVar="4" Cut="5.5507264137268066e+00" cType="0" res="-9.9000000000000000e+01" rms="0.0000000000000000e+00" purity="4.6497908234596252e-01" nType="0">
          <Node pos="l" depth="2" NCoef="0" IVar="-1" Cut="0.0000000000000000e+00" cType="1" res="-9.9000000000000000e+01" rms="0.0000000000000000e+00" purity="6.0153454542160034e-01" nType="1"/>
          <Node pos="r" depth="2" NCoef="0" IVar="-1" Cut="1.1120058298110962e+00" cType="1" res="-9.9000000000000000e+01" rms="0.0000000000000000e+00" purity="4.5378857851028442e-01" nType="-1"/>
        </Node>
      </Node>
    </BinaryTree>
    <BinaryTree type="DecisionTree" boostWeight="1.0280364296106873e-01" itree="27">
      <Node pos="s" depth="0" NCoef="0" IVar="11" Cut="4.2244653701782227e+00" cType="0" res="-9.9000000000000000e+01" rms="0.0000000000000000e+00" purity="4.9456280469894409e-01" nType="0">
        <Node pos="l" depth="1" NCoef="0" IVar="-1" Cut="0.0000000000000000e+00" cType="1" res="-9.9000000000000000e+01" rms="0.0000000000000000e+00" purity="6.4316540956497192e-01" nType="1"/>
        <Node pos="r" depth="1" NCoef="0" IVar="4" Cut="2.9303991794586182e+00" cType="0" res="-9.9000000000000000e+01" rms="0.0000000000000000e+00" purity="4.8609122633934021e-01" nType="0">
          <Node pos="l" depth="2" NCoef="0" IVar="1" Cut="6.6782283782958984e-01" cType="1" res="-9.9000000000000000e+01" rms="0.0000000000000000e+00" purity="4.9952501058578491e-01" nType="0">
            <Node pos="l" depth="3" NCoef="0" IVar="-1" Cut="0.0000000000000000e+00" cType="1" res="-9.9000000000000000e+01" rms="0.0000000000000000e+00" purity="5.2762109041213989e-01" nType="1"/>
            <Node pos="r" depth="3" NCoef="0" IVar="-1" Cut="0.0000000000000000e+00" cType="1" res="-9.9000000000000000e+01" rms="0.0000000000000000e+00" purity="4.4111952185630798e-01" nType="-1"/>
          </Node>
          <Node pos="r" depth="2" NCoef="0" IVar="-1" Cut="-3.6469194293022156e-01" cType="0" res="-9.9000000000000000e+01" rms="0.0000000000000000e+00" purity="4.0368375182151794e-01" nType="-1"/>
        </Node>
      </Node>
    </BinaryTree>
    <BinaryTree type="DecisionTree" boostWeight="1.2323594863903048e-01" itree="28">
      <Node pos="s" depth="0" NCoef="0" IVar="11" Cut="4.2244653701782227e+00" cType="0" res="-9.9000000000000000e+01" rms="0.0000000000000000e+00" purity="4.8920714855194092e-01" nType="0">
        <Node pos="l" depth="1" NCoef="0" IVar="-1" Cut="0.0000000000000000e+00" cType="1" res="-9.9000000000000000e+01" rms="0.0000000000000000e+00" purity="6.1924052238464355e-01" nType="1"/>
        <Node pos="r" depth="1" NCoef="0" IVar="9" Cut="1.4993993043899536e+00" cType="1" res="-9.9000000000000000e+01" rms="0.0000000000000000e+00" purity="4.8186850547790527e-01" nType="0">
          <Node pos="l" depth="2" NCoef="0" IVar="13" Cut="-1.0579276084899902e+00" cType="1" res="-9.9000000000000000e+01" rms="0.0000000000000000e+00" purity="5.1933956146240234e-01" nType="0">
            <Node pos="l" depth="3" NCoef="0" IVar="-1" Cut="0.0000000000000000e+00" cType="1" res="-9.9000000000000000e+01" rms="0.0000000000000000e+00" purity="6.6145080327987671e-01" nType="1"/>
            <Node pos="r" depth="3" NCoef="0" IVar="-1" Cut="0.0000000000000000e+00" cType="1" res="-9.9000000000000000e+01" rms="0.0000000000000000e+00" purity="4.9091064929962158e-01" nType="-1"/>
          </Node>
          <Node pos="r" depth="2" NCoef="0" IVar="13" Cut="-1.5412685275077820e-01" cType="0" res="-9.9000000000000000e+01" rms="0.0000000000000000e+00" purity="4.5873501896858215e-01" nType="0">
            <Node pos="l" depth="3" NCoef="0" IVar="-1" Cut="0.0000000000000000e+00" cType="1" res="-9.9000000000000000e+01" rms="0.0000000000000000e+00" purity="5.4865688085556030e-01" nType="1"/>
            <Node pos="r" depth="3" NCoef="0" IVar="-1" Cut="0.0000000000000000e+00" cType="1" res="-9.9000000000000000e+01" rms="0.0000000000000000e+00" purity="4.1607344150543213e-01" nType="-1"/>
          </Node>
        </Node>
      </Node>
    </BinaryTree>
    <BinaryTree type="DecisionTree" boostWeight="1.5422878985609079e-01" itree="29">
      <Node pos="s" depth="0" NCoef="0" IVar="9" Cut="1.4993993043899536e+00" cType="1" res="-9.9000000000000000e+01" rms="0.0000000000000000e+00" purity="5.0140434503555298e-01" nType="0">
        <Node pos="l" depth="1" NCoef="0" IVar="14" Cut="1.7644279479980469e+01" cType="0" res="-9.9000000000000000e+01" rms="0.0000000000000000e+00" purity="5.4568755626678467e-01" nType="0">
          <Node pos="l" depth="2" NCoef="0" IVar="-1" Cut="1.5629733800888062e+00" cType="0" res="-9.9000000000000000e+01" rms="0.0000000000000000e+00" purity="6.0665035247802734e-01" nType="1"/>
          <Node pos="r" depth="2" NCoef="0" IVar="8" Cut="1.8776668310165405e+00" cType="1" res="-9.9000000000000000e+01" rms="0.0000000000000000e+00" purity="4.7038608789443970e-01" nType="0">
            <Node pos="l" depth="3" NCoef="0" IVar="-1" Cut="0.0000000000000000e+00" cType="1" res="-9.9000000000000000e+01" rms="0.0000000000000000e+00" purity="5.6323516368865967e-01" nType="1"/>
            <Node pos="r" depth="3" NCoef="0" IVar="-1" Cut="0.0000000000000000e+00" cType="1" res="-9.9000000000000000e+01" rms="0.0000000000000000e+00" purity="2.9525101184844971e-01" nType="-1"/>
          </Node>
        </Node>
        <Node pos="r" depth="1" NCoef="0" IVar="1" Cut="-1.7097979784011841e-01" cType="1" res="-9.9000000000000000e+01" rms="0.0000000000000000e+00" purity="4.7450411319732666e-01" nType="0">
          <Node pos="l" depth="2" NCoef="0" IVar="-1" Cut="0.0000000000000000e+00" cType="1" res="-9.9000000000000000e+01" rms="0.0000000000000000e+00" purity="5.5867636203765869e-01" nType="1"/>
          <Node pos="r" depth="2" NCoef="0" IVar="13" Cut="3.9498728513717651e-01" cType="0" res="-9.9000000000000000e+01" rms="0.0000000000000000e+00" purity="4.6101376414299011e-01" nType="0">
            <Node pos="l" depth="3" NCoef="0" IVar="-1" Cut="0.0000000000000000e+00" cType="1" res="-9.9000000000000000e+01" rms="0.0000000000000000e+00" purity="5.5407488346099854e-01" nType="1"/>
            <Node pos="r" depth="3" NCoef="0" IVar="-1" Cut="0.0000000000000000e+00" cType="1" res="-9.9000000000000000e+01" rms="0.0000000000000000e+00" purity="4.4321277737617493e-01" nType="-1"/>
          </Node>
        </Node>
      </Node>
    </BinaryTree>
    <BinaryTree type="DecisionTree" boostWeight="1.0507238167940668e-01" itree="30">
      <Node pos="s" depth="0" NCoef="0" IVar="3" Cut="2.1977400779724121e+00" cType="1" res="-9.9000000000000000e+01" rms="0.0000000000000000e+00" purity="5.0209498405456543e-01" nType="0">
        <Node pos="l" depth="1" NCoef="0" IVar="6" Cut="1.6788114607334137e-01" cType="1" res="-9.9000000000000000e+01" rms="0.0000000000000000e+00" purity="5.1643699407577515e-01" nType="0">
          <Node pos="l" depth="2" NCoef="0" IVar="-1" Cut="2.8315225243568420e-01" cType="1" res="-9.9000000000000000e+01" rms="0.0000000000000000e+00" purity="5.5901449918746948e-01" nType="1"/>
          <Node pos="r" depth="2" NCoef="0" IVar="3" Cut="1.6545791625976562e+00" cType="1" res="-9.9000000000000000e+01" rms="0.0000000000000000e+00" purity="4.7849273681640625e-01" nType="0">
            <Node pos="l" depth="3" NCoef="0" IVar="-1" Cut="0.0000000000000000e+00" cType="1" res="-9.9000000000000000e+01" rms="0.0000000000000000e+00" purity="5.0923377275466919e-01" nType="1"/>
            <Node pos="r" depth="3" NCoef="0" IVar="-1" Cut="0.0000000000000000e+00" cType="1" res="-9.9000000000000000e+01" rms="0.0000000000000000e+00" purity="3.9927041530609131e-01" nType="-1"/>
          </Node>
        </Node>
        <Node pos="r" depth="1" NCoef="0" IVar="14" Cut="1.7779926300048828e+01" cType="1" res="-9.9000000000000000e+01" rms="0.0000000000000000e+00" purity="4.3507108092308044e-01" nType="0">
          <Node pos="l" depth="2" NCoef="0" IVar="-1" Cut="0.0000000000000000e+00" cType="1" res="-9.9000000000000000e+01" rms="0.0000000000000000e+00" purity="5.1357680559158325e-01" nType="1"/>
          <Node pos="r" depth="2" NCoef="0" IVar="-1" Cut="0.0000000000000000e+00" cType="1" res="-9.9000000000000000e+01" rms="0.0000000000000000e+00" purity="3.2165586948394775e-01" nType="-1"/>
        </Node>
      </Node>
    </BinaryTree>
    <BinaryTree type="DecisionTree" boostWeight="1.5236429260913287e-01" itree="31">
      <Node pos="s" depth="0" NCoef="0" IVar="9" Cut="2.2686700820922852e+00" cType="1" res="-9.9000000000000000e+01" rms="0.0000000000000000e+00" purity="4.8594954609870911e-01" nType="0">
        <Node pos="l" depth="1" NCoef="0" IVar="13" Cut="-1.6153234243392944e+00" cType="1" res="-9.9000000000000000e+01" rms="0.0000000000000000e+00" purity="5.0157642364501953e-01" nType="0">
          <Node pos="l" depth="2" NCoef="0" IVar="-1" Cut="0.0000000000000000e+00" cType="1" res="-9.9000000000000000e+01" rms="0.0000000000000000e+00" purity="6.6189563274383545e-01" nType="1"/>
          <Node pos="r" depth="2" NCoef="0" IVar="14" Cut="1.8438682556152344e+01" cType="0" res="-9.9000000000000000e+01" rms="0.0000000000000000e+00" purity="4.8225235939025879e-01" nType="0">
            <Node pos="l" depth="3" NCoef="0" IVar="-1" Cut="0.0000000000000000e+00" cType="1" res="-9.9000000000000000e+01" rms="0.0000000000000000e+00" purity="6.1328846216201782e-01" nType="1"/>
            <Node pos="r" depth="3" NCoef="0" IVar="-1" Cut="0.0000000000000000e+00" cType="1" res="-9.9000000000000000e+01" rms="0.0000000000000000e+00" purity="4.5953485369682312e-01" nType="-1"/>
          </Node>
        </Node>
        <Node pos="r" depth="1" NCoef="0" IVar="8" Cut="1.2598310708999634e+00" cType="1" res="-9.9000000000000000e+01" rms="0.0000000000000000e+00" purity="4.3088382482528687e-01" nType="0">
          <Node pos="l" depth="2" NCoef="0" IVar="-1" Cut="0.0000000000000000e+00" cType="1" res="-9.9000000000000000e+01" rms="0.0000000000000000e+00" purity="5.6199020147323608e-01" nType="1"/>
          <Node pos="r" depth="2" NCoef="0" IVar="-1" Cut="8.8356578350067139e-01" cType="0" res="-9.9000000000000000e+01" rms="0.0000000000000000e+00" purity="3.4102803468704224e-01" nType="-1"/>
        </Node>
      </Node>
    </BinaryTree>
    <BinaryTree type="DecisionTree" boostWeight="1.2145774355041121e-01" itree="32">
      <Node pos="s" depth="0" NCoef="0" IVar="9" Cut="2.2686700820922852e+00" cType="1" res="-9.9000000000000000e+01" rms="0.0000000000000000e+00" purity="5.0298571586608887e-01" nType="0">
        <Node pos="l" depth="1" NCoef="0" IVar="4" Cut="2.9303991794586182e+00" cType="0" res="-9.9000000000000000e+01" rms="0.0000000000000000e+00" purity="5.2159631252288818e-01" nType="0">
          <Node pos="l" depth="2" NCoef="0" IVar="-1" Cut="-1.6153234243392944e+00" cType="1" res="-9.9000000000000000e+01" rms="0.0000000000000000e+00" purity="5.3916531801223755e-01" nType="1"/>
          <Node pos="r" depth="2" NCoef="0" IVar="-1" Cut="0.0000000000000000e+00" cType="1" res="-9.9000000000000000e+01" rms="0.0000000000000000e+00" purity="4.1557979583740234e-01" nType="-1"/>
        </Node>
        <Node pos="r" depth="1" NCoef="0" IVar="13" Cut="-9.9051785469055176e-01" cType="0" res="-9.9000000000000000e+01" rms="0.0000000000000000e+00" purity="4.3683296442031860e-01" nType="0">
          <Node pos="l" depth="2" NCoef="0" IVar="9" Cut="2.8215773105621338e+00" cType="1" res="-9.9000000000000000e+01" rms="0.0000000000000000e+00" purity="4.9942162632942200e-01" nType="0">
            <Node pos="l" depth="3" NCoef="0" IVar="-1" Cut="0.0000000000000000e+00" cType="1" res="-9.9000000000000000e+01" rms="0.0000000000000000e+00" purity="5.7300299406051636e-01" nType="1"/>
            <Node pos="r" depth="3" NCoef="0" IVar="-1" Cut="0.0000000000000000e+00" cType="1" res="-9.9000000000000000e+01" rms="0.0000000000000000e+00" purity="4.3042930960655212e-01" nType="-1"/>
          </Node>
          <Node pos="r" depth="2" NCoef="0" IVar="-1" Cut="0.0000000000000000e+00" cType="1" res="-9.9000000000000000e+01" rms="0.0000000000000000e+00" purity="2.8540772199630737e-01" nType="-1"/>
        </Node>
      </Node>
    </BinaryTree>
    <BinaryTree type="DecisionTree" boostWeight="7.5898870733012935e-02" itree="33">
      <Node pos="s" depth="0" NCoef="0" IVar="11" Cut="1.1890913248062134e+00" cType="0" res="-9.9000000000000000e+01" rms="0.0000000000000000e+00" purity="4.8805806040763855e-01" nType="0">
        <Node pos="l" depth="1" NCoef="0" IVar="10" Cut="-4.3809375762939453e+01" cType="0" res="-9.9000000000000000e+01" rms="0.0000000000000000e+00" purity="4.9526244401931763e-01" nType="0">
          <Node pos="l" depth="2" NCoef="0" IVar="2" Cut="2.6258268356323242e+00" cType="1" res="-9.9000000000000000e+01" rms="0.0000000000000000e+00" purity="5.0504243373870850e-01" nType="0">
            <Node pos="l" depth="3" NCoef="0" IVar="-1" Cut="0.0000000000000000e+00" cType="1" res="-9.9000000000000000e+01" rms="0.0000000000000000e+00" purity="5.1674854755401611e-01" nType="1"/>
            <Node pos="r" depth="3" NCoef="0" IVar="-1" Cut="0.0000000000000000e+00" cType="1" res="-9.9000000000000000e+01" rms="0.0000000000000000e+00" purity="4.1219830513000488e-01" nType="-1"/>
          </Node>
          <Node pos="r" depth="2" NCoef="0" IVar="-1" Cut="0.0000000000000000e+00" cType="1" res="-9.9000000000000000e+01" rms="0.0000000000000000e+00" purity="3.6792042851448059e-01" nType="-1"/>
        </Node>
        <Node pos="r" depth="1" NCoef="0" IVar="-1" Cut="0.0000000000000000e+00" cType="1" res="-9.9000000000000000e+01" rms="0.0000000000000000e+00" purity="3.7750753760337830e-01" nType="-1"/>
      </Node>
    </BinaryTree>
    <BinaryTree type="DecisionTree" boostWeight="9.0580309423518288e-02" itree="34">
      <Node pos="s" depth="0" NCoef="0" IVar="15" Cut="2.9593248367309570e+00" cType="0" res="-9.9000000000000000e+01" rms="0.0000000000000000e+00" purity="4.7759139537811279e-01" nType="0">
        <Node pos="l" depth="1" NCoef="0" IVar="-1" Cut="0.0000000000000000e+00" cType="1" res="-9.9000000000000000e+01" rms="0.0000000000000000e+00" purity="5.8521765470504761e-01" nType="1"/>
        <Node pos="r" depth="1" NCoef="0" IVar="9" Cut="4.8399305343627930e-01" cType="1" res="-9.9000000000000000e+01" rms="0.0000000000000000e+00" purity="4.7096419334411621e-01" nType="0">
          <Node pos="l" depth="2" NCoef="0" IVar="-1" Cut="0.0000000000000000e+00" cType="1" res="-9.9000000000000000e+01" rms="0.0000000000000000e+00" purity="6.1466175317764282e-01" nType="1"/>
          <Node pos="r" depth="2" NCoef="0" IVar="-1" Cut="2.0241248607635498e+00" cType="1" res="-9.9000000000000000e+01" rms="0.0000000000000000e+00" purity="4.6185913681983948e-01" nType="-1"/>
        </Node>
      </Node>
    </BinaryTree>
    <BinaryTree type="DecisionTree" boostWeight="1.1064869496515099e-01" itree="35">
      <Node pos="s" depth="0" NCoef="0" IVar="3" Cut="2.1977400779724121e+00" cType="1" res="-9.9000000000000000e+01" rms="0.0000000000000000e+00" purity="4.9503505229949951e-01" nType="0">
        <Node pos="l" depth="1" NCoef="0" IVar="6" Cut="1.6788114607334137e-01" cType="1" res="-9.9000000000000000e+01" rms="0.0000000000000000e+00" purity="5.0672680139541626e-01" nType="0">
          <Node pos="l" depth="2" NCoef="0" IVar="-1" Cut="2.8315225243568420e-01" cType="1" res="-9.9000000000000000e+01" rms="0.0000000000000000e+00" purity="5.4223096370697021e-01" nType="1"/>
          <Node pos="r" depth="2" NCoef="0" IVar="8" Cut="6.6051870584487915e-01" cType="1" res="-9.9000000000000000e+01" rms="0.0000000000000000e+00" purity="4.7529801726341248e-01" nType="0">
            <Node pos="l" depth="3" NCoef="0" IVar="-1" Cut="0.0000000000000000e+00" cType="1" res="-9.9000000000000000e+01" rms="0.0000000000000000e+00" purity="5.5816376209259033e-01" nType="1"/>
            <Node pos="r" depth="3" NCoef="0" IVar="-1" Cut="0.0000000000000000e+00" cType="1" res="-9.9000000000000000e+01" rms="0.0000000000000000e+00" purity="4.5229041576385498e-01" nType="-1"/>
          </Node>
        </Node>
        <Node pos="r" depth="1" NCoef="0" IVar="0" Cut="5.2639925781250000e+04" cType="0" res="-9.9000000000000000e+01" rms="0.0000000000000000e+00" purity="4.3943551182746887e-01" nType="0">
          <Node pos="l" depth="2" NCoef="0" IVar="-1" Cut="0.0000000000000000e+00" cType="1" res="-9.9000000000000000e+01" rms="0.0000000000000000e+00" purity="5.4162114858627319e-01" nType="1"/>
          <Node pos="r" depth="2" NCoef="0" IVar="-1" Cut="0.0000000000000000e+00" cType="1" res="-9.9000000000000000e+01" rms="0.0000000000000000e+00" purity="3.6087459325790405e-01" nType="-1"/>
        </Node>
      </Node>
    </BinaryTree>
    <BinaryTree type="DecisionTree" boostWeight="9.6495140770653673e-02" itree="36">
      <Node pos="s" depth="0" NCoef="0" IVar="1" Cut="2.7500250339508057e+00" cType="1" res="-9.9000000000000000e+01" rms="0.0000000000000000e+00" purity="4.9173861742019653e-01" nType="0">
        <Node pos="l" depth="1" NCoef="0" IVar="3" Cut="2.1977400779724121e+00" cType="1" res="-9.9000000000000000e+01" rms="0.0000000000000000e+00" purity="4.9785575270652771e-01" nType="0">
          <Node pos="l" depth="2" NCoef="0" IVar="3" Cut="4.4615384936332703e-01" cType="0" res="-9.9000000000000000e+01" rms="0.0000000000000000e+00" purity="5.1070147752761841e-01" nType="0">
            <Node pos="l" depth="3" NCoef="0" IVar="-1" Cut="0.0000000000000000e+00" cType="1" res="-9.9000000000000000e+01" rms="0.0000000000000000e+00" purity="5.2490252256393433e-01" nType="1"/>
            <Node pos="r" depth="3" NCoef="0" IVar="-1" Cut="0.0000000000000000e+00" cType="1" res="-9.9000000000000000e+01" rms="0.0000000000000000e+00" purity="3.8726314902305603e-01" nType="-1"/>
          </Node>
          <Node pos="r" depth="2" NCoef="0" IVar="1" Cut="1.6460810601711273e-01" cType="1" res="-9.9000000000000000e+01" rms="0.0000000000000000e+00" purity="4.3434303998947144e-01" nType="0">
            <Node pos="l" depth="3" NCoef="0" IVar="-1" Cut="0.0000000000000000e+00" cType="1" res="-9.9000000000000000e+01" rms="0.0000000000000000e+00" purity="5.3470349311828613e-01" nType="1"/>
            <Node pos="r" depth="3" NCoef="0" IVar="-1" Cut="0.0000000000000000e+00" cType="1" res="-9.9000000000000000e+01" rms="0.0000000000000000e+00" purity="3.5280436277389526e-01" nType="-1"/>
          </Node>
        </Node>
        <Node pos="r" depth="1" NCoef="0" IVar="-1" Cut="0.0000000000000000e+00" cType="1" res="-9.9000000000000000e+01" rms="0.0000000000000000e+00" purity="3.9614686369895935e-01" nType="-1"/>
      </Node>
    </BinaryTree>
    <BinaryTree type="DecisionTree" boostWeight="1.3499739182332224e-01" itree="37">
      <Node pos="s" depth="0" NCoef="0" IVar="4" Cut="4.7042164802551270e+00" cType="0" res="-9.9000000000000000e+01" rms="0.0000000000000000e+00" purity="4.7852760553359985e-01" nType="0">
        <Node pos="l" depth="1" NCoef="0" IVar="1" Cut="4.1322115063667297e-01" cType="1" res="-9.9000000000000000e+01" rms="0.0000000000000000e+00" purity="5.1893979310989380e-01" nType="0">
          <Node pos="l" depth="2" NCoef="0" IVar="-1" Cut="1.0939841270446777e+00" cType="1" res="-9.9000000000000000e+01" rms="0.0000000000000000e+00" purity="6.4568227529525757e-01" nType="1"/>
          <Node pos="r" depth="2" NCoef="0" IVar="11" Cut="2.7523543834686279e+00" cType="0" res="-9.9000000000000000e+01" rms="0.0000000000000000e+00" purity="4.2010632157325745e-01" nType="0">
            <Node pos="l" depth="3" NCoef="0" IVar="-1" Cut="0.0000000000000000e+00" cType="1" res="-9.9000000000000000e+01" rms="0.0000000000000000e+00" purity="5.0156629085540771e-01" nType="1"/>
            <Node pos="r" depth="3" NCoef="0" IVar="-1" Cut="0.0000000000000000e+00" cType="1" res="-9.9000000000000000e+01" rms="0.0000000000000000e+00" purity="3.4477192163467407e-01" nType="-1"/>
          </Node>
        </Node>
        <Node pos="r" depth="1" NCoef="0" IVar="15" Cut="5.9240323305130005e-01" cType="0" res="-9.9000000000000000e+01" rms="0.0000000000000000e+00" purity="4.6394747495651245e-01" nType="0">
          <Node pos="l" depth="2" NCoef="0" IVar="5" Cut="2.3715496063232422e+01" cType="1" res="-9.9000000000000000e+01" rms="0.0000000000000000e+00" purity="4.9157261848449707e-01" nType="0">
            <Node pos="l" depth="3" NCoef="0" IVar="-1" Cut="0.0000000000000000e+00" cType="1" res="-9.9000000000000000e+01" rms="0.0000000000000000e+00" purity="5.1104640960693359e-01" nType="1"/>
            <Node pos="r" depth="3" NCoef="0" IVar="-1" Cut="0.0000000000000000e+00" cType="1" res="-9.9000000000000000e+01" rms="0.0000000000000000e+00" purity="3.2589408755302429e-01" nType="-1"/>
          </Node>
          <Node pos="r" depth="2" NCoef="0" IVar="-1" Cut="1.5052772760391235e+00" cType="1" res="-9.9000000000000000e+01" rms="0.0000000000000000e+00" purity="3.5684096813201904e-01" nType="-1"/>
        </Node>
      </Node>
    </BinaryTree>
    <BinaryTree type="DecisionTree" boostWeight="1.4181515124155453e-01" itree="38">
      <Node pos="s" depth="0" NCoef="0" IVar="4" Cut="4.7042164802551270e+00" cType="0" res="-9.9000000000000000e+01" rms="0.0000000000000000e+00" purity="4.6401616930961609e-01" nType="0">
        <Node pos="l" depth="1" NCoef="0" IVar="1" Cut="4.1322115063667297e-01" cType="1" res="-9.9000000000000000e+01" rms="0.0000000000000000e+00" purity="5.0498872995376587e-01" nType="0">
          <Node pos="l" depth="2" NCoef="0" IVar="-1" Cut="1.0939841270446777e+00" cType="1" res="-9.9000000000000000e+01" rms="0.0000000000000000e+00" purity="6.1422711610794067e-01" nType="1"/>
          <Node pos="r" depth="2" NCoef="0" IVar="-1" Cut="1.4573754072189331e+00" cType="0" res="-9.9000000000000000e+01" rms="0.0000000000000000e+00" purity="4.2055112123489380e-01" nType="-1"/>
        </Node>
        <Node pos="r" depth="1" NCoef="0" IVar="11" Cut="2.0638628005981445e+00" cType="0" res="-9.9000000000000000e+01" rms="0.0000000000000000e+00" purity="4.4934985041618347e-01" nType="0">
          <Node pos="l" depth="2" NCoef="0" IVar="10" Cut="-4.2730163574218750e+01" cType="0" res="-9.9000000000000000e+01" rms="0.0000000000000000e+00" purity="4.7139236330986023e-01" nType="0">
            <Node pos="l" depth="3" NCoef="0" IVar="-1" Cut="0.0000000000000000e+00" cType="1" res="-9.9000000000000000e+01" rms="0.0000000000000000e+00" purity="5.1285099983215332e-01" nType="1"/>
            <Node pos="r" depth="3" NCoef="0" IVar="-1" Cut="0.0000000000000000e+00" cType="1" res="-9.9000000000000000e+01" rms="0.0000000000000000e+00" purity="4.1416418552398682e-01" nType="-1"/>
          </Node>
          <Node pos="r" depth="2" NCoef="0" IVar="-1" Cut="2.2429365158081055e+01" cType="0" res="-9.9000000000000000e+01" rms="0.0000000000000000e+00" purity="3.8430172204971313e-01" nType="-1"/>
        </Node>
      </Node>
    </BinaryTree>
    <BinaryTree type="DecisionTree" boostWeight="1.1495341232765488e-01" itree="39">
      <Node pos="s" depth="0" NCoef="0" IVar="4" Cut="4.7042164802551270e+00" cType="0" res="-9.9000000000000000e+01" rms="0.0000000000000000e+00" purity="4.6838167309761047e-01" nType="0">
        <Node pos="l" depth="1" NCoef="0" IVar="1" Cut="4.1322115063667297e-01" cType="1" res="-9.9000000000000000e+01" rms="0.0000000000000000e+00" purity="5.0965040922164917e-01" nType="0">
          <Node pos="l" depth="2" NCoef="0" IVar="2" Cut="1.0939841270446777e+00" cType="1" res="-9.9000000000000000e+01" rms="0.0000000000000000e+00" purity="5.8012843132019043e-01" nType="0">
            <Node pos="l" depth="3" NCoef="0" IVar="-1" Cut="0.0000000000000000e+00" cType="1" res="-9.9000000000000000e+01" rms="0.0000000000000000e+00" purity="6.7720240354537964e-01" nType="1"/>
            <Node pos="r" depth="3" NCoef="0" IVar="-1" Cut="0.0000000000000000e+00" cType="1" res="-9.9000000000000000e+01" rms="0.0000000000000000e+00" purity="4.8147845268249512e-01" nType="-1"/>
          </Node>
          <Node pos="r" depth="2" NCoef="0" IVar="1" Cut="1.4573754072189331e+00" cType="0" res="-9.9000000000000000e+01" rms="0.0000000000000000e+00" purity="4.5544445514678955e-01" nType="0">
            <Node pos="l" depth="3" NCoef="0" IVar="-1" Cut="0.0000000000000000e+00" cType="1" res="-9.9000000000000000e+01" rms="0.0000000000000000e+00" purity="5.2994632720947266e-01" nType="1"/>
            <Node pos="r" depth="3" NCoef="0" IVar="-1" Cut="0.0000000000000000e+00" cType="1" res="-9.9000000000000000e+01" rms="0.0000000000000000e+00" purity="3.8052901625633240e-01" nType="-1"/>
          </Node>
        </Node>
        <Node pos="r" depth="1" NCoef="0" IVar="9" Cut="2.2686700820922852e+00" cType="1" res="-9.9000000000000000e+01" rms="0.0000000000000000e+00" purity="4.5367860794067383e-01" nType="0">
          <Node pos="l" depth="2" NCoef="0" IVar="14" Cut="1.7112100601196289e+01" cType="0" res="-9.9000000000000000e+01" rms="0.0000000000000000e+00" purity="4.7051811218261719e-01" nType="0">
