<?xml version="1.0"?>
<MethodSetup Method="MLP::MLPBNN">
  <GeneralInfo>
    <Info name="TMVA Release" value="4.2.1 [262657]"/>
    <Info name="ROOT Release" value="6.04/02 [394242]"/>
    <Info name="Creator" value="atrisovi"/>
    <Info name="Date" value="Mon Sep  7 14:52:26 2015"/>
    <Info name="Host" value="Linux lcgapp-slc6-physical1.cern.ch 2.6.32-504.23.4.el6.x86_64 #1 SMP Wed Jun 10 07:47:59 CEST 2015 x86_64 x86_64 x86_64 GNU/Linux"/>
    <Info name="Dir" value="/afs/cern.ch/work/a/atrisovi/public"/>
    <Info name="Training events" value="2000"/>
    <Info name="TrainingTime" value="4.91979570e+01"/>
    <Info name="AnalysisType" value="Classification"/>
  </GeneralInfo>
  <Options>
    <Option name="NCycles" modified="Yes">600</Option>
    <Option name="HiddenLayers" modified="Yes">N+5</Option>
    <Option name="NeuronType" modified="Yes">tanh</Option>
    <Option name="RandomSeed" modified="No">1</Option>
    <Option name="EstimatorType" modified="No">CE</Option>
    <Option name="NeuronInputType" modified="No">sum</Option>
    <Option name="V" modified="Yes">False</Option>
    <Option name="VerbosityLevel" modified="No">Default</Option>
    <Option name="VarTransform" modified="Yes">N</Option>
    <Option name="H" modified="Yes">True</Option>
    <Option name="CreateMVAPdfs" modified="No">False</Option>
    <Option name="IgnoreNegWeightsInTraining" modified="No">False</Option>
    <Option name="TrainingMethod" modified="Yes">BFGS</Option>
    <Option name="LearningRate" modified="No">2.000000e-02</Option>
    <Option name="DecayRate" modified="No">1.000000e-02</Option>
    <Option name="TestRate" modified="Yes">5</Option>
    <Option name="EpochMonitoring" modified="No">False</Option>
    <Option name="Sampling" modified="No">1.000000e+00</Option>
    <Option name="SamplingEpoch" modified="No">1.000000e+00</Option>
    <Option name="SamplingImportance" modified="No">1.000000e+00</Option>
    <Option name="SamplingTraining" modified="No">True</Option>
    <Option name="SamplingTesting" modified="No">False</Option>
    <Option name="ResetStep" modified="No">50</Option>
    <Option name="Tau" modified="No">3.000000e+00</Option>
    <Option name="BPMode" modified="No">sequential</Option>
    <Option name="BatchSize" modified="No">-1</Option>
    <Option name="ConvergenceImprove" modified="No">1.000000e-30</Option>
    <Option name="ConvergenceTests" modified="No">-1</Option>
    <Option name="UseRegulator" modified="Yes">True</Option>
    <Option name="UpdateLimit" modified="No">10000</Option>
    <Option name="CalculateErrors" modified="No">False</Option>
    <Option name="WeightRange" modified="No">1.000000e+00</Option>
  </Options>
  <Variables NVar="4">
    <Variable VarIndex="0" Expression="D_PT" Label="D_PT" Title="D_PT" Unit="" Internal="D_PT" Type="F" Min="1.02641914e+02" Max="2.28623496e+04"/>
    <Variable VarIndex="1" Expression="D_MM" Label="D_MM" Title="Expression 2" Unit="" Internal="D_MM" Type="F" Min="1.76199402e+03" Max="2.06963892e+03"/>
    <Variable VarIndex="2" Expression="muplus_PT" Label="muplus_PT" Title="Variable 3" Unit="units" Internal="muplus_PT" Type="F" Min="4.00772247e+02" Max="1.53631699e+04"/>
    <Variable VarIndex="3" Expression="muminus_PT" Label="muminus_PT" Title="Variable 4" Unit="units" Internal="muminus_PT" Type="F" Min="4.00264954e+02" Max="1.00398164e+04"/>
  </Variables>
  <Spectators NSpec="0"/>
  <Classes NClass="2">
    <Class Name="Signal" Index="0"/>
    <Class Name="Background" Index="1"/>
  </Classes>
  <Transformations NTransformations="1">
    <Transform Name="Normalize">
      <Selection>
        <Input NInputs="4">
          <Input Type="Variable" Label="D_PT" Expression="D_PT"/>
          <Input Type="Variable" Label="D_MM" Expression="D_MM"/>
          <Input Type="Variable" Label="muplus_PT" Expression="muplus_PT"/>
          <Input Type="Variable" Label="muminus_PT" Expression="muminus_PT"/>
        </Input>
        <Output NOutputs="4">
          <Output Type="Variable" Label="D_PT" Expression="D_PT"/>
          <Output Type="Variable" Label="D_MM" Expression="D_MM"/>
          <Output Type="Variable" Label="muplus_PT" Expression="muplus_PT"/>
          <Output Type="Variable" Label="muminus_PT" Expression="muminus_PT"/>
        </Output>
      </Selection>
      <Class ClassIndex="0">
        <Ranges>
          <Range Index="0" Min="1.0512207031250000e+02" Max="2.2862349609375000e+04"/>
          <Range Index="1" Min="1.7619940185546875e+03" Max="2.0696389160156250e+03"/>
          <Range Index="2" Min="4.0222213745117188e+02" Max="1.5363169921875000e+04"/>
          <Range Index="3" Min="4.0026495361328125e+02" Max="9.8600087890625000e+03"/>
        </Ranges>
      </Class>
      <Class ClassIndex="1">
        <Ranges>
          <Range Index="0" Min="1.0264191436767578e+02" Max="1.9040115234375000e+04"/>
          <Range Index="1" Min="1.7673050537109375e+03" Max="2.0670810546875000e+03"/>
          <Range Index="2" Min="4.0077224731445312e+02" Max="1.3001700195312500e+04"/>
          <Range Index="3" Min="4.0067541503906250e+02" Max="1.0039816406250000e+04"/>
        </Ranges>
      </Class>
      <Class ClassIndex="2">
        <Ranges>
          <Range Index="0" Min="1.0264191436767578e+02" Max="2.2862349609375000e+04"/>
          <Range Index="1" Min="1.7619940185546875e+03" Max="2.0696389160156250e+03"/>
          <Range Index="2" Min="4.0077224731445312e+02" Max="1.5363169921875000e+04"/>
          <Range Index="3" Min="4.0026495361328125e+02" Max="1.0039816406250000e+04"/>
        </Ranges>
      </Class>
    </Transform>
  </Transformations>
  <MVAPdfs/>
  <Weights>
    <Layout NLayers="3">
      <Layer Index="0" NNeurons="5">
        <Neuron NSynapses="9">
          3.5771898069180408e-03 -2.9763519637384509e-03 -4.3426415909343817e-03 -4.7806384026584468e-03 -4.7886258943022932e-03 -5.1234821666641247e-03 -2.5999395036313232e-03 5.1763963440681878e-03 1.1881290317588093e-03 
        </Neuron>
        <Neuron NSynapses="9">
          3.8330194331282375e-01 -3.7187238739380585e-01 -4.8945320741230391e-01 -4.1357572520365299e-01 -3.6840861419692245e-01 -4.1613075271848432e-01 -3.4506507311307744e-01 3.5773283671551143e-01 2.1338269345270429e+00 
        </Neuron>
        <Neuron NSynapses="9">
          -1.2442371447387305e-02 1.1752533608305011e-02 1.8416305383224099e-02 1.4539047278357789e-02 1.6373761678117792e-02 1.5006826458902528e-02 1.0552012064875089e-02 -1.5693275005824039e-02 3.3737865233265489e-02 
        </Neuron>
        <Neuron NSynapses="9">
          -2.2608767226847070e-03 2.1480613302770385e-03 3.1395423948364833e-03 2.5993394780608088e-03 3.0148140217685342e-03 2.6794701862286486e-03 1.9546784252545153e-03 -2.8959410034686776e-03 1.1224211014390316e-03 
        </Neuron>
        <Neuron NSynapses="9">
          -1.5840454898700460e-04 2.5310364565558934e-04 -5.5906863740418289e-03 7.5992263841572003e-05 1.4438386293602163e-03 8.8597611991844888e-05 3.7130671818806231e-04 -1.2112823264882264e-03 -2.9946031321683966e-02 
        </Neuron>
      </Layer>
      <Layer Index="1" NNeurons="10">
        <Neuron NSynapses="1">
          -4.2665727017326899e-01 
        </Neuron>
        <Neuron NSynapses="1">
          4.0311507123964069e-01 
        </Neuron>
        <Neuron NSynapses="1">
          6.1848725967480511e-01 
        </Neuron>
        <Neuron NSynapses="1">
          4.9789545503576221e-01 
        </Neuron>
        <Neuron NSynapses="1">
          5.6025655814420117e-01 
        </Neuron>
        <Neuron NSynapses="1">
          5.1361434262664651e-01 
        </Neuron>
        <Neuron NSynapses="1">
          3.6208751122532373e-01 
        </Neuron>
        <Neuron NSynapses="1">
          -5.3567533500583142e-01 
        </Neuron>
        <Neuron NSynapses="1">
          1.2929641205490789e+00 
        </Neuron>
        <Neuron NSynapses="1">
          3.3847868132912645e-01 
        </Neuron>
      </Layer>
      <Layer Index="2" NNeurons="1">
        <Neuron NSynapses="0"/>
      </Layer>
    </Layout>
    <InverseHessian NElements="3025" NRows="55" NCols="55">
      <Row Index="0">
        8.6513977786662511e+05 1.2932509810887661e+05 5.9162681582680671e+03 1.3745474803796058e+05 1.0963492102731246e+05 1.3773500959108214e+05 1.2573396699603274e+05 -1.2534033782629695e+05 -2.2635080981757381e+00 -6.9384252613676654e+02 6.4111925540119410e+02 -2.7616660749560492e+02 4.6838335781873684e+02 -2.6838758885038387e+03 2.4710558764703455e+02 4.2688077195460210e+02 2.4309781539610044e+03 -1.9798872831714107e+02 -2.1945512142452921e+04 1.5136219402382441e+04 -2.6940921964627934e+04 3.0448437030569097e+04 -3.9051233677887765e+04 3.0954208227913812e+04 1.0902464114381277e+04 2.2484702515581885e+04 1.7965498891379320e+02 -1.1057740225966394e+04 7.5242248546199589e+03 -1.2719201481511525e+04 1.6940059985824035e+04 -1.9418365040250275e+04 1.7007628874388429e+04 3.6895152421276380e+03 1.4027409213223755e+04 2.7664471147320000e+01 -8.3483753210954319e+01 1.8643379884920359e+03 2.4882131416861739e+03 -3.6946826546253924e+03 8.2171025941019320e+02 -4.9929449728029686e+03 1.9457901055346847e+03 1.9033716793489029e+03 1.6343706107216713e+02 3.0763429357453447e+02 -1.2941011174288420e+02 -4.6757828543875439e+02 -5.7463467806791652e+02 -6.8218248743156880e+02 -6.4002039084550881e+02 -9.2878714228406096e+00 7.7346641195143570e+02 3.5767617416477151e+02 1.7870439487089679e+03 
      </Row>
      <Row Index="1">
        1.2932509511859648e+05 8.6441473449277668e+05 2.4073489762186422e+04 -1.0124883728169859e+05 -1.3603918709635834e+05 -9.6413102100922144e+04 -1.4563913688066805e+05 1.4826293315133839e+05 1.6230731346569780e+02 8.7650028010422830e+02 -1.1530479034559539e+03 -5.0718722330691116e+02 2.5361447880855849e+01 2.4436799217292373e+03 4.9621592461179534e+02 -9.1479387440637220e+02 -2.7877600599532079e+03 1.5290554259350756e+02 2.1210832052472557e+04 -1.8644155986951155e+04 2.1920479493762658e+04 -1.9659295671269989e+04 3.2362989887165601e+04 -1.7813983574240323e+04 -1.7459352193862404e+04 -1.9415052491224335e+04 -3.1183702465039096e+02 7.6002916360004656e+03 -9.1790304340242219e+03 3.4619648531584535e+03 -2.0178111734009399e+03 8.3740678459077899e+03 3.4268683175124715e+02 -9.1863597035090061e+03 -8.1138521372181976e+03 -9.5125623114374321e+01 1.5258159688287610e+03 -1.6273816491485304e+03 5.8765931293449903e+03 -7.5498617283131330e+02 -3.9571981147821111e+02 -6.1161360749469168e+02 -1.7572277303829160e+03 1.1523321715717809e+03 -2.1541056492119969e+02 -2.6521939677599039e+02 7.8647322110609849e+01 4.7000928212310350e+02 5.0420674944532709e+02 6.2823422840197918e+02 5.5240053952284768e+02 -7.1984450145976368e+01 -7.4581920372382763e+02 -2.7630437919521137e+02 4.0199182571483107e+01 
      </Row>
      <Row Index="2">
        5.9162685812335458e+03 2.4073490116519482e+04 1.1112263956045406e+05 -1.2872586154246957e+05 -1.1604440791735327e+04 -1.4287342515064051e+05 9.9876583849936651e+04 -5.9824695213636092e+04 -2.4743469964115775e+02 -2.2021049603696938e+03 3.2872344379851720e+03 2.0978459295818138e+03 -8.1640744169423738e+02 -6.4008131999227844e+03 -2.2877196356927343e+03 2.6479237850485370e+03 7.7934371388764148e+03 -4.5332997948732987e+02 -8.8201735280645007e+03 -2.8602940056865846e+03 -3.9630209317417713e+04 3.4605965011999273e+04 -1.8261453842582072e+04 4.0786091138837619e+04 -9.8549387470760121e+03 4.8432558202751543e+03 2.6435140727055216e+02 -1.0480182587100662e+04 -1.0687056606635797e+03 -3.7218741781125034e+04 3.7263388546225404e+04 -2.1282652892926169e+04 4.2679733474147142e+04 -1.0336637536015831e+04 1.1213097239085098e+04 2.2657578396798453e+02 2.1376406600197770e+03 4.9258633913002104e+03 1.9154313745722779e+04 -1.6653831844648852e+04 4.4281778999288899e+03 -2.1711781778507626e+04 5.2660290186958555e+03 8.2612681721878089e+03 1.9481221649375584e+02 1.2799032309349163e+03 -1.1923844946910951e+03 -1.4542988060709947e+03 -1.0620119577969008e+03 -1.3357553516582529e+03 -9.2260762716856698e+02 -8.9633325237434178e+02 1.4709087664524823e+03 7.7267287975922522e+02 6.3974733055147526e+03 
      </Row>
      <Row Index="3">
        1.3745474818706690e+05 -1.0124883785928541e+05 -1.2872586273615330e+05 7.7138232885673491e+05 -4.9847878453202698e+04 -2.4275156743396743e+05 -5.5578863168047646e+04 5.9020996025553148e+04 -5.1746250806384978e+02 4.7693615862278966e+02 4.9989586899185088e+02 4.8257160776175233e+03 -2.1135185826846864e+03 2.1753638453489584e+03 -2.6325230815736941e+03 6.3969882305222563e+02 -2.6093872484157328e+02 3.9178089574311161e+02 1.5568388699787825e+04 7.5834734557033516e+02 3.2125962219282723e+04 -5.1586296075745486e+04 4.1811629489588464e+04 -5.8441901045697770e+04 1.3931737072875985e+04 -2.4925711241266741e+04 2.7277694241806603e+02 1.8887348533967681e+04 -2.2007256685065659e+03 3.6828255466730130e+04 -5.6704623899287093e+04 4.5060184183571408e+04 -6.3003361077705180e+04 1.3437301552840439e+04 -3.0668832400186002e+04 1.7480667520308634e+02 -6.9501256927777385e+03 -5.7465824371268172e+02 -2.8844428484214659e+04 2.0488469050059921e+04 -9.4209484202660315e+03 2.5137957410106035e+04 -8.5963604672044676e+02 -6.3302840047544132e+03 3.0903086682723369e+01 -2.1139042787052813e+02 5.3625150089052894e+01 1.6427965114619943e+02 5.8577060163553972e+02 5.6913666262374625e+02 7.0251823236029736e+02 -9.9314651256477759e+00 -5.8449924582932090e+02 -7.2725901233714831e+02 -5.8621023805168370e+03 
      </Row>
      <Row Index="4">
        1.0963491816266112e+05 -1.3603918604758359e+05 -1.1604436352915858e+04 -4.9847885838629256e+04 6.7464311153441598e+05 -4.5789971355117072e+04 -1.6704128315273279e+05 3.0030185024813237e+05 4.3668636551339512e+02 -1.1067676314199562e+03 1.6752522537075856e+02 -8.9270958734619726e+03 2.3972622782955223e+03 8.6406045231525786e+02 3.0857248237688036e+03 5.9158010807749815e+02 -3.2077336896988454e+03 -4.0091382889723536e+02 -3.5964153695040361e+04 2.2712081288651621e+04 -3.5551428635238350e+04 5.3587866462189835e+04 -7.3608858374383315e+04 5.5479182630116564e+04 1.5734323321638185e+04 4.1305595849055266e+04 -4.6761609117580520e+01 -1.9872709572921387e+04 1.0504465478350579e+04 -1.9692710759110370e+04 3.6160793728692079e+04 -4.3893285958627886e+04 3.8143762377707826e+04 3.7162234223223350e+03 2.7442220098628291e+04 -1.6265673822024837e+02 -4.2635056936255633e+03 6.4525816184699797e+03 -5.7685116117248035e+03 -1.3687555072164814e+03 2.5328389911232921e+03 -3.1656104259544336e+03 6.5990754927339294e+03 -2.7944273730755799e+02 1.0477071621700452e+02 -1.5079919647182277e+02 -6.0128174772571043e+01 9.5045397683730255e+02 4.7701369424716290e+02 5.9122256711375235e+02 5.4832073018068434e+02 -2.4416557727859004e+02 -9.2787980887318417e+02 8.2226842347278398e+02 -2.5564621970595172e+03 
      </Row>
      <Row Index="5">
        1.3773501050174676e+05 -9.6413102682501369e+04 -1.4287342516477636e+05 -2.4275156934333112e+05 -4.5789963709940370e+04 7.4009389639898716e+05 -4.5928116866607350e+04 5.6483559332626843e+04 -5.9003492768186879e+02 3.4809703798830742e+02 7.3309784415178001e+02 5.2742356004895455e+03 -2.2283418150000143e+03 1.9257062312929556e+03 -2.8537730350493603e+03 8.5465241349057760e+02 1.4955265329359827e+02 4.0755598344595637e+02 1.2050820103534637e+04 5.4409589911724324e+03 3.0599964869678875e+04 -5.1955620907767297e+04 3.8585829225665177e+04 -6.0110851049708690e+04 1.9155716821907510e+04 -2.1971166429783509e+04 3.6580003562249476e+02 1.8682570328749280e+04 2.9942963068782410e+02 4.0159989029787248e+04 -6.1872187042833306e+04 4.7657840599129311e+04 -6.9651881877269087e+04 1.7039266370296857e+04 -3.0745822454431560e+04 2.0359002882719506e+02 -6.9127178246849917e+03 -1.1890969232747375e+03 -3.1074305397921395e+04 2.1640193697229712e+04 -9.4983692673907135e+03 2.6742939560443374e+04 -1.4547740185006405e+03 -7.3455171790431477e+03 8.4151332187422668e+01 -1.8328115966216569e+02 2.6739105657201719e+01 1.2377418380503300e+02 5.8017172081436718e+02 5.4214611393964719e+02 7.0681386527496034e+02 -3.1143197627609709e+01 -5.5238840148742884e+02 -7.5995928102599282e+02 -5.9591362017848369e+03 
      </Row>
      <Row Index="6">
        1.2573397007485651e+05 -1.4563913533240446e+05 9.9876584377228806e+04 -5.5578862745678518e+04 -1.6704129143489126e+05 -4.5928115698396956e+04 8.1984910914710176e+05 1.9003410347928811e+05 3.6079745735357938e+02 1.4698666740994522e+03 -2.3202076359095663e+03 4.3062383744664430e+02 7.5062540128322053e+02 1.2044616938580875e+03 1.6276768426817434e+03 -2.1126881758671370e+03 -2.4929764665142793e+03 2.0344168845333252e+02 2.0097085426094825e+04 -2.2516152707612258e+04 1.5248907789102308e+04 -4.6180928176367379e+03 2.6319353260367141e+04 -4.2498434017882391e+02 -2.8000698042159420e+04 -1.2299911965704603e+04 -4.6763296458846708e+02 1.9127793326590283e+03 -8.9560185996952678e+03 -7.7175092247442517e+03 1.7401921615263484e+04 -4.2718997842237586e+03 2.1592926740268027e+04 -1.6397850442731858e+04 3.7769697137303260e+03 -1.9873209342157679e+02 9.9005747563276309e+03 -6.9683324286449679e+03 3.0944809485120593e+04 -1.2867097002902978e+04 2.1125485645098070e+03 -1.4231949143279908e+04 -7.1830030548727091e+03 6.8277414413864153e+03 -2.6585355834085931e+02 -7.6158643899822550e+01 -1.4014452967457919e+02 2.5953848312875425e+02 3.0066335531711604e+02 4.1243180629898052e+02 3.2751415664243621e+02 -3.7355908895412409e+02 -5.5166079902810247e+02 -4.0956975804081776e+02 6.9187384828497607e+03 
      </Row>
      <Row Index="7">
        -1.2534033951337865e+05 1.4826293226062439e+05 -5.9824691231228397e+04 5.9020988625693950e+04 3.0030185061556805e+05 5.6483555020792810e+04 1.9003411133794248e+05 6.9288303912575869e+05 -4.6522887965918164e+02 5.7975323892513552e+02 5.4126474698157836e+02 6.8953343353988021e+03 -2.5154052449287369e+03 -4.6301795047729865e+02 -3.3561701344427129e+03 2.1893095857393928e+02 2.9069601426949739e+03 2.4109760275194822e+02 2.4858515163470009e+04 -1.4439866347353993e+04 2.5297544566952423e+04 -4.3818414302521167e+04 5.0321443099936674e+04 -4.5244470913641446e+04 -3.9721851261794582e+03 -3.5430363808102979e+04 1.3364168324027560e+02 1.7935204220236050e+04 -1.0450334860213628e+04 1.7105751246573782e+04 -3.4101887515281553e+04 3.5114279399550142e+04 -3.4680278420493079e+04 1.8453726229443782e+02 -3.0096226137987924e+04 1.9745268118768581e+02 -6.8256157344729163e+03 2.8003797648762284e+03 -1.7455918820251492e+04 1.3002214580438824e+04 -9.1561877142462927e+03 1.4928783455552748e+04 2.5277731132401968e+03 -3.6212308857150481e+02 -4.8317823144258000e+01 1.2311465161786853e+02 1.1205826126672525e+02 -8.0443287584360110e+02 -4.5114495885057170e+02 -5.7239690296383219e+02 -5.1795574865530227e+02 3.3720290842014333e+02 8.7661347122338907e+02 -4.8036331660158794e+02 -3.3248537893961757e+03 
      </Row>
      <Row Index="8">
        -2.2635200315630755e+00 1.6230732648911612e+02 -2.4743469645443901e+02 -5.1746251047510691e+02 4.3668633846534783e+02 -5.9003493487911271e+02 3.6079746520288154e+02 -4.6522888897232457e+02 2.3514528896782451e+01 -2.4421030644456305e+01 2.9253927157088839e+01 5.7528849413890342e+01 7.6310644802279004e+00 -4.1132292449336205e+01 -2.9032786992341002e+00 2.1430379030590757e+01 4.6940257841288414e+01 8.5602532012025847e+00 -1.6460876163912991e+02 1.9346886565901482e+02 4.4452864736492722e+02 8.0083714901989225e+01 -4.1485984588900993e+02 7.2588801161816932e+00 1.1541821132162895e+02 4.8018493110640333e+02 -1.9208611182865990e+01 -1.9624947775894782e+02 2.1210303992414885e+02 2.8203480487555737e+02 1.3227737291231389e+02 -4.2123231478248414e+02 6.7048147702896358e+01 1.3575040791406985e+02 4.5520339679622680e+02 -1.3801666119621206e+01 1.7110287780483520e+02 -2.6107182639759759e+02 -7.9718459345214683e+00 8.1462710485279530e+01 1.7176952012206300e+02 1.7735541195014150e+02 -2.6092448547153413e+02 -2.5211233196592477e+02 -1.0345783957793168e+01 -7.8402586998428081e-01 1.2289853589531217e+00 -1.6281040553643802e+00 1.0032001248059306e+00 -6.7602413256437421e-01 1.3654557103813953e+00 2.6476907057239156e+00 1.3813884440665767e+00 -1.4247914656578830e+01 -7.6186933258375078e+01 
      </Row>
      <Row Index="9">
        -6.9384175076525389e+02 8.7649922067471255e+02 -2.2021053983976963e+03 4.7693649801024731e+02 -1.1067663999151482e+03 3.4809787601402468e+02 1.4698662574205828e+03 5.7975342884328347e+02 -2.4421028747686250e+01 9.2573394406139571e+05 6.7049820337560377e+04 1.4128000926935114e+05 9.6257358085746790e+04 9.1541807577447311e+04 1.0005966739636954e+05 5.3364497818809388e+04 -8.3535930367384324e+04 5.9382639140488072e+02 -4.7997979664730701e+02 -3.2400546820354066e+00 6.4514025197485025e+03 2.1434022847977840e+03 -3.6163787119428025e+03 2.2463581774559352e+03 -4.8796167652315853e+02 3.2381777817933335e+03 9.9402903205773327e+01 -1.1235356581494370e+03 1.0858629966879753e+03 -7.8696396048264387e+02 1.6553739526872068e+03 -2.0935935231767398e+03 1.5535719705607862e+03 1.2655237229708582e+03 1.7131569195285192e+03 3.2805308554941803e+01 -2.1781445660421741e+03 2.8636917288720724e+03 -1.2442934560456615e+04 -1.3404275067175666e+02 7.0487494262164655e+03 -3.9380619650616347e+02 3.4325538041321870e+03 -6.4572592252638569e+03 -2.0713825835016141e+01 1.8776918366141155e+04 -1.6829476405276866e+04 -4.0389837178096568e+04 -2.4337961954489041e+04 -1.6261907329379297e+04 -2.4831618699378218e+04 -1.2620097809499761e+04 1.4555270409707329e+04 -1.9235786448546569e+03 -2.9652343177315452e+03 
      </Row>
      <Row Index="10">
        6.4111969288748287e+02 -1.1530446641586307e+03 3.2872333199265104e+03 4.9989653662879937e+02 1.6752589735888341e+02 7.3309970123666926e+02 -2.3202091006015780e+03 5.4126764393167468e+02 2.9253923467714230e+01 6.7049819614020060e+04 9.3876416905315977e+05 -1.1685080890365444e+05 -8.4572093813192158e+04 -8.3914929587112783e+04 -8.7717908726019741e+04 -5.0220742928545609e+04 7.7445909665617321e+04 -7.4203705006989230e+02 6.6015224730245973e+02 -3.6073279458426259e+02 -6.4290355718207502e+03 -1.8610468288910502e+03 3.1401438516179396e+03 -1.8847510554254932e+03 -1.5163398997565128e+02 -2.7094104111425299e+03 -1.0877109619128896e+02 9.4715393519107965e+02 -1.0823880023929905e+03 4.4049390932912365e+02 -1.0599511160103502e+03 1.6649203325048429e+03 -9.1511901990258957e+02 -1.5608986942036718e+03 -1.2309137132270735e+03 -3.4652275047629701e+01 2.6964568917404758e+03 -3.3558752902525584e+03 1.4210779790169290e+04 -2.6115265167912565e+02 -7.7227502360833168e+03 -2.2033377860905262e+01 -3.9801263393056342e+03 7.3231876270266694e+03 1.2898875843089399e+01 -2.5085201153813094e+04 2.3317037279211469e+04 4.3690423693696423e+04 3.0034203406091961e+04 2.2794383426278859e+04 3.0466853272851979e+04 1.9418120715844321e+04 -2.1222788852712078e+04 2.2320874121091110e+03 3.7547477204194638e+03 
      </Row>
      <Row Index="11">
        -2.7617007111288694e+02 -5.0718571790873284e+02 2.0978462265323506e+03 4.8257140714481466e+03 -8.9270958755455868e+03 5.2742356397488038e+03 4.3062500277659274e+02 6.8953374618262433e+03 5.7528844318032498e+01 1.4128001082157719e+05 -1.1685080746688647e+05 5.3558694510584197e+05 -2.2038155756572605e+05 -1.5401611117520730e+05 -2.3219669189505029e+05 -7.0620182867973534e+04 1.2685633670698326e+05 4.0778274818677673e+03 -2.2976886754730667e+03 2.9760990182575356e+03 -3.2316321805595362e+02 2.2506202077677726e+03 -1.9008882247639667e+03 2.4117062628659114e+03 7.4577225677490542e+03 -2.5453960410444797e+03 2.4621357662921355e+02 -2.7017763951426232e+03 2.7108408944457951e+03 -4.5398467494731885e+03 4.2098401242403270e+03 -6.6032898319520964e+03 4.4107910239844787e+03 6.1641101568427839e+03 1.9020757843589126e+03 2.8610023890585580e+01 -1.7712086318819485e+04 2.2079119377511211e+04 -8.0831321920476985e+04 1.3232764941031085e+03 4.2504624302634969e+04 -7.2873108279581356e+02 2.6009680091613740e+04 -4.0710282881857696e+04 -2.6463028222548019e+01 7.3087140234918596e+04 -7.6635446644515643e+04 -1.5961492734500684e+04 -6.1378302418521234e+04 -7.7511806722108828e+04 -6.0235629270025718e+04 -8.3137265416262351e+04 8.0254728422291053e+04 -9.9628206025576656e+03 -2.1849049672607951e+04 
      </Row>
      <Row Index="12">
        4.6838838486370389e+02 2.5361103949455526e+01 -8.1640726161741441e+02 -2.1135171286491313e+03 2.3972614073050700e+03 -2.2283422075360290e+03 7.5062694607680623e+02 -2.5154081230156880e+03 7.6310747132417873e+00 9.6257357470765084e+04 -8.4572095166842279e+04 -2.2038155790789024e+05 8.6737734149597923e+05 -1.1453928426744763e+05 -1.3852435665889119e+05 -6.2385588197880352e+04 1.0159284162723424e+05 1.2747511414403596e+02 -1.9388903514567573e+02 8.9677950585947838e+02 -4.7845459462460858e+03 -1.8910526391771225e+03 3.2918499562712359e+03 -2.1303031631714694e+03 1.8463097688224007e+03 -3.2626467372278698e+03 -4.2686809915128833e+01 1.2876923127372738e+03 -8.8158772835000309e+02 1.5539916905097584e+03 -2.6417349839984890e+03 2.4200778036650995e+03 -2.6373063956057340e+03 -2.3851528548635542e+02 -2.4511116819463350e+03 -2.2906372194694995e+01 -3.8449269176780945e+00 -5.1519775496391730e+02 4.5619399401027131e+03 1.2333659157026250e+03 -2.8214221970541403e+03 1.4503837251111031e+03 -7.9489279503987905e+02 2.0015590816975687e+03 5.0149619633356508e+01 1.9998361284602506e+03 -4.4903136761429550e+03 2.9149420974737339e+04 5.4494146449712644e+03 -5.1961509389816274e+03 6.1335081223644829e+03 -9.6167022232551935e+03 7.3045765582031327e+03 2.7515570079900829e+02 -9.0676515329636459e+02 
      </Row>
      <Row Index="13">
        -2.6838766233338843e+03 2.4436764967082490e+03 -6.4008136543571454e+03 2.1753651810891097e+03 8.6406329077590635e+02 1.9257058829793687e+03 1.2044589230609126e+03 -4.6301841557744774e+02 -4.1132294657485545e+01 9.1541806763537286e+04 -8.3914930668167159e+04 -1.5401611144530232e+05 -1.1453928410219392e+05 8.8249039442687621e+05 -1.1886177895703848e+05 -6.9611568352062255e+04 1.0888885418527503e+05 -1.0773602191545961e+03 9.8854814568526490e+02 -3.5026577222312335e+03 1.3588027808271727e+04 5.9109165920041160e+03 -1.1679863449582585e+04 6.3022776632760506e+03 -9.2307647435417603e+03 1.4340899411939965e+04 -3.2067828737724994e+01 4.1791451761765711e+02 -8.2666283554236361e+02 4.6456747830936711e+03 -2.7174998484108801e+02 -1.4668957528248684e+03 -3.3738670462609298e+02 -2.4218758077480597e+03 2.2345970148595516e+03 -1.3518951867947180e+01 7.6046367428721278e+03 -8.7243433295782124e+03 2.7638783661082718e+04 -2.4559082811216454e+03 -9.0672620133640849e+03 -1.5725354027239239e+03 -9.7510424413225519e+03 9.7234997286638809e+03 1.0244489363506591e+02 -3.7715199968982313e+04 3.5303733096788455e+04 6.2788337487741039e+04 4.4455879985526553e+04 3.4479170678011440e+04 4.5049492983353994e+04 2.9953683078797112e+04 -3.2295476954307196e+04 3.1817207013806933e+03 5.7095155868834681e+03 
      </Row>
      <Row Index="14">
        2.4710702430485935e+02 4.9621753521913229e+02 -2.2877195254072140e+03 -2.6325253738677420e+03 3.0857232304268764e+03 -2.8537710134900667e+03 1.6276776346530796e+03 -3.3561711990288313e+03 -2.9032728720555951e+00 1.0005966605095916e+05 -8.7717908865603807e+04 -2.3219669110294897e+05 -1.3852435839410988e+05 -1.1886177970780717e+05 8.5524769022904406e+05 -6.4304777522366901e+04 1.0519842681042309e+05 2.1752534183417799e+02 -2.0512597541719697e+02 8.2922435159188171e+02 -3.1934291879121447e+03 -1.5829631208961657e+03 2.4717758930307609e+03 -1.8376816023382125e+03 1.5615335167167614e+03 -2.3327120224391388e+03 -2.5788279172624144e+01 1.3322429025853089e+03 -8.3007503863933198e+02 1.9986421258227815e+03 -2.9239104925059073e+03 2.4098162367400064e+03 -2.9664481302154418e+03 -5.5492057546449360e+01 -2.4642349770848014e+03 -1.8448431569537206e+01 -1.2584032098941680e+02 -4.0788660868823899e+02 3.7005948644862838e+03 1.3400410539759184e+03 -2.1859861691419574e+03 1.5972742228272145e+03 -6.5077391635073468e+02 1.3301185387765897e+03 5.9490708134183791e+01 4.1423688987308851e+03 -6.7278051361759999e+03 2.8505199085532418e+04 3.6219656981321568e+03 -7.4656424330644440e+03 4.3373689715299533e+03 -1.2028440744599786e+04 9.6508045185095980e+03 7.0437923338088467e+01 -1.3781291749740267e+03 
      </Row>
      <Row Index="15">
        4.2688249520145041e+02 -9.1479547152182079e+02 2.6479224971512449e+03 6.3970240926904808e+02 5.9158142959093129e+02 8.5465332983586904e+02 -2.1126896441236277e+03 2.1893143095879350e+02 2.1430377795240020e+01 5.3364497166627843e+04 -5.0220742930942564e+04 -7.0620183188477866e+04 -6.2385588013839595e+04 -6.9611569098210850e+04 -6.4304777810884880e+04 9.5563407589444926e+05 6.6143676635671407e+04 -9.2065092162336987e+02 1.3466064749982397e+03 -1.2926039144790266e+03 -4.3085839689501117e+03 -1.7632537861879632e+03 1.8245527530729732e+03 -1.7080496137208102e+03 -1.6246013537075287e+03 -1.0399710054426112e+03 -1.0486305356204514e+02 8.6634595344471086e+02 -1.0704543263579912e+03 5.1630957006273093e+02 -7.7895479374299248e+02 1.2601295278027565e+03 -6.5045862517410114e+02 -1.7839420218764062e+03 -6.5681823677775901e+02 -2.9693716298192157e+01 3.3606889363696755e+03 -4.0472660856066536e+03 1.5696772777937756e+04 -6.6158530829211475e+02 -8.3479161040171712e+03 -3.8689138461731648e+02 -4.7139819421333850e+03 8.0720698941344672e+03 3.0567106785783835e+00 -3.7961966694221781e+04 3.6534994958992720e+04 5.0866007363341691e+04 4.1748854102061523e+04 3.6089912618221344e+04 4.2066416380738097e+04 3.3222730361080387e+04 -3.4769118949599440e+04 2.5444388086506797e+03 4.8154637565251469e+03 
      </Row>
      <Row Index="16">
        2.4309797051175865e+03 -2.7877577276927095e+03 7.7934362908994572e+03 -2.6093963759174221e+02 -3.2077328810712434e+03 1.4955525666585436e+02 -2.4929774521456420e+03 2.9069615543370201e+03 4.6940264079437839e+01 -8.3535931294121096e+04 7.7445908986006078e+04 1.2685633731997653e+05 1.0159284083771538e+05 1.0888885343666862e+05 1.0519842698915488e+05 6.6143676731365078e+04 8.9791930755227013e+05 1.1907259279028872e+03 -1.5052450274850835e+03 3.6116643155308266e+03 -1.2890841564594710e+04 -4.3380958742072189e+03 1.0327704544457469e+04 -4.6104141589747996e+03 8.8109390319783779e+03 -1.3132129879407998e+04 3.8999158763091145e+01 -7.8457576779338342e+02 9.2881656029607257e+02 -4.8778098389603729e+03 1.2588184899694206e+03 5.6294280838420309e+02 1.4041564423935288e+03 2.2380563982315798e+03 -1.5376159274688798e+03 1.0490017207119081e+01 -7.5587634567174682e+03 8.8307961476273886e+03 -2.6979679842453814e+04 2.1610710857657341e+03 1.0049057500808249e+04 1.2190827127521607e+03 9.8505907338294437e+03 -1.0275653243169480e+04 -8.8425342947460649e+01 4.5178294266910852e+04 -4.2966481665289721e+04 -6.6899793504906716e+04 -5.1238729314895412e+04 -4.2196160167931375e+04 -5.1764895250363690e+04 -3.7959999968935328e+04 4.0159234874876012e+04 -3.3939699562680316e+03 -6.7129439334591334e+03 
      </Row>
      <Row Index="17">
        -1.9798878319517843e+02 1.5290561957740482e+02 -4.5332997281134806e+02 3.9178084995151681e+02 -4.0091385569606342e+02 4.0755599908878639e+02 2.0344175549812189e+02 2.4109770228033022e+02 8.5602530439964539e+00 5.9382640111524051e+02 -7.4203704077200928e+02 4.0778275039171513e+03 1.2747510838532855e+02 -1.0773602348255581e+03 2.1752529976913414e+02 -9.2065090512800748e+02 1.1907258894832262e+03 3.3840834697268690e+02 -8.4633279523582118e+01 4.6906633387491013e+01 2.4283215193068602e+02 3.2140960781633470e+02 -6.0350827093519956e+02 3.3929862816579924e+02 1.3498807486732187e+02 4.3003349424141959e+02 7.1260054686147214e+00 -1.9003072336491513e+01 3.4600997130695298e+01 2.3519959848276608e+02 -4.8109270858895925e+01 -4.3169479448107569e+02 -2.7438002187965875e+01 3.2672994775202289e+02 -2.0624217008884855e+00 -4.9004090453965858e+00 -9.8253344715745732e+02 1.2085680817892237e+03 -4.5950534025449997e+03 1.4012044836180303e+02 2.6897997298973246e+03 5.5716911564602469e+01 1.4162532302932589e+03 -2.5519633328534437e+03 1.7683426745372060e+01 4.3279620107959715e+01 -6.1710110453100597e+01 -2.4121909791992235e+02 -2.4388627372020323e+01 -6.5749779844065927e+01 -2.5258525810727207e+01 -1.2107982182258226e+02 8.8002467542543883e+01 -6.0333566604297994e+02 -1.5898254776536855e+03 
      </Row>
      <Row Index="18">
        -2.1945511419158829e+04 2.1210830798991858e+04 -8.8201714085623389e+03 1.5568378202091362e+04 -3.5964146650945477e+04 1.2050825919584497e+04 2.0097086457220481e+04 2.4858519973926559e+04 -1.6460878875760227e+02 -4.7997565818442490e+02 6.6015463852755965e+02 -2.2976885874149716e+03 -1.9388828715206557e+02 9.8854911669706780e+02 -2.0512523579050321e+02 1.3466049647550317e+03 -1.5052425691682847e+03 -8.4633325426667170e+01 8.5040271382782422e+05 1.4726675874568507e+05 -1.6549824357335274e+03 1.3895329873922403e+05 9.3027968430297071e+04 1.3488779545242648e+05 1.4571561094653397e+05 -1.1318141199299860e+05 4.0339254976168291e+02 -5.2747261327844171e+03 6.9428323760686908e+03 1.6620235334358006e+03 -1.2551891998810752e+03 -6.9401052597946109e+03 -3.2280966191340704e+03 8.1306810482306355e+03 5.3784756371702406e+03 1.8157557122191768e+01 6.5576722710714212e+03 -7.7644670626718435e+03 3.3835834648379760e+03 -2.0722313086277600e+03 3.9838572639244589e+03 -3.2193702428552933e+02 -7.6520861666236742e+03 -4.2303738278671162e+03 2.5873023949929984e+02 2.0438274076387810e+02 -4.0697922682383432e+02 1.1538826033197736e+03 4.0065913616480657e+02 8.3015312657859181e+02 5.1946001321305221e+02 -7.8240028169026698e+02 -7.4747898261227101e+02 1.5582343474993536e+02 3.0171089463182479e+03 
      </Row>
      <Row Index="19">
        1.5136213346198807e+04 -1.8644161541940204e+04 -2.8602943251748220e+03 7.5834340972228529e+02 2.2712073162350687e+04 5.4409633815257021e+03 -2.2516158702602646e+04 -1.4439878052587370e+04 1.9346885573819418e+02 -3.2369414930280982e+00 -3.6073357499515078e+02 2.9760997705763020e+03 8.9677733642776309e+02 -3.5026553938665202e+03 8.2922222746105399e+02 -1.2926033997945342e+03 3.6116628332985883e+03 4.6906501205121003e+01 1.4726675559934659e+05 8.4821923000045749e+05 4.4252875058906808e+04 -1.1708126210389374e+05 -1.1038789169080966e+05 -1.1044014641930214e+05 -1.6066803495431974e+05 1.3241361925737280e+05 -3.5597773581402407e+02 1.6606832585118973e+03 -4.9067878253147937e+03 -5.8931098201686891e+03 7.4877816311041097e+03 -1.2230241079011466e+02 9.7452680727557454e+03 -7.5112651903950846e+03 -8.4167161011355347e+02 -3.6576184609507564e+01 -1.7763483512124676e+03 3.9273701962893392e+03 6.3031620747944653e+03 -3.2683380391892406e+03 -1.4515432725605051e+03 -5.1972822107176908e+03 3.8756304049968676e+03 4.8812516461272180e+03 -2.0531132079654435e+02 1.2586308515671919e+02 9.4615836756013067e+01 -1.3623841301907494e+03 -7.4297405858272714e+02 -1.2376514770485960e+03 -8.5483165352773244e+02 5.1163332082954219e+02 1.1678479669818585e+03 -1.1795941183214359e+02 3.0605426271255715e+02 
      </Row>
      <Row Index="20">
        -2.6940924678414256e+04 2.1920481364942174e+04 -3.9630209449502086e+04 3.2125961374542050e+04 -3.5551431493961594e+04 3.0599965171366930e+04 1.5248907417008817e+04 2.5297544215670816e+04 4.4452864849373509e+02 6.4514020740032784e+03 -6.4290369455647942e+03 -3.2316342032540820e+02 -4.7845462807738159e+03 1.3588029105831934e+04 -3.1934294120768900e+03 -4.3085844774191792e+03 -1.2890842796488483e+04 2.4283217137640031e+02 -1.6549779306896469e+03 4.4252873384287246e+04 1.3860130663509510e+05 -1.5778465633461243e+05 -1.5437468998336150e+04 -1.8107595332346758e+05 1.3001236460056796e+05 -5.4416965499225298e+04 -4.2094783132164366e+02 -1.1051829171424986e+04 9.2978023080194544e+03 1.2064460389657961e+02 1.2051240530400319e+04 -2.1667274255030883e+04 1.0600785507676206e+04 5.6639942159583443e+03 1.8019269035260317e+04 -2.4832393562341497e+02 1.8942563484624698e+04 -1.8750480713566816e+04 3.1052603321393304e+04 -1.3146224815988278e+04 1.2665540391903483e+04 -1.0864289759060655e+04 -1.8648042876381260e+04 -5.4491517607498754e+03 -2.1179781501971593e+02 -1.4952412955418715e+03 1.3034483125881111e+03 -1.2951996428055074e+03 1.4877119466003567e+03 1.4980446274544377e+03 1.3288280658915517e+03 6.5497475619990530e+02 -1.7501432381344757e+03 -4.2568166866693741e+02 5.4359568995338377e+03 
      </Row>
      <Row Index="21">
        3.0448437275287564e+04 -1.9659298983815079e+04 3.4605965529452937e+04 -5.1586296120397368e+04 5.3587873925332504e+04 -5.1955624572009649e+04 -4.6180957301667449e+03 -4.3818414010533001e+04 8.0083722217252216e+01 2.1434042477093699e+03 -1.8610424264084304e+03 2.2506198589049445e+03 -1.8910522448954732e+03 5.9109150792784058e+03 -1.5829627009910764e+03 -1.7632545775863109e+03 -4.3380957370421238e+03 3.2140958993767526e+02 1.3895329212899692e+05 -1.1708125299765726e+05 -1.5778466073616652e+05 8.0774182264644478e+05 -5.9397975912115333e+04 -1.9745909606905511e+05 -8.2435829261726118e+04 6.1670132390352919e+04 -4.8129715851230083e+02 1.4359704355594491e+04 -1.1767927117672807e+04 1.0709291196100134e+04 -1.5625754679260266e+04 2.4518123751056279e+04 -1.4587712725573627e+04 -9.0336157020915853e+03 -1.6801926374709223e+04 2.3048276159375803e+01 -2.2418456802987217e+04 2.0259241990194278e+04 -3.2473543722268805e+04 2.0337383536677276e+04 -1.7360867012436614e+04 1.9073476841281547e+04 1.9673322347769528e+04 6.2075571278736834e+03 -3.4797298746832382e+02 -1.1874683037887828e+03 1.3165982559317267e+03 -6.4109618121261110e+02 6.6474982568892051e+02 3.8869213223258089e+02 5.2723917192813519e+02 1.4995646313578663e+03 -5.2856830654378075e+02 -5.2546877625940738e+02 -1.1238757127958666e+04 
      </Row>
      <Row Index="22">
        -3.9051228382896341e+04 3.2362990090948719e+04 -1.8261451561003967e+04 4.1811631819615439e+04 -7.3608855267961277e+04 3.8585823502360283e+04 2.6319362879575368e+04 5.0321448071969258e+04 -4.1485985139073364e+02 -3.6163828508478855e+03 3.1401464751650965e+03 -1.9008939269165844e+03 3.2918500698069702e+03 -1.1679859196121106e+04 2.4717783841202036e+03 1.8245548194032162e+03 1.0327711361471956e+04 -6.0350845417475148e+02 9.3027968199466370e+04 -1.1038789507485952e+05 -1.5437472101575724e+04 -5.9397969697136316e+04 6.6514670778046327e+05 -6.3622217830005568e+04 -1.3749234093648428e+05 3.1324084776684991e+05 9.9726461111510775e+02 -1.0699884685754063e+04 1.1329476241914788e+04 -5.9331147086038809e+03 4.7180360374094453e+03 -1.5712198214181466e+04 2.6841146227219142e+03 1.2856940799621421e+04 9.5736612545003591e+03 1.2134526653273409e+02 3.8860149368475832e+03 -4.0774019897821709e+03 -8.5204249478300990e+03 -2.6488443948860368e+03 8.7682424378964370e+03 -1.6159544193922193e+03 -3.5060600729951984e+03 -8.4734079319434895e+03 6.2297928678726794e+02 1.0690922283781183e+03 -7.5501607403409821e+02 -2.1369218555508951e+03 -1.7526003516285218e+03 -2.7472523373525919e+03 -1.8490700942661015e+03 -1.6785303995271806e+02 2.5148644344642171e+03 1.0898896171160677e+03 1.8994982150493154e+03 
      </Row>
      <Row Index="23">
        3.0954215299300351e+04 -1.7813984313768127e+04 4.0786091924164350e+04 -5.8441901401953859e+04 5.5479186271172541e+04 -6.0110848399524599e+04 -4.2498175353432998e+02 -4.5244468432815062e+04 7.2588621142231204e+00 2.2463592660731192e+03 -1.8847509163859504e+03 2.4117092831988257e+03 -2.1303032623158501e+03 6.3022740488911149e+03 -1.8376818766766228e+03 -1.7080486589201976e+03 -4.6104122256240007e+03 3.3929864504685111e+02 1.3488779339961815e+05 -1.1044014891933976e+05 -1.8107595140856650e+05 -1.9745910535645054e+05 -6.3622219543184838e+04 7.9522569342681812e+05 -7.2418209702346823e+04 6.3040729760822847e+04 -4.0248380341012148e+02 1.5560513596314326e+04 -1.1658575038169452e+04 1.3363786023225168e+04 -1.9821425642929971e+04 2.7744709078330212e+04 -1.9338721752442070e+04 -7.8029720733632421e+03 -1.8804126289353684e+04 4.5885202445782696e+01 -2.3079298490135923e+04 2.0174847544955592e+04 -3.5717379435649535e+04 2.2347064868665097e+04 -1.8188239137713885e+04 2.1555317475413663e+04 1.9565270678537523e+04 5.4402813759116625e+03 -3.1082595080831243e+02 -1.2393022386407315e+03 1.3591330028049274e+03 -6.5387764915038747e+02 7.3398216052847056e+02 4.4710354943824302e+02 5.9692903136675056e+02 1.5193770497698144e+03 -5.9532334951980420e+02 -5.5611188431476239e+02 -1.1706468481615862e+04 
      </Row>
      <Row Index="24">
        1.0902463437793484e+04 -1.7459347714464046e+04 -9.8549368206312902e+03 1.3931737077171536e+04 1.5734324248318750e+04 1.9155710393683392e+04 -2.8000699056585159e+04 -3.9721848669850542e+03 1.1541821557110325e+02 -4.8796210265803347e+02 -1.5163428879043931e+02 7.4577261132304193e+03 1.8463068386395867e+03 -9.2307669763566555e+03 1.5615326584176073e+03 -1.6246028923031579e+03 8.8109366311407994e+03 1.3498815637387634e+02 1.4571561947564274e+05 -1.6066803853266907e+05 1.3001236198874032e+05 -8.2435816263847926e+04 -1.3749232866558680e+05 -7.2418214217641420e+04 8.0999799527239008e+05 1.7006112791859574e+05 -1.9232889306635911e+02 -2.3344037582969686e+03 -1.5707050095921149e+03 -9.3582117376447513e+03 1.1314760859843242e+04 -5.9171929679192035e+03 1.3223752232820319e+04 -5.2753126648965117e+03 3.1639725340965242e+03 -2.9587577387932249e+01 1.2190716469636076e+04 -9.2573455411357718e+03 3.1919252057346297e+04 -1.4752146140526722e+04 2.8847471039534075e+03 -1.5883691043233681e+04 -9.2912603118628176e+03 6.3687428435145848e+03 -7.3917042063261079e+01 9.1042199849738290e+02 -6.7484261911123122e+02 -2.0562756145031708e+03 -1.5138125034494931e+03 -2.1948639751466771e+03 -1.6052430505975021e+03 -2.0918725762944752e+02 2.1834327457209670e+03 -3.8575444606302949e+02 9.8965724952279688e+03 
      </Row>
      <Row Index="25">
        2.2484706372684625e+04 -1.9415054109560682e+04 4.8432586317056339e+03 -2.4925704690273851e+04 4.1305595181906247e+04 -2.1971178572963407e+04 -1.2299908598405858e+04 -3.5430368785295541e+04 4.8018493311178190e+02 3.2381745170458580e+03 -2.7094077589082644e+03 -2.5453968165241022e+03 -3.2626508977983749e+03 1.4340899947981437e+04 -2.3327122892225161e+03 -1.0399686808376948e+03 -1.3132126848635637e+04 4.3003331623273061e+02 -1.1318141171802710e+05 1.3241361495706497e+05 -5.4416967927924779e+04 6.1670131769854816e+04 3.1324085459106456e+05 6.3040735171271488e+04 1.7006111984695960e+05 6.8575108600428002e+05 -9.4217961016066283e+02 8.6630267132932931e+03 -1.0405689767471049e+04 4.4312987286817297e+03 -5.4967108315526275e+02 1.0018436853815976e+04 1.8064290099923091e+03 -1.2149275595680811e+04 -6.3115714651304879e+03 -1.4149103077540667e+02 -1.5856044988025689e+04 1.5753135581664275e+04 -1.3521288725141676e+04 1.1700919302722708e+04 -1.3157572460074747e+04 9.6765196984787763e+03 1.5152092488193986e+04 8.1812415551619006e+03 -5.7827942533086139e+02 -1.4993258270691485e+03 1.1864120322611441e+03 2.6342614608477193e+03 2.1799433594902966e+03 3.2573653270689838e+03 2.2660232903329920e+03 5.7216793803922928e+02 -3.1080032759042606e+03 -6.9251489223633689e+02 -8.6422944424461384e+03 
      </Row>
      <Row Index="26">
        1.7965499437500517e+02 -3.1183702698563076e+02 2.6435140144920462e+02 2.7277693632912087e+02 -4.6761585620528933e+01 3.6580005520367047e+02 -4.6763295682635845e+02 1.3364171341717821e+02 -1.9208611170856955e+01 9.9402901414984257e+01 -1.0877109680913139e+02 2.4621356814402549e+02 -4.2686794877980958e+01 -3.2067828725677373e+01 -2.5788274728341747e+01 -1.0486305457161274e+02 3.8999167172683570e+01 7.1260054417823113e+00 4.0339252515903337e+02 -3.5597773507639175e+02 -4.2094782380763030e+02 -4.8129714614119843e+02 9.9726462856220178e+02 -4.0248385046579460e+02 -1.9232890489083138e+02 -9.4217960468579679e+02 3.1617693934355565e+01 1.5903628770349596e+02 -2.0819154447543440e+02 -2.4012902144210409e+02 3.3089688531537575e-01 2.6448016514257228e+02 7.4768842584255452e+01 -1.7308774724868346e+02 -3.1258907134009871e+02 9.6733525068169506e+00 -3.4166418833572851e+02 4.2276643696508336e+02 -5.2730613880559395e+02 4.8242216711175061e+01 -1.5086950303841775e+02 -5.4471594419589941e+01 4.3118650145798870e+02 1.5696470420597589e+02 2.1521877094198221e+01 1.8990998864151155e+01 -2.1416098915446337e+01 -2.7067608048551136e+01 -1.6200152457482197e+01 -1.8759547086567423e+01 -1.6589466005934799e+01 -2.8321069304327551e+01 2.0522251571874314e+01 -1.5316412504054838e+01 4.2397179684381001e+00 
      </Row>
      <Row Index="27">
        -1.1057736465693011e+04 7.6002984360212713e+03 -1.0480182571535124e+04 1.8887349022522118e+04 -1.9872713112258749e+04 1.8682571413545491e+04 1.9127838675489966e+03 1.7935207388981889e+04 -1.9624947864907608e+02 -1.1235358799344958e+03 9.4714954261678031e+02 -2.7017733142627872e+03 1.2876916473234251e+03 4.1791800610738392e+02 1.3322383293509483e+03 8.6634598538947739e+02 -7.8457637734499122e+02 -1.9003037931909603e+01 -5.2747157211589483e+03 1.6606848491656515e+03 -1.1051830736844868e+04 1.4359708413454189e+04 -1.0699876751632415e+04 1.5560517268404918e+04 -2.3343985157378829e+03 8.6630369439751266e+03 1.5903628837381257e+02 8.6351929019557603e+05 1.3133457188705620e+05 -2.0396801648483665e+03 1.4132842572551989e+05 1.1255442235714803e+05 1.4097936903532752e+05 1.2493604541660509e+05 -1.2200329627415593e+05 2.6084226858509476e+02 8.4324574486508100e+03 -6.9321492772219535e+03 6.0153049853859266e+03 -9.1858069475301090e+03 1.4621425462154144e+04 -8.7574511565829271e+03 -6.2617706609918023e+03 -8.8061745683667305e+03 2.0640624559278217e+02 -3.9243960128156607e+02 3.9030904437339660e+02 6.0880780500003698e+02 4.2270272190300693e+02 6.1030407169872865e+02 4.3713213242821058e+02 3.9515776191008513e+02 -6.1549972138428609e+02 1.4020106947651129e+01 8.5214958692228060e+02 
      </Row>
      <Row Index="28">
        7.5242223101897716e+03 -9.1790335469302736e+03 -1.0687045152811017e+03 -2.2007286234737662e+03 1.0504463838124602e+04 2.9942874174156077e+02 -8.9560195995567501e+03 -1.0450339758954493e+04 2.1210304136935338e+02 1.0858626256185762e+03 -1.0823861464997462e+03 2.7108398066555046e+03 -8.8158892031257892e+02 -8.2666223936881033e+02 -8.3007484003319405e+02 -1.0704542321353767e+03 9.2881619775647687e+02 3.4600981874508761e+01 6.9428385072074407e+03 -4.9067893228592484e+03 9.2977980674605751e+03 -1.1767929314960289e+04 1.1329485897868461e+04 -1.1658560545842658e+04 -1.5707078704682967e+03 -1.0405680663323885e+04 -2.0819155472520242e+02 1.3133457326741709e+05 8.6358806516376929e+05 3.5402660587626320e+04 -1.0806531633566588e+05 -1.3656865185494450e+05 -1.0361573120671062e+05 -1.4371087068963991e+05 1.4597628921755595e+05 -1.7388593374346155e+02 -7.8694374974862758e+03 8.0518494069127510e+03 -1.2979594445711664e+03 5.1968730472999068e+03 -1.3683128908887385e+04 3.5576256346687014e+03 7.4557737442616835e+03 1.0984076932555121e+04 -1.5499023147697653e+02 3.8202138100754115e+02 -3.7550647322142134e+02 -6.0562981977176810e+02 -4.3568095165744870e+02 -6.1581919561022232e+02 -4.5670122258189832e+02 -3.7839739754272392e+02 6.1686902939536026e+02 -7.0572016664128114e+01 8.1905813367265910e+02 
      </Row>
      <Row Index="29">
        -1.2719199313691664e+04 3.4619628185468664e+03 -3.7218742179510118e+04 3.6828254955173594e+04 -1.9692708197549386e+04 4.0159991040913497e+04 -7.7175106715106303e+03 1.7105750711568959e+04 2.8203480681149085e+02 -7.8696301160282928e+02 4.4049352877062302e+02 -4.5398460448575206e+03 1.5539917288551501e+03 4.6456746477037814e+03 1.9986419082246184e+03 5.1630986577168221e+02 -4.8778100387949216e+03 2.3519962100049543e+02 1.6620224548154947e+03 -5.8931110641446840e+03 1.2064387621815604e+02 1.0709291709281857e+04 -5.9331147110488264e+03 1.3363787830755668e+04 -9.3582099776188970e+03 4.4313011855665973e+03 -2.4012902488437112e+02 -2.0396809012595113e+03 3.5402659448114020e+04 1.0260599178409298e+05 -1.2882312752491179e+05 -1.4713087897878180e+04 -1.4627980433890669e+05 1.1150299170004411e+05 -5.3224053745291742e+04 -6.1768119609934288e+01 5.5377365992359801e+03 -1.2697249945216336e+03 8.3722233171740681e+03 -1.2869259340077977e+04 1.7085112159777393e+04 -1.4716004751317381e+04 -5.5098261042397826e+02 -6.8390155829173327e+03 -9.2854080929669180e+00 -1.4686653502151203e+03 1.4982316619674641e+03 1.0704332225986359e+03 1.3107381890904139e+03 1.5256245620707764e+03 1.2610982344667939e+03 1.5178627474424181e+03 -1.6246260304139064e+03 -4.9294960282838679e+02 -1.4397442685995857e+03 
      </Row>
      <Row Index="30">
        1.6940065988052200e+04 -2.0178104694964200e+03 3.7263389785022307e+04 -5.6704628987901284e+04 3.6160792903984664e+04 -6.1872181652675019e+04 1.7401936928555617e+04 -3.4101880350991254e+04 1.3227736609832436e+02 1.6553736705543743e+03 -1.0599519210334374e+03 4.2098423322220979e+03 -2.6417369734411873e+03 -2.7174944619955204e+02 -2.9239113164037508e+03 -7.7895642517851695e+02 1.2588200895370906e+03 -4.8109275871813907e+01 -1.2551753843596616e+03 7.4877796152776909e+03 1.2051241185920344e+04 -1.5625751788039010e+04 4.7180456746656419e+03 -1.9821426713039305e+04 1.1314762841375443e+04 -5.4966980048956816e+02 3.3091785576522170e-01 1.4132843162018829e+05 -1.0806531576971202e+05 -1.2882312988172409e+05 7.6986438003813406e+05 -5.0210021407919790e+04 -2.4130509492401517e+05 -5.8872674026756846e+04 4.8107786258011052e+04 -5.0708742926196294e+02 -6.8306038264246436e+03 3.1536845103816086e+02 -1.2422347871802998e+04 1.8823557692773731e+04 -1.8402002177826405e+04 2.2221903648860614e+04 -6.9740224828529972e+02 4.2450332951936798e+03 -3.4129192597652400e+02 6.9280171638381876e+02 -7.1715076979750802e+02 -9.2745583294409528e+02 -6.2818665697511710e+02 -8.8960952032230989e+02 -6.2336291913275386e+02 -7.6562166979657945e+02 9.1437530207457803e+02 1.7421349234124978e+02 -2.8810480443249658e+03 
      </Row>
      <Row Index="31">
        -1.9418367353074977e+04 8.3740718663191692e+03 -2.1282650796168360e+04 4.5060192340312955e+04 -4.3893288526373901e+04 4.7657827681589566e+04 -4.2719004155841430e+03 3.5114278920248355e+04 -4.2123233642152081e+02 -2.0935912253036113e+03 1.6649192005757577e+03 -6.6032902570488150e+03 2.4200794624252708e+03 -1.4668935759166370e+03 2.4098141545561721e+03 1.2601277505413220e+03 5.6294047621906248e+02 -4.3169485979680940e+02 -6.9401063913142871e+03 -1.2230382614202179e+02 -2.1667276676622510e+04 2.4518125662073151e+04 -1.5712209459895326e+04 2.7744716287654941e+04 -5.9171912520510095e+03 1.0018432034261046e+04 2.6448016981301885e+02 1.1255442959694564e+05 -1.3656865316052100e+05 -1.4713092412730564e+04 -5.0210002243774434e+04 6.8830280768783484e+05 -4.7548011032909650e+04 -1.7234137930982042e+05 3.0313823113728885e+05 6.8065507969741725e+02 9.4195102054468916e+03 -5.7697052789334120e+03 2.7659143284642869e+03 -1.4605221960406829e+04 2.4317800367882017e+04 -1.5147322261446698e+04 -4.4516474293543251e+03 -1.4286648594690230e+04 4.1767620849837840e+02 -2.1029823698922496e+02 3.0917113596223470e+02 2.3176650238301897e+02 -1.1051367409823797e+01 -7.1798421433048020e+01 -4.1521127911208282e+01 5.0459156278310184e+02 -9.6386513979568917e+00 8.0395519980960216e+02 -4.2378043231843139e+02 
      </Row>
      <Row Index="32">
        1.7007619258053252e+04 3.4269456994051325e+02 4.2679732893356639e+04 -6.3003356469035454e+04 3.8143755007545180e+04 -6.9651889139209437e+04 2.1592919314843239e+04 -3.4680281190551999e+04 6.7048154020116044e+01 1.5535688248513161e+03 -9.1511867970965750e+02 4.4107887784632794e+03 -2.6373056298827987e+03 -3.3738584320172959e+02 -2.9664482008826853e+03 -6.5045749437986194e+02 1.4041560999300073e+03 -2.7438017427517934e+01 -3.2281013450016367e+03 9.7452746682621782e+03 1.0600787200604431e+04 -1.4587714365290401e+04 2.6841107846617942e+03 -1.9338727648571792e+04 1.3223747200601123e+04 1.8064251870682074e+03 7.4768832105141854e+01 1.4097936461478233e+05 -1.0361572808367101e+05 -1.4627980134455799e+05 -2.4130510835405646e+05 -4.7548005859112032e+04 7.4504160701643862e+05 -5.0298867733549196e+04 4.6057860142117861e+04 -4.9550528480969149e+02 -5.2364992352739810e+03 -1.9488927767580371e+03 -1.2784506421045959e+04 1.9116868829076357e+04 -1.6894626629265109e+04 2.3263118468379736e+04 -2.9135445301903419e+03 2.1189070008799290e+03 -3.1606941849682784e+02 6.6890182302934647e+02 -6.9302888217044074e+02 -9.2296389722145489e+02 -5.9682903223804897e+02 -8.6402730402585860e+02 -5.8840684910973516e+02 -7.3916615836489700e+02 8.9027538006420423e+02 1.3866322010223553e+02 -2.9569002226205689e+03 
      </Row>
      <Row Index="33">
        3.6895217157522002e+03 -9.1863640308349186e+03 -1.0336639498775758e+04 1.3437301467443922e+04 3.7162290311575262e+03 1.7039272243095140e+04 -1.6397852801706882e+04 1.8453617268219466e+02 1.3575042611480421e+02 1.2655246156286557e+03 -1.5608986009182954e+03 6.1641122339293579e+03 -2.3851596280123681e+02 -2.4218744776744461e+03 -5.5492719978873197e+01 -1.7839414185566702e+03 2.2380583603011200e+03 3.2673004312073226e+02 8.1306810567703942e+03 -7.5112670263705540e+03 5.6639924626220654e+03 -9.0336065154564585e+03 1.2856946397245871e+04 -7.8029744677047129e+03 -5.2753110699428944e+03 -1.2149265851983722e+04 -1.7308775913865111e+02 1.2493604777438713e+05 -1.4371086901725770e+05 1.1150299094603823e+05 -5.8872675453746786e+04 -1.7234136669531971e+05 -5.0298864973832016e+04 8.2287362571079447e+05 1.9403259843986793e+05 -3.0159416596166395e+01 -3.5421774620960041e+03 5.8151478024852622e+03 1.2116524739977818e+04 -2.3441124238345801e+03 -1.3445221767707328e+04 -5.2655313857768988e+03 5.2111416627094131e+03 1.5681441283585082e+04 -7.5451061571511673e+00 3.6041209320352567e+02 -3.5814855821003817e+02 -7.7486792673484615e+02 -4.2764198525765022e+02 -6.4135040110851696e+02 -4.5360348302730404e+02 -3.8662562966095231e+02 6.5739393808982481e+02 -7.0123022122405109e+02 6.5426152142324318e+03 
      </Row>
      <Row Index="34">
        1.4027405154652854e+04 -8.1138529189015280e+03 1.1213099078501331e+04 -3.0668827407996789e+04 2.7442217948856789e+04 -3.0745833150885301e+04 3.7769685066838392e+03 -3.0096230204642907e+04 4.5520339020476968e+02 1.7131576442313690e+03 -1.2309108157615610e+03 1.9020741805027765e+03 -2.4511118257160292e+03 2.2345990268124660e+03 -2.4642348945524982e+03 -6.5681973036816066e+02 -1.5376159000635612e+03 -2.0624578139386358e+00 5.3784778071862611e+03 -8.4167371553699854e+02 1.8019264765971748e+04 -1.6801921342390469e+04 9.5736594629524516e+03 -1.8804116954918998e+04 3.1639681544252908e+03 -6.3115708498121221e+03 -3.1258907725982738e+02 -1.2200328568977445e+05 1.4597629226852482e+05 -5.3224058023594247e+04 4.8107799494641731e+04 3.0313823874369793e+05 4.6057859711223224e+04 1.9403258543915831e+05 6.8128322380335268e+05 -6.3685249019218702e+02 -1.0216082918567503e+04 6.5392561770746470e+03 -8.5803531898885085e+03 1.5268978013748188e+04 -1.9533797570197203e+04 1.6094419187509688e+04 5.4850354542525265e+03 9.3930544292969189e+03 -4.5962577404363196e+02 3.5641434324955907e+02 -4.4220999720370969e+02 -1.1836988461380224e+02 -1.4977267580751908e+02 -5.2295314267035337e+01 -1.2213019032851292e+02 -6.0226298219596561e+02 1.0531376980106643e+02 6.7990356898032132e+01 -3.0258434667983756e+03 
      </Row>
      <Row Index="35">
        2.7664484733384725e+01 -9.5125632868345818e+01 2.2657578002085498e+02 1.7480668466840262e+02 -1.6265672220413654e+02 2.0359003332752897e+02 -1.9873210563016286e+02 1.9745268049640174e+02 -1.3801666118200117e+01 3.2805313593166005e+01 -3.4652279216209109e+01 2.8610023256391074e+01 -2.2906364896143582e+01 -1.3518952896946303e+01 -1.8448431754881071e+01 -2.9693716854222693e+01 1.0490016078060680e+01 -4.9004090708633186e+00 1.8157531597390808e+01 -3.6576189556224463e+01 -2.4832393255945789e+02 2.3048276593001162e+01 1.2134525167597587e+02 4.5885188564274685e+01 -2.9587567913897736e+01 -1.4149103271913003e+02 9.6733525138365053e+00 2.6084226376697501e+02 -1.7388594077719750e+02 -6.1768119721817001e+01 -5.0708741729432404e+02 6.8065506617705807e+02 -4.9550529222961177e+02 -3.0159405341844632e+01 -6.3685249431162163e+02 1.5560669092295566e+01 -4.2033945675501485e+01 6.5094752521750905e+01 2.5724349674416715e+01 -2.5868182950024988e+01 -1.4655503543188053e+02 -5.5411813380000396e+01 6.4868162619168814e+01 1.5272619431393173e+02 1.0558277304184886e+01 1.3693004756929835e+01 -1.4613448750729978e+01 -1.2304382617109630e+01 -1.2279161327170044e+01 -1.3770822422622382e+01 -1.2331163831806297e+01 -1.6856043280626523e+01 1.4090764050372925e+01 8.5633875322991457e+00 1.1166376767227905e+02 
      </Row>
      <Row Index="36">
        -8.3480713547423875e+01 1.5258223288331556e+03 2.1376383927617794e+03 -6.9501229834755050e+03 -4.2635092628147295e+03 -6.9127122014536144e+03 9.9005730603786360e+03 -6.8256129554267845e+03 1.7110286131118482e+02 -2.1781410959822533e+03 2.6964573677036096e+03 -1.7712088040848066e+04 -3.8448595133395429e+00 7.6046408071083133e+03 -1.2583733115641553e+02 3.3606855437652521e+03 -7.5587645526207198e+03 -9.8253340344091703e+02 6.5576634531138361e+03 -1.7763378609859385e+03 1.8942566840863961e+04 -2.2418463091138361e+04 3.8860050894866872e+03 -2.3079306537556356e+04 1.2190712815931913e+04 -1.5856052434412089e+04 -3.4166417083661963e+02 8.4324565076082363e+03 -7.8694383238277969e+03 5.5377388619345729e+03 -6.8306018312970928e+03 9.4195195479913418e+03 -5.2365110253798048e+03 -3.5421778541948147e+03 -1.0216080067069735e+04 -4.2033924662216236e+01 8.8936040027964313e+05 1.0471921503971815e+05 8.0250107561841753e+04 1.1983665449405588e+05 9.8261725736762251e+04 1.2038213235770741e+05 9.3050874976509440e+04 -9.9933031124372239e+04 -3.9725809866473173e+02 -9.4494963990381393e+02 1.0511019799845258e+03 5.2314370185639837e+02 7.8123979063838169e+02 1.3538997696902361e+03 7.6796316627481337e+02 1.2892885612160283e+03 -1.4426406711931913e+03 2.0988922155748478e+03 2.4430539276853153e+04 
      </Row>
      <Row Index="37">
        1.8643452714217692e+03 -1.6273825778109149e+03 4.9258609253953628e+03 -5.7464352292032800e+02 6.4525886736625616e+03 -1.1891019485981233e+03 -6.9683341382905492e+03 2.8003854703256634e+03 -2.6107184099829465e+02 2.8636945187870151e+03 -3.3558750188074482e+03 2.2079120924943367e+04 -5.1519788775508641e+02 -8.7243447852624813e+03 -4.0788955800708845e+02 -4.0472645640101841e+03 8.8307955052851721e+03 1.2085679831372399e+03 -7.7644663926490175e+03 3.9273646449312209e+03 -1.8750477786831296e+04 2.0259236623182576e+04 -4.0773840685168725e+03 2.0174840992821253e+04 -9.2573413865948132e+03 1.5753144515371489e+04 4.2276646655563854e+02 -6.9321479440866115e+03 8.0518479529466313e+03 -1.2697250827624302e+03 3.1536361827381234e+02 -5.7697071911925696e+03 -1.9488867233381598e+03 5.8151511562611322e+03 6.5392554932254316e+03 6.5094757087542291e+01 1.0471921362443268e+05 8.9856376871674450e+05 -5.7767104555131518e+04 -1.0686721155948317e+05 -9.6172386548747512e+04 -1.0593144020461554e+05 -9.2031215445569673e+04 9.6187249683957270e+04 4.5407423312685569e+02 1.1026308816264336e+03 -1.2309514403613018e+03 -1.0124707606702914e+03 -8.9244514847811206e+02 -1.5220804715302768e+03 -8.7378440002104958e+02 -1.5238847444019682e+03 1.6381379850871488e+03 -2.5525469962303032e+03 -3.6148571665013500e+04 
      </Row>
      <Row Index="38">
        2.4882157370894220e+03 5.8765907425660153e+03 1.9154314798107451e+04 -2.8844426879419261e+04 -5.7685123942621076e+03 -3.1074308929944269e+04 3.0944805742230092e+04 -1.7455926784861505e+04 -7.9718408564513084e+00 -1.2442933873395014e+04 1.4210778835957462e+04 -8.0831323189969189e+04 4.5619389469941998e+03 2.7638785778600024e+04 3.7005982359692171e+03 1.5696773452860009e+04 -2.6979677005061014e+04 -4.5950534257305080e+03 3.3835831392769824e+03 6.3031490690490800e+03 3.1052602625371710e+04 -3.2473543522055064e+04 -8.5204384326789150e+03 -3.5717371493133956e+04 3.1919261413592914e+04 -1.3521299054768146e+04 -5.2730614551672443e+02 6.0153087692409754e+03 -1.2979621377112235e+03 8.3722246013902259e+03 -1.2422348287191209e+04 2.7659139338079995e+03 -1.2784507261801353e+04 1.2116531460031620e+04 -8.5803537988952339e+03 2.5724354981988427e+01 8.0250110057088197e+04 -5.7767113091935724e+04 3.9600594361025811e+05 -1.7245395326732009e+05 -1.1170244193466989e+05 -1.8631765967027037e+05 -1.5306425575637242e+04 7.4252529735229429e+04 -1.2023360307315797e+03 -3.0195970172620237e+03 3.3836009863550762e+03 9.8069055755455283e+03 2.3958575198197595e+03 3.3274480718603827e+03 2.3608657188364577e+03 4.3950791403182702e+03 -3.8865885173955089e+03 9.5777005892664092e+03 1.0392785751945962e+05 
      </Row>
      <Row Index="39">
        -3.6946761752467683e+03 -7.5498663465418394e+02 -1.6653830720642090e+04 2.0488457905856649e+04 -1.3687479217819991e+03 2.1640198378192581e+04 -1.2867100956109731e+04 1.3002209886625522e+04 8.1462735024586436e+01 -1.3404384793067584e+02 -2.6115176418077317e+02 1.3232732162971588e+03 1.2333683283732698e+03 -2.4559087312340271e+03 1.3400385424730785e+03 -6.6158557216820373e+02 2.1610663718716169e+03 1.4012034073675022e+02 -2.0722348784783944e+03 -3.2683310086997726e+03 -1.3146224673062175e+04 2.0337380201998345e+04 -2.6488513476084263e+03 2.2347067372176341e+04 -1.4752153649249976e+04 1.1700914556130418e+04 4.8242189384264748e+01 -9.1858049048152243e+03 5.1968776218399717e+03 -1.2869258053894657e+04 1.8823550406543767e+04 -1.4605225455217500e+04 1.9116872326077566e+04 -2.3441172895908367e+03 1.5268970957602814e+04 -2.5868184441845187e+01 1.1983665753710787e+05 -1.0686721780818989e+05 -1.7245394473908588e+05 8.4839009270850196e+05 -1.0907524236678841e+05 -1.5684701311186285e+05 -8.7907781013152344e+04 1.1021443629717860e+05 1.3718209840318377e+02 3.4482001577974779e+02 -3.7245021367317395e+02 1.2874568835858304e+03 -3.3334456452491168e+02 -6.8589986589246860e+02 -3.3673606937586828e+02 -4.1393928146923577e+02 6.6641091610146555e+02 -3.7657049068051856e+02 1.0776467235793083e+04 
      </Row>
      <Row Index="40">
        8.2170553031763484e+02 -3.9571026733795225e+02 4.4281849086321517e+03 -9.4209590357304660e+03 2.5328162790409447e+03 -9.4983741359738488e+03 2.1125612689012196e+03 -9.1561983904783210e+03 1.7176950204133755e+02 7.0487512035064283e+03 -7.7227499866166618e+03 4.2504624153426252e+04 -2.8214193240231107e+03 -9.0672616549163577e+03 -2.1859866277679848e+03 -8.3479119668672374e+03 1.0049060371610489e+04 2.6897997631805192e+03 3.9838496098498208e+03 -1.4515419684945668e+03 1.2665534679110311e+04 -1.7360861005067647e+04 8.7682464614155469e+03 -1.8188235983799488e+04 2.8847317987628985e+03 -1.3157569465205466e+04 -1.5086950622299992e+02 1.4621442921985763e+04 -1.3683129364478225e+04 1.7085105953299593e+04 -1.8401980172590389e+04 2.4317824402775983e+04 -1.6894629885750768e+04 -1.3445229142812919e+04 -1.9533781481240785e+04 -1.4655502787061187e+02 9.8261731498296547e+04 -9.6172386542885331e+04 -1.1170244190973917e+05 -1.0907525045864812e+05 8.0274928155453573e+05 -1.1368909542432416e+05 -8.6365940153731033e+04 1.7623327342300545e+05 2.9248856179005452e+02 9.0411480650656631e+02 -1.1268307917608420e+03 -1.4426854744974644e+03 -5.8301046468766981e+02 -1.5138472934138808e+03 -5.8674069585403504e+02 -1.7272456211290100e+03 1.6432939862493231e+03 -5.4975330820190866e+03 -6.2093495436771685e+04 
      </Row>
      <Row Index="41">
        -4.9929496384483664e+03 -6.1161987761585078e+02 -2.1711789146226278e+04 2.5137969071654963e+04 -3.1656099426604715e+03 2.6742949511537732e+04 -1.4231949241550115e+04 1.4928794738251898e+04 1.7735540393397969e+02 -3.9380768708453979e+02 -2.2032354910537833e+01 -7.2872778958793424e+02 1.4503839161564829e+03 -1.5725376843570484e+03 1.5972750550837245e+03 -3.8689855133370020e+02 1.2190830892556660e+03 5.5717121787412907e+01 -3.2193717080366105e+02 -5.1972680782189509e+03 -1.0864281932829343e+04 1.9073472773628306e+04 -1.6159403772239639e+03 2.1555291387137102e+04 -1.5883695725672291e+04 9.6765222151018970e+03 -5.4471545609705572e+01 -8.7574634421109677e+03 3.5576309958853476e+03 -1.4716003739343389e+04 2.2221906374430080e+04 -1.5147329870450374e+04 2.3263111018221953e+04 -5.2655290555802239e+03 1.6094423128516119e+04 -5.5411832381626027e+01 1.2038213068543532e+05 -1.0593142289295101e+05 -1.8631767445498228e+05 -1.5684700722337456e+05 -1.1368909408705497e+05 8.3662827201113570e+05 -8.5955337648045970e+04 1.1491025134647009e+05 7.7299577764435526e+01 1.9962239874338093e+02 -2.1538762474101631e+02 1.5866022273508240e+03 -2.1724027124705526e+02 -5.3486818315604728e+02 -2.2593576530336441e+02 -2.3294680158375513e+02 4.9633480964543241e+02 -1.9946101779872697e+02 1.3921434156291254e+04 
      </Row>
      <Row Index="42">
        1.9457895267841923e+03 -1.7572284782443148e+03 5.2660265063520528e+03 -8.5964111799370244e+02 6.5990744825005413e+03 -1.4547644972927083e+03 -7.1830151911564753e+03 2.5277651520345344e+03 -2.6092447782831732e+02 3.4325542979869933e+03 -3.9801271539737645e+03 2.6009678240635330e+04 -7.9489200393375722e+02 -9.7510443831341654e+03 -6.5076835610491435e+02 -4.7139818230008896e+03 9.8505911629801649e+03 1.4162532341564074e+03 -7.6520944298033010e+03 3.8756326410610654e+03 -1.8648042973784231e+04 1.9673307334789159e+04 -3.5060618721643259e+03 1.9565283862583361e+04 -9.2912547178535788e+03 1.5152101223685449e+04 4.3118648235571436e+02 -6.2617676862791159e+03 7.4557860993637260e+03 -5.5097831190285069e+02 -6.9741345805548735e+02 -4.4516414401875318e+03 -2.9135502835754501e+03 5.2111369418384629e+03 5.4850345238354466e+03 6.4868178252105110e+01 9.3050864667629547e+04 -9.2031223286335720e+04 -1.5306424627442364e+04 -8.7907777722043829e+04 -8.6365930277439533e+04 -8.5955347859496949e+04 9.1348755469940626e+05 8.8019666138310145e+04 4.8478562295538177e+02 1.1635217965448783e+03 -1.3060818651743884e+03 -1.5399494637442576e+03 -9.2817073941284752e+02 -1.5765386003673557e+03 -9.0831889859433591e+02 -1.6426472772716402e+03 1.7173284512561549e+03 -2.9607966447205799e+03 -6.1766743672187848e+04 
      </Row>
      <Row Index="43">
        1.9033763252536592e+03 1.1523227146143035e+03 8.2612684900559434e+03 -6.3302852747760899e+03 -2.7945117801470042e+02 -7.3455141652430175e+03 6.8277358238580637e+03 -3.6214459838028552e+02 -2.5211231452214997e+02 -6.4572595423650928e+03 7.3231876916890033e+03 -4.0710283770143433e+04 2.0015639715778816e+03 9.7234948781167623e+03 1.3301210781724149e+03 8.0720708816155602e+03 -1.0275648918934603e+04 -2.5519633223564015e+03 -4.2303847092393517e+03 4.8812412297743067e+03 -5.4491501145384209e+03 6.2075472857420345e+03 -8.4733982722221408e+03 5.4402802348177074e+03 6.3687393864450123e+03 8.1812417249300561e+03 1.5696471171710436e+02 -8.8061571197898356e+03 1.0984090694415159e+04 -6.8390165109104128e+03 4.2450385993017007e+03 -1.4286642532270163e+04 2.1189085343346051e+03 1.5681443665472842e+04 9.3930641253178619e+03 1.5272618208547647e+02 -9.9933026403938216e+04 9.6187240461800946e+04 7.4252531119051040e+04 1.1021442820610121e+05 1.7623329614490655e+05 1.1491024942708254e+05 8.8019659306243062e+04 8.3509214985409798e+05 -3.1953568130588974e+02 -8.6993538420640107e+02 1.0759389410516942e+03 1.5347681565475068e+03 5.8802352373418762e+02 1.4608258006560081e+03 5.9468624551502216e+02 1.6367247609750448e+03 -1.5957145981434205e+03 5.2307239122643950e+03 7.6048854822045760e+04 
      </Row>
      <Row Index="44">
        1.6343706227026109e+02 -2.1541055375984490e+02 1.9481221024722061e+02 3.0903083247116086e+01 1.0477072509650007e+02 8.4151351799555101e+01 -2.6585354776337510e+02 -4.8317790451753034e+01 -1.0345783970257230e+01 -2.0713825364669219e+01 1.2898874109107851e+01 -2.6463029079889154e+01 5.0149631180531102e+01 1.0244489185699510e+02 5.9490700188163487e+01 3.0567129023134161e+00 -8.8425347160462863e+01 1.7683426860651991e+01 2.5873022305091058e+02 -2.0531129206342459e+02 -2.1179781092970640e+02 -3.4797297607631504e+02 6.2297932034658902e+02 -3.1082599198256230e+02 -7.3917060450147360e+01 -5.7827939201047718e+02 2.1521877084422918e+01 2.0640623867437301e+02 -1.5499022682524492e+02 -9.2854090681741752e+00 -3.4129192721157597e+02 4.1767622147744601e+02 -3.1606942148633317e+02 -7.5451140131457777e+00 -4.5962576189272397e+02 1.0558277301980148e+01 -3.9725813114597037e+02 4.5407423224394472e+02 -1.2023360315229945e+03 1.3718212157192670e+02 2.9248856904333871e+02 7.7299520861479550e+01 4.8478561984912318e+02 -3.1953569201547396e+02 2.3001696758785506e+01 -3.8852862715588174e+01 3.9554899119372486e+01 3.2540655213390608e+01 3.5112224334456840e+01 4.2745854496708986e+01 3.4446281672436378e+01 4.0487048829961914e+01 -4.3609512708905044e+01 -3.2883979620922730e+01 -2.5283006449065698e+02 
      </Row>
      <Row Index="45">
        3.0763424533172895e+02 -2.6521919341010005e+02 1.2799035109836777e+03 -2.1139406119836750e+02 -1.5079627593605059e+02 -1.8327951870616107e+02 -7.6158995759079517e+01 1.2311612301015658e+02 -7.8402276397764581e-01 1.8776918277022454e+04 -2.5085201573808259e+04 7.3087140016455771e+04 1.9998364745044009e+03 -3.7715200621280004e+04 4.1423686537029134e+03 -3.7961966320010208e+04 4.5178293442225149e+04 4.3279596829257457e+01 2.0438350835916660e+02 1.2586349259080797e+02 -1.4952421665785041e+03 -1.1874629888938705e+03 1.0690914443346762e+03 -1.2393040137336700e+03 9.1042182763222343e+02 -1.4993248426954976e+03 1.8990993680366216e+01 -3.9244427648471833e+02 3.8202117497761361e+02 -1.4686648705957862e+03 6.9280088440415636e+02 -2.1029844264419992e+02 6.6889955103651312e+02 3.6041137478628787e+02 3.5641481401934436e+02 1.3693004917371296e+01 -9.4494856026172204e+02 1.1026346202948316e+03 -3.0195957124893716e+03 3.4482323966441288e+02 9.0411050680826884e+02 1.9961967251077681e+02 1.1635216845915302e+03 -8.6993523341613923e+02 -3.8852868708155881e+01 8.8648384562831151e+05 1.1290947821579222e+05 1.0940695818274608e+05 1.1411815371616272e+05 1.1269431353561050e+05 1.1410186494987810e+05 1.1066764181143041e+05 -1.1188243407433697e+05 -4.8460510830178259e+02 -2.4691732897904831e+02 
      </Row>
      <Row Index="46">
        -1.2940972664148478e+02 7.8644571072149972e+01 -1.1923847565420251e+03 5.3625352511646355e+01 -6.0125465107436099e+01 2.6739738258629870e+01 -1.4014579155084448e+02 1.1205838045299859e+02 1.2289834581143850e+00 -1.6829476100540938e+04 2.3317037268800534e+04 -7.6635446291367785e+04 -4.4903122269869828e+03 3.5303732156525199e+04 -6.7278055620270889e+03 3.6534994758095141e+04 -4.2966481429870881e+04 -6.1710096321971207e+01 -4.0698287902750513e+02 9.4615683619271550e+01 1.3034480664641035e+03 1.3165976890068860e+03 -7.5502062819546256e+02 1.3591339639180278e+03 -6.7484237872294693e+02 1.1864103125572269e+03 -2.1416099904330494e+01 3.9031333615254994e+02 -3.7550558891851398e+02 1.4982319713562140e+03 -7.1715139381759434e+02 3.0917268271406095e+02 -6.9302852788080236e+02 -3.5814935503182141e+02 -4.4221154748479699e+02 -1.4613443945578503e+01 1.0511030751183921e+03 -1.2309502118730024e+03 3.3836015891476372e+03 -3.7244979705662632e+02 -1.1268311548614613e+03 -2.1539198968713532e+02 -1.3060785477138425e+03 1.0759369141326233e+03 3.9554901704638866e+01 1.1290947793224023e+05 8.8764531176517170e+05 -1.0824444039330595e+05 -1.1336533765205755e+05 -1.1215159234736580e+05 -1.1333603417162527e+05 -1.1022548032416336e+05 1.1138485410424956e+05 5.4200147789190146e+02 3.3794959285399580e+02 
      </Row>
      <Row Index="47">
        -4.6757950766797359e+02 4.7001029602957874e+02 -1.4542989790037573e+03 1.6427979752853426e+02 9.5045290816746524e+02 1.2377437757624170e+02 2.5953939692470021e+02 -8.0443158350757551e+02 -1.6281067885988705e+00 -4.0389836777976969e+04 4.3690423700595296e+04 -1.5961494655587376e+04 2.9149421676139962e+04 6.2788337599858343e+04 2.8505200745077480e+04 5.0866009873486044e+04 -6.6899792673498683e+04 -2.4121914145637106e+02 1.1538857670287034e+03 -1.3623829753270243e+03 -1.2951993688331891e+03 -6.4109806789294112e+02 -2.1369194338057728e+03 -6.5387683780893769e+02 -2.0562770584175169e+03 2.6342607546614740e+03 -2.7067604960810826e+01 6.0880778278168248e+02 -6.0562749779621868e+02 1.0704335969837855e+03 -9.2745405242813354e+02 2.3176692999089519e+02 -9.2296721429080651e+02 -7.7486795951079762e+02 -1.1836877940570406e+02 -1.2304381859621504e+01 5.2314443666163231e+02 -1.0124680536025398e+03 9.8069075904210367e+03 1.2874582978717294e+03 -1.4426877332144823e+03 1.5866009111390742e+03 -1.5399516608190561e+03 1.5347697568970252e+03 3.2540652318208316e+01 1.0940695787114510e+05 -1.0824444063265837e+05 8.8704071248572844e+05 -1.1173055480935700e+05 -1.0788574305715028e+05 -1.1187710392194477e+05 -1.0490261424819904e+05 1.0661746794712712e+05 8.8472543794590240e+02 6.2795050370322838e+02 
      </Row>
      <Row Index="48">
        -5.7463446267110805e+02 5.0420682299426335e+02 -1.0620113136523378e+03 5.8577202999653446e+02 4.7701432500517961e+02 5.8016874146914734e+02 3.0066524866891814e+02 -4.5114394286526777e+02 1.0031992276828987e+00 -2.4337964066492248e+04 3.0034203492627807e+04 -6.1378302858128263e+04 5.4494134017627121e+03 4.4455880386029734e+04 3.6219661346311750e+03 4.1748853004397097e+04 -5.1238729129840096e+04 -2.4388640930086865e+01 4.0066035624062067e+02 -7.4297504409920305e+02 1.4877112555343735e+03 6.6475133238150943e+02 -1.7526005356378628e+03 7.3398351683086776e+02 -1.5138123659395783e+03 2.1799434634346176e+03 -1.6200152347907732e+01 4.2269727031316557e+02 -4.3568282450516313e+02 1.3107379257314606e+03 -6.2818732908793015e+02 -1.1051303550158474e+01 -5.9682958897557228e+02 -4.2764425609187577e+02 -1.4977267106077585e+02 -1.2279161099896326e+01 7.8123835854536833e+02 -8.9244055434515508e+02 2.3958579691468540e+03 -3.3334682663669355e+02 -5.8301229088968989e+02 -2.1723930686253945e+02 -9.2817014229450797e+02 5.8802620318913114e+02 3.5112223021279192e+01 1.1411815358519088e+05 -1.1336533791996662e+05 -1.1173055504902241e+05 8.8485230637108372e+05 -1.1311503149318459e+05 -1.1517053669805054e+05 -1.1081641311025720e+05 1.1217803115363480e+05 4.0368596949518377e+02 1.3861588498798790e+02 
      </Row>
      <Row Index="49">
        -6.8218451055356843e+02 6.2823428767236805e+02 -1.3357549968515714e+03 5.6913692175988899e+02 5.9122232994129376e+02 5.4214414872540624e+02 4.1243051342515855e+02 -5.7239757600851726e+02 -6.7602605447950737e-01 -1.6261908553203573e+04 2.2794383258007925e+04 -7.7511806748630595e+04 -5.1961508966230376e+03 3.4479169308860088e+04 -7.4656431018413095e+03 3.6089912864296602e+04 -4.2196161550743833e+04 -6.5749782418031259e+01 8.3015194256949417e+02 -1.2376529862260040e+03 1.4980435581279785e+03 3.8869353215685533e+02 -2.7472526899237905e+03 4.4710503996706063e+02 -2.1948646427760782e+03 3.2573658233148067e+03 -1.8759546750898437e+01 6.1030409230923703e+02 -6.1582042459911622e+02 1.5256248261934606e+03 -8.8960913073929237e+02 -7.1798611774879959e+01 -8.6402839296459126e+02 -6.4135046575236777e+02 -5.2296866068516643e+01 -1.3770819104949030e+01 1.3538976953890242e+03 -1.5220823422644071e+03 3.3274481476203264e+03 -6.8589715449140897e+02 -1.5138495629906922e+03 -5.3487057731810842e+02 -1.5765378041169411e+03 1.4608246000136905e+03 4.2745855390939255e+01 1.1269431388571780e+05 -1.1215159191921666e+05 -1.0788574335808706e+05 -1.1311503181203325e+05 8.8802711106536211e+05 -1.1308329861683014e+05 -1.1005117656408928e+05 1.1121932936019980e+05 5.5543014597104002e+02 2.6769392774573834e+02 
      </Row>
      <Row Index="50">
        -6.4001699898135621e+02 5.5240015707008206e+02 -9.2260800147157056e+02 7.0251400905982416e+02 5.4832231938300799e+02 7.0682002905402760e+02 3.2751483130945894e+02 -5.1795501361646393e+02 1.3654558147255784e+00 -2.4831619712195661e+04 3.0466852502929527e+04 -6.0235628487395428e+04 6.1335082596150569e+03 4.5049493110752941e+04 4.3373685211391366e+03 4.2066415777044574e+04 -5.1764893845306382e+04 -2.5258514778796780e+01 5.1946113585800254e+02 -8.5482832592815475e+02 1.3288275420577506e+03 5.2724383267338021e+02 -1.8490705145937222e+03 5.9692610332715992e+02 -1.6052435513773912e+03 2.2660249878550089e+03 -1.6589470343264530e+01 4.3713163903156010e+02 -4.5670200416805727e+02 1.2610980097589909e+03 -6.2336105149290609e+02 -4.1523658353071788e+01 -5.8840725585275845e+02 -4.5360308780565180e+02 -1.2213169290037870e+02 -1.2331167024006891e+01 7.6796262066625150e+02 -8.7378542964043152e+02 2.3608651177200359e+03 -3.3673802531544874e+02 -5.8673866815953875e+02 -2.2593239357192212e+02 -9.0831931970886023e+02 5.9468847396187039e+02 3.4446274329298731e+01 1.1410186504459371e+05 -1.1333603411113814e+05 -1.1187710432627173e+05 -1.1517053634099926e+05 -1.1308330061228864e+05 8.8480282936164679e+05 -1.1076056570946505e+05 1.1213530084555248e+05 4.0287873053266935e+02 1.3895799024386159e+02 
      </Row>
      <Row Index="51">
        -9.2874457410675291e+00 -7.1983927873554080e+01 -8.9633338915014474e+02 -9.9311729168656129e+00 -2.4416457429245105e+02 -3.1143670587905490e+01 -3.7356092990449270e+02 3.3720236801475619e+02 2.6476928779641185e+00 -1.2620096679471399e+04 1.9418120308802856e+04 -8.3137265534091173e+04 -9.6167023801624673e+03 2.9953683506553192e+04 -1.2028441533585739e+04 3.3222730443926383e+04 -3.7960002183374003e+04 -1.2107983090302616e+02 -7.8239733458500132e+02 5.1163308462947083e+02 6.5497466957131644e+02 1.4995655864831517e+03 -1.6785444892228088e+02 1.5193784529019524e+03 -2.0918479848694273e+02 5.7216774994109471e+02 -2.8321073019848043e+01 3.9515619102342703e+02 -3.7839970749924890e+02 1.5178632727954232e+03 -7.6562364195640760e+02 5.0459413536584697e+02 -7.3916597365480629e+02 -3.8662274591022850e+02 -6.0225987449533272e+02 -1.6856043445335867e+01 1.2892888256218557e+03 -1.5238845034246383e+03 4.3950802451760374e+03 -4.1394053919663673e+02 -1.7272451013043310e+03 -2.3294744981486991e+02 -1.6426479115802645e+03 1.6367247124314852e+03 4.0487045806399124e+01 1.1066764179480840e+05 -1.1022548020730307e+05 -1.0490261452923303e+05 -1.1081641281876418e+05 -1.1005117585444574e+05 -1.1076056582440779e+05 8.9164961693166301e+05 1.0938568314468044e+05 7.1254274295923187e+02 6.1696769929292589e+02 
      </Row>
      <Row Index="52">
        7.7346632308547930e+02 -7.4581891524583352e+02 1.4709091443270631e+03 -5.8450078093552793e+02 -9.2787888546950694e+02 -5.5238790665071770e+02 -5.5165986351183574e+02 8.7661483054043492e+02 1.3813840375366908e+00 1.4555269165140384e+04 -2.1222788519861257e+04 8.0254727602168132e+04 7.3045766878785071e+03 -3.2295477338165088e+04 9.6508046076581450e+03 -3.4769118587351426e+04 4.0159234622788899e+04 8.8002451257773373e+01 -7.4747832017089650e+02 1.1678478619241516e+03 -1.7501437266834284e+03 -5.2856767916020442e+02 2.5148631677422791e+03 -5.9532250251797007e+02 2.1834313150181038e+03 -3.1080053155391461e+03 2.0522252941338806e+01 -6.1549940079596036e+02 6.1686775435291077e+02 -1.6246258980703869e+03 9.1437397168618145e+02 -9.6366584697792987e+00 8.9027597051252110e+02 6.5739414002105036e+02 1.0531426967391950e+02 1.4090767557282511e+01 -1.4426417386179112e+03 1.6381375189029086e+03 -3.8865862664766946e+03 6.6640989700679586e+02 1.6432949062639775e+03 4.9633045043237200e+02 1.7173302273503150e+03 -1.5957141099447815e+03 -4.3609514030665252e+01 -1.1188243433494012e+05 1.1138485326958592e+05 1.0661746794455266e+05 1.1217803209427457e+05 1.1121932895741920e+05 1.1213530157917307e+05 1.0938568323893007e+05 8.8949265449179907e+05 -6.2007793232813503e+02 -4.1040090846013470e+02 
      </Row>
      <Row Index="53">
        3.5767629210873861e+02 -2.7630454146645013e+02 7.7267286654289876e+02 -7.2725891075242021e+02 8.2226848037956063e+02 -7.5995931844562210e+02 -4.0956989428581437e+02 -4.8036352275788090e+02 -1.4247914342637159e+01 -1.9235786696894511e+03 2.2320873891146039e+03 -9.9628206483014983e+03 2.7515571129250759e+02 3.1817207313501203e+03 7.0438011541440574e+01 2.5444387758698222e+03 -3.3939698764663967e+03 -6.0333566608628644e+02 1.5582335572046264e+02 -1.1795967542351281e+02 -4.2568163284597733e+02 -5.2546881829453582e+02 1.0898892307799874e+03 -5.5611182495519404e+02 -3.8575426834512103e+02 -6.9251525359886500e+02 -1.5316412574109620e+01 1.4020186135117015e+01 -7.0572055499062969e+01 -4.9294955645092841e+02 1.7421349391560801e+02 8.0395506573737202e+02 1.3866318142940634e+02 -7.0123002595448656e+02 6.7990274088352010e+01 8.5633874864147863e+00 2.0988923026713978e+03 -2.5525471844169092e+03 9.5777005453763431e+03 -3.7657072319963493e+02 -5.4975330244175475e+03 -1.9946057810259953e+02 -2.9607966397916389e+03 5.2307239372394124e+03 -3.2883979409849417e+01 -4.8460515537240485e+02 5.4200150764841169e+02 8.8472534590553278e+02 4.0368594176256693e+02 5.5543013966954891e+02 4.0287875383663840e+02 7.1254272247372671e+02 -6.2007796930859854e+02 1.1126829807170493e+03 3.3213699325851489e+03 
      </Row>
      <Row Index="54">
        1.7870452209224113e+03 4.0197042146770400e+01 6.3974730664017652e+03 -5.8621014844150259e+03 -2.5564615494035179e+03 -5.9591361611537504e+03 6.9187370437193313e+03 -3.3248561292553090e+03 -7.6186928935770993e+01 -2.9652344181009685e+03 3.7547476296958048e+03 -2.1849050040896029e+04 -9.0676504173529975e+02 5.7095159038573329e+03 -1.3781283437688999e+03 4.8154632692024770e+03 -6.7129431741350454e+03 -1.5898254741210767e+03 3.0171084520300874e+03 3.0605110441377349e+02 5.4359576077789625e+03 -1.1238757248912301e+04 1.8994949068913484e+03 -1.1706469133242530e+04 9.8965743320789097e+03 -8.6422985746997892e+03 4.2397189470248122e+00 8.5215009996363642e+02 8.1905815903246128e+02 -1.4397437949109735e+03 -2.8810481755392871e+03 -4.2378218644227672e+02 -2.9569003719686734e+03 6.5426178982104702e+03 -3.0258436009909701e+03 1.1166376557346678e+02 2.4430540730874061e+04 -3.6148573656741552e+04 1.0392785675777955e+05 1.0776464644035037e+04 -6.2093494019173726e+04 1.3921439134681470e+04 -6.1766743588096477e+04 7.6048855209225192e+04 -2.5283006050423137e+02 -2.4691781177413623e+02 3.3795004379833205e+02 6.2794963147930844e+02 1.3861575340983336e+02 2.6769388758174136e+02 1.3895797584546312e+02 6.1696749367473240e+02 -4.1040110225025887e+02 3.3213699240009919e+03 4.6551031035551874e+04 
      </Row>
    </InverseHessian>
  </Weights>
</MethodSetup>
