<?xml version="1.0"?>
<MethodSetup Method="BDT::BDTG">
  <GeneralInfo>
    <Info name="TMVA Release" value="4.2.1 [262657]"/>
    <Info name="ROOT Release" value="6.04/02 [394242]"/>
    <Info name="Creator" value="atrisovi"/>
    <Info name="Date" value="Fri Oct 30 16:50:22 2015"/>
    <Info name="Host" value="Linux lcgapp-slc6-physical1.cern.ch 2.6.32-504.23.4.el6.x86_64 #1 SMP Wed Jun 10 07:47:59 CEST 2015 x86_64 x86_64 x86_64 GNU/Linux"/>
    <Info name="Dir" value="/afs/cern.ch/work/a/atrisovi/public/Step4_TMVA"/>
    <Info name="Training events" value="2000"/>
    <Info name="TrainingTime" value="1.79800022e+01"/>
    <Info name="AnalysisType" value="Classification"/>
  </GeneralInfo>
  <Options>
    <Option name="V" modified="Yes">False</Option>
    <Option name="VerbosityLevel" modified="No">Default</Option>
    <Option name="VarTransform" modified="No">None</Option>
    <Option name="H" modified="Yes">False</Option>
    <Option name="CreateMVAPdfs" modified="No">False</Option>
    <Option name="IgnoreNegWeightsInTraining" modified="No">False</Option>
    <Option name="NTrees" modified="Yes">1000</Option>
    <Option name="MaxDepth" modified="Yes">2</Option>
    <Option name="MinNodeSize" modified="Yes">2.5%</Option>
    <Option name="nCuts" modified="Yes">20</Option>
    <Option name="BoostType" modified="Yes">Grad</Option>
    <Option name="AdaBoostR2Loss" modified="No">quadratic</Option>
    <Option name="UseBaggedBoost" modified="Yes">True</Option>
    <Option name="Shrinkage" modified="Yes">1.000000e-01</Option>
    <Option name="AdaBoostBeta" modified="No">5.000000e-01</Option>
    <Option name="UseRandomisedTrees" modified="No">False</Option>
    <Option name="UseNvars" modified="No">4</Option>
    <Option name="UsePoissonNvars" modified="No">True</Option>
    <Option name="BaggedSampleFraction" modified="Yes">5.000000e-01</Option>
    <Option name="UseYesNoLeaf" modified="No">True</Option>
    <Option name="NegWeightTreatment" modified="No">ignorenegweightsintraining</Option>
    <Option name="Css" modified="No">1.000000e+00</Option>
    <Option name="Cts_sb" modified="No">1.000000e+00</Option>
    <Option name="Ctb_ss" modified="No">1.000000e+00</Option>
    <Option name="Cbb" modified="No">1.000000e+00</Option>
    <Option name="NodePurityLimit" modified="No">5.000000e-01</Option>
    <Option name="SeparationType" modified="No">giniindex</Option>
    <Option name="DoBoostMonitor" modified="No">False</Option>
    <Option name="UseFisherCuts" modified="No">False</Option>
    <Option name="MinLinCorrForFisher" modified="No">8.000000e-01</Option>
    <Option name="UseExclusiveVars" modified="No">False</Option>
    <Option name="DoPreselection" modified="No">False</Option>
    <Option name="SigToBkgFraction" modified="No">1.000000e+00</Option>
    <Option name="PruneMethod" modified="No">nopruning</Option>
    <Option name="PruneStrength" modified="No">0.000000e+00</Option>
    <Option name="PruningValFraction" modified="No">5.000000e-01</Option>
    <Option name="nEventsMin" modified="No">0</Option>
    <Option name="UseBaggedGrad" modified="No">False</Option>
    <Option name="GradBaggingFraction" modified="No">5.000000e-01</Option>
    <Option name="UseNTrainEvents" modified="No">0</Option>
    <Option name="NNodesMax" modified="No">0</Option>
  </Options>
  <Variables NVar="16">
    <Variable VarIndex="0" Expression="D_DIRA_OWNPV" Label="D_dira" Title="D_dira" Unit="" Internal="D_dira" Type="F" Min="9.99899924e-01" Max="1.00000000e+00"/>
    <Variable VarIndex="1" Expression="D_IPCHI2_OWNPV" Label="D_ipchi" Title="D_ipchi" Unit="" Internal="D_ipchi" Type="F" Min="1.25734059e-05" Max="2.93587418e+01"/>
    <Variable VarIndex="2" Expression="D_ENDVERTEX_CHI2" Label="D_edchi" Title="D_edchi" Unit="" Internal="D_edchi" Type="F" Min="1.32976621e-02" Max="1.79160042e+01"/>
    <Variable VarIndex="3" Expression="piplus_PT" Label="pi_pt" Title="pi_pt" Unit="" Internal="pi_pt" Type="F" Min="3.00254852e+02" Max="1.26722646e+04"/>
    <Variable VarIndex="4" Expression="log(piplus_IPCHI2_OWNPV)" Label="pi_ipchi" Title="pi_ipchi" Unit="" Internal="pi_ipchi" Type="F" Min="1.79495215e+00" Max="9.88039970e+00"/>
    <Variable VarIndex="5" Expression="log(piplus_P)" Label="pi_p" Title="pi_p" Unit="" Internal="pi_p" Type="F" Min="7.60153866e+00" Max="1.25063572e+01"/>
    <Variable VarIndex="6" Expression="max(muminus_P,muplus_P)" Label="max_mu_p" Title="max_mu_p" Unit="" Internal="max_mu_p" Type="F" Min="3.57376245e+03" Max="3.20239062e+05"/>
    <Variable VarIndex="7" Expression="min(muminus_P,muplus_P)" Label="min_mu_p" Title="min_mu_p" Unit="" Internal="min_mu_p" Type="F" Min="3.02818823e+03" Max="1.60492578e+05"/>
    <Variable VarIndex="8" Expression="max(muminus_PT,muplus_PT)" Label="max_mu_pt" Title="max_mu_pt" Unit="" Internal="max_mu_pt" Type="F" Min="4.19728210e+02" Max="2.01567441e+04"/>
    <Variable VarIndex="9" Expression="min(muminus_PT,muplus_PT)" Label="min_mu_pt" Title="min_mu_pt" Unit="" Internal="min_mu_pt" Type="F" Min="4.00446411e+02" Max="1.07823311e+04"/>
    <Variable VarIndex="10" Expression="log(D_TAU)" Label="D_tau" Title="D_tau" Unit="" Internal="D_tau" Type="F" Min="-9.22151470e+00" Max="-3.33075023e+00"/>
    <Variable VarIndex="11" Expression="log(min(muminus_IPCHI2_OWNPV,muplus_IPCHI2_OWNPV))" Label="min_mu_ip" Title="min_mu_ip" Unit="" Internal="min_mu_ip" Type="F" Min="1.79293251e+00" Max="9.05229855e+00"/>
    <Variable VarIndex="12" Expression="log(max(muminus_IPCHI2_OWNPV,muplus_IPCHI2_OWNPV))" Label="max_mu_ip" Title="max_mu_ip" Unit="" Internal="max_mu_ip" Type="F" Min="1.89573157e+00" Max="1.02229290e+01"/>
    <Variable VarIndex="13" Expression="D_PT" Label="D_pt" Title="D_pt" Unit="" Internal="D_pt" Type="F" Min="9.62692547e+00" Max="3.20237441e+04"/>
    <Variable VarIndex="14" Expression="log(D_FDCHI2_OWNPV)" Label="D_fd" Title="D_fd" Unit="" Internal="D_fd" Type="F" Min="1.92333925e+00" Max="1.31021833e+01"/>
    <Variable VarIndex="15" Expression="D_P" Label="D_p" Title="D_p" Unit="" Internal="D_p" Type="F" Min="9.93117578e+03" Max="5.44629188e+05"/>
  </Variables>
  <Spectators NSpec="0"/>
  <Classes NClass="2">
    <Class Name="Signal" Index="0"/>
    <Class Name="Background" Index="1"/>
  </Classes>
  <Transformations NTransformations="0"/>
  <MVAPdfs/>
  <Weights NTrees="1000" AnalysisType="1">
    <BinaryTree type="DecisionTree" boostWeight="1.0000000000000000e+00" itree="0">
      <Node pos="s" depth="0" NCoef="0" IVar="0" Cut="9.9999523162841797e-01" cType="1" res="6.8093384616076946e-03" rms="4.9995362758636475e-01" purity="5.0680935382843018e-01" nType="0">
        <Node pos="l" depth="1" NCoef="0" IVar="4" Cut="4.1379747390747070e+00" cType="1" res="-1.5629629790782928e-01" rms="4.7494363784790039e-01" purity="3.4370371699333191e-01" nType="0">
          <Node pos="l" depth="2" NCoef="0" IVar="-1" Cut="0.0000000000000000e+00" cType="1" res="-5.2422907203435898e-02" rms="4.2578864097595215e-01" purity="2.3788546025753021e-01" nType="-99"/>
          <Node pos="r" depth="2" NCoef="0" IVar="-1" Cut="0.0000000000000000e+00" cType="1" res="1.2217194773256779e-02" rms="4.9625447392463684e-01" purity="5.6108599901199341e-01" nType="-99"/>
        </Node>
        <Node pos="r" depth="1" NCoef="0" IVar="1" Cut="4.7443747520446777e+00" cType="1" res="3.1869688630104065e-01" rms="3.8526913523674011e-01" purity="8.1869685649871826e-01" nType="0">
          <Node pos="l" depth="2" NCoef="0" IVar="-1" Cut="0.0000000000000000e+00" cType="1" res="7.6551720499992371e-02" rms="3.2170769572257996e-01" purity="8.8275861740112305e-01" nType="-99"/>
          <Node pos="r" depth="2" NCoef="0" IVar="-1" Cut="0.0000000000000000e+00" cType="1" res="4.7619049437344074e-03" rms="4.9943277239799500e-01" purity="5.2380955219268799e-01" nType="-99"/>
        </Node>
      </Node>
    </BinaryTree>
    <BinaryTree type="DecisionTree" boostWeight="1.0000000000000000e+00" itree="1">
      <Node pos="s" depth="0" NCoef="0" IVar="0" Cut="9.9998575448989868e-01" cType="1" res="-4.1118517518043518e-02" rms="4.8396706581115723e-01" purity="4.5918366312980652e-01" nType="0">
        <Node pos="l" depth="1" NCoef="0" IVar="4" Cut="3.1648142337799072e+00" cType="1" res="-2.7913856506347656e-01" rms="3.9786508679389954e-01" purity="2.0219780504703522e-01" nType="0">
          <Node pos="l" depth="2" NCoef="0" IVar="-1" Cut="0.0000000000000000e+00" cType="1" res="-7.6384678483009338e-02" rms="2.9034385085105896e-01" purity="9.2936806380748749e-02" nType="-99"/>
          <Node pos="r" depth="2" NCoef="0" IVar="-1" Cut="0.0000000000000000e+00" cType="1" res="-2.6433952152729034e-02" rms="4.7822141647338867e-01" purity="3.6021506786346436e-01" nType="-99"/>
        </Node>
        <Node pos="r" depth="1" NCoef="0" IVar="4" Cut="2.5238983631134033e+00" cType="1" res="1.6516552865505219e-01" rms="4.5648121833801270e-01" purity="6.8190473318099976e-01" nType="0">
          <Node pos="l" depth="2" NCoef="0" IVar="-1" Cut="0.0000000000000000e+00" cType="1" res="-8.1244274973869324e-02" rms="3.0548128485679626e-01" purity="1.0447761416435242e-01" nType="-99"/>
          <Node pos="r" depth="2" NCoef="0" IVar="-1" Cut="0.0000000000000000e+00" cType="1" res="4.9880858510732651e-02" rms="4.1324982047080994e-01" purity="7.6637554168701172e-01" nType="-99"/>
        </Node>
      </Node>
    </BinaryTree>
    <BinaryTree type="DecisionTree" boostWeight="1.0000000000000000e+00" itree="2">
      <Node pos="s" depth="0" NCoef="0" IVar="4" Cut="4.2015886306762695e+00" cType="1" res="2.6003667153418064e-03" rms="4.7186264395713806e-01" purity="5.0000000000000000e-01" nType="0">
        <Node pos="l" depth="1" NCoef="0" IVar="4" Cut="2.7138700485229492e+00" cType="1" res="-1.7182248830795288e-01" rms="4.4007417559623718e-01" purity="2.9706391692161560e-01" nType="0">
          <Node pos="l" depth="2" NCoef="0" IVar="-1" Cut="0.0000000000000000e+00" cType="1" res="-6.5340809524059296e-02" rms="3.2727485895156860e-01" purity="1.2451361864805222e-01" nType="-99"/>
          <Node pos="r" depth="2" NCoef="0" IVar="-1" Cut="0.0000000000000000e+00" cType="1" res="-1.0483313351869583e-02" rms="4.7996228933334351e-01" purity="4.3478259444236755e-01" nType="-99"/>
        </Node>
        <Node pos="r" depth="1" NCoef="0" IVar="1" Cut="8.0250263214111328e+00" cType="1" res="2.3583555221557617e-01" rms="4.0784534811973572e-01" purity="7.7136260271072388e-01" nType="0">
          <Node pos="l" depth="2" NCoef="0" IVar="-1" Cut="0.0000000000000000e+00" cType="1" res="6.7208796739578247e-02" rms="3.2434687018394470e-01" purity="8.7500000000000000e-01" nType="-99"/>
          <Node pos="r" depth="2" NCoef="0" IVar="-1" Cut="0.0000000000000000e+00" cType="1" res="-3.7032093852758408e-02" rms="4.6287912130355835e-01" purity="3.2098764181137085e-01" nType="-99"/>
        </Node>
      </Node>
    </BinaryTree>
    <BinaryTree type="DecisionTree" boostWeight="1.0000000000000000e+00" itree="3">
      <Node pos="s" depth="0" NCoef="0" IVar="0" Cut="9.9999523162841797e-01" cType="1" res="-3.5077729262411594e-03" rms="4.6200379729270935e-01" purity="4.9183672666549683e-01" nType="0">
        <Node pos="l" depth="1" NCoef="0" IVar="4" Cut="3.2600944042205811e+00" cType="1" res="-1.3782998919487000e-01" rms="4.4942262768745422e-01" purity="3.1962025165557861e-01" nType="0">
          <Node pos="l" depth="2" NCoef="0" IVar="-1" Cut="0.0000000000000000e+00" cType="1" res="-4.9762453883886337e-02" rms="3.8034814596176147e-01" purity="1.7757008969783783e-01" nType="-99"/>
          <Node pos="r" depth="2" NCoef="0" IVar="-1" Cut="0.0000000000000000e+00" cType="1" res="-6.1784326098859310e-03" rms="4.8840937018394470e-01" purity="4.6623793244361877e-01" nType="-99"/>
        </Node>
        <Node pos="r" depth="1" NCoef="0" IVar="13" Cut="7.8039599609375000e+02" cType="1" res="2.4043373763561249e-01" rms="3.7682634592056274e-01" purity="8.0459767580032349e-01" nType="0">
          <Node pos="l" depth="2" NCoef="0" IVar="-1" Cut="0.0000000000000000e+00" cType="1" res="-4.5033540576696396e-02" rms="4.0038186311721802e-01" purity="2.8571429848670959e-01" nType="-99"/>
          <Node pos="r" depth="2" NCoef="0" IVar="-1" Cut="0.0000000000000000e+00" cType="1" res="5.7600632309913635e-02" rms="3.4654635190963745e-01" purity="8.5000002384185791e-01" nType="-99"/>
        </Node>
      </Node>
    </BinaryTree>
    <BinaryTree type="DecisionTree" boostWeight="1.0000000000000000e+00" itree="4">
      <Node pos="s" depth="0" NCoef="0" IVar="0" Cut="9.9998575448989868e-01" cType="1" res="1.8164739012718201e-02" rms="4.4439500570297241e-01" purity="5.2079004049301147e-01" nType="0">
        <Node pos="l" depth="1" NCoef="0" IVar="4" Cut="3.4412541389465332e+00" cType="1" res="-1.8065071105957031e-01" rms="4.1152361035346985e-01" purity="2.4654377996921539e-01" nType="0">
          <Node pos="l" depth="2" NCoef="0" IVar="-1" Cut="0.0000000000000000e+00" cType="1" res="-5.8821376413106918e-02" rms="3.1213778257369995e-01" purity="1.1240310221910477e-01" nType="-99"/>
          <Node pos="r" depth="2" NCoef="0" IVar="-1" Cut="0.0000000000000000e+00" cType="1" res="-7.0490962825715542e-03" rms="4.8900774121284485e-01" purity="4.4318181276321411e-01" nType="-99"/>
        </Node>
        <Node pos="r" depth="1" NCoef="0" IVar="1" Cut="1.1601885795593262e+01" cType="1" res="1.8158501386642456e-01" rms="4.0176680684089661e-01" purity="7.4621212482452393e-01" nType="0">
          <Node pos="l" depth="2" NCoef="0" IVar="-1" Cut="0.0000000000000000e+00" cType="1" res="4.5316033065319061e-02" rms="3.7852019071578979e-01" purity="7.8818738460540771e-01" nType="-99"/>
          <Node pos="r" depth="2" NCoef="0" IVar="-1" Cut="0.0000000000000000e+00" cType="1" res="-6.2415380030870438e-02" rms="3.7852624058723450e-01" purity="1.8918919563293457e-01" nType="-99"/>
        </Node>
      </Node>
    </BinaryTree>
    <BinaryTree type="DecisionTree" boostWeight="1.0000000000000000e+00" itree="5">
      <Node pos="s" depth="0" NCoef="0" IVar="0" Cut="9.9997144937515259e-01" cType="1" res="-2.9252315289340913e-04" rms="4.4293192028999329e-01" purity="4.9451646208763123e-01" nType="0">
        <Node pos="l" depth="1" NCoef="0" IVar="3" Cut="5.2863232421875000e+02" cType="1" res="-2.0207104086875916e-01" rms="3.8476574420928955e-01" purity="1.9767442345619202e-01" nType="0">
          <Node pos="l" depth="2" NCoef="0" IVar="-1" Cut="0.0000000000000000e+00" cType="1" res="-6.5476335585117340e-02" rms="2.7063888311386108e-01" purity="7.8947365283966064e-02" nType="-99"/>
          <Node pos="r" depth="2" NCoef="0" IVar="-1" Cut="0.0000000000000000e+00" cType="1" res="-3.1526081264019012e-02" rms="4.2064660787582397e-01" purity="2.5652173161506653e-01" nType="-99"/>
        </Node>
        <Node pos="r" depth="1" NCoef="0" IVar="4" Cut="2.9517374038696289e+00" cType="1" res="1.0503647476434708e-01" rms="4.3470987677574158e-01" purity="6.4946889877319336e-01" nType="0">
          <Node pos="l" depth="2" NCoef="0" IVar="-1" Cut="0.0000000000000000e+00" cType="1" res="-3.0183302238583565e-02" rms="4.3381911516189575e-01" purity="2.9605263471603394e-01" nType="-99"/>
          <Node pos="r" depth="2" NCoef="0" IVar="-1" Cut="0.0000000000000000e+00" cType="1" res="3.7585545331239700e-02" rms="4.0600830316543579e-01" purity="7.5542408227920532e-01" nType="-99"/>
        </Node>
      </Node>
    </BinaryTree>
    <BinaryTree type="DecisionTree" boostWeight="1.0000000000000000e+00" itree="6">
      <Node pos="s" depth="0" NCoef="0" IVar="0" Cut="9.9999523162841797e-01" cType="1" res="-2.1486341953277588e-02" rms="4.2676815390586853e-01" purity="4.7619047760963440e-01" nType="0">
        <Node pos="l" depth="1" NCoef="0" IVar="0" Cut="9.9997252225875854e-01" cType="1" res="-1.5480880439281464e-01" rms="4.0916833281517029e-01" purity="2.7272728085517883e-01" nType="0">
          <Node pos="l" depth="2" NCoef="0" IVar="-1" Cut="0.0000000000000000e+00" cType="1" res="-5.4770972579717636e-02" rms="3.2048469781875610e-01" purity="1.2462908029556274e-01" nType="-99"/>
          <Node pos="r" depth="2" NCoef="0" IVar="-1" Cut="0.0000000000000000e+00" cType="1" res="-8.1549137830734253e-03" rms="4.6675869822502136e-01" purity="4.4482758641242981e-01" nType="-99"/>
        </Node>
        <Node pos="r" depth="1" NCoef="0" IVar="4" Cut="4.1251821517944336e+00" cType="1" res="2.1071696281433105e-01" rms="3.5054069757461548e-01" purity="8.3055555820465088e-01" nType="0">
          <Node pos="l" depth="2" NCoef="0" IVar="-1" Cut="0.0000000000000000e+00" cType="1" res="1.8321933224797249e-02" rms="4.5374140143394470e-01" purity="6.6129034757614136e-01" nType="-99"/>
          <Node pos="r" depth="2" NCoef="0" IVar="-1" Cut="0.0000000000000000e+00" cType="1" res="6.0334477573633194e-02" rms="2.5932571291923523e-01" purity="9.1949152946472168e-01" nType="-99"/>
        </Node>
      </Node>
    </BinaryTree>
    <BinaryTree type="DecisionTree" boostWeight="1.0000000000000000e+00" itree="7">
      <Node pos="s" depth="0" NCoef="0" IVar="4" Cut="3.3415479660034180e+00" cType="1" res="-3.5976634826511145e-03" rms="4.2237478494644165e-01" purity="4.9222797155380249e-01" nType="0">
        <Node pos="l" depth="1" NCoef="0" IVar="3" Cut="1.2394927978515625e+03" cType="1" res="-1.7039386928081512e-01" rms="3.8117226958274841e-01" purity="2.1197007596492767e-01" nType="0">
          <Node pos="l" depth="2" NCoef="0" IVar="-1" Cut="0.0000000000000000e+00" cType="1" res="-4.9681685864925385e-02" rms="3.3905473351478577e-01" purity="1.5105740725994110e-01" nType="-99"/>
          <Node pos="r" depth="2" NCoef="0" IVar="-1" Cut="0.0000000000000000e+00" cType="1" res="1.9143141806125641e-02" rms="4.5580634474754333e-01" purity="5.0000000000000000e-01" nType="-99"/>
        </Node>
        <Node pos="r" depth="1" NCoef="0" IVar="1" Cut="5.9184255599975586e+00" cType="1" res="1.1499325931072235e-01" rms="4.0999490022659302e-01" purity="6.9148933887481689e-01" nType="0">
          <Node pos="l" depth="2" NCoef="0" IVar="-1" Cut="0.0000000000000000e+00" cType="1" res="4.7241918742656708e-02" rms="3.4485489130020142e-01" purity="8.2697200775146484e-01" nType="-99"/>
          <Node pos="r" depth="2" NCoef="0" IVar="-1" Cut="0.0000000000000000e+00" cType="1" res="-2.3828621953725815e-02" rms="4.5221805572509766e-01" purity="3.8011696934700012e-01" nType="-99"/>
        </Node>
      </Node>
    </BinaryTree>
    <BinaryTree type="DecisionTree" boostWeight="1.0000000000000000e+00" itree="8">
      <Node pos="s" depth="0" NCoef="0" IVar="1" Cut="6.6854248046875000e+00" cType="1" res="1.5024105086922646e-02" rms="4.2193081974983215e-01" purity="5.1521098613739014e-01" nType="0">
        <Node pos="l" depth="1" NCoef="0" IVar="11" Cut="2.4508175849914551e+00" cType="1" res="9.4434179365634918e-02" rms="4.0587064623832703e-01" purity="6.2320733070373535e-01" nType="0">
          <Node pos="l" depth="2" NCoef="0" IVar="-1" Cut="0.0000000000000000e+00" cType="1" res="-2.9013535007834435e-02" rms="3.9313805103302002e-01" purity="2.8421053290367126e-01" nType="-99"/>
          <Node pos="r" depth="2" NCoef="0" IVar="-1" Cut="0.0000000000000000e+00" cType="1" res="3.7764109671115875e-02" rms="3.8178005814552307e-01" purity="7.3483532667160034e-01" nType="-99"/>
        </Node>
        <Node pos="r" depth="1" NCoef="0" IVar="9" Cut="5.6427203369140625e+02" cType="1" res="-2.2667244076728821e-01" rms="3.7533909082412720e-01" purity="1.8650794029235840e-01" nType="0">
          <Node pos="l" depth="2" NCoef="0" IVar="-1" Cut="0.0000000000000000e+00" cType="1" res="-1.2208065949380398e-02" rms="4.5730248093605042e-01" purity="3.8181817531585693e-01" nType="-99"/>
          <Node pos="r" depth="2" NCoef="0" IVar="-1" Cut="0.0000000000000000e+00" cType="1" res="-5.8978959918022156e-02" rms="3.3411565423011780e-01" purity="1.3197968900203705e-01" nType="-99"/>
        </Node>
      </Node>
    </BinaryTree>
    <BinaryTree type="DecisionTree" boostWeight="1.0000000000000000e+00" itree="9">
      <Node pos="s" depth="0" NCoef="0" IVar="0" Cut="9.9999523162841797e-01" cType="1" res="1.1363823432475328e-04" rms="4.1059544682502747e-01" purity="4.9272349476814270e-01" nType="0">
        <Node pos="l" depth="1" NCoef="0" IVar="2" Cut="6.0111179351806641e+00" cType="1" res="-1.0069862008094788e-01" rms="4.1916394233703613e-01" purity="3.0143541097640991e-01" nType="0">
          <Node pos="l" depth="2" NCoef="0" IVar="-1" Cut="0.0000000000000000e+00" cType="1" res="-3.0445097945630550e-03" rms="4.4739073514938354e-01" purity="4.0119761228561401e-01" nType="-99"/>
          <Node pos="r" depth="2" NCoef="0" IVar="-1" Cut="0.0000000000000000e+00" cType="1" res="-4.4164348393678665e-02" rms="3.5980394482612610e-01" purity="1.8771331012248993e-01" nType="-99"/>
        </Node>
        <Node pos="r" depth="1" NCoef="0" IVar="4" Cut="2.5816709995269775e+00" cType="1" res="1.8879806995391846e-01" rms="3.1726664304733276e-01" purity="8.5074627399444580e-01" nType="0">
          <Node pos="l" depth="2" NCoef="0" IVar="-1" Cut="0.0000000000000000e+00" cType="1" res="-9.8810987547039986e-03" rms="4.6773976087570190e-01" purity="4.1935482621192932e-01" nType="-99"/>
          <Node pos="r" depth="2" NCoef="0" IVar="-1" Cut="0.0000000000000000e+00" cType="1" res="4.9893729388713837e-02" rms="2.8681501746177673e-01" purity="8.9473682641983032e-01" nType="-99"/>
        </Node>
      </Node>
    </BinaryTree>
    <BinaryTree type="DecisionTree" boostWeight="1.0000000000000000e+00" itree="10">
      <Node pos="s" depth="0" NCoef="0" IVar="0" Cut="9.9997621774673462e-01" cType="1" res="2.6362603530287743e-02" rms="4.1550165414810181e-01" purity="5.2470356225967407e-01" nType="0">
        <Node pos="l" depth="1" NCoef="0" IVar="9" Cut="5.1165908813476562e+02" cType="1" res="-9.7411453723907471e-02" rms="4.0171459317207336e-01" purity="2.4064171314239502e-01" nType="0">
          <Node pos="l" depth="2" NCoef="0" IVar="-1" Cut="0.0000000000000000e+00" cType="1" res="9.5671370625495911e-02" rms="3.3964383602142334e-01" purity="8.2758623361587524e-01" nType="-99"/>
          <Node pos="r" depth="2" NCoef="0" IVar="-1" Cut="0.0000000000000000e+00" cType="1" res="-3.2897569239139557e-02" rms="3.7307178974151611e-01" purity="1.9130434095859528e-01" nType="-99"/>
        </Node>
        <Node pos="r" depth="1" NCoef="0" IVar="10" Cut="-5.1721792221069336e+00" cType="1" res="9.8919808864593506e-02" rms="4.0620335936546326e-01" purity="6.9122254848480225e-01" nType="0">
          <Node pos="l" depth="2" NCoef="0" IVar="-1" Cut="0.0000000000000000e+00" cType="1" res="2.8082568198442459e-02" rms="3.9850097894668579e-01" purity="7.2322899103164673e-01" nType="-99"/>
          <Node pos="r" depth="2" NCoef="0" IVar="-1" Cut="0.0000000000000000e+00" cType="1" res="-8.0780029296875000e-02" rms="2.1828457713127136e-01" purity="6.4516127109527588e-02" nType="-99"/>
        </Node>
      </Node>
    </BinaryTree>
    <BinaryTree type="DecisionTree" boostWeight="1.0000000000000000e+00" itree="11">
      <Node pos="s" depth="0" NCoef="0" IVar="1" Cut="4.7389669418334961e+00" cType="1" res="-1.7947372049093246e-02" rms="4.0615874528884888e-01" purity="4.8319327831268311e-01" nType="0">
        <Node pos="l" depth="1" NCoef="0" IVar="2" Cut="7.6445508003234863e+00" cType="1" res="5.8964662253856659e-02" rms="3.9691206812858582e-01" purity="6.1120265722274780e-01" nType="0">
          <Node pos="l" depth="2" NCoef="0" IVar="-1" Cut="0.0000000000000000e+00" cType="1" res="3.2483115792274475e-02" rms="3.7437051534652710e-01" purity="7.2272729873657227e-01" nType="-99"/>
          <Node pos="r" depth="2" NCoef="0" IVar="-1" Cut="0.0000000000000000e+00" cType="1" res="-3.5066355019807816e-02" rms="3.7783762812614441e-01" purity="3.1736525893211365e-01" nType="-99"/>
        </Node>
        <Node pos="r" depth="1" NCoef="0" IVar="4" Cut="4.7605972290039062e+00" cType="1" res="-1.5326796472072601e-01" rms="3.8640710711479187e-01" purity="2.5797101855278015e-01" nType="0">
          <Node pos="l" depth="2" NCoef="0" IVar="-1" Cut="0.0000000000000000e+00" cType="1" res="-4.8075743019580841e-02" rms="3.2595044374465942e-01" purity="1.5600000321865082e-01" nType="-99"/>
          <Node pos="r" depth="2" NCoef="0" IVar="-1" Cut="0.0000000000000000e+00" cType="1" res="-5.1558221457526088e-04" rms="4.8086607456207275e-01" purity="5.2631580829620361e-01" nType="-99"/>
        </Node>
      </Node>
    </BinaryTree>
    <BinaryTree type="DecisionTree" boostWeight="1.0000000000000000e+00" itree="12">
      <Node pos="s" depth="0" NCoef="0" IVar="12" Cut="4.0919761657714844e+00" cType="1" res="1.3609156012535095e-02" rms="4.1074156761169434e-01" purity="5.1650488376617432e-01" nType="0">
        <Node pos="l" depth="1" NCoef="0" IVar="13" Cut="1.4221309814453125e+03" cType="1" res="-1.2260118871927261e-01" rms="3.7120968103408813e-01" purity="2.6962456107139587e-01" nType="0">
          <Node pos="l" depth="2" NCoef="0" IVar="-1" Cut="0.0000000000000000e+00" cType="1" res="-5.6043598800897598e-02" rms="2.7740803360939026e-01" purity="1.0937500000000000e-01" nType="-99"/>
          <Node pos="r" depth="2" NCoef="0" IVar="-1" Cut="0.0000000000000000e+00" cType="1" res="-7.2511425241827965e-03" rms="4.0752416849136353e-01" purity="3.9393940567970276e-01" nType="-99"/>
        </Node>
        <Node pos="r" depth="1" NCoef="0" IVar="1" Cut="9.7885942459106445e+00" cType="1" res="6.7760623991489410e-02" rms="4.1314595937728882e-01" purity="6.1465400457382202e-01" nType="0">
          <Node pos="l" depth="2" NCoef="0" IVar="-1" Cut="0.0000000000000000e+00" cType="1" res="2.5188017636537552e-02" rms="4.0306946635246277e-01" purity="6.8709677457809448e-01" nType="-99"/>
          <Node pos="r" depth="2" NCoef="0" IVar="-1" Cut="0.0000000000000000e+00" cType="1" res="-3.0758284032344818e-02" rms="4.0522426366806030e-01" purity="2.3076923191547394e-01" nType="-99"/>
        </Node>
      </Node>
    </BinaryTree>
    <BinaryTree type="DecisionTree" boostWeight="1.0000000000000000e+00" itree="13">
      <Node pos="s" depth="0" NCoef="0" IVar="4" Cut="3.8863859176635742e+00" cType="1" res="1.3384433463215828e-02" rms="3.9823859930038452e-01" purity="5.0237417221069336e-01" nType="0">
        <Node pos="l" depth="1" NCoef="0" IVar="9" Cut="5.0441738891601562e+02" cType="1" res="-9.4742499291896820e-02" rms="3.8718575239181519e-01" purity="2.6078799366950989e-01" nType="0">
          <Node pos="l" depth="2" NCoef="0" IVar="-1" Cut="0.0000000000000000e+00" cType="1" res="8.9029684662818909e-02" rms="3.1735444068908691e-01" purity="8.7500000000000000e-01" nType="-99"/>
          <Node pos="r" depth="2" NCoef="0" IVar="-1" Cut="0.0000000000000000e+00" cType="1" res="-3.2205950468778610e-02" rms="3.6267539858818054e-01" purity="2.1095333993434906e-01" nType="-99"/>
        </Node>
        <Node pos="r" depth="1" NCoef="0" IVar="1" Cut="1.1780361175537109e+01" cType="1" res="1.2421453744173050e-01" rms="3.7845101952552795e-01" purity="7.5000000000000000e-01" nType="0">
          <Node pos="l" depth="2" NCoef="0" IVar="-1" Cut="0.0000000000000000e+00" cType="1" res="3.8408719003200531e-02" rms="3.4729439020156860e-01" purity="8.2909929752349854e-01" nType="-99"/>
          <Node pos="r" depth="2" NCoef="0" IVar="-1" Cut="0.0000000000000000e+00" cType="1" res="-9.9835125729441643e-03" rms="4.6962681412696838e-01" purity="3.5632184147834778e-01" nType="-99"/>
        </Node>
      </Node>
    </BinaryTree>
    <BinaryTree type="DecisionTree" boostWeight="1.0000000000000000e+00" itree="14">
      <Node pos="s" depth="0" NCoef="0" IVar="4" Cut="2.9501090049743652e+00" cType="1" res="1.2557441368699074e-02" rms="3.8929691910743713e-01" purity="5.0561797618865967e-01" nType="0">
        <Node pos="l" depth="1" NCoef="0" IVar="2" Cut="3.1761167049407959e+00" cType="1" res="-1.1825124919414520e-01" rms="3.5343265533447266e-01" purity="2.0120120048522949e-01" nType="0">
          <Node pos="l" depth="2" NCoef="0" IVar="-1" Cut="0.0000000000000000e+00" cType="1" res="1.4617748558521271e-02" rms="4.1920727491378784e-01" purity="4.2553192377090454e-01" nType="-99"/>
          <Node pos="r" depth="2" NCoef="0" IVar="-1" Cut="0.0000000000000000e+00" cType="1" res="-4.7233968973159790e-02" rms="2.9520890116691589e-01" purity="1.1297070980072021e-01" nType="-99"/>
        </Node>
        <Node pos="r" depth="1" NCoef="0" IVar="1" Cut="6.9100646972656250e+00" cType="1" res="7.9986691474914551e-02" rms="3.8976418972015381e-01" purity="6.6253870725631714e-01" nType="0">
          <Node pos="l" depth="2" NCoef="0" IVar="-1" Cut="0.0000000000000000e+00" cType="1" res="3.3125024288892746e-02" rms="3.6391320824623108e-01" purity="7.8288102149963379e-01" nType="-99"/>
          <Node pos="r" depth="2" NCoef="0" IVar="-1" Cut="0.0000000000000000e+00" cType="1" res="-1.8476936966180801e-02" rms="4.1415801644325256e-01" purity="3.1736525893211365e-01" nType="-99"/>
        </Node>
      </Node>
    </BinaryTree>
    <BinaryTree type="DecisionTree" boostWeight="1.0000000000000000e+00" itree="15">
      <Node pos="s" depth="0" NCoef="0" IVar="2" Cut="7.6264119148254395e+00" cType="1" res="-7.4573727324604988e-03" rms="3.8544499874114990e-01" purity="4.8882114887237549e-01" nType="0">
        <Node pos="l" depth="1" NCoef="0" IVar="1" Cut="8.3882207870483398e+00" cType="1" res="5.4892331361770630e-02" rms="3.8380846381187439e-01" purity="5.9649121761322021e-01" nType="0">
          <Node pos="l" depth="2" NCoef="0" IVar="-1" Cut="0.0000000000000000e+00" cType="1" res="2.5953972712159157e-02" rms="3.6739885807037354e-01" purity="6.9852942228317261e-01" nType="-99"/>
          <Node pos="r" depth="2" NCoef="0" IVar="-1" Cut="0.0000000000000000e+00" cType="1" res="-3.3556398004293442e-02" rms="3.8327506184577942e-01" purity="2.0000000298023224e-01" nType="-99"/>
        </Node>
        <Node pos="r" depth="1" NCoef="0" IVar="5" Cut="9.4597539901733398e+00" cType="1" res="-1.4961469173431396e-01" rms="3.4980851411819458e-01" purity="2.4333333969116211e-01" nType="0">
          <Node pos="l" depth="2" NCoef="0" IVar="-1" Cut="0.0000000000000000e+00" cType="1" res="-5.4560516029596329e-02" rms="3.0712863802909851e-01" purity="1.5168538689613342e-01" nType="-99"/>
          <Node pos="r" depth="2" NCoef="0" IVar="-1" Cut="0.0000000000000000e+00" cType="1" res="-1.1264157481491566e-02" rms="3.8058191537857056e-01" purity="3.7704917788505554e-01" nType="-99"/>
        </Node>
      </Node>
    </BinaryTree>
    <BinaryTree type="DecisionTree" boostWeight="1.0000000000000000e+00" itree="16">
      <Node pos="s" depth="0" NCoef="0" IVar="4" Cut="2.9500160217285156e+00" cType="1" res="-1.4852543361485004e-02" rms="3.8682436943054199e-01" purity="4.9090909957885742e-01" nType="0">
        <Node pos="l" depth="1" NCoef="0" IVar="5" Cut="9.5007162094116211e+00" cType="1" res="-1.4226043224334717e-01" rms="3.3526590466499329e-01" purity="1.5309445559978485e-01" nType="0">
          <Node pos="l" depth="2" NCoef="0" IVar="-1" Cut="0.0000000000000000e+00" cType="1" res="-5.3740818053483963e-02" rms="2.6115533709526062e-01" purity="7.0270270109176636e-02" nType="-99"/>
          <Node pos="r" depth="2" NCoef="0" IVar="-1" Cut="0.0000000000000000e+00" cType="1" res="-1.1484667658805847e-02" rms="4.0518352389335632e-01" purity="2.7868852019309998e-01" nType="-99"/>
        </Node>
        <Node pos="r" depth="1" NCoef="0" IVar="1" Cut="1.7438756942749023e+01" cType="1" res="4.2415719479322433e-02" rms="3.9470416307449341e-01" purity="6.4275258779525757e-01" nType="0">
          <Node pos="l" depth="2" NCoef="0" IVar="-1" Cut="0.0000000000000000e+00" cType="1" res="1.6413969919085503e-02" rms="3.9132326841354370e-01" purity="6.8779712915420532e-01" nType="-99"/>
          <Node pos="r" depth="2" NCoef="0" IVar="-1" Cut="0.0000000000000000e+00" cType="1" res="-5.8397125452756882e-02" rms="3.0270370841026306e-01" purity="9.6153847873210907e-02" nType="-99"/>
        </Node>
      </Node>
    </BinaryTree>
    <BinaryTree type="DecisionTree" boostWeight="1.0000000000000000e+00" itree="17">
      <Node pos="s" depth="0" NCoef="0" IVar="4" Cut="2.1554546356201172e+00" cType="1" res="1.5712969005107880e-02" rms="3.8647115230560303e-01" purity="5.2053487300872803e-01" nType="0">
        <Node pos="l" depth="1" NCoef="0" IVar="13" Cut="2.8387507324218750e+03" cType="1" res="-2.0092131197452545e-01" rms="2.2968304157257080e-01" purity="7.1999996900558472e-02" nType="0">
          <Node pos="l" depth="2" NCoef="0" IVar="-1" Cut="0.0000000000000000e+00" cType="1" res="-6.6060394048690796e-02" rms="1.3286769390106201e-01" purity="1.2987012974917889e-02" nType="-99"/>
          <Node pos="r" depth="2" NCoef="0" IVar="-1" Cut="0.0000000000000000e+00" cType="1" res="-3.3253256231546402e-02" rms="3.1703343987464905e-01" purity="1.6666667163372040e-01" nType="-99"/>
        </Node>
        <Node pos="r" depth="1" NCoef="0" IVar="1" Cut="1.6567916870117188e+01" cType="1" res="4.5083127915859222e-02" rms="3.9399498701095581e-01" purity="5.8134490251541138e-01" nType="0">
          <Node pos="l" depth="2" NCoef="0" IVar="-1" Cut="0.0000000000000000e+00" cType="1" res="1.6486948356032372e-02" rms="3.9432540535926819e-01" purity="6.2485206127166748e-01" nType="-99"/>
          <Node pos="r" depth="2" NCoef="0" IVar="-1" Cut="0.0000000000000000e+00" cType="1" res="-4.7686535865068436e-02" rms="3.0312699079513550e-01" purity="1.0389610379934311e-01" nType="-99"/>
        </Node>
      </Node>
    </BinaryTree>
    <BinaryTree type="DecisionTree" boostWeight="1.0000000000000000e+00" itree="18">
      <Node pos="s" depth="0" NCoef="0" IVar="4" Cut="2.8922584056854248e+00" cType="1" res="2.9007595032453537e-02" rms="3.7671911716461182e-01" purity="5.4726368188858032e-01" nType="0">
        <Node pos="l" depth="1" NCoef="0" IVar="3" Cut="1.5576789550781250e+03" cType="1" res="-9.8671875894069672e-02" rms="3.4022602438926697e-01" purity="1.8032786250114441e-01" nType="0">
          <Node pos="l" depth="2" NCoef="0" IVar="-1" Cut="0.0000000000000000e+00" cType="1" res="-3.9159085601568222e-02" rms="2.9754039645195007e-01" purity="1.2075471878051758e-01" nType="-99"/>
          <Node pos="r" depth="2" NCoef="0" IVar="-1" Cut="0.0000000000000000e+00" cType="1" res="4.4801238924264908e-02" rms="4.4468069076538086e-01" purity="5.7499998807907104e-01" nType="-99"/>
        </Node>
        <Node pos="r" depth="1" NCoef="0" IVar="1" Cut="7.6030826568603516e+00" cType="1" res="8.4639362990856171e-02" rms="3.7831097841262817e-01" purity="7.0714282989501953e-01" nType="0">
          <Node pos="l" depth="2" NCoef="0" IVar="-1" Cut="0.0000000000000000e+00" cType="1" res="3.0230659991502762e-02" rms="3.5558584332466125e-01" purity="8.0178570747375488e-01" nType="-99"/>
          <Node pos="r" depth="2" NCoef="0" IVar="-1" Cut="0.0000000000000000e+00" cType="1" res="-1.1243835091590881e-02" rms="4.3290311098098755e-01" purity="3.2857143878936768e-01" nType="-99"/>
        </Node>
      </Node>
    </BinaryTree>
    <BinaryTree type="DecisionTree" boostWeight="1.0000000000000000e+00" itree="19">
      <Node pos="s" depth="0" NCoef="0" IVar="4" Cut="4.8805632591247559e+00" cType="1" res="-1.4421661384403706e-02" rms="3.8528522849082947e-01" purity="4.8050683736801147e-01" nType="0">
        <Node pos="l" depth="1" NCoef="0" IVar="5" Cut="8.7693529129028320e+00" cType="1" res="-6.2436033040285110e-02" rms="3.9367580413818359e-01" purity="3.5430917143821716e-01" nType="0">
          <Node pos="l" depth="2" NCoef="0" IVar="-1" Cut="0.0000000000000000e+00" cType="1" res="-5.5210247635841370e-02" rms="3.2651755213737488e-01" purity="1.4197531342506409e-01" nType="-99"/>
          <Node pos="r" depth="2" NCoef="0" IVar="-1" Cut="0.0000000000000000e+00" cType="1" res="-4.8976368270814419e-03" rms="4.0060794353485107e-01" purity="4.1476273536682129e-01" nType="-99"/>
        </Node>
        <Node pos="r" depth="1" NCoef="0" IVar="0" Cut="9.9996978044509888e-01" cType="1" res="1.0455632954835892e-01" rms="3.3523198962211609e-01" purity="7.9322034120559692e-01" nType="0">
          <Node pos="l" depth="2" NCoef="0" IVar="-1" Cut="0.0000000000000000e+00" cType="1" res="-2.3346100002527237e-02" rms="4.6350273489952087e-01" purity="2.6315790414810181e-01" nType="-99"/>
          <Node pos="r" depth="2" NCoef="0" IVar="-1" Cut="0.0000000000000000e+00" cType="1" res="3.8029108196496964e-02" rms="3.0007344484329224e-01" purity="8.7159532308578491e-01" nType="-99"/>
        </Node>
      </Node>
    </BinaryTree>
    <BinaryTree type="DecisionTree" boostWeight="1.0000000000000000e+00" itree="20">
      <Node pos="s" depth="0" NCoef="0" IVar="3" Cut="1.1419652099609375e+03" cType="1" res="1.5338474884629250e-02" rms="3.8080769777297974e-01" purity="5.2701324224472046e-01" nType="0">
        <Node pos="l" depth="1" NCoef="0" IVar="10" Cut="-4.9941530227661133e+00" cType="1" res="-2.9442960396409035e-02" rms="3.8465976715087891e-01" purity="4.3353474140167236e-01" nType="0">
          <Node pos="l" depth="2" NCoef="0" IVar="-1" Cut="0.0000000000000000e+00" cType="1" res="-4.3670507147908211e-03" rms="3.8544806838035583e-01" purity="4.5054945349693298e-01" nType="-99"/>
          <Node pos="r" depth="2" NCoef="0" IVar="-1" Cut="0.0000000000000000e+00" cType="1" res="-8.6208336055278778e-02" rms="1.5369801223278046e-01" purity="0.0000000000000000e+00" nType="-99"/>
        </Node>
        <Node pos="r" depth="1" NCoef="0" IVar="0" Cut="9.9995726346969604e-01" cType="1" res="1.0827048122882843e-01" rms="3.5510200262069702e-01" purity="7.2100311517715454e-01" nType="0">
          <Node pos="l" depth="2" NCoef="0" IVar="-1" Cut="0.0000000000000000e+00" cType="1" res="-2.5621350854635239e-02" rms="3.9054724574089050e-01" purity="2.1999999880790710e-01" nType="-99"/>
          <Node pos="r" depth="2" NCoef="0" IVar="-1" Cut="0.0000000000000000e+00" cType="1" res="3.8880318403244019e-02" rms="3.3314207196235657e-01" purity="8.1412637233734131e-01" nType="-99"/>
        </Node>
      </Node>
    </BinaryTree>
    <BinaryTree type="DecisionTree" boostWeight="1.0000000000000000e+00" itree="21">
      <Node pos="s" depth="0" NCoef="0" IVar="0" Cut="9.9999523162841797e-01" cType="1" res="-1.0763530153781176e-03" rms="3.6616158485412598e-01" purity="4.9188157916069031e-01" nType="0">
        <Node pos="l" depth="1" NCoef="0" IVar="2" Cut="7.7118158340454102e+00" cType="1" res="-5.1040261983871460e-02" rms="3.8797932863235474e-01" purity="3.1811696290969849e-01" nType="0">
          <Node pos="l" depth="2" NCoef="0" IVar="-1" Cut="0.0000000000000000e+00" cType="1" res="-2.3974948562681675e-03" rms="4.0865081548690796e-01" purity="3.9325842261314392e-01" nType="-99"/>
          <Node pos="r" depth="2" NCoef="0" IVar="-1" Cut="0.0000000000000000e+00" cType="1" res="-3.2338958233594894e-02" rms="3.3733627200126648e-01" purity="1.8750000000000000e-01" nType="-99"/>
        </Node>
        <Node pos="r" depth="1" NCoef="0" IVar="13" Cut="9.4692773437500000e+02" cType="1" res="1.0015110671520233e-01" rms="2.9229143261909485e-01" purity="8.4393066167831421e-01" nType="0">
          <Node pos="l" depth="2" NCoef="0" IVar="-1" Cut="0.0000000000000000e+00" cType="1" res="-4.4844172894954681e-02" rms="3.4647318720817566e-01" purity="4.1176471114158630e-01" nType="-99"/>
          <Node pos="r" depth="2" NCoef="0" IVar="-1" Cut="0.0000000000000000e+00" cType="1" res="3.8911260664463043e-02" rms="2.6939874887466431e-01" purity="8.9102566242218018e-01" nType="-99"/>
        </Node>
      </Node>
    </BinaryTree>
    <BinaryTree type="DecisionTree" boostWeight="1.0000000000000000e+00" itree="22">
      <Node pos="s" depth="0" NCoef="0" IVar="0" Cut="9.9996662139892578e-01" cType="1" res="2.3264991119503975e-02" rms="3.7140849232673645e-01" purity="5.2916663885116577e-01" nType="0">
        <Node pos="l" depth="1" NCoef="0" IVar="9" Cut="5.1507684326171875e+02" cType="1" res="-7.4508488178253174e-02" rms="3.6099940538406372e-01" purity="1.9520547986030579e-01" nType="0">
          <Node pos="l" depth="2" NCoef="0" IVar="-1" Cut="0.0000000000000000e+00" cType="1" res="6.7650504410266876e-02" rms="3.9770057797431946e-01" purity="6.3999998569488525e-01" nType="-99"/>
          <Node pos="r" depth="2" NCoef="0" IVar="-1" Cut="0.0000000000000000e+00" cType="1" res="-2.9773872345685959e-02" rms="3.3832785487174988e-01" purity="1.5355804562568665e-01" nType="-99"/>
        </Node>
        <Node pos="r" depth="1" NCoef="0" IVar="4" Cut="2.1573674678802490e+00" cType="1" res="6.6004291176795959e-02" rms="3.6779254674911499e-01" purity="6.7514967918395996e-01" nType="0">
          <Node pos="l" depth="2" NCoef="0" IVar="-1" Cut="0.0000000000000000e+00" cType="1" res="-4.1011724621057510e-02" rms="2.8823909163475037e-01" purity="1.0714285820722580e-01" nType="-99"/>
          <Node pos="r" depth="2" NCoef="0" IVar="-1" Cut="0.0000000000000000e+00" cType="1" res="2.2626381367444992e-02" rms="3.6797812581062317e-01" purity="7.2712415456771851e-01" nType="-99"/>
        </Node>
      </Node>
    </BinaryTree>
    <BinaryTree type="DecisionTree" boostWeight="1.0000000000000000e+00" itree="23">
      <Node pos="s" depth="0" NCoef="0" IVar="4" Cut="5.2601437568664551e+00" cType="1" res="-1.0562564246356487e-02" rms="3.7126073241233826e-01" purity="4.9453821778297424e-01" nType="0">
        <Node pos="l" depth="1" NCoef="0" IVar="1" Cut="4.7435226440429688e+00" cType="1" res="-4.2869258671998978e-02" rms="3.8066837191581726e-01" purity="3.9641943573951721e-01" nType="0">
          <Node pos="l" depth="2" NCoef="0" IVar="-1" Cut="0.0000000000000000e+00" cType="1" res="-4.3578492477536201e-04" rms="3.8041031360626221e-01" purity="5.0299400091171265e-01" nType="-99"/>
          <Node pos="r" depth="2" NCoef="0" IVar="-1" Cut="0.0000000000000000e+00" cType="1" res="-3.0898895114660263e-02" rms="3.6989036202430725e-01" purity="2.0640569925308228e-01" nType="-99"/>
        </Node>
        <Node pos="r" depth="1" NCoef="0" IVar="10" Cut="-6.7896318435668945e+00" cType="1" res="1.0172114521265030e-01" rms="3.1147035956382751e-01" purity="8.3555555343627930e-01" nType="0">
          <Node pos="l" depth="2" NCoef="0" IVar="-1" Cut="0.0000000000000000e+00" cType="1" res="-3.7088491022586823e-02" rms="4.4576117396354675e-01" purity="4.8387095332145691e-01" nType="-99"/>
          <Node pos="r" depth="2" NCoef="0" IVar="-1" Cut="0.0000000000000000e+00" cType="1" res="4.3239980936050415e-02" rms="2.6330780982971191e-01" purity="8.9175260066986084e-01" nType="-99"/>
        </Node>
      </Node>
    </BinaryTree>
    <BinaryTree type="DecisionTree" boostWeight="1.0000000000000000e+00" itree="24">
      <Node pos="s" depth="0" NCoef="0" IVar="12" Cut="5.3232927322387695e+00" cType="1" res="-3.1910524703562260e-03" rms="3.6441963911056519e-01" purity="4.9809524416923523e-01" nType="0">
        <Node pos="l" depth="1" NCoef="0" IVar="13" Cut="8.4846513671875000e+03" cType="1" res="-5.6757740676403046e-02" rms="3.6949801445007324e-01" purity="3.5576921701431274e-01" nType="0">
          <Node pos="l" depth="2" NCoef="0" IVar="-1" Cut="0.0000000000000000e+00" cType="1" res="-1.2488428503274918e-02" rms="3.6634775996208191e-01" purity="3.6348408460617065e-01" nType="-99"/>
          <Node pos="r" depth="2" NCoef="0" IVar="-1" Cut="0.0000000000000000e+00" cType="1" res="-7.8653544187545776e-02" rms="3.6182978749275208e-01" purity="1.8518517911434174e-01" nType="-99"/>
        </Node>
        <Node pos="r" depth="1" NCoef="0" IVar="0" Cut="9.9998170137405396e-01" cType="1" res="7.5272828340530396e-02" rms="3.4202724695205688e-01" purity="7.0657277107238770e-01" nType="0">
          <Node pos="l" depth="2" NCoef="0" IVar="-1" Cut="0.0000000000000000e+00" cType="1" res="-7.1078715845942497e-03" rms="4.1134095191955566e-01" purity="2.9245284199714661e-01" nType="-99"/>
          <Node pos="r" depth="2" NCoef="0" IVar="-1" Cut="0.0000000000000000e+00" cType="1" res="3.2145988196134567e-02" rms="3.0828762054443359e-01" purity="8.4375000000000000e-01" nType="-99"/>
        </Node>
      </Node>
    </BinaryTree>
    <BinaryTree type="DecisionTree" boostWeight="1.0000000000000000e+00" itree="25">
      <Node pos="s" depth="0" NCoef="0" IVar="10" Cut="-7.1403241157531738e+00" cType="1" res="9.3382280319929123e-03" rms="3.6840784549713135e-01" purity="5.2510040998458862e-01" nType="0">
        <Node pos="l" depth="1" NCoef="0" IVar="2" Cut="5.1678152084350586e+00" cType="1" res="-8.1019580364227295e-02" rms="3.6713817715644836e-01" purity="2.9411765933036804e-01" nType="0">
          <Node pos="l" depth="2" NCoef="0" IVar="-1" Cut="0.0000000000000000e+00" cType="1" res="-3.3758683130145073e-03" rms="4.0017077326774597e-01" purity="4.2767295241355896e-01" nType="-99"/>
          <Node pos="r" depth="2" NCoef="0" IVar="-1" Cut="0.0000000000000000e+00" cType="1" res="-3.8562700152397156e-02" rms="3.2389840483665466e-01" purity="1.7679558694362640e-01" nType="-99"/>
        </Node>
        <Node pos="r" depth="1" NCoef="0" IVar="11" Cut="2.8310494422912598e+00" cType="1" res="5.6170016527175903e-02" rms="3.6025482416152954e-01" purity="6.4481705427169800e-01" nType="0">
          <Node pos="l" depth="2" NCoef="0" IVar="-1" Cut="0.0000000000000000e+00" cType="1" res="-2.6840478181838989e-02" rms="3.2676893472671509e-01" purity="2.7819550037384033e-01" nType="-99"/>
          <Node pos="r" depth="2" NCoef="0" IVar="-1" Cut="0.0000000000000000e+00" cType="1" res="2.7204513549804688e-02" rms="3.5832387208938599e-01" purity="7.3804968595504761e-01" nType="-99"/>
        </Node>
      </Node>
    </BinaryTree>
    <BinaryTree type="DecisionTree" boostWeight="1.0000000000000000e+00" itree="26">
      <Node pos="s" depth="0" NCoef="0" IVar="0" Cut="9.9997621774673462e-01" cType="1" res="-1.5243734233081341e-02" rms="3.7491455674171448e-01" purity="4.8736098408699036e-01" nType="0">
        <Node pos="l" depth="1" NCoef="0" IVar="4" Cut="4.9557404518127441e+00" cType="1" res="-9.5778986811637878e-02" rms="3.3404716849327087e-01" purity="1.6521738469600677e-01" nType="0">
          <Node pos="l" depth="2" NCoef="0" IVar="-1" Cut="0.0000000000000000e+00" cType="1" res="-2.1658346056938171e-02" rms="3.2909575104713440e-01" purity="1.6938111186027527e-01" nType="-99"/>
          <Node pos="r" depth="2" NCoef="0" IVar="-1" Cut="0.0000000000000000e+00" cType="1" res="-6.3627809286117554e-02" rms="3.1685599684715271e-01" purity="1.3157895207405090e-01" nType="-99"/>
        </Node>
        <Node pos="r" depth="1" NCoef="0" IVar="1" Cut="1.1184598922729492e+01" cType="1" res="2.7900151908397675e-02" rms="3.8826075196266174e-01" purity="6.5993785858154297e-01" nType="0">
          <Node pos="l" depth="2" NCoef="0" IVar="-1" Cut="0.0000000000000000e+00" cType="1" res="1.2740538455545902e-02" rms="3.8297179341316223e-01" purity="7.0068025588989258e-01" nType="-99"/>
          <Node pos="r" depth="2" NCoef="0" IVar="-1" Cut="0.0000000000000000e+00" cType="1" res="-3.7000909447669983e-02" rms="3.9316666126251221e-01" purity="2.3214285075664520e-01" nType="-99"/>
        </Node>
      </Node>
    </BinaryTree>
    <BinaryTree type="DecisionTree" boostWeight="1.0000000000000000e+00" itree="27">
      <Node pos="s" depth="0" NCoef="0" IVar="5" Cut="9.2968969345092773e+00" cType="1" res="-1.7365658422932029e-03" rms="3.7046602368354797e-01" purity="5.0707072019577026e-01" nType="0">
        <Node pos="l" depth="1" NCoef="0" IVar="4" Cut="5.0440707206726074e+00" cType="1" res="-5.6553922593593597e-02" rms="3.6074396967887878e-01" purity="3.9075630903244019e-01" nType="0">
          <Node pos="l" depth="2" NCoef="0" IVar="-1" Cut="0.0000000000000000e+00" cType="1" res="-2.9487565159797668e-02" rms="3.6757585406303406e-01" purity="2.4362605810165405e-01" nType="-99"/>
          <Node pos="r" depth="2" NCoef="0" IVar="-1" Cut="0.0000000000000000e+00" cType="1" res="2.5223109871149063e-02" rms="2.9931470751762390e-01" purity="8.1300812959671021e-01" nType="-99"/>
        </Node>
        <Node pos="r" depth="1" NCoef="0" IVar="6" Cut="4.9303648437500000e+04" cType="1" res="4.9028147011995316e-02" rms="3.7211361527442932e-01" purity="6.1478596925735474e-01" nType="0">
          <Node pos="l" depth="2" NCoef="0" IVar="-1" Cut="0.0000000000000000e+00" cType="1" res="2.4719808250665665e-02" rms="3.5315895080566406e-01" purity="6.4186048507690430e-01" nType="-99"/>
          <Node pos="r" depth="2" NCoef="0" IVar="-1" Cut="0.0000000000000000e+00" cType="1" res="-3.8938798010349274e-02" rms="4.0764552354812622e-01" purity="4.7619047760963440e-01" nType="-99"/>
        </Node>
      </Node>
    </BinaryTree>
    <BinaryTree type="DecisionTree" boostWeight="1.0000000000000000e+00" itree="28">
      <Node pos="s" depth="0" NCoef="0" IVar="2" Cut="6.5856413841247559e+00" cType="1" res="7.7297906391322613e-03" rms="3.5409909486770630e-01" purity="5.1794874668121338e-01" nType="0">
        <Node pos="l" depth="1" NCoef="0" IVar="0" Cut="9.9996739625930786e-01" cType="1" res="4.9242492765188217e-02" rms="3.4822696447372437e-01" purity="6.1205565929412842e-01" nType="0">
          <Node pos="l" depth="2" NCoef="0" IVar="-1" Cut="0.0000000000000000e+00" cType="1" res="-1.6415938735008240e-02" rms="3.6981365084648132e-01" purity="2.0710058510303497e-01" nType="-99"/>
          <Node pos="r" depth="2" NCoef="0" IVar="-1" Cut="0.0000000000000000e+00" cType="1" res="2.5576347485184669e-02" rms="3.3194616436958313e-01" purity="7.5523012876510620e-01" nType="-99"/>
        </Node>
        <Node pos="r" depth="1" NCoef="0" IVar="5" Cut="8.6998767852783203e+00" cType="1" res="-7.4156545102596283e-02" rms="3.5130700469017029e-01" purity="3.3231708407402039e-01" nType="0">
          <Node pos="l" depth="2" NCoef="0" IVar="-1" Cut="0.0000000000000000e+00" cType="1" res="-6.5546467900276184e-02" rms="2.6688113808631897e-01" purity="1.3414634764194489e-01" nType="-99"/>
          <Node pos="r" depth="2" NCoef="0" IVar="-1" Cut="0.0000000000000000e+00" cType="1" res="-7.8901676461100578e-03" rms="3.6333912611007690e-01" purity="3.9837399125099182e-01" nType="-99"/>
        </Node>
      </Node>
    </BinaryTree>
    <BinaryTree type="DecisionTree" boostWeight="1.0000000000000000e+00" itree="29">
      <Node pos="s" depth="0" NCoef="0" IVar="13" Cut="1.1352220458984375e+03" cType="1" res="4.8860483802855015e-03" rms="3.5583814978599548e-01" purity="5.1461988687515259e-01" nType="0">
        <Node pos="l" depth="1" NCoef="0" IVar="9" Cut="5.0027642822265625e+02" cType="1" res="-1.0587459802627563e-01" rms="3.0781733989715576e-01" purity="2.5925925374031067e-01" nType="0">
          <Node pos="l" depth="2" NCoef="0" IVar="-1" Cut="0.0000000000000000e+00" cType="1" res="8.2898207008838654e-02" rms="1.4791333675384521e-01" purity="1.0000000000000000e+00" nType="-99"/>
          <Node pos="r" depth="2" NCoef="0" IVar="-1" Cut="0.0000000000000000e+00" cType="1" res="-5.4843295365571976e-02" rms="2.6395928859710693e-01" purity="1.3513512909412384e-01" nType="-99"/>
        </Node>
        <Node pos="r" depth="1" NCoef="0" IVar="0" Cut="9.9998110532760620e-01" cType="1" res="3.4422218799591064e-02" rms="3.6190527677536011e-01" purity="5.8271604776382446e-01" nType="0">
          <Node pos="l" depth="2" NCoef="0" IVar="-1" Cut="0.0000000000000000e+00" cType="1" res="-9.1294413432478905e-03" rms="3.8397583365440369e-01" purity="2.4183006584644318e-01" nType="-99"/>
          <Node pos="r" depth="2" NCoef="0" IVar="-1" Cut="0.0000000000000000e+00" cType="1" res="2.2513061761856079e-02" rms="3.4150367975234985e-01" purity="7.8968256711959839e-01" nType="-99"/>
        </Node>
      </Node>
    </BinaryTree>
    <BinaryTree type="DecisionTree" boostWeight="1.0000000000000000e+00" itree="30">
      <Node pos="s" depth="0" NCoef="0" IVar="13" Cut="9.5842645263671875e+02" cType="1" res="-8.9717609807848930e-03" rms="3.7934762239456177e-01" purity="5.0146913528442383e-01" nType="0">
        <Node pos="l" depth="1" NCoef="0" IVar="9" Cut="5.2538922119140625e+02" cType="1" res="-1.2853713333606720e-01" rms="2.9413431882858276e-01" purity="1.8032786250114441e-01" nType="0">
          <Node pos="l" depth="2" NCoef="0" IVar="-1" Cut="0.0000000000000000e+00" cType="1" res="3.5224530845880508e-02" rms="3.6823081970214844e-01" purity="5.6666666269302368e-01" nType="-99"/>
          <Node pos="r" depth="2" NCoef="0" IVar="-1" Cut="0.0000000000000000e+00" cType="1" res="-5.5053472518920898e-02" rms="2.4599330127239227e-01" purity="1.0457516461610794e-01" nType="-99"/>
        </Node>
        <Node pos="r" depth="1" NCoef="0" IVar="6" Cut="6.0370253906250000e+04" cType="1" res="1.7138576135039330e-02" rms="3.9068344235420227e-01" purity="5.7159906625747681e-01" nType="0">
          <Node pos="l" depth="2" NCoef="0" IVar="-1" Cut="0.0000000000000000e+00" cType="1" res="1.0880541987717152e-02" rms="3.8412234187126160e-01" purity="5.9102904796600342e-01" nType="-99"/>
          <Node pos="r" depth="2" NCoef="0" IVar="-1" Cut="0.0000000000000000e+00" cType="1" res="-5.0935283303260803e-02" rms="3.9785704016685486e-01" purity="3.8749998807907104e-01" nType="-99"/>
        </Node>
      </Node>
    </BinaryTree>
    <BinaryTree type="DecisionTree" boostWeight="1.0000000000000000e+00" itree="31">
      <Node pos="s" depth="0" NCoef="0" IVar="4" Cut="4.2015886306762695e+00" cType="1" res="-1.4706951566040516e-02" rms="3.5078611969947815e-01" purity="4.9645391106605530e-01" nType="0">
        <Node pos="l" depth="1" NCoef="0" IVar="8" Cut="2.9415505371093750e+03" cType="1" res="-6.7446060478687286e-02" rms="3.5680025815963745e-01" purity="2.7508649230003357e-01" nType="0">
          <Node pos="l" depth="2" NCoef="0" IVar="-1" Cut="0.0000000000000000e+00" cType="1" res="-1.4241353608667850e-02" rms="3.5184589028358459e-01" purity="2.8125000000000000e-01" nType="-99"/>
          <Node pos="r" depth="2" NCoef="0" IVar="-1" Cut="0.0000000000000000e+00" cType="1" res="-5.7067498564720154e-02" rms="3.6432814598083496e-01" purity="2.2727273404598236e-01" nType="-99"/>
        </Node>
        <Node pos="r" depth="1" NCoef="0" IVar="10" Cut="-7.3398065567016602e+00" cType="1" res="5.9824112802743912e-02" rms="3.2795032858848572e-01" purity="8.0929094552993774e-01" nType="0">
          <Node pos="l" depth="2" NCoef="0" IVar="-1" Cut="0.0000000000000000e+00" cType="1" res="-5.4174911230802536e-02" rms="4.3918272852897644e-01" purity="3.6000001430511475e-01" nType="-99"/>
          <Node pos="r" depth="2" NCoef="0" IVar="-1" Cut="0.0000000000000000e+00" cType="1" res="2.6196287944912910e-02" rms="3.0957144498825073e-01" purity="8.3854168653488159e-01" nType="-99"/>
        </Node>
      </Node>
    </BinaryTree>
    <BinaryTree type="DecisionTree" boostWeight="1.0000000000000000e+00" itree="32">
      <Node pos="s" depth="0" NCoef="0" IVar="1" Cut="1.2425780296325684e+01" cType="1" res="9.5731448382139206e-03" rms="3.4609279036521912e-01" purity="5.1798558235168457e-01" nType="0">
        <Node pos="l" depth="1" NCoef="0" IVar="12" Cut="5.5509076118469238e+00" cType="1" res="2.5352338328957558e-02" rms="3.4671244025230408e-01" purity="5.6221199035644531e-01" nType="0">
          <Node pos="l" depth="2" NCoef="0" IVar="-1" Cut="0.0000000000000000e+00" cType="1" res="-1.7124802106991410e-03" rms="3.7025740742683411e-01" purity="4.2512908577919006e-01" nType="-99"/>
          <Node pos="r" depth="2" NCoef="0" IVar="-1" Cut="0.0000000000000000e+00" cType="1" res="3.1800076365470886e-02" rms="2.8297597169876099e-01" purity="8.3972126245498657e-01" nType="-99"/>
        </Node>
        <Node pos="r" depth="1" NCoef="0" IVar="14" Cut="7.3470821380615234e+00" cType="1" res="-1.2086818367242813e-01" rms="3.1170195341110229e-01" purity="1.5238095819950104e-01" nType="0">
          <Node pos="l" depth="2" NCoef="0" IVar="-1" Cut="0.0000000000000000e+00" cType="1" res="-5.2941683679819107e-02" rms="2.4475648999214172e-01" purity="6.3492067158222198e-02" nType="-99"/>
          <Node pos="r" depth="2" NCoef="0" IVar="-1" Cut="0.0000000000000000e+00" cType="1" res="-6.5296432003378868e-03" rms="3.7059435248374939e-01" purity="2.8571429848670959e-01" nType="-99"/>
        </Node>
      </Node>
    </BinaryTree>
    <BinaryTree type="DecisionTree" boostWeight="1.0000000000000000e+00" itree="33">
      <Node pos="s" depth="0" NCoef="0" IVar="2" Cut="1.0121423721313477e+01" cType="1" res="-5.7112500071525574e-03" rms="3.6533457040786743e-01" purity="5.1232033967971802e-01" nType="0">
        <Node pos="l" depth="1" NCoef="0" IVar="1" Cut="1.2073293685913086e+01" cType="1" res="1.6688212752342224e-02" rms="3.6139142513275146e-01" purity="5.6188118457794189e-01" nType="0">
          <Node pos="l" depth="2" NCoef="0" IVar="-1" Cut="0.0000000000000000e+00" cType="1" res="1.1365778744220734e-02" rms="3.6301743984222412e-01" purity="6.2606233358383179e-01" nType="-99"/>
          <Node pos="r" depth="2" NCoef="0" IVar="-1" Cut="0.0000000000000000e+00" cType="1" res="-3.9132338017225266e-02" rms="3.1362390518188477e-01" purity="1.1764705926179886e-01" nType="-99"/>
        </Node>
        <Node pos="r" depth="1" NCoef="0" IVar="2" Cut="1.4437707901000977e+01" cType="1" res="-1.1473995447158813e-01" rms="3.6481234431266785e-01" purity="2.7108433842658997e-01" nType="0">
          <Node pos="l" depth="2" NCoef="0" IVar="-1" Cut="0.0000000000000000e+00" cType="1" res="-5.0097286701202393e-02" rms="3.4018647670745850e-01" purity="2.1276596188545227e-01" nType="-99"/>
          <Node pos="r" depth="2" NCoef="0" IVar="-1" Cut="0.0000000000000000e+00" cType="1" res="4.9352969974279404e-02" rms="3.6122199892997742e-01" purity="6.0000002384185791e-01" nType="-99"/>
        </Node>
      </Node>
    </BinaryTree>
    <BinaryTree type="DecisionTree" boostWeight="1.0000000000000000e+00" itree="34">
      <Node pos="s" depth="0" NCoef="0" IVar="8" Cut="1.9796036376953125e+03" cType="1" res="3.1015488784760237e-03" rms="3.6531245708465576e-01" purity="5.0404042005538940e-01" nType="0">
        <Node pos="l" depth="1" NCoef="0" IVar="9" Cut="4.7350802612304688e+02" cType="1" res="2.8527015820145607e-02" rms="3.6313360929489136e-01" purity="4.8982557654380798e-01" nType="0">
          <Node pos="l" depth="2" NCoef="0" IVar="-1" Cut="0.0000000000000000e+00" cType="1" res="8.3913385868072510e-02" rms="1.8220397830009460e-01" purity="1.0000000000000000e+00" nType="-99"/>
          <Node pos="r" depth="2" NCoef="0" IVar="-1" Cut="0.0000000000000000e+00" cType="1" res="1.2423918815329671e-03" rms="3.6624550819396973e-01" purity="4.4197139143943787e-01" nType="-99"/>
        </Node>
        <Node pos="r" depth="1" NCoef="0" IVar="1" Cut="5.2429986000061035e+00" cType="1" res="-5.4821368306875229e-02" rms="3.6364987492561340e-01" purity="5.3642386198043823e-01" nType="0">
          <Node pos="l" depth="2" NCoef="0" IVar="-1" Cut="0.0000000000000000e+00" cType="1" res="1.0000101756304502e-03" rms="3.4131097793579102e-01" purity="6.8000000715255737e-01" nType="-99"/>
          <Node pos="r" depth="2" NCoef="0" IVar="-1" Cut="0.0000000000000000e+00" cType="1" res="-4.8632726073265076e-02" rms="3.7907096743583679e-01" purity="2.5490197539329529e-01" nType="-99"/>
        </Node>
      </Node>
    </BinaryTree>
    <BinaryTree type="DecisionTree" boostWeight="1.0000000000000000e+00" itree="35">
      <Node pos="s" depth="0" NCoef="0" IVar="11" Cut="2.0982844829559326e+00" cType="1" res="-6.8154572509229183e-03" rms="3.5008087754249573e-01" purity="4.7842055559158325e-01" nType="0">
        <Node pos="l" depth="1" NCoef="0" IVar="12" Cut="4.0623831748962402e+00" cType="1" res="-1.3607272505760193e-01" rms="2.6193031668663025e-01" purity="1.2931033968925476e-01" nType="0">
          <Node pos="l" depth="2" NCoef="0" IVar="-1" Cut="0.0000000000000000e+00" cType="1" res="-3.0669279396533966e-02" rms="2.5546726584434509e-01" purity="1.4942528307437897e-01" nType="-99"/>
          <Node pos="r" depth="2" NCoef="0" IVar="-1" Cut="0.0000000000000000e+00" cType="1" res="-7.8752622008323669e-02" rms="2.3650774359703064e-01" purity="6.8965516984462738e-02" nType="-99"/>
        </Node>
        <Node pos="r" depth="1" NCoef="0" IVar="6" Cut="8.4245625000000000e+04" cType="1" res="8.5944533348083496e-03" rms="3.5603240132331848e-01" purity="5.2004110813140869e-01" nType="0">
          <Node pos="l" depth="2" NCoef="0" IVar="-1" Cut="0.0000000000000000e+00" cType="1" res="5.6173242628574371e-03" rms="3.5311055183410645e-01" purity="5.2478450536727905e-01" nType="-99"/>
          <Node pos="r" depth="2" NCoef="0" IVar="-1" Cut="0.0000000000000000e+00" cType="1" res="-5.1711846143007278e-02" rms="3.5976117849349976e-01" purity="4.2222222685813904e-01" nType="-99"/>
        </Node>
      </Node>
    </BinaryTree>
    <BinaryTree type="DecisionTree" boostWeight="1.0000000000000000e+00" itree="36">
      <Node pos="s" depth="0" NCoef="0" IVar="5" Cut="8.2345981597900391e+00" cType="1" res="-9.2114442959427834e-03" rms="3.4765276312828064e-01" purity="4.9708738923072815e-01" nType="0">
        <Node pos="l" depth="1" NCoef="0" IVar="0" Cut="9.9997258186340332e-01" cType="1" res="-1.7358285188674927e-01" rms="2.8175202012062073e-01" purity="1.8478260934352875e-01" nType="0">
          <Node pos="l" depth="2" NCoef="0" IVar="-1" Cut="0.0000000000000000e+00" cType="1" res="-2.5815019384026527e-02" rms="2.0359610021114349e-01" purity="1.1904761940240860e-01" nType="-99"/>
          <Node pos="r" depth="2" NCoef="0" IVar="-1" Cut="0.0000000000000000e+00" cType="1" res="-7.2901718318462372e-02" rms="3.0641859769821167e-01" purity="2.3999999463558197e-01" nType="-99"/>
        </Node>
        <Node pos="r" depth="1" NCoef="0" IVar="4" Cut="2.1555581092834473e+00" cType="1" res="6.9102705456316471e-03" rms="3.4931477904319763e-01" purity="5.2771854400634766e-01" nType="0">
          <Node pos="l" depth="2" NCoef="0" IVar="-1" Cut="0.0000000000000000e+00" cType="1" res="-4.1652448475360870e-02" rms="2.3339447379112244e-01" purity="7.0175439119338989e-02" nType="-99"/>
          <Node pos="r" depth="2" NCoef="0" IVar="-1" Cut="0.0000000000000000e+00" cType="1" res="7.3053110390901566e-03" rms="3.5895004868507385e-01" purity="5.9101939201354980e-01" nType="-99"/>
        </Node>
      </Node>
    </BinaryTree>
    <BinaryTree type="DecisionTree" boostWeight="1.0000000000000000e+00" itree="37">
      <Node pos="s" depth="0" NCoef="0" IVar="2" Cut="6.5821790695190430e+00" cType="1" res="-4.9775019288063049e-03" rms="3.4961858391761780e-01" purity="4.9534642696380615e-01" nType="0">
        <Node pos="l" depth="1" NCoef="0" IVar="13" Cut="9.7135327148437500e+02" cType="1" res="2.7211133390665054e-02" rms="3.5302180051803589e-01" purity="5.9509199857711792e-01" nType="0">
          <Node pos="l" depth="2" NCoef="0" IVar="-1" Cut="0.0000000000000000e+00" cType="1" res="-3.1908895820379257e-02" rms="3.0715298652648926e-01" purity="2.3008850216865540e-01" nType="-99"/>
          <Node pos="r" depth="2" NCoef="0" IVar="-1" Cut="0.0000000000000000e+00" cType="1" res="1.6548788174986839e-02" rms="3.5555148124694824e-01" purity="6.7161411046981812e-01" nType="-99"/>
        </Node>
        <Node pos="r" depth="1" NCoef="0" IVar="7" Cut="1.5397152343750000e+04" cType="1" res="-7.1602866053581238e-02" rms="3.3271628618240356e-01" purity="2.8888890147209167e-01" nType="0">
          <Node pos="l" depth="2" NCoef="0" IVar="-1" Cut="0.0000000000000000e+00" cType="1" res="-3.5940501838922501e-02" rms="3.0388289690017700e-01" purity="2.2727273404598236e-01" nType="-99"/>
          <Node pos="r" depth="2" NCoef="0" IVar="-1" Cut="0.0000000000000000e+00" cType="1" res="1.6818290576338768e-02" rms="3.8766917586326599e-01" purity="4.9315068125724792e-01" nType="-99"/>
        </Node>
      </Node>
    </BinaryTree>
    <BinaryTree type="DecisionTree" boostWeight="1.0000000000000000e+00" itree="38">
      <Node pos="s" depth="0" NCoef="0" IVar="2" Cut="1.0119472503662109e+01" cType="1" res="-2.3251418024301529e-02" rms="3.6280477046966553e-01" purity="4.7194388508796692e-01" nType="0">
        <Node pos="l" depth="1" NCoef="0" IVar="1" Cut="5.3657703399658203e+00" cType="1" res="-1.8332799663767219e-03" rms="3.6337074637413025e-01" purity="5.2567237615585327e-01" nType="0">
          <Node pos="l" depth="2" NCoef="0" IVar="-1" Cut="0.0000000000000000e+00" cType="1" res="9.6460608765482903e-03" rms="3.5190030932426453e-01" purity="6.3362830877304077e-01" nType="-99"/>
          <Node pos="r" depth="2" NCoef="0" IVar="-1" Cut="0.0000000000000000e+00" cType="1" res="-2.0836863666772842e-02" rms="3.7780904769897461e-01" purity="2.8458496928215027e-01" nType="-99"/>
        </Node>
        <Node pos="r" depth="1" NCoef="0" IVar="7" Cut="1.1464051757812500e+04" cType="1" res="-1.2058495730161667e-01" rms="3.4380379319190979e-01" purity="2.2777777910232544e-01" nType="0">
          <Node pos="l" depth="2" NCoef="0" IVar="-1" Cut="0.0000000000000000e+00" cType="1" res="-5.4017990827560425e-02" rms="3.0663862824440002e-01" purity="1.5873016417026520e-01" nType="-99"/>
          <Node pos="r" depth="2" NCoef="0" IVar="-1" Cut="0.0000000000000000e+00" cType="1" res="-2.1511034574359655e-03" rms="3.9513471722602844e-01" purity="3.8888889551162720e-01" nType="-99"/>
        </Node>
      </Node>
    </BinaryTree>
    <BinaryTree type="DecisionTree" boostWeight="1.0000000000000000e+00" itree="39">
      <Node pos="s" depth="0" NCoef="0" IVar="5" Cut="8.6625022888183594e+00" cType="1" res="1.5397136099636555e-02" rms="3.3943787217140198e-01" purity="5.2061361074447632e-01" nType="0">
        <Node pos="l" depth="1" NCoef="0" IVar="4" Cut="5.6451654434204102e+00" cType="1" res="-7.6925419270992279e-02" rms="3.2586604356765747e-01" purity="2.9569891095161438e-01" nType="0">
          <Node pos="l" depth="2" NCoef="0" IVar="-1" Cut="0.0000000000000000e+00" cType="1" res="-3.8065794855356216e-02" rms="3.0326920747756958e-01" purity="1.8831168115139008e-01" nType="-99"/>
          <Node pos="r" depth="2" NCoef="0" IVar="-1" Cut="0.0000000000000000e+00" cType="1" res="3.9308987557888031e-02" rms="3.5564932227134705e-01" purity="8.1250000000000000e-01" nType="-99"/>
        </Node>
        <Node pos="r" depth="1" NCoef="0" IVar="4" Cut="2.1468014717102051e+00" cType="1" res="3.5434469580650330e-02" rms="3.3900794386863708e-01" purity="5.6942826509475708e-01" nType="0">
          <Node pos="l" depth="2" NCoef="0" IVar="-1" Cut="0.0000000000000000e+00" cType="1" res="-3.6949343979358673e-02" rms="2.8311979770660400e-01" purity="1.0588235408067703e-01" nType="-99"/>
          <Node pos="r" depth="2" NCoef="0" IVar="-1" Cut="0.0000000000000000e+00" cType="1" res="1.6038544476032257e-02" rms="3.4051260352134705e-01" purity="6.2046629190444946e-01" nType="-99"/>
        </Node>
      </Node>
    </BinaryTree>
    <BinaryTree type="DecisionTree" boostWeight="1.0000000000000000e+00" itree="40">
      <Node pos="s" depth="0" NCoef="0" IVar="3" Cut="6.4924890136718750e+02" cType="1" res="-2.0710963755846024e-02" rms="3.5110783576965332e-01" purity="4.7557327151298523e-01" nType="0">
        <Node pos="l" depth="1" NCoef="0" IVar="7" Cut="1.9997890625000000e+04" cType="1" res="-8.4674365818500519e-02" rms="3.1890299916267395e-01" purity="2.7735370397567749e-01" nType="0">
          <Node pos="l" depth="2" NCoef="0" IVar="-1" Cut="0.0000000000000000e+00" cType="1" res="-2.1926380693912506e-02" rms="3.0588668584823608e-01" purity="2.7826085686683655e-01" nType="-99"/>
          <Node pos="r" depth="2" NCoef="0" IVar="-1" Cut="0.0000000000000000e+00" cType="1" res="-7.7946014702320099e-02" rms="3.6410319805145264e-01" purity="2.7083334326744080e-01" nType="-99"/>
        </Node>
        <Node pos="r" depth="1" NCoef="0" IVar="13" Cut="4.5828813476562500e+03" cType="1" res="2.0498245954513550e-02" rms="3.6447805166244507e-01" purity="6.0327869653701782e-01" nType="0">
          <Node pos="l" depth="2" NCoef="0" IVar="-1" Cut="0.0000000000000000e+00" cType="1" res="1.6631972044706345e-02" rms="3.5183516144752502e-01" purity="6.1390888690948486e-01" nType="-99"/>
          <Node pos="r" depth="2" NCoef="0" IVar="-1" Cut="0.0000000000000000e+00" cType="1" res="-1.6372706741094589e-02" rms="3.8079628348350525e-01" purity="5.8031088113784790e-01" nType="-99"/>
        </Node>
      </Node>
    </BinaryTree>
    <BinaryTree type="DecisionTree" boostWeight="1.0000000000000000e+00" itree="41">
      <Node pos="s" depth="0" NCoef="0" IVar="7" Cut="7.3583984375000000e+03" cType="1" res="-1.4776267344132066e-03" rms="3.4614193439483643e-01" purity="4.8722985386848450e-01" nType="0">
        <Node pos="l" depth="1" NCoef="0" IVar="9" Cut="5.1626055908203125e+02" cType="1" res="-5.9833049774169922e-02" rms="3.0928227305412292e-01" purity="3.5978835821151733e-01" nType="0">
          <Node pos="l" depth="2" NCoef="0" IVar="-1" Cut="0.0000000000000000e+00" cType="1" res="2.7316393330693245e-02" rms="3.4264186024665833e-01" purity="6.8421053886413574e-01" nType="-99"/>
          <Node pos="r" depth="2" NCoef="0" IVar="-1" Cut="0.0000000000000000e+00" cType="1" res="-2.8943253681063652e-02" rms="2.9439041018486023e-01" purity="3.0218067765235901e-01" nType="-99"/>
        </Node>
        <Node pos="r" depth="1" NCoef="0" IVar="3" Cut="3.2474946289062500e+03" cType="1" res="3.2988544553518295e-02" rms="3.6177864670753479e-01" purity="5.6250000000000000e-01" nType="0">
          <Node pos="l" depth="2" NCoef="0" IVar="-1" Cut="0.0000000000000000e+00" cType="1" res="6.9542396813631058e-03" rms="3.6426472663879395e-01" purity="5.4304635524749756e-01" nType="-99"/>
          <Node pos="r" depth="2" NCoef="0" IVar="-1" Cut="0.0000000000000000e+00" cType="1" res="6.7916147410869598e-02" rms="2.5186824798583984e-01" purity="8.8888889551162720e-01" nType="-99"/>
        </Node>
      </Node>
    </BinaryTree>
    <BinaryTree type="DecisionTree" boostWeight="1.0000000000000000e+00" itree="42">
      <Node pos="s" depth="0" NCoef="0" IVar="2" Cut="8.2287273406982422e+00" cType="1" res="-6.7464062012732029e-03" rms="3.5476523637771606e-01" purity="4.8818898200988770e-01" nType="0">
        <Node pos="l" depth="1" NCoef="0" IVar="11" Cut="2.4843006134033203e+00" cType="1" res="1.9346268847584724e-02" rms="3.5785341262817383e-01" purity="5.7012987136840820e-01" nType="0">
          <Node pos="l" depth="2" NCoef="0" IVar="-1" Cut="0.0000000000000000e+00" cType="1" res="-2.2869491949677467e-02" rms="3.3944824337959290e-01" purity="2.7044025063514709e-01" nType="-99"/>
          <Node pos="r" depth="2" NCoef="0" IVar="-1" Cut="0.0000000000000000e+00" cType="1" res="1.4441189356148243e-02" rms="3.5828721523284912e-01" purity="6.4811784029006958e-01" nType="-99"/>
        </Node>
        <Node pos="r" depth="1" NCoef="0" IVar="12" Cut="5.0684237480163574e+00" cType="1" res="-8.8418602943420410e-02" rms="3.3191663026809692e-01" purity="2.3170731961727142e-01" nType="0">
          <Node pos="l" depth="2" NCoef="0" IVar="-1" Cut="0.0000000000000000e+00" cType="1" res="-1.1050538159906864e-02" rms="2.9755881428718567e-01" purity="2.0394736528396606e-01" nType="-99"/>
          <Node pos="r" depth="2" NCoef="0" IVar="-1" Cut="0.0000000000000000e+00" cType="1" res="-5.0038695335388184e-02" rms="3.6069685220718384e-01" purity="2.7659574151039124e-01" nType="-99"/>
        </Node>
      </Node>
    </BinaryTree>
    <BinaryTree type="DecisionTree" boostWeight="1.0000000000000000e+00" itree="43">
      <Node pos="s" depth="0" NCoef="0" IVar="8" Cut="1.9014771728515625e+03" cType="1" res="-3.8464723620563745e-03" rms="3.4459665417671204e-01" purity="4.9338757991790771e-01" nType="0">
        <Node pos="l" depth="1" NCoef="0" IVar="6" Cut="1.1620528320312500e+04" cType="1" res="2.7573078870773315e-02" rms="3.2515299320220947e-01" purity="5.0619196891784668e-01" nType="0">
          <Node pos="l" depth="2" NCoef="0" IVar="-1" Cut="0.0000000000000000e+00" cType="1" res="-1.9419601187109947e-02" rms="3.0037689208984375e-01" purity="3.1279620528221130e-01" nType="-99"/>
          <Node pos="r" depth="2" NCoef="0" IVar="-1" Cut="0.0000000000000000e+00" cType="1" res="2.2844810038805008e-02" rms="3.2851833105087280e-01" purity="6.0000002384185791e-01" nType="-99"/>
        </Node>
        <Node pos="r" depth="1" NCoef="0" IVar="3" Cut="2.0701042480468750e+03" cType="1" res="-6.4075052738189697e-02" rms="3.7173888087272644e-01" purity="4.6884274482727051e-01" nType="0">
          <Node pos="l" depth="2" NCoef="0" IVar="-1" Cut="0.0000000000000000e+00" cType="1" res="-2.9786989092826843e-02" rms="3.7047263979911804e-01" purity="4.0892192721366882e-01" nType="-99"/>
          <Node pos="r" depth="2" NCoef="0" IVar="-1" Cut="0.0000000000000000e+00" cType="1" res="1.8213372677564621e-02" rms="3.5038405656814575e-01" purity="7.0588237047195435e-01" nType="-99"/>
        </Node>
      </Node>
    </BinaryTree>
    <BinaryTree type="DecisionTree" boostWeight="1.0000000000000000e+00" itree="44">
      <Node pos="s" depth="0" NCoef="0" IVar="2" Cut="9.2860727310180664e+00" cType="1" res="-5.4125497117638588e-03" rms="3.5336038470268250e-01" purity="4.8526522517204285e-01" nType="0">
        <Node pos="l" depth="1" NCoef="0" IVar="1" Cut="1.5709884643554688e+01" cType="1" res="1.3938161544501781e-02" rms="3.5815086960792542e-01" purity="5.4858547449111938e-01" nType="0">
          <Node pos="l" depth="2" NCoef="0" IVar="-1" Cut="0.0000000000000000e+00" cType="1" res="8.6232181638479233e-03" rms="3.6175203323364258e-01" purity="5.9115278720855713e-01" nType="-99"/>
          <Node pos="r" depth="2" NCoef="0" IVar="-1" Cut="0.0000000000000000e+00" cType="1" res="-4.7907419502735138e-02" rms="2.7374586462974548e-01" purity="7.4626863002777100e-02" nType="-99"/>
        </Node>
        <Node pos="r" depth="1" NCoef="0" IVar="2" Cut="1.4107995986938477e+01" cType="1" res="-8.2154639065265656e-02" rms="3.2244628667831421e-01" purity="2.3414634168148041e-01" nType="0">
          <Node pos="l" depth="2" NCoef="0" IVar="-1" Cut="0.0000000000000000e+00" cType="1" res="-3.8168933242559433e-02" rms="3.0434066057205200e-01" purity="1.9526627659797668e-01" nType="-99"/>
          <Node pos="r" depth="2" NCoef="0" IVar="-1" Cut="0.0000000000000000e+00" cType="1" res="2.1685231477022171e-02" rms="3.6028492450714111e-01" purity="4.1666665673255920e-01" nType="-99"/>
        </Node>
      </Node>
    </BinaryTree>
    <BinaryTree type="DecisionTree" boostWeight="1.0000000000000000e+00" itree="45">
      <Node pos="s" depth="0" NCoef="0" IVar="1" Cut="1.2582324981689453e+01" cType="1" res="6.6364915110170841e-03" rms="3.4238192439079285e-01" purity="4.9657869338989258e-01" nType="0">
        <Node pos="l" depth="1" NCoef="0" IVar="5" Cut="8.0686645507812500e+00" cType="1" res="2.2503925487399101e-02" rms="3.4802398085594177e-01" purity="5.6486797332763672e-01" nType="0">
          <Node pos="l" depth="2" NCoef="0" IVar="-1" Cut="0.0000000000000000e+00" cType="1" res="-6.1738237738609314e-02" rms="1.9392105937004089e-01" purity="7.8947365283966064e-02" nType="-99"/>
          <Node pos="r" depth="2" NCoef="0" IVar="-1" Cut="0.0000000000000000e+00" cType="1" res="1.0330460034310818e-02" rms="3.5077336430549622e-01" purity="5.8703482151031494e-01" nType="-99"/>
        </Node>
        <Node pos="r" depth="1" NCoef="0" IVar="0" Cut="9.9997115135192871e-01" cType="1" res="-8.4288083016872406e-02" rms="2.9188051819801331e-01" purity="1.0526315867900848e-01" nType="0">
          <Node pos="l" depth="2" NCoef="0" IVar="-1" Cut="0.0000000000000000e+00" cType="1" res="-1.6967162489891052e-02" rms="2.7030837535858154e-01" purity="9.9009901285171509e-02" nType="-99"/>
          <Node pos="r" depth="2" NCoef="0" IVar="-1" Cut="0.0000000000000000e+00" cType="1" res="-4.8455633223056793e-02" rms="3.1059026718139648e-01" purity="1.1764705926179886e-01" nType="-99"/>
        </Node>
      </Node>
    </BinaryTree>
    <BinaryTree type="DecisionTree" boostWeight="1.0000000000000000e+00" itree="46">
      <Node pos="s" depth="0" NCoef="0" IVar="1" Cut="5.5254154205322266e+00" cType="1" res="-3.1898526940494776e-03" rms="3.3938741683959961e-01" purity="4.8899522423744202e-01" nType="0">
        <Node pos="l" depth="1" NCoef="0" IVar="12" Cut="2.6579475402832031e+00" cType="1" res="2.6311483234167099e-02" rms="3.3203881978988647e-01" purity="6.0361611843109131e-01" nType="0">
          <Node pos="l" depth="2" NCoef="0" IVar="-1" Cut="0.0000000000000000e+00" cType="1" res="-4.1508607566356659e-02" rms="2.3367561399936676e-01" purity="1.3461539149284363e-01" nType="-99"/>
          <Node pos="r" depth="2" NCoef="0" IVar="-1" Cut="0.0000000000000000e+00" cType="1" res="1.2893195264041424e-02" rms="3.3548587560653687e-01" purity="6.4017993211746216e-01" nType="-99"/>
        </Node>
        <Node pos="r" depth="1" NCoef="0" IVar="4" Cut="6.1699409484863281e+00" cType="1" res="-6.8255677819252014e-02" rms="3.4628435969352722e-01" purity="2.3619632422924042e-01" nType="0">
          <Node pos="l" depth="2" NCoef="0" IVar="-1" Cut="0.0000000000000000e+00" cType="1" res="-3.1693972647190094e-02" rms="3.3159789443016052e-01" purity="1.6608996689319611e-01" nType="-99"/>
          <Node pos="r" depth="2" NCoef="0" IVar="-1" Cut="0.0000000000000000e+00" cType="1" res="4.2320594191551208e-02" rms="3.7658572196960449e-01" purity="7.8378379344940186e-01" nType="-99"/>
        </Node>
      </Node>
    </BinaryTree>
    <BinaryTree type="DecisionTree" boostWeight="1.0000000000000000e+00" itree="47">
      <Node pos="s" depth="0" NCoef="0" IVar="8" Cut="4.1275415039062500e+03" cType="1" res="1.2965413741767406e-02" rms="3.3799335360527039e-01" purity="4.9708172678947449e-01" nType="0">
        <Node pos="l" depth="1" NCoef="0" IVar="13" Cut="5.5990985107421875e+02" cType="1" res="2.2655066102743149e-02" rms="3.3152809739112854e-01" purity="5.0564104318618774e-01" nType="0">
          <Node pos="l" depth="2" NCoef="0" IVar="-1" Cut="0.0000000000000000e+00" cType="1" res="-3.7230826914310455e-02" rms="1.9111374020576477e-01" purity="1.1428571492433548e-01" nType="-99"/>
          <Node pos="r" depth="2" NCoef="0" IVar="-1" Cut="0.0000000000000000e+00" cType="1" res="1.1979245580732822e-02" rms="3.4199708700180054e-01" purity="5.5287355184555054e-01" nType="-99"/>
        </Node>
        <Node pos="r" depth="1" NCoef="0" IVar="2" Cut="2.8293883800506592e+00" cType="1" res="-1.6528762876987457e-01" rms="4.0046018362045288e-01" purity="3.3962264657020569e-01" nType="0">
          <Node pos="l" depth="2" NCoef="0" IVar="-1" Cut="0.0000000000000000e+00" cType="1" res="-1.8379205837845802e-02" rms="4.1350689530372620e-01" purity="5.0000000000000000e-01" nType="-99"/>
          <Node pos="r" depth="2" NCoef="0" IVar="-1" Cut="0.0000000000000000e+00" cType="1" res="-9.7984999418258667e-02" rms="3.5425797104835510e-01" purity="1.8518517911434174e-01" nType="-99"/>
        </Node>
      </Node>
    </BinaryTree>
    <BinaryTree type="DecisionTree" boostWeight="1.0000000000000000e+00" itree="48">
      <Node pos="s" depth="0" NCoef="0" IVar="7" Cut="1.5362896484375000e+04" cType="1" res="-6.0911136679351330e-03" rms="3.3696407079696655e-01" purity="4.7758081555366516e-01" nType="0">
        <Node pos="l" depth="1" NCoef="0" IVar="9" Cut="4.9927288818359375e+02" cType="1" res="-3.2600715756416321e-02" rms="3.3230882883071899e-01" purity="4.2681258916854858e-01" nType="0">
          <Node pos="l" depth="2" NCoef="0" IVar="-1" Cut="0.0000000000000000e+00" cType="1" res="7.4017047882080078e-02" rms="1.5581189095973969e-01" purity="1.0000000000000000e+00" nType="-99"/>
          <Node pos="r" depth="2" NCoef="0" IVar="-1" Cut="0.0000000000000000e+00" cType="1" res="-1.9250307232141495e-02" rms="3.3586257696151733e-01" purity="3.6611196398735046e-01" nType="-99"/>
        </Node>
        <Node pos="r" depth="1" NCoef="0" IVar="8" Cut="2.2002109375000000e+03" cType="1" res="7.8902393579483032e-02" rms="3.3772298693656921e-01" purity="6.4035087823867798e-01" nType="0">
          <Node pos="l" depth="2" NCoef="0" IVar="-1" Cut="0.0000000000000000e+00" cType="1" res="5.4756123572587967e-02" rms="3.1608009338378906e-01" purity="7.5199997425079346e-01" nType="-99"/>
          <Node pos="r" depth="2" NCoef="0" IVar="-1" Cut="0.0000000000000000e+00" cType="1" res="-1.3413981534540653e-02" rms="3.2616531848907471e-01" purity="5.0485438108444214e-01" nType="-99"/>
        </Node>
      </Node>
    </BinaryTree>
    <BinaryTree type="DecisionTree" boostWeight="1.0000000000000000e+00" itree="49">
      <Node pos="s" depth="0" NCoef="0" IVar="4" Cut="3.3350374698638916e+00" cType="1" res="8.3470800891518593e-03" rms="3.5628086328506470e-01" purity="4.9601593613624573e-01" nType="0">
        <Node pos="l" depth="1" NCoef="0" IVar="9" Cut="5.2127526855468750e+02" cType="1" res="-4.1314844042062759e-02" rms="3.1049048900604248e-01" purity="2.0199501514434814e-01" nType="0">
          <Node pos="l" depth="2" NCoef="0" IVar="-1" Cut="0.0000000000000000e+00" cType="1" res="6.9488666951656342e-02" rms="3.8116377592086792e-01" purity="6.2068963050842285e-01" nType="-99"/>
          <Node pos="r" depth="2" NCoef="0" IVar="-1" Cut="0.0000000000000000e+00" cType="1" res="-2.2855689749121666e-02" rms="2.9254481196403503e-01" purity="1.6935484111309052e-01" nType="-99"/>
        </Node>
        <Node pos="r" depth="1" NCoef="0" IVar="0" Cut="9.9994832277297974e-01" cType="1" res="4.1372671723365784e-02" rms="3.8014352321624756e-01" purity="6.9154226779937744e-01" nType="0">
          <Node pos="l" depth="2" NCoef="0" IVar="-1" Cut="0.0000000000000000e+00" cType="1" res="7.0152729749679565e-02" rms="4.3789243698120117e-01" purity="5.0000000000000000e-01" nType="-99"/>
          <Node pos="r" depth="2" NCoef="0" IVar="-1" Cut="0.0000000000000000e+00" cType="1" res="5.1005613058805466e-03" rms="3.6398169398307800e-01" purity="7.1751409769058228e-01" nType="-99"/>
        </Node>
      </Node>
    </BinaryTree>
    <BinaryTree type="DecisionTree" boostWeight="1.0000000000000000e+00" itree="50">
      <Node pos="s" depth="0" NCoef="0" IVar="10" Cut="-5.4672360420227051e+00" cType="1" res="1.4100223779678345e-02" rms="3.4684687852859497e-01" purity="5.1730769872665405e-01" nType="0">
        <Node pos="l" depth="1" NCoef="0" IVar="6" Cut="6.4049316406250000e+04" cType="1" res="2.3500854149460793e-02" rms="3.5093384981155396e-01" purity="5.3626149892807007e-01" nType="0">
          <Node pos="l" depth="2" NCoef="0" IVar="-1" Cut="0.0000000000000000e+00" cType="1" res="1.1596057564020157e-02" rms="3.4209892153739929e-01" purity="5.4222220182418823e-01" nType="-99"/>
          <Node pos="r" depth="2" NCoef="0" IVar="-1" Cut="0.0000000000000000e+00" cType="1" res="-2.9400112107396126e-02" rms="4.1767010092735291e-01" purity="4.6835443377494812e-01" nType="-99"/>
        </Node>
        <Node pos="r" depth="1" NCoef="0" IVar="8" Cut="8.1385778808593750e+02" cType="1" res="-1.3677217066287994e-01" rms="2.2439469397068024e-01" purity="2.1311475336551666e-01" nType="0">
          <Node pos="l" depth="2" NCoef="0" IVar="-1" Cut="0.0000000000000000e+00" cType="1" res="-8.8672652840614319e-02" rms="2.3993656039237976e-01" purity="3.4482758492231369e-02" nType="-99"/>
          <Node pos="r" depth="2" NCoef="0" IVar="-1" Cut="0.0000000000000000e+00" cType="1" res="-3.1739957630634308e-02" rms="1.8266734480857849e-01" purity="3.7500000000000000e-01" nType="-99"/>
        </Node>
      </Node>
    </BinaryTree>
    <BinaryTree type="DecisionTree" boostWeight="1.0000000000000000e+00" itree="51">
      <Node pos="s" depth="0" NCoef="0" IVar="9" Cut="1.9817386474609375e+03" cType="1" res="-3.3388712909072638e-03" rms="3.4844696521759033e-01" purity="5.0196850299835205e-01" nType="0">
        <Node pos="l" depth="1" NCoef="0" IVar="9" Cut="4.7573648071289062e+02" cType="1" res="4.5346189290285110e-03" rms="3.4404626488685608e-01" purity="5.0727653503417969e-01" nType="0">
          <Node pos="l" depth="2" NCoef="0" IVar="-1" Cut="0.0000000000000000e+00" cType="1" res="7.2105050086975098e-02" rms="1.4904871582984924e-01" purity="1.0000000000000000e+00" nType="-99"/>
          <Node pos="r" depth="2" NCoef="0" IVar="-1" Cut="0.0000000000000000e+00" cType="1" res="-3.7876809947192669e-03" rms="3.5144439339637756e-01" purity="4.6440678834915161e-01" nType="-99"/>
        </Node>
        <Node pos="r" depth="1" NCoef="0" IVar="9" Cut="2.4914836425781250e+03" cType="1" res="-1.4360363781452179e-01" rms="3.9360699057579041e-01" purity="4.0740740299224854e-01" nType="0">
          <Node pos="l" depth="2" NCoef="0" IVar="-1" Cut="0.0000000000000000e+00" cType="1" res="-7.3112390935420990e-02" rms="3.6148962378501892e-01" purity="3.2142856717109680e-01" nType="-99"/>
          <Node pos="r" depth="2" NCoef="0" IVar="-1" Cut="0.0000000000000000e+00" cType="1" res="-2.3659007623791695e-02" rms="4.1491571068763733e-01" purity="5.0000000000000000e-01" nType="-99"/>
        </Node>
      </Node>
    </BinaryTree>
    <BinaryTree type="DecisionTree" boostWeight="1.0000000000000000e+00" itree="52">
      <Node pos="s" depth="0" NCoef="0" IVar="13" Cut="9.2774548339843750e+02" cType="1" res="-4.0309946052730083e-03" rms="3.4725442528724670e-01" purity="4.7713717818260193e-01" nType="0">
        <Node pos="l" depth="1" NCoef="0" IVar="13" Cut="7.0448217773437500e+02" cType="1" res="-7.0177994668483734e-02" rms="2.5328946113586426e-01" purity="1.9021739065647125e-01" nType="0">
          <Node pos="l" depth="2" NCoef="0" IVar="-1" Cut="0.0000000000000000e+00" cType="1" res="-4.3527085334062576e-02" rms="2.2639621794223785e-01" purity="1.1805555224418640e-01" nType="-99"/>
          <Node pos="r" depth="2" NCoef="0" IVar="-1" Cut="0.0000000000000000e+00" cType="1" res="2.3370234295725822e-02" rms="2.9700359702110291e-01" purity="4.4999998807907104e-01" nType="-99"/>
        </Node>
        <Node pos="r" depth="1" NCoef="0" IVar="11" Cut="2.0981545448303223e+00" cType="1" res="1.0775633156299591e-02" rms="3.6334356665611267e-01" purity="5.4136252403259277e-01" nType="0">
          <Node pos="l" depth="2" NCoef="0" IVar="-1" Cut="0.0000000000000000e+00" cType="1" res="-3.0229547992348671e-02" rms="3.0762979388237000e-01" purity="1.8421052396297455e-01" nType="-99"/>
          <Node pos="r" depth="2" NCoef="0" IVar="-1" Cut="0.0000000000000000e+00" cType="1" res="6.6770706325769424e-03" rms="3.6695817112922668e-01" purity="5.7774800062179565e-01" nType="-99"/>
        </Node>
      </Node>
    </BinaryTree>
    <BinaryTree type="DecisionTree" boostWeight="1.0000000000000000e+00" itree="53">
      <Node pos="s" depth="0" NCoef="0" IVar="13" Cut="1.4317110595703125e+03" cType="1" res="-6.9678733125329018e-03" rms="3.4440314769744873e-01" purity="4.9083504080772400e-01" nType="0">
        <Node pos="l" depth="1" NCoef="0" IVar="9" Cut="5.2104241943359375e+02" cType="1" res="-8.5167326033115387e-02" rms="3.0057168006896973e-01" purity="2.2745098173618317e-01" nType="0">
          <Node pos="l" depth="2" NCoef="0" IVar="-1" Cut="0.0000000000000000e+00" cType="1" res="2.1017914637923241e-02" rms="2.6586556434631348e-01" purity="6.2000000476837158e-01" nType="-99"/>
          <Node pos="r" depth="2" NCoef="0" IVar="-1" Cut="0.0000000000000000e+00" cType="1" res="-4.5195233076810837e-02" rms="2.9731717705726624e-01" purity="1.3170731067657471e-01" nType="-99"/>
        </Node>
        <Node pos="r" depth="1" NCoef="0" IVar="10" Cut="-7.1166791915893555e+00" cType="1" res="2.0461097359657288e-02" rms="3.5444632172584534e-01" purity="5.8321869373321533e-01" nType="0">
          <Node pos="l" depth="2" NCoef="0" IVar="-1" Cut="0.0000000000000000e+00" cType="1" res="-1.1343511752784252e-02" rms="3.7803652882575989e-01" purity="3.5526314377784729e-01" nType="-99"/>
          <Node pos="r" depth="2" NCoef="0" IVar="-1" Cut="0.0000000000000000e+00" cType="1" res="2.2803222760558128e-02" rms="3.2977849245071411e-01" purity="7.4704492092132568e-01" nType="-99"/>
        </Node>
      </Node>
    </BinaryTree>
    <BinaryTree type="DecisionTree" boostWeight="1.0000000000000000e+00" itree="54">
      <Node pos="s" depth="0" NCoef="0" IVar="13" Cut="1.4528760986328125e+03" cType="1" res="-6.6857039928436279e-03" rms="3.4238266944885254e-01" purity="5.0000000000000000e-01" nType="0">
        <Node pos="l" depth="1" NCoef="0" IVar="9" Cut="5.1073748779296875e+02" cType="1" res="-6.0150794684886932e-02" rms="3.0414229631423950e-01" purity="2.5177305936813354e-01" nType="0">
          <Node pos="l" depth="2" NCoef="0" IVar="-1" Cut="0.0000000000000000e+00" cType="1" res="3.6238882690668106e-02" rms="2.8631800413131714e-01" purity="6.9047617912292480e-01" nType="-99"/>
          <Node pos="r" depth="2" NCoef="0" IVar="-1" Cut="0.0000000000000000e+00" cType="1" res="-3.3783461898565292e-02" rms="2.9696935415267944e-01" purity="1.7499999701976776e-01" nType="-99"/>
        </Node>
        <Node pos="r" depth="1" NCoef="0" IVar="2" Cut="1.0668237686157227e+01" cType="1" res="1.4670039527118206e-02" rms="3.5426455736160278e-01" purity="5.9915012121200562e-01" nType="0">
          <Node pos="l" depth="2" NCoef="0" IVar="-1" Cut="0.0000000000000000e+00" cType="1" res="1.0040440596640110e-02" rms="3.5822671651840210e-01" purity="6.4426231384277344e-01" nType="-99"/>
          <Node pos="r" depth="2" NCoef="0" IVar="-1" Cut="0.0000000000000000e+00" cType="1" res="-2.6384584605693817e-02" rms="3.1026446819305420e-01" purity="3.1250000000000000e-01" nType="-99"/>
        </Node>
      </Node>
    </BinaryTree>
    <BinaryTree type="DecisionTree" boostWeight="1.0000000000000000e+00" itree="55">
      <Node pos="s" depth="0" NCoef="0" IVar="3" Cut="3.4238408203125000e+03" cType="1" res="-1.1020510457456112e-02" rms="3.4091767668724060e-01" purity="4.9300000071525574e-01" nType="0">
        <Node pos="l" depth="1" NCoef="0" IVar="7" Cut="1.0526492187500000e+04" cType="1" res="-2.0247291773557663e-02" rms="3.3969348669052124e-01" purity="4.7599163651466370e-01" nType="0">
          <Node pos="l" depth="2" NCoef="0" IVar="-1" Cut="0.0000000000000000e+00" cType="1" res="-1.7564600333571434e-02" rms="3.2474765181541443e-01" purity="3.9568346738815308e-01" nType="-99"/>
          <Node pos="r" depth="2" NCoef="0" IVar="-1" Cut="0.0000000000000000e+00" cType="1" res="7.0202089846134186e-03" rms="3.5522502660751343e-01" purity="5.8706468343734741e-01" nType="-99"/>
        </Node>
        <Node pos="r" depth="1" NCoef="0" IVar="-1" Cut="0.0000000000000000e+00" cType="1" res="7.2323158383369446e-02" rms="2.9832017421722412e-01" purity="8.8095235824584961e-01" nType="-99"/>
      </Node>
    </BinaryTree>
    <BinaryTree type="DecisionTree" boostWeight="1.0000000000000000e+00" itree="56">
      <Node pos="s" depth="0" NCoef="0" IVar="9" Cut="9.3206817626953125e+02" cType="1" res="-4.7752349637448788e-03" rms="3.3615887165069580e-01" purity="4.8329854011535645e-01" nType="0">
        <Node pos="l" depth="1" NCoef="0" IVar="9" Cut="5.0169039916992188e+02" cType="1" res="-2.7023352682590485e-02" rms="3.3110550045967102e-01" purity="4.3219074606895447e-01" nType="0">
          <Node pos="l" depth="2" NCoef="0" IVar="-1" Cut="0.0000000000000000e+00" cType="1" res="6.5517373383045197e-02" rms="1.4315471053123474e-01" purity="9.7701150178909302e-01" nType="-99"/>
          <Node pos="r" depth="2" NCoef="0" IVar="-1" Cut="0.0000000000000000e+00" cType="1" res="-1.7805548384785652e-02" rms="3.4262105822563171e-01" purity="3.5102739930152893e-01" nType="-99"/>
        </Node>
        <Node pos="r" depth="1" NCoef="0" IVar="9" Cut="2.3752958984375000e+03" cType="1" res="4.7240398824214935e-02" rms="3.4208688139915466e-01" purity="6.0278743505477905e-01" nType="0">
          <Node pos="l" depth="2" NCoef="0" IVar="-1" Cut="0.0000000000000000e+00" cType="1" res="2.4155832827091217e-02" rms="3.2925626635551453e-01" purity="6.3498097658157349e-01" nType="-99"/>
          <Node pos="r" depth="2" NCoef="0" IVar="-1" Cut="0.0000000000000000e+00" cType="1" res="-6.7788809537887573e-02" rms="3.6358729004859924e-01" purity="2.5000000000000000e-01" nType="-99"/>
        </Node>
      </Node>
    </BinaryTree>
    <BinaryTree type="DecisionTree" boostWeight="1.0000000000000000e+00" itree="57">
      <Node pos="s" depth="0" NCoef="0" IVar="1" Cut="1.2034039497375488e+01" cType="1" res="-6.0867262072861195e-03" rms="3.3233821392059326e-01" purity="4.9816513061523438e-01" nType="0">
        <Node pos="l" depth="1" NCoef="0" IVar="8" Cut="4.2323833007812500e+03" cType="1" res="1.1626848019659519e-02" rms="3.3869692683219910e-01" purity="5.5953633785247803e-01" nType="0">
          <Node pos="l" depth="2" NCoef="0" IVar="-1" Cut="0.0000000000000000e+00" cType="1" res="8.1124696880578995e-03" rms="3.3609747886657715e-01" purity="5.7334828376770020e-01" nType="-99"/>
          <Node pos="r" depth="2" NCoef="0" IVar="-1" Cut="0.0000000000000000e+00" cType="1" res="-5.2403293550014496e-02" rms="3.2914471626281738e-01" purity="3.3928570151329041e-01" nType="-99"/>
        </Node>
        <Node pos="r" depth="1" NCoef="0" IVar="0" Cut="9.9997210502624512e-01" cType="1" res="-1.2530787289142609e-01" rms="2.5574359297752380e-01" purity="8.5106380283832550e-02" nType="0">
          <Node pos="l" depth="2" NCoef="0" IVar="-1" Cut="0.0000000000000000e+00" cType="1" res="-2.5455242022871971e-02" rms="2.3029230535030365e-01" purity="9.0909093618392944e-02" nType="-99"/>
          <Node pos="r" depth="2" NCoef="0" IVar="-1" Cut="0.0000000000000000e+00" cType="1" res="-6.1404168605804443e-02" rms="2.6186344027519226e-01" purity="7.8125000000000000e-02" nType="-99"/>
        </Node>
      </Node>
    </BinaryTree>
    <BinaryTree type="DecisionTree" boostWeight="1.0000000000000000e+00" itree="58">
      <Node pos="s" depth="0" NCoef="0" IVar="4" Cut="7.6340479850769043e+00" cType="1" res="1.1272856965661049e-02" rms="3.4059411287307739e-01" purity="5.1300001144409180e-01" nType="0">
        <Node pos="l" depth="1" NCoef="0" IVar="11" Cut="2.1008210182189941e+00" cType="1" res="1.6321018338203430e-02" rms="3.3722883462905884e-01" purity="5.0720167160034180e-01" nType="0">
          <Node pos="l" depth="2" NCoef="0" IVar="-1" Cut="0.0000000000000000e+00" cType="1" res="-2.9631668701767921e-02" rms="2.8099334239959717e-01" purity="1.3402061164379120e-01" nType="-99"/>
          <Node pos="r" depth="2" NCoef="0" IVar="-1" Cut="0.0000000000000000e+00" cType="1" res="8.9902654290199280e-03" rms="3.4150117635726929e-01" purity="5.4857140779495239e-01" nType="-99"/>
        </Node>
        <Node pos="r" depth="1" NCoef="0" IVar="-1" Cut="0.0000000000000000e+00" cType="1" res="-8.2889236509799957e-02" rms="4.0446907281875610e-01" purity="7.1428573131561279e-01" nType="-99"/>
      </Node>
    </BinaryTree>
    <BinaryTree type="DecisionTree" boostWeight="1.0000000000000000e+00" itree="59">
      <Node pos="s" depth="0" NCoef="0" IVar="2" Cut="1.4506327629089355e+01" cType="1" res="9.7749913111329079e-03" rms="3.4147295355796814e-01" purity="5.1217311620712280e-01" nType="0">
        <Node pos="l" depth="1" NCoef="0" IVar="2" Cut="9.6739072799682617e+00" cType="1" res="4.6803001314401627e-03" rms="3.4111076593399048e-01" purity="5.0880444049835205e-01" nType="0">
          <Node pos="l" depth="2" NCoef="0" IVar="-1" Cut="0.0000000000000000e+00" cType="1" res="7.6660499908030033e-03" rms="3.4421905875205994e-01" purity="5.5824178457260132e-01" nType="-99"/>
          <Node pos="r" depth="2" NCoef="0" IVar="-1" Cut="0.0000000000000000e+00" cType="1" res="-3.0775878578424454e-02" rms="3.0782502889633179e-01" purity="2.4260355532169342e-01" nType="-99"/>
        </Node>
        <Node pos="r" depth="1" NCoef="0" IVar="-1" Cut="0.0000000000000000e+00" cType="1" res="5.4672375321388245e-02" rms="3.0163869261741638e-01" purity="6.3333332538604736e-01" nType="-99"/>
      </Node>
    </BinaryTree>
    <BinaryTree type="DecisionTree" boostWeight="1.0000000000000000e+00" itree="60">
      <Node pos="s" depth="0" NCoef="0" IVar="11" Cut="3.1088132858276367e+00" cType="1" res="2.9146905988454819e-02" rms="3.2678350806236267e-01" purity="5.4426556825637817e-01" nType="0">
        <Node pos="l" depth="1" NCoef="0" IVar="6" Cut="1.3101016601562500e+04" cType="1" res="-5.5348882451653481e-03" rms="3.2184547185897827e-01" purity="3.7045454978942871e-01" nType="0">
          <Node pos="l" depth="2" NCoef="0" IVar="-1" Cut="0.0000000000000000e+00" cType="1" res="-3.9857573807239532e-02" rms="2.1753919124603271e-01" purity="1.2925170361995697e-01" nType="-99"/>
          <Node pos="r" depth="2" NCoef="0" IVar="-1" Cut="0.0000000000000000e+00" cType="1" res="1.2962747365236282e-02" rms="3.5461631417274475e-01" purity="4.9146756529808044e-01" nType="-99"/>
        </Node>
        <Node pos="r" depth="1" NCoef="0" IVar="8" Cut="1.2882854003906250e+03" cType="1" res="5.6692011654376984e-02" rms="3.2805070281028748e-01" purity="6.8231046199798584e-01" nType="0">
          <Node pos="l" depth="2" NCoef="0" IVar="-1" Cut="0.0000000000000000e+00" cType="1" res="5.2191697061061859e-02" rms="3.0496671795845032e-01" purity="7.4311923980712891e-01" nType="-99"/>
          <Node pos="r" depth="2" NCoef="0" IVar="-1" Cut="0.0000000000000000e+00" cType="1" res="-9.1927783796563745e-04" rms="3.2890486717224121e-01" purity="6.4285713434219360e-01" nType="-99"/>
        </Node>
      </Node>
    </BinaryTree>
    <BinaryTree type="DecisionTree" boostWeight="1.0000000000000000e+00" itree="61">
      <Node pos="s" depth="0" NCoef="0" IVar="11" Cut="3.1087028980255127e+00" cType="1" res="6.2520480714738369e-03" rms="3.4172746539115906e-01" purity="5.1706826686859131e-01" nType="0">
        <Node pos="l" depth="1" NCoef="0" IVar="4" Cut="4.3026380538940430e+00" cType="1" res="-3.1391698867082596e-02" rms="3.0923599004745483e-01" purity="3.3495146036148071e-01" nType="0">
          <Node pos="l" depth="2" NCoef="0" IVar="-1" Cut="0.0000000000000000e+00" cType="1" res="-2.1261246874928474e-02" rms="3.0063816905021667e-01" purity="2.1069182455539703e-01" nType="-99"/>
          <Node pos="r" depth="2" NCoef="0" IVar="-1" Cut="0.0000000000000000e+00" cType="1" res="2.1139062941074371e-02" rms="3.1857958436012268e-01" purity="7.5531917810440063e-01" nType="-99"/>
        </Node>
        <Node pos="r" depth="1" NCoef="0" IVar="2" Cut="1.3653908729553223e+01" cType="1" res="3.2808937132358551e-02" rms="3.6054697632789612e-01" purity="6.4554792642593384e-01" nType="0">
          <Node pos="l" depth="2" NCoef="0" IVar="-1" Cut="0.0000000000000000e+00" cType="1" res="8.0200480297207832e-03" rms="3.5787239670753479e-01" purity="6.3848918676376343e-01" nType="-99"/>
          <Node pos="r" depth="2" NCoef="0" IVar="-1" Cut="0.0000000000000000e+00" cType="1" res="6.1554435640573502e-02" rms="3.5320749878883362e-01" purity="7.8571426868438721e-01" nType="-99"/>
        </Node>
      </Node>
    </BinaryTree>
    <BinaryTree type="DecisionTree" boostWeight="1.0000000000000000e+00" itree="62">
      <Node pos="s" depth="0" NCoef="0" IVar="12" Cut="2.6316139698028564e+00" cType="1" res="3.2239619176834822e-03" rms="3.2560089230537415e-01" purity="5.1397204399108887e-01" nType="0">
        <Node pos="l" depth="1" NCoef="0" IVar="2" Cut="8.1052799224853516e+00" cType="1" res="-1.4563919603824615e-01" rms="1.8562172353267670e-01" purity="2.8985507786273956e-02" nType="0">
          <Node pos="l" depth="2" NCoef="0" IVar="-1" Cut="0.0000000000000000e+00" cType="1" res="-7.2056427597999573e-02" rms="1.6862897574901581e-01" purity="2.7027027681469917e-02" nType="-99"/>
          <Node pos="r" depth="2" NCoef="0" IVar="-1" Cut="0.0000000000000000e+00" cType="1" res="-3.8217231631278992e-02" rms="1.6469739377498627e-01" purity="3.1250000000000000e-02" nType="-99"/>
        </Node>
        <Node pos="r" depth="1" NCoef="0" IVar="2" Cut="5.7438750267028809e+00" cType="1" res="1.4233133755624294e-02" rms="3.3098056912422180e-01" purity="5.4983919858932495e-01" nType="0">
