<?xml version="1.0"?>
<MethodSetup Method="BDT::BDTG">
  <GeneralInfo>
    <Info name="TMVA Release" value="4.2.1 [262657]"/>
    <Info name="ROOT Release" value="6.06/02 [394754]"/>
    <Info name="Creator" value="atrisovi"/>
    <Info name="Date" value="Wed Apr 26 15:08:48 2017"/>
    <Info name="Host" value="Linux lcgapp-slc6-physical1.cern.ch 2.6.32-573.8.1.el6.x86_64 #1 SMP Wed Nov 11 15:27:45 CET 2015 x86_64 x86_64 x86_64 GNU/Linux"/>
    <Info name="Dir" value="/eos/lhcb/user/a/atrisovi/analysis-case-study/Step4_tmva"/>
    <Info name="Training events" value="2000"/>
    <Info name="TrainingTime" value="2.36533999e+00"/>
    <Info name="AnalysisType" value="Classification"/>
  </GeneralInfo>
  <Options>
    <Option name="V" modified="Yes">False</Option>
    <Option name="VerbosityLevel" modified="No">Default</Option>
    <Option name="VarTransform" modified="No">None</Option>
    <Option name="H" modified="Yes">False</Option>
    <Option name="CreateMVAPdfs" modified="No">False</Option>
    <Option name="IgnoreNegWeightsInTraining" modified="No">False</Option>
    <Option name="NTrees" modified="Yes">1000</Option>
    <Option name="MaxDepth" modified="Yes">2</Option>
    <Option name="MinNodeSize" modified="Yes">2.5%</Option>
    <Option name="nCuts" modified="Yes">20</Option>
    <Option name="BoostType" modified="Yes">Grad</Option>
    <Option name="AdaBoostR2Loss" modified="No">quadratic</Option>
    <Option name="UseBaggedBoost" modified="Yes">True</Option>
    <Option name="Shrinkage" modified="Yes">1.000000e-01</Option>
    <Option name="AdaBoostBeta" modified="No">5.000000e-01</Option>
    <Option name="UseRandomisedTrees" modified="No">False</Option>
    <Option name="UseNvars" modified="No">4</Option>
    <Option name="UsePoissonNvars" modified="No">True</Option>
    <Option name="BaggedSampleFraction" modified="Yes">5.000000e-01</Option>
    <Option name="UseYesNoLeaf" modified="No">True</Option>
    <Option name="NegWeightTreatment" modified="No">ignorenegweightsintraining</Option>
    <Option name="Css" modified="No">1.000000e+00</Option>
    <Option name="Cts_sb" modified="No">1.000000e+00</Option>
    <Option name="Ctb_ss" modified="No">1.000000e+00</Option>
    <Option name="Cbb" modified="No">1.000000e+00</Option>
    <Option name="NodePurityLimit" modified="No">5.000000e-01</Option>
    <Option name="SeparationType" modified="No">giniindex</Option>
    <Option name="DoBoostMonitor" modified="No">False</Option>
    <Option name="UseFisherCuts" modified="No">False</Option>
    <Option name="MinLinCorrForFisher" modified="No">8.000000e-01</Option>
    <Option name="UseExclusiveVars" modified="No">False</Option>
    <Option name="DoPreselection" modified="No">False</Option>
    <Option name="SigToBkgFraction" modified="No">1.000000e+00</Option>
    <Option name="PruneMethod" modified="No">nopruning</Option>
    <Option name="PruneStrength" modified="No">0.000000e+00</Option>
    <Option name="PruningValFraction" modified="No">5.000000e-01</Option>
    <Option name="nEventsMin" modified="No">0</Option>
    <Option name="UseBaggedGrad" modified="No">False</Option>
    <Option name="GradBaggingFraction" modified="No">5.000000e-01</Option>
    <Option name="UseNTrainEvents" modified="No">0</Option>
    <Option name="NNodesMax" modified="No">0</Option>
  </Options>
  <Variables NVar="16">
    <Variable VarIndex="0" Expression="D_DIRA_OWNPV" Label="D_dira" Title="D_dira" Unit="" Internal="D_dira" Type="F" Min="9.99900401e-01" Max="1.00000000e+00"/>
    <Variable VarIndex="1" Expression="D_IPCHI2_OWNPV" Label="D_ipchi" Title="D_ipchi" Unit="" Internal="D_ipchi" Type="F" Min="1.52361661e-03" Max="2.99032516e+01"/>
    <Variable VarIndex="2" Expression="D_ENDVERTEX_CHI2" Label="D_edchi" Title="D_edchi" Unit="" Internal="D_edchi" Type="F" Min="5.25892200e-03" Max="1.79652214e+01"/>
    <Variable VarIndex="3" Expression="piplus_PT" Label="pi_pt" Title="pi_pt" Unit="" Internal="pi_pt" Type="F" Min="3.00603302e+02" Max="1.26414570e+04"/>
    <Variable VarIndex="4" Expression="log(piplus_IPCHI2_OWNPV)" Label="pi_ipchi" Title="pi_ipchi" Unit="" Internal="pi_ipchi" Type="F" Min="1.79386055e+00" Max="9.54668617e+00"/>
    <Variable VarIndex="5" Expression="log(piplus_P)" Label="pi_p" Title="pi_p" Unit="" Internal="pi_p" Type="F" Min="7.61417961e+00" Max="1.25063572e+01"/>
    <Variable VarIndex="6" Expression="max(muminus_P,muplus_P)" Label="max_mu_p" Title="max_mu_p" Unit="" Internal="max_mu_p" Type="F" Min="3.72632617e+03" Max="3.20239062e+05"/>
    <Variable VarIndex="7" Expression="min(muminus_P,muplus_P)" Label="min_mu_p" Title="min_mu_p" Unit="" Internal="min_mu_p" Type="F" Min="3.03262329e+03" Max="1.88784844e+05"/>
    <Variable VarIndex="8" Expression="max(muminus_PT,muplus_PT)" Label="max_mu_pt" Title="max_mu_pt" Unit="" Internal="max_mu_pt" Type="F" Min="4.12208679e+02" Max="1.78173379e+04"/>
    <Variable VarIndex="9" Expression="min(muminus_PT,muplus_PT)" Label="min_mu_pt" Title="min_mu_pt" Unit="" Internal="min_mu_pt" Type="F" Min="4.02438873e+02" Max="6.25897852e+03"/>
    <Variable VarIndex="10" Expression="log(D_TAU)" Label="D_tau" Title="D_tau" Unit="" Internal="D_tau" Type="F" Min="-9.12446499e+00" Max="-2.72319579e+00"/>
    <Variable VarIndex="11" Expression="log(min(muminus_IPCHI2_OWNPV,muplus_IPCHI2_OWNPV))" Label="min_mu_ip" Title="min_mu_ip" Unit="" Internal="min_mu_ip" Type="F" Min="1.79289484e+00" Max="9.05229855e+00"/>
    <Variable VarIndex="12" Expression="log(max(muminus_IPCHI2_OWNPV,muplus_IPCHI2_OWNPV))" Label="max_mu_ip" Title="max_mu_ip" Unit="" Internal="max_mu_ip" Type="F" Min="1.85593212e+00" Max="1.07096033e+01"/>
    <Variable VarIndex="13" Expression="D_PT" Label="D_pt" Title="D_pt" Unit="" Internal="D_pt" Type="F" Min="1.61055031e+01" Max="2.31623047e+04"/>
    <Variable VarIndex="14" Expression="log(D_FDCHI2_OWNPV)" Label="D_fd" Title="D_fd" Unit="" Internal="D_fd" Type="F" Min="1.99363315e+00" Max="1.35393600e+01"/>
    <Variable VarIndex="15" Expression="D_P" Label="D_p" Title="D_p" Unit="" Internal="D_p" Type="F" Min="9.89337402e+03" Max="5.44629188e+05"/>
  </Variables>
  <Spectators NSpec="0"/>
  <Classes NClass="2">
    <Class Name="Signal" Index="0"/>
    <Class Name="Background" Index="1"/>
  </Classes>
  <Transformations NTransformations="0"/>
  <MVAPdfs/>
  <Weights NTrees="1000" AnalysisType="1">
    <BinaryTree type="DecisionTree" boostWeight="1.0000000000000000e+00" itree="0">
      <Node pos="s" depth="0" NCoef="0" IVar="0" Cut="9.9998575448989868e-01" cType="1" res="-1.1673151515424252e-02" rms="4.9986371397972107e-01" purity="4.8832684755325317e-01" nType="0">
        <Node pos="l" depth="1" NCoef="0" IVar="2" Cut="4.7373266220092773e+00" cType="1" res="-2.8017240762710571e-01" rms="4.1412970423698425e-01" purity="2.1982759237289429e-01" nType="0">
          <Node pos="l" depth="2" NCoef="0" IVar="-1" Cut="0.0000000000000000e+00" cType="1" res="-3.1958762556314468e-02" rms="4.7377836704254150e-01" purity="3.4020617604255676e-01" nType="-99"/>
          <Node pos="r" depth="2" NCoef="0" IVar="-1" Cut="0.0000000000000000e+00" cType="1" res="-7.3333330452442169e-02" rms="3.3993464708328247e-01" purity="1.3333334028720856e-01" nType="-99"/>
        </Node>
        <Node pos="r" depth="1" NCoef="0" IVar="4" Cut="2.8760786056518555e+00" cType="1" res="2.0921985805034637e-01" rms="4.5412227511405945e-01" purity="7.0921987295150757e-01" nType="0">
          <Node pos="l" depth="2" NCoef="0" IVar="-1" Cut="0.0000000000000000e+00" cType="1" res="-3.8888890296220779e-02" rms="4.6064233779907227e-01" purity="3.0555555224418640e-01" nType="-99"/>
          <Node pos="r" depth="2" NCoef="0" IVar="-1" Cut="0.0000000000000000e+00" cType="1" res="6.0964912176132202e-02" rms="3.9633569121360779e-01" purity="8.0482459068298340e-01" nType="-99"/>
        </Node>
      </Node>
    </BinaryTree>
    <BinaryTree type="DecisionTree" boostWeight="1.0000000000000000e+00" itree="1">
      <Node pos="s" depth="0" NCoef="0" IVar="0" Cut="9.9999052286148071e-01" cType="1" res="-1.2872461229562759e-02" rms="4.8327973484992981e-01" purity="4.8571428656578064e-01" nType="0">
        <Node pos="l" depth="1" NCoef="0" IVar="9" Cut="5.1908453369140625e+02" cType="1" res="-2.3746755719184875e-01" rms="4.2122915387153625e-01" purity="2.3952095210552216e-01" nType="0">
          <Node pos="l" depth="2" NCoef="0" IVar="-1" Cut="0.0000000000000000e+00" cType="1" res="3.6867946386337280e-02" rms="4.6562704443931580e-01" purity="6.6666668653488159e-01" nType="-99"/>
          <Node pos="r" depth="2" NCoef="0" IVar="-1" Cut="0.0000000000000000e+00" cType="1" res="-5.8511927723884583e-02" rms="3.8297939300537109e-01" purity="1.8468467891216278e-01" nType="-99"/>
        </Node>
        <Node pos="r" depth="1" NCoef="0" IVar="4" Cut="3.2824401855468750e+00" cType="1" res="2.2203807532787323e-01" rms="4.2932465672492981e-01" purity="7.4321502447128296e-01" nType="0">
          <Node pos="l" depth="2" NCoef="0" IVar="-1" Cut="0.0000000000000000e+00" cType="1" res="-1.4676265418529510e-02" rms="4.9096718430519104e-01" purity="4.2307692766189575e-01" nType="-99"/>
          <Node pos="r" depth="2" NCoef="0" IVar="-1" Cut="0.0000000000000000e+00" cType="1" res="6.6651001572608948e-02" rms="3.4441211819648743e-01" purity="8.6246418952941895e-01" nType="-99"/>
        </Node>
      </Node>
    </BinaryTree>
    <BinaryTree type="DecisionTree" boostWeight="1.0000000000000000e+00" itree="2">
      <Node pos="s" depth="0" NCoef="0" IVar="0" Cut="9.9997156858444214e-01" cType="1" res="1.5839369967579842e-02" rms="4.6993246674537659e-01" purity="5.1581025123596191e-01" nType="0">
        <Node pos="l" depth="1" NCoef="0" IVar="9" Cut="5.3689788818359375e+02" cType="1" res="-2.7324146032333374e-01" rms="3.7128132581710815e-01" purity="1.7320261895656586e-01" nType="0">
          <Node pos="l" depth="2" NCoef="0" IVar="-1" Cut="0.0000000000000000e+00" cType="1" res="-1.1239714920520782e-02" rms="4.7949999570846558e-01" purity="4.1666665673255920e-01" nType="-99"/>
          <Node pos="r" depth="2" NCoef="0" IVar="-1" Cut="0.0000000000000000e+00" cType="1" res="-6.3628003001213074e-02" rms="3.3211022615432739e-01" purity="1.2790697813034058e-01" nType="-99"/>
        </Node>
        <Node pos="r" depth="1" NCoef="0" IVar="1" Cut="6.9913372993469238e+00" cType="1" res="1.4113503694534302e-01" rms="4.5264297723770142e-01" purity="6.6430592536926270e-01" nType="0">
          <Node pos="l" depth="2" NCoef="0" IVar="-1" Cut="0.0000000000000000e+00" cType="1" res="4.4174503535032272e-02" rms="4.1620260477066040e-01" purity="7.4434781074523926e-01" nType="-99"/>
          <Node pos="r" depth="2" NCoef="0" IVar="-1" Cut="0.0000000000000000e+00" cType="1" res="-3.9919663220643997e-02" rms="4.5075020194053650e-01" purity="3.1297710537910461e-01" nType="-99"/>
        </Node>
      </Node>
    </BinaryTree>
    <BinaryTree type="DecisionTree" boostWeight="1.0000000000000000e+00" itree="3">
      <Node pos="s" depth="0" NCoef="0" IVar="4" Cut="2.8741240501403809e+00" cType="1" res="5.1510152406990528e-03" rms="4.6141824126243591e-01" purity="5.0306123495101929e-01" nType="0">
        <Node pos="l" depth="1" NCoef="0" IVar="0" Cut="9.9999517202377319e-01" cType="1" res="-2.9478147625923157e-01" rms="3.4289485216140747e-01" purity="1.4765100181102753e-01" nType="0">
          <Node pos="l" depth="2" NCoef="0" IVar="-1" Cut="0.0000000000000000e+00" cType="1" res="-6.9334745407104492e-02" rms="2.8441351652145386e-01" purity="9.3495935201644897e-02" nType="-99"/>
          <Node pos="r" depth="2" NCoef="0" IVar="-1" Cut="0.0000000000000000e+00" cType="1" res="-1.7343284562230110e-02" rms="4.8850768804550171e-01" purity="4.0384614467620850e-01" nType="-99"/>
        </Node>
        <Node pos="r" depth="1" NCoef="0" IVar="1" Cut="7.1225175857543945e+00" cType="1" res="1.3620656728744507e-01" rms="4.4505935907363892e-01" purity="6.5835779905319214e-01" nType="0">
          <Node pos="l" depth="2" NCoef="0" IVar="-1" Cut="0.0000000000000000e+00" cType="1" res="4.5246172696352005e-02" rms="4.0376591682434082e-01" purity="7.6152306795120239e-01" nType="-99"/>
          <Node pos="r" depth="2" NCoef="0" IVar="-1" Cut="0.0000000000000000e+00" cType="1" res="-1.9432384520769119e-02" rms="4.6935397386550903e-01" purity="3.7704917788505554e-01" nType="-99"/>
        </Node>
      </Node>
    </BinaryTree>
    <BinaryTree type="DecisionTree" boostWeight="1.0000000000000000e+00" itree="4">
      <Node pos="s" depth="0" NCoef="0" IVar="0" Cut="9.9999523162841797e-01" cType="1" res="4.2649074457585812e-03" rms="4.4670438766479492e-01" purity="5.0415802001953125e-01" nType="0">
        <Node pos="l" depth="1" NCoef="0" IVar="4" Cut="3.6479284763336182e+00" cType="1" res="-1.4554584026336670e-01" rms="4.2730805277824402e-01" purity="3.0485761165618896e-01" nType="0">
          <Node pos="l" depth="2" NCoef="0" IVar="-1" Cut="0.0000000000000000e+00" cType="1" res="-5.3181827068328857e-02" rms="3.5597696900367737e-01" purity="1.6713091731071472e-01" nType="-99"/>
          <Node pos="r" depth="2" NCoef="0" IVar="-1" Cut="0.0000000000000000e+00" cType="1" res="4.6658245846629143e-03" rms="4.6875220537185669e-01" purity="5.1260507106781006e-01" nType="-99"/>
        </Node>
        <Node pos="r" depth="1" NCoef="0" IVar="12" Cut="3.6378264427185059e+00" cType="1" res="2.4929782748222351e-01" rms="3.6127978563308716e-01" purity="8.3013701438903809e-01" nType="0">
          <Node pos="l" depth="2" NCoef="0" IVar="-1" Cut="0.0000000000000000e+00" cType="1" res="-5.2580565214157104e-02" rms="4.2903226613998413e-01" purity="2.8125000000000000e-01" nType="-99"/>
          <Node pos="r" depth="2" NCoef="0" IVar="-1" Cut="0.0000000000000000e+00" cType="1" res="6.1789017170667648e-02" rms="3.1342113018035889e-01" purity="8.8288289308547974e-01" nType="-99"/>
        </Node>
      </Node>
    </BinaryTree>
    <BinaryTree type="DecisionTree" boostWeight="1.0000000000000000e+00" itree="5">
      <Node pos="s" depth="0" NCoef="0" IVar="0" Cut="9.9998575448989868e-01" cType="1" res="2.1023115143179893e-02" rms="4.3686702847480774e-01" purity="5.2143567800521851e-01" nType="0">
        <Node pos="l" depth="1" NCoef="0" IVar="2" Cut="3.9680836200714111e+00" cType="1" res="-1.8277660012245178e-01" rms="3.9823311567306519e-01" purity="2.2371365129947662e-01" nType="0">
          <Node pos="l" depth="2" NCoef="0" IVar="-1" Cut="0.0000000000000000e+00" cType="1" res="-1.1910188943147659e-02" rms="4.6569117903709412e-01" purity="3.7349396944046021e-01" nType="-99"/>
          <Node pos="r" depth="2" NCoef="0" IVar="-1" Cut="0.0000000000000000e+00" cType="1" res="-5.4246604442596436e-02" rms="3.3088165521621704e-01" purity="1.3523131608963013e-01" nType="-99"/>
        </Node>
        <Node pos="r" depth="1" NCoef="0" IVar="13" Cut="1.1398571777343750e+03" cType="1" res="1.8486928939819336e-01" rms="3.9566862583160400e-01" purity="7.6079136133193970e-01" nType="0">
          <Node pos="l" depth="2" NCoef="0" IVar="-1" Cut="0.0000000000000000e+00" cType="1" res="-2.6535555720329285e-02" rms="4.4330310821533203e-01" purity="3.9705881476402283e-01" nType="-99"/>
          <Node pos="r" depth="2" NCoef="0" IVar="-1" Cut="0.0000000000000000e+00" cType="1" res="4.7852385789155960e-02" rms="3.6787799000740051e-01" purity="8.1147539615631104e-01" nType="-99"/>
        </Node>
      </Node>
    </BinaryTree>
    <BinaryTree type="DecisionTree" boostWeight="1.0000000000000000e+00" itree="6">
      <Node pos="s" depth="0" NCoef="0" IVar="0" Cut="9.9998116493225098e-01" cType="1" res="-2.8479022905230522e-02" rms="4.2787256836891174e-01" purity="4.6403241157531738e-01" nType="0">
        <Node pos="l" depth="1" NCoef="0" IVar="9" Cut="5.2706213378906250e+02" cType="1" res="-2.0280359685420990e-01" rms="3.6020123958587646e-01" purity="1.7840375006198883e-01" nType="0">
          <Node pos="l" depth="2" NCoef="0" IVar="-1" Cut="0.0000000000000000e+00" cType="1" res="1.0426997207105160e-02" rms="4.6204829216003418e-01" purity="5.1020407676696777e-01" nType="-99"/>
          <Node pos="r" depth="2" NCoef="0" IVar="-1" Cut="0.0000000000000000e+00" cType="1" res="-5.0901737064123154e-02" rms="3.3073291182518005e-01" purity="1.3527850806713104e-01" nType="-99"/>
        </Node>
        <Node pos="r" depth="1" NCoef="0" IVar="4" Cut="3.8954510688781738e+00" cType="1" res="1.0389578342437744e-01" rms="4.2775255441665649e-01" purity="6.8092691898345947e-01" nType="0">
          <Node pos="l" depth="2" NCoef="0" IVar="-1" Cut="0.0000000000000000e+00" cType="1" res="-1.1443157680332661e-02" rms="4.6341431140899658e-01" purity="4.4444444775581360e-01" nType="-99"/>
          <Node pos="r" depth="2" NCoef="0" IVar="-1" Cut="0.0000000000000000e+00" cType="1" res="4.2435914278030396e-02" rms="3.7536987662315369e-01" purity="8.1920903921127319e-01" nType="-99"/>
        </Node>
      </Node>
    </BinaryTree>
    <BinaryTree type="DecisionTree" boostWeight="1.0000000000000000e+00" itree="7">
      <Node pos="s" depth="0" NCoef="0" IVar="0" Cut="9.9999523162841797e-01" cType="1" res="4.0849889628589153e-03" rms="4.2055565118789673e-01" purity="5.0051814317703247e-01" nType="0">
        <Node pos="l" depth="1" NCoef="0" IVar="1" Cut="5.6558780670166016e+00" cType="1" res="-1.0365649312734604e-01" rms="4.1870909929275513e-01" purity="3.1300160288810730e-01" nType="0">
          <Node pos="l" depth="2" NCoef="0" IVar="-1" Cut="0.0000000000000000e+00" cType="1" res="-1.2208317639306188e-03" rms="4.4067078828811646e-01" purity="4.3313953280448914e-01" nType="-99"/>
          <Node pos="r" depth="2" NCoef="0" IVar="-1" Cut="0.0000000000000000e+00" cType="1" res="-4.8507586121559143e-02" rms="3.5447075963020325e-01" purity="1.6487455368041992e-01" nType="-99"/>
        </Node>
        <Node pos="r" depth="1" NCoef="0" IVar="12" Cut="3.7071204185485840e+00" cType="1" res="2.0035089552402496e-01" rms="3.4644451737403870e-01" purity="8.4210526943206787e-01" nType="0">
          <Node pos="l" depth="2" NCoef="0" IVar="-1" Cut="0.0000000000000000e+00" cType="1" res="-3.6212772130966187e-02" rms="4.3611547350883484e-01" purity="3.5714286565780640e-01" nType="-99"/>
          <Node pos="r" depth="2" NCoef="0" IVar="-1" Cut="0.0000000000000000e+00" cType="1" res="5.1991537213325500e-02" rms="3.1612089276313782e-01" purity="8.8535034656524658e-01" nType="-99"/>
        </Node>
      </Node>
    </BinaryTree>
    <BinaryTree type="DecisionTree" boostWeight="1.0000000000000000e+00" itree="8">
      <Node pos="s" depth="0" NCoef="0" IVar="4" Cut="2.9048104286193848e+00" cType="1" res="-1.5360748395323753e-02" rms="4.2409867048263550e-01" purity="4.9067714810371399e-01" nType="0">
        <Node pos="l" depth="1" NCoef="0" IVar="3" Cut="1.1786494140625000e+03" cType="1" res="-1.9843980669975281e-01" rms="3.5111063718795776e-01" purity="1.6831682622432709e-01" nType="0">
          <Node pos="l" depth="2" NCoef="0" IVar="-1" Cut="0.0000000000000000e+00" cType="1" res="-5.8012992143630981e-02" rms="2.8687739372253418e-01" purity="1.0040161013603210e-01" nType="-99"/>
          <Node pos="r" depth="2" NCoef="0" IVar="-1" Cut="0.0000000000000000e+00" cType="1" res="2.0523788407444954e-02" rms="4.5626458525657654e-01" purity="4.8148149251937866e-01" nType="-99"/>
        </Node>
        <Node pos="r" depth="1" NCoef="0" IVar="1" Cut="5.7031435966491699e+00" cType="1" res="6.2115442007780075e-02" rms="4.2850559949874878e-01" purity="6.2709498405456543e-01" nType="0">
          <Node pos="l" depth="2" NCoef="0" IVar="-1" Cut="0.0000000000000000e+00" cType="1" res="3.5823360085487366e-02" rms="3.7763103842735291e-01" purity="7.7642273902893066e-01" nType="-99"/>
          <Node pos="r" depth="2" NCoef="0" IVar="-1" Cut="0.0000000000000000e+00" cType="1" res="-3.3566948026418686e-02" rms="4.5237830281257629e-01" purity="2.9910713434219360e-01" nType="-99"/>
        </Node>
      </Node>
    </BinaryTree>
    <BinaryTree type="DecisionTree" boostWeight="1.0000000000000000e+00" itree="9">
      <Node pos="s" depth="0" NCoef="0" IVar="4" Cut="4.5607724189758301e+00" cType="1" res="-1.0415358701720834e-03" rms="4.0692216157913208e-01" purity="4.9688148498535156e-01" nType="0">
        <Node pos="l" depth="1" NCoef="0" IVar="2" Cut="3.4108743667602539e+00" cType="1" res="-1.0499817132949829e-01" rms="3.9841249585151672e-01" purity="3.1856900453567505e-01" nType="0">
          <Node pos="l" depth="2" NCoef="0" IVar="-1" Cut="0.0000000000000000e+00" cType="1" res="1.2188728898763657e-02" rms="4.4142401218414307e-01" purity="5.3299492597579956e-01" nType="-99"/>
          <Node pos="r" depth="2" NCoef="0" IVar="-1" Cut="0.0000000000000000e+00" cType="1" res="-4.2056240141391754e-02" rms="3.4727302193641663e-01" purity="2.1025641262531281e-01" nType="-99"/>
        </Node>
        <Node pos="r" depth="1" NCoef="0" IVar="1" Cut="5.6970906257629395e+00" cType="1" res="1.6168524324893951e-01" rms="3.6457717418670654e-01" purity="7.7600002288818359e-01" nType="0">
          <Node pos="l" depth="2" NCoef="0" IVar="-1" Cut="0.0000000000000000e+00" cType="1" res="5.6009091436862946e-02" rms="2.6727157831192017e-01" purity="9.1320753097534180e-01" nType="-99"/>
          <Node pos="r" depth="2" NCoef="0" IVar="-1" Cut="0.0000000000000000e+00" cType="1" res="-5.9760091826319695e-03" rms="4.7969329357147217e-01" purity="4.4545453786849976e-01" nType="-99"/>
        </Node>
      </Node>
    </BinaryTree>
    <BinaryTree type="DecisionTree" boostWeight="1.0000000000000000e+00" itree="10">
      <Node pos="s" depth="0" NCoef="0" IVar="0" Cut="9.9997156858444214e-01" cType="1" res="6.6932733170688152e-03" rms="4.0849950909614563e-01" purity="4.9703556299209595e-01" nType="0">
        <Node pos="l" depth="1" NCoef="0" IVar="9" Cut="5.3044714355468750e+02" cType="1" res="-1.5830968320369720e-01" rms="3.4352231025695801e-01" purity="1.5915915369987488e-01" nType="0">
          <Node pos="l" depth="2" NCoef="0" IVar="-1" Cut="0.0000000000000000e+00" cType="1" res="1.9972935318946838e-02" rms="4.6714517474174500e-01" purity="5.1612901687622070e-01" nType="-99"/>
          <Node pos="r" depth="2" NCoef="0" IVar="-1" Cut="0.0000000000000000e+00" cType="1" res="-4.3852206319570541e-02" rms="3.1701174378395081e-01" purity="1.2251655757427216e-01" nType="-99"/>
        </Node>
        <Node pos="r" depth="1" NCoef="0" IVar="2" Cut="8.5618324279785156e+00" cType="1" res="8.7615199387073517e-02" rms="4.1344347596168518e-01" purity="6.6273933649063110e-01" nType="0">
          <Node pos="l" depth="2" NCoef="0" IVar="-1" Cut="0.0000000000000000e+00" cType="1" res="3.3326383680105209e-02" rms="3.9070284366607666e-01" purity="7.4354243278503418e-01" nType="-99"/>
          <Node pos="r" depth="2" NCoef="0" IVar="-1" Cut="0.0000000000000000e+00" cType="1" res="-3.3937852829694748e-02" rms="4.1407850384712219e-01" purity="3.4306567907333374e-01" nType="-99"/>
        </Node>
      </Node>
    </BinaryTree>
    <BinaryTree type="DecisionTree" boostWeight="1.0000000000000000e+00" itree="11">
      <Node pos="s" depth="0" NCoef="0" IVar="0" Cut="9.9998104572296143e-01" cType="1" res="-2.1686463151127100e-03" rms="4.0344616770744324e-01" purity="5.0525212287902832e-01" nType="0">
        <Node pos="l" depth="1" NCoef="0" IVar="7" Cut="5.2827446289062500e+03" cType="1" res="-1.2652242183685303e-01" rms="3.7059620022773743e-01" purity="2.0652173459529877e-01" nType="0">
          <Node pos="l" depth="2" NCoef="0" IVar="-1" Cut="0.0000000000000000e+00" cType="1" res="1.6497280448675156e-02" rms="4.5517748594284058e-01" purity="4.4444444775581360e-01" nType="-99"/>
          <Node pos="r" depth="2" NCoef="0" IVar="-1" Cut="0.0000000000000000e+00" cType="1" res="-4.3193899095058441e-02" rms="3.2117527723312378e-01" purity="1.3937282562255859e-01" nType="-99"/>
        </Node>
        <Node pos="r" depth="1" NCoef="0" IVar="5" Cut="8.3044166564941406e+00" cType="1" res="7.6191268861293793e-02" rms="4.0361717343330383e-01" purity="6.9349312782287598e-01" nType="0">
          <Node pos="l" depth="2" NCoef="0" IVar="-1" Cut="0.0000000000000000e+00" cType="1" res="-8.4490478038787842e-02" rms="3.9639708399772644e-01" purity="2.5000000000000000e-01" nType="-99"/>
          <Node pos="r" depth="2" NCoef="0" IVar="-1" Cut="0.0000000000000000e+00" cType="1" res="2.2700797766447067e-02" rms="3.9041250944137573e-01" purity="7.1582734584808350e-01" nType="-99"/>
        </Node>
      </Node>
    </BinaryTree>
    <BinaryTree type="DecisionTree" boostWeight="1.0000000000000000e+00" itree="12">
      <Node pos="s" depth="0" NCoef="0" IVar="4" Cut="3.2705893516540527e+00" cType="1" res="1.4455312630161643e-03" rms="4.0005016326904297e-01" purity="5.0000000000000000e-01" nType="0">
        <Node pos="l" depth="1" NCoef="0" IVar="5" Cut="1.0502017021179199e+01" cType="1" res="-1.3471369445323944e-01" rms="3.6816957592964172e-01" purity="2.2541967034339905e-01" nType="0">
          <Node pos="l" depth="2" NCoef="0" IVar="-1" Cut="0.0000000000000000e+00" cType="1" res="-4.3840192258358002e-02" rms="3.2902660965919495e-01" purity="1.5745855867862701e-01" nType="-99"/>
          <Node pos="r" depth="2" NCoef="0" IVar="-1" Cut="0.0000000000000000e+00" cType="1" res="4.3436631560325623e-02" rms="4.2967355251312256e-01" purity="6.7272728681564331e-01" nType="-99"/>
        </Node>
        <Node pos="r" depth="1" NCoef="0" IVar="1" Cut="1.4241497039794922e+01" cType="1" res="9.4069346785545349e-02" rms="3.9434736967086792e-01" purity="6.8678629398345947e-01" nType="0">
          <Node pos="l" depth="2" NCoef="0" IVar="-1" Cut="0.0000000000000000e+00" cType="1" res="3.0264129862189293e-02" rms="3.7929177284240723e-01" purity="7.4491679668426514e-01" nType="-99"/>
          <Node pos="r" depth="2" NCoef="0" IVar="-1" Cut="0.0000000000000000e+00" cType="1" res="-3.7601538002490997e-02" rms="4.0564501285552979e-01" purity="2.5000000000000000e-01" nType="-99"/>
        </Node>
      </Node>
    </BinaryTree>
    <BinaryTree type="DecisionTree" boostWeight="1.0000000000000000e+00" itree="13">
      <Node pos="s" depth="0" NCoef="0" IVar="0" Cut="9.9998104572296143e-01" cType="1" res="1.8645014613866806e-02" rms="3.8612082600593567e-01" purity="5.1092118024826050e-01" nType="0">
        <Node pos="l" depth="1" NCoef="0" IVar="3" Cut="9.5643121337890625e+02" cType="1" res="-1.0661312937736511e-01" rms="3.6287051439285278e-01" purity="2.0089285075664520e-01" nType="0">
          <Node pos="l" depth="2" NCoef="0" IVar="-1" Cut="0.0000000000000000e+00" cType="1" res="-3.8263283669948578e-02" rms="3.1815719604492188e-01" purity="1.4603175222873688e-01" nType="-99"/>
          <Node pos="r" depth="2" NCoef="0" IVar="-1" Cut="0.0000000000000000e+00" cType="1" res="1.2912878300994635e-03" rms="4.3120703101158142e-01" purity="3.3082705736160278e-01" nType="-99"/>
        </Node>
        <Node pos="r" depth="1" NCoef="0" IVar="4" Cut="3.2065405845642090e+00" cType="1" res="1.1139815300703049e-01" rms="3.7651461362838745e-01" purity="7.4049586057662964e-01" nType="0">
          <Node pos="l" depth="2" NCoef="0" IVar="-1" Cut="0.0000000000000000e+00" cType="1" res="-9.3837771564722061e-03" rms="4.4647386670112610e-01" purity="3.9869281649589539e-01" nType="-99"/>
          <Node pos="r" depth="2" NCoef="0" IVar="-1" Cut="0.0000000000000000e+00" cType="1" res="4.0143620222806931e-02" rms="3.3352932333946228e-01" purity="8.5619467496871948e-01" nType="-99"/>
        </Node>
      </Node>
    </BinaryTree>
    <BinaryTree type="DecisionTree" boostWeight="1.0000000000000000e+00" itree="14">
      <Node pos="s" depth="0" NCoef="0" IVar="2" Cut="5.1113834381103516e+00" cType="1" res="-1.5656616538763046e-02" rms="3.8962158560752869e-01" purity="4.7599592804908752e-01" nType="0">
        <Node pos="l" depth="1" NCoef="0" IVar="1" Cut="1.3731577873229980e+01" cType="1" res="6.7676015198230743e-02" rms="3.9065158367156982e-01" purity="6.1887478828430176e-01" nType="0">
          <Node pos="l" depth="2" NCoef="0" IVar="-1" Cut="0.0000000000000000e+00" cType="1" res="2.5793150067329407e-02" rms="3.8738176226615906e-01" purity="6.8559837341308594e-01" nType="-99"/>
          <Node pos="r" depth="2" NCoef="0" IVar="-1" Cut="0.0000000000000000e+00" cType="1" res="-6.6429518163204193e-02" rms="2.0450563728809357e-01" purity="5.1724139600992203e-02" nType="-99"/>
        </Node>
        <Node pos="r" depth="1" NCoef="0" IVar="0" Cut="9.9999523162841797e-01" cType="1" res="-1.2293764948844910e-01" rms="3.6100015044212341e-01" purity="2.9205608367919922e-01" nType="0">
          <Node pos="l" depth="2" NCoef="0" IVar="-1" Cut="0.0000000000000000e+00" cType="1" res="-4.3547041714191437e-02" rms="3.3065918087959290e-01" purity="1.5094339847564697e-01" nType="-99"/>
          <Node pos="r" depth="2" NCoef="0" IVar="-1" Cut="0.0000000000000000e+00" cType="1" res="7.2408444248139858e-03" rms="3.9952579140663147e-01" purity="6.9999998807907104e-01" nType="-99"/>
        </Node>
      </Node>
    </BinaryTree>
    <BinaryTree type="DecisionTree" boostWeight="1.0000000000000000e+00" itree="15">
      <Node pos="s" depth="0" NCoef="0" IVar="4" Cut="2.8770799636840820e+00" cType="1" res="-1.5920605510473251e-02" rms="3.8036957383155823e-01" purity="4.8780488967895508e-01" nType="0">
        <Node pos="l" depth="1" NCoef="0" IVar="12" Cut="4.8071184158325195e+00" cType="1" res="-1.4263968169689178e-01" rms="3.0973127484321594e-01" purity="1.7049179971218109e-01" nType="0">
          <Node pos="l" depth="2" NCoef="0" IVar="-1" Cut="0.0000000000000000e+00" cType="1" res="-5.2259199321269989e-02" rms="2.5034159421920776e-01" purity="8.8495574891567230e-02" nType="-99"/>
          <Node pos="r" depth="2" NCoef="0" IVar="-1" Cut="0.0000000000000000e+00" cType="1" res="9.4065954908728600e-03" rms="3.8260820508003235e-01" purity="4.0506330132484436e-01" nType="-99"/>
        </Node>
        <Node pos="r" depth="1" NCoef="0" IVar="1" Cut="8.0505628585815430e+00" cType="1" res="4.1000332683324814e-02" rms="3.9512649178504944e-01" purity="6.3033872842788696e-01" nType="0">
          <Node pos="l" depth="2" NCoef="0" IVar="-1" Cut="0.0000000000000000e+00" cType="1" res="2.3135891184210777e-02" rms="3.8355466723442078e-01" purity="7.3921203613281250e-01" nType="-99"/>
          <Node pos="r" depth="2" NCoef="0" IVar="-1" Cut="0.0000000000000000e+00" cType="1" res="-3.6018598824739456e-02" rms="3.7675461173057556e-01" purity="2.3287671804428101e-01" nType="-99"/>
        </Node>
      </Node>
    </BinaryTree>
    <BinaryTree type="DecisionTree" boostWeight="1.0000000000000000e+00" itree="16">
      <Node pos="s" depth="0" NCoef="0" IVar="4" Cut="4.0120668411254883e+00" cType="1" res="-7.0329299196600914e-03" rms="3.7664279341697693e-01" purity="4.8989897966384888e-01" nType="0">
        <Node pos="l" depth="1" NCoef="0" IVar="11" Cut="4.1781854629516602e+00" cType="1" res="-8.8499963283538818e-02" rms="3.6890187859535217e-01" purity="2.8089886903762817e-01" nType="0">
          <Node pos="l" depth="2" NCoef="0" IVar="-1" Cut="0.0000000000000000e+00" cType="1" res="-3.3297576010227203e-02" rms="3.4847709536552429e-01" purity="2.1412301063537598e-01" nType="-99"/>
          <Node pos="r" depth="2" NCoef="0" IVar="-1" Cut="0.0000000000000000e+00" cType="1" res="2.6163699105381966e-02" rms="3.9284798502922058e-01" purity="5.8947366476058960e-01" nType="-99"/>
        </Node>
        <Node pos="r" depth="1" NCoef="0" IVar="1" Cut="5.0862984657287598e+00" cType="1" res="8.8369257748126984e-02" rms="3.6296620965003967e-01" purity="7.3464912176132202e-01" nType="0">
          <Node pos="l" depth="2" NCoef="0" IVar="-1" Cut="0.0000000000000000e+00" cType="1" res="4.6452783048152924e-02" rms="2.7557438611984253e-01" purity="9.0102386474609375e-01" nType="-99"/>
          <Node pos="r" depth="2" NCoef="0" IVar="-1" Cut="0.0000000000000000e+00" cType="1" res="-1.4043010771274567e-02" rms="4.4396352767944336e-01" purity="4.3558281660079956e-01" nType="-99"/>
        </Node>
      </Node>
    </BinaryTree>
    <BinaryTree type="DecisionTree" boostWeight="1.0000000000000000e+00" itree="17">
      <Node pos="s" depth="0" NCoef="0" IVar="2" Cut="7.7023859024047852e+00" cType="1" res="4.2882417328655720e-03" rms="3.8585570454597473e-01" purity="4.8806113004684448e-01" nType="0">
        <Node pos="l" depth="1" NCoef="0" IVar="1" Cut="1.2817701339721680e+01" cType="1" res="6.0740541666746140e-02" rms="3.9106056094169617e-01" purity="5.8356165885925293e-01" nType="0">
          <Node pos="l" depth="2" NCoef="0" IVar="-1" Cut="0.0000000000000000e+00" cType="1" res="2.3084197193384171e-02" rms="3.8219860196113586e-01" purity="6.5008026361465454e-01" nType="-99"/>
          <Node pos="r" depth="2" NCoef="0" IVar="-1" Cut="0.0000000000000000e+00" cType="1" res="-3.0866308137774467e-02" rms="3.9274784922599792e-01" purity="1.9626168906688690e-01" nType="-99"/>
        </Node>
        <Node pos="r" depth="1" NCoef="0" IVar="4" Cut="5.4589490890502930e+00" cType="1" res="-1.2571232020854950e-01" rms="3.3960795402526855e-01" purity="2.6813879609107971e-01" nType="0">
          <Node pos="l" depth="2" NCoef="0" IVar="-1" Cut="0.0000000000000000e+00" cType="1" res="-4.3911490589380264e-02" rms="3.1165397167205811e-01" purity="1.8681319057941437e-01" nType="-99"/>
          <Node pos="r" depth="2" NCoef="0" IVar="-1" Cut="0.0000000000000000e+00" cType="1" res="2.9754463583230972e-02" rms="3.9630722999572754e-01" purity="7.7272725105285645e-01" nType="-99"/>
        </Node>
      </Node>
    </BinaryTree>
    <BinaryTree type="DecisionTree" boostWeight="1.0000000000000000e+00" itree="18">
      <Node pos="s" depth="0" NCoef="0" IVar="12" Cut="5.9053454399108887e+00" cType="1" res="1.5931931557133794e-03" rms="3.7832686305046082e-01" purity="4.9452736973762512e-01" nType="0">
        <Node pos="l" depth="1" NCoef="0" IVar="5" Cut="9.1691350936889648e+00" cType="1" res="-5.2040167152881622e-02" rms="3.7619096040725708e-01" purity="3.7679082155227661e-01" nType="0">
          <Node pos="l" depth="2" NCoef="0" IVar="-1" Cut="0.0000000000000000e+00" cType="1" res="-3.4905873239040375e-02" rms="3.3777827024459839e-01" purity="2.5239616632461548e-01" nType="-99"/>
          <Node pos="r" depth="2" NCoef="0" IVar="-1" Cut="0.0000000000000000e+00" cType="1" res="4.4092498719692230e-03" rms="3.9124825596809387e-01" purity="4.7792208194732666e-01" nType="-99"/>
        </Node>
        <Node pos="r" depth="1" NCoef="0" IVar="2" Cut="5.1300864219665527e+00" cType="1" res="1.2353484332561493e-01" rms="3.5409805178642273e-01" purity="7.6221495866775513e-01" nType="0">
          <Node pos="l" depth="2" NCoef="0" IVar="-1" Cut="0.0000000000000000e+00" cType="1" res="4.9941167235374451e-02" rms="2.9310986399650574e-01" purity="8.7027025222778320e-01" nType="-99"/>
          <Node pos="r" depth="2" NCoef="0" IVar="-1" Cut="0.0000000000000000e+00" cType="1" res="6.9301980547606945e-03" rms="4.1238471865653992e-01" purity="5.9836065769195557e-01" nType="-99"/>
        </Node>
      </Node>
    </BinaryTree>
    <BinaryTree type="DecisionTree" boostWeight="1.0000000000000000e+00" itree="19">
      <Node pos="s" depth="0" NCoef="0" IVar="4" Cut="2.8435797691345215e+00" cType="1" res="-1.2345920549705625e-03" rms="3.6791113018989563e-01" purity="4.8927876353263855e-01" nType="0">
        <Node pos="l" depth="1" NCoef="0" IVar="0" Cut="9.9999535083770752e-01" cType="1" res="-1.0953257232904434e-01" rms="3.0560722947120667e-01" purity="1.6613417863845825e-01" nType="0">
          <Node pos="l" depth="2" NCoef="0" IVar="-1" Cut="0.0000000000000000e+00" cType="1" res="-4.1473176330327988e-02" rms="2.5672763586044312e-01" purity="9.2664092779159546e-02" nType="-99"/>
          <Node pos="r" depth="2" NCoef="0" IVar="-1" Cut="0.0000000000000000e+00" cType="1" res="1.1709948070347309e-02" rms="4.3849149346351624e-01" purity="5.1851850748062134e-01" nType="-99"/>
        </Node>
        <Node pos="r" depth="1" NCoef="0" IVar="1" Cut="4.0287427902221680e+00" cType="1" res="4.6307157725095749e-02" rms="3.8258460164070129e-01" purity="6.3113605976104736e-01" nType="0">
          <Node pos="l" depth="2" NCoef="0" IVar="-1" Cut="0.0000000000000000e+00" cType="1" res="3.0042825266718864e-02" rms="3.3625483512878418e-01" purity="7.9277110099792480e-01" nType="-99"/>
          <Node pos="r" depth="2" NCoef="0" IVar="-1" Cut="0.0000000000000000e+00" cType="1" res="-1.0890107601881027e-02" rms="4.2247137427330017e-01" purity="4.0604028105735779e-01" nType="-99"/>
        </Node>
      </Node>
    </BinaryTree>
    <BinaryTree type="DecisionTree" boostWeight="1.0000000000000000e+00" itree="20">
      <Node pos="s" depth="0" NCoef="0" IVar="1" Cut="5.6970906257629395e+00" cType="1" res="-1.5318217687308788e-02" rms="3.6786156892776489e-01" purity="4.8216107487678528e-01" nType="0">
        <Node pos="l" depth="1" NCoef="0" IVar="4" Cut="2.8384299278259277e+00" cType="1" res="3.7093222141265869e-02" rms="3.5103651881217957e-01" purity="6.1290323734283447e-01" nType="0">
          <Node pos="l" depth="2" NCoef="0" IVar="-1" Cut="0.0000000000000000e+00" cType="1" res="-2.5347325950860977e-02" rms="3.2422506809234619e-01" purity="1.9499999284744263e-01" nType="-99"/>
          <Node pos="r" depth="2" NCoef="0" IVar="-1" Cut="0.0000000000000000e+00" cType="1" res="2.6186343282461166e-02" rms="3.4665057063102722e-01" purity="7.9822617769241333e-01" nType="-99"/>
        </Node>
        <Node pos="r" depth="1" NCoef="0" IVar="6" Cut="5.4930027343750000e+04" cType="1" res="-1.1871169507503510e-01" rms="3.7825122475624084e-01" purity="2.2424241900444031e-01" nType="0">
          <Node pos="l" depth="2" NCoef="0" IVar="-1" Cut="0.0000000000000000e+00" cType="1" res="-1.7686311155557632e-02" rms="3.7442916631698608e-01" purity="2.5185185670852661e-01" nType="-99"/>
          <Node pos="r" depth="2" NCoef="0" IVar="-1" Cut="0.0000000000000000e+00" cType="1" res="-8.5178144276142120e-02" rms="3.0151537060737610e-01" purity="1.0000000149011612e-01" nType="-99"/>
        </Node>
      </Node>
    </BinaryTree>
    <BinaryTree type="DecisionTree" boostWeight="1.0000000000000000e+00" itree="21">
      <Node pos="s" depth="0" NCoef="0" IVar="3" Cut="6.4340106201171875e+02" cType="1" res="1.2213758192956448e-02" rms="3.6791601777076721e-01" purity="5.0907355546951294e-01" nType="0">
        <Node pos="l" depth="1" NCoef="0" IVar="12" Cut="5.4234213829040527e+00" cType="1" res="-9.0790830552577972e-02" rms="3.2524868845939636e-01" purity="3.0958902835845947e-01" nType="0">
          <Node pos="l" depth="2" NCoef="0" IVar="-1" Cut="0.0000000000000000e+00" cType="1" res="-4.2398270219564438e-02" rms="2.7533695101737976e-01" purity="1.8253968656063080e-01" nType="-99"/>
          <Node pos="r" depth="2" NCoef="0" IVar="-1" Cut="0.0000000000000000e+00" cType="1" res="1.1054125614464283e-02" rms="3.8332736492156982e-01" purity="5.9292036294937134e-01" nType="-99"/>
        </Node>
        <Node pos="r" depth="1" NCoef="0" IVar="10" Cut="-6.8739562034606934e+00" cType="1" res="6.7340843379497528e-02" rms="3.7745645642280579e-01" purity="6.1583578586578369e-01" nType="0">
          <Node pos="l" depth="2" NCoef="0" IVar="-1" Cut="0.0000000000000000e+00" cType="1" res="-8.4156781667843461e-04" rms="4.1264328360557556e-01" purity="4.3767312169075012e-01" nType="-99"/>
          <Node pos="r" depth="2" NCoef="0" IVar="-1" Cut="0.0000000000000000e+00" cType="1" res="4.1343100368976593e-02" rms="3.1511178612709045e-01" purity="8.1619936227798462e-01" nType="-99"/>
        </Node>
      </Node>
    </BinaryTree>
    <BinaryTree type="DecisionTree" boostWeight="1.0000000000000000e+00" itree="22">
      <Node pos="s" depth="0" NCoef="0" IVar="2" Cut="7.4043827056884766e+00" cType="1" res="4.3250466696918011e-03" rms="3.7604469060897827e-01" purity="5.0833332538604736e-01" nType="0">
        <Node pos="l" depth="1" NCoef="0" IVar="0" Cut="9.9997681379318237e-01" cType="1" res="4.8318456858396530e-02" rms="3.7653005123138428e-01" purity="6.0579711198806763e-01" nType="0">
          <Node pos="l" depth="2" NCoef="0" IVar="-1" Cut="0.0000000000000000e+00" cType="1" res="-1.5928000211715698e-02" rms="3.9197930693626404e-01" purity="2.4637681245803833e-01" nType="-99"/>
          <Node pos="r" depth="2" NCoef="0" IVar="-1" Cut="0.0000000000000000e+00" cType="1" res="2.5394415482878685e-02" rms="3.5954344272613525e-01" purity="7.5983434915542603e-01" nType="-99"/>
        </Node>
        <Node pos="r" depth="1" NCoef="0" IVar="12" Cut="5.9785604476928711e+00" cType="1" res="-1.0810256004333496e-01" rms="3.5055685043334961e-01" purity="2.5925925374031067e-01" nType="0">
          <Node pos="l" depth="2" NCoef="0" IVar="-1" Cut="0.0000000000000000e+00" cType="1" res="-3.8401622325181961e-02" rms="3.3851364254951477e-01" purity="1.8552036583423615e-01" nType="-99"/>
          <Node pos="r" depth="2" NCoef="0" IVar="-1" Cut="0.0000000000000000e+00" cType="1" res="2.3343954235315323e-03" rms="3.7889242172241211e-01" purity="5.9183675050735474e-01" nType="-99"/>
        </Node>
      </Node>
    </BinaryTree>
    <BinaryTree type="DecisionTree" boostWeight="1.0000000000000000e+00" itree="23">
      <Node pos="s" depth="0" NCoef="0" IVar="0" Cut="9.9999523162841797e-01" cType="1" res="-8.7044509127736092e-03" rms="3.5783085227012634e-01" purity="4.9652433395385742e-01" nType="0">
        <Node pos="l" depth="1" NCoef="0" IVar="2" Cut="4.1661725044250488e+00" cType="1" res="-6.4856126904487610e-02" rms="3.6473879218101501e-01" purity="2.8594505786895752e-01" nType="0">
          <Node pos="l" depth="2" NCoef="0" IVar="-1" Cut="0.0000000000000000e+00" cType="1" res="2.1237630862742662e-03" rms="4.1827470064163208e-01" purity="4.5833334326744080e-01" nType="-99"/>
          <Node pos="r" depth="2" NCoef="0" IVar="-1" Cut="0.0000000000000000e+00" cType="1" res="-3.4379627555608749e-02" rms="3.0796721577644348e-01" purity="1.5774647891521454e-01" nType="-99"/>
        </Node>
        <Node pos="r" depth="1" NCoef="0" IVar="0" Cut="9.9999725818634033e-01" cType="1" res="8.0877728760242462e-02" rms="3.2714605331420898e-01" purity="8.3247423171997070e-01" nType="0">
          <Node pos="l" depth="2" NCoef="0" IVar="-1" Cut="0.0000000000000000e+00" cType="1" res="-2.0711109042167664e-02" rms="4.1131192445755005e-01" purity="5.8749997615814209e-01" nType="-99"/>
          <Node pos="r" depth="2" NCoef="0" IVar="-1" Cut="0.0000000000000000e+00" cType="1" res="3.8486018776893616e-02" rms="2.8686541318893433e-01" purity="8.9610391855239868e-01" nType="-99"/>
        </Node>
      </Node>
    </BinaryTree>
    <BinaryTree type="DecisionTree" boostWeight="1.0000000000000000e+00" itree="24">
      <Node pos="s" depth="0" NCoef="0" IVar="1" Cut="4.2810187339782715e+00" cType="1" res="7.5913979671895504e-03" rms="3.6338615417480469e-01" purity="5.0571429729461670e-01" nType="0">
        <Node pos="l" depth="1" NCoef="0" IVar="11" Cut="2.6316077709197998e+00" cType="1" res="5.1794439554214478e-02" rms="3.4230169653892517e-01" purity="6.3338536024093628e-01" nType="0">
          <Node pos="l" depth="2" NCoef="0" IVar="-1" Cut="0.0000000000000000e+00" cType="1" res="-1.8906582146883011e-02" rms="3.3205360174179077e-01" purity="3.1351351737976074e-01" nType="-99"/>
          <Node pos="r" depth="2" NCoef="0" IVar="-1" Cut="0.0000000000000000e+00" cType="1" res="3.0039412900805473e-02" rms="3.3448839187622070e-01" purity="7.6315790414810181e-01" nType="-99"/>
        </Node>
        <Node pos="r" depth="1" NCoef="0" IVar="4" Cut="6.2298207283020020e+00" cType="1" res="-6.1685256659984589e-02" rms="3.8406637310981750e-01" purity="3.0562347173690796e-01" nType="0">
          <Node pos="l" depth="2" NCoef="0" IVar="-1" Cut="0.0000000000000000e+00" cType="1" res="-2.4965733289718628e-02" rms="3.7102925777435303e-01" purity="2.4369747936725616e-01" nType="-99"/>
          <Node pos="r" depth="2" NCoef="0" IVar="-1" Cut="0.0000000000000000e+00" cType="1" res="3.4184128046035767e-02" rms="4.0966796875000000e-01" purity="7.3076921701431274e-01" nType="-99"/>
        </Node>
      </Node>
    </BinaryTree>
    <BinaryTree type="DecisionTree" boostWeight="1.0000000000000000e+00" itree="25">
      <Node pos="s" depth="0" NCoef="0" IVar="4" Cut="2.5116002559661865e+00" cType="1" res="6.7439544945955276e-03" rms="3.7135770916938782e-01" purity="5.0502008199691772e-01" nType="0">
        <Node pos="l" depth="1" NCoef="0" IVar="11" Cut="2.8702178001403809e+00" cType="1" res="-1.0531207919120789e-01" rms="2.6933652162551880e-01" purity="1.3145539164543152e-01" nType="0">
          <Node pos="l" depth="2" NCoef="0" IVar="-1" Cut="0.0000000000000000e+00" cType="1" res="-5.7393867522478104e-02" rms="1.6720630228519440e-01" purity="2.8776979073882103e-02" nType="-99"/>
          <Node pos="r" depth="2" NCoef="0" IVar="-1" Cut="0.0000000000000000e+00" cType="1" res="4.8376214690506458e-03" rms="3.6488533020019531e-01" purity="3.2432430982589722e-01" nType="-99"/>
        </Node>
        <Node pos="r" depth="1" NCoef="0" IVar="1" Cut="1.1392658233642578e+01" cType="1" res="3.7226632237434387e-02" rms="3.8902789354324341e-01" purity="6.0664111375808716e-01" nType="0">
          <Node pos="l" depth="2" NCoef="0" IVar="-1" Cut="0.0000000000000000e+00" cType="1" res="1.7117733135819435e-02" rms="3.8652029633522034e-01" purity="6.7459136247634888e-01" nType="-99"/>
          <Node pos="r" depth="2" NCoef="0" IVar="-1" Cut="0.0000000000000000e+00" cType="1" res="-2.9134435579180717e-02" rms="3.7250566482543945e-01" purity="1.9090908765792847e-01" nType="-99"/>
        </Node>
      </Node>
    </BinaryTree>
    <BinaryTree type="DecisionTree" boostWeight="1.0000000000000000e+00" itree="26">
      <Node pos="s" depth="0" NCoef="0" IVar="0" Cut="9.9997627735137939e-01" cType="1" res="1.6152083873748779e-02" rms="3.6369556188583374e-01" purity="5.2376139163970947e-01" nType="0">
        <Node pos="l" depth="1" NCoef="0" IVar="9" Cut="5.2778619384765625e+02" cType="1" res="-8.2876272499561310e-02" rms="3.3010980486869812e-01" purity="1.5652173757553101e-01" nType="0">
          <Node pos="l" depth="2" NCoef="0" IVar="-1" Cut="0.0000000000000000e+00" cType="1" res="8.1947362050414085e-03" rms="4.5073887705802917e-01" purity="4.0000000596046448e-01" nType="-99"/>
          <Node pos="r" depth="2" NCoef="0" IVar="-1" Cut="0.0000000000000000e+00" cType="1" res="-3.2532311975955963e-02" rms="3.0045181512832642e-01" purity="1.1525423824787140e-01" nType="-99"/>
        </Node>
        <Node pos="r" depth="1" NCoef="0" IVar="13" Cut="1.1235659179687500e+03" cType="1" res="6.9202989339828491e-02" rms="3.6971575021743774e-01" purity="7.2049689292907715e-01" nType="0">
          <Node pos="l" depth="2" NCoef="0" IVar="-1" Cut="0.0000000000000000e+00" cType="1" res="-3.0276093631982803e-02" rms="4.1144815087318420e-01" purity="3.6231884360313416e-01" nType="-99"/>
          <Node pos="r" depth="2" NCoef="0" IVar="-1" Cut="0.0000000000000000e+00" cType="1" res="2.6226798072457314e-02" rms="3.5728871822357178e-01" purity="7.6347827911376953e-01" nType="-99"/>
        </Node>
      </Node>
    </BinaryTree>
    <BinaryTree type="DecisionTree" boostWeight="1.0000000000000000e+00" itree="27">
      <Node pos="s" depth="0" NCoef="0" IVar="0" Cut="9.9998104572296143e-01" cType="1" res="-1.3980967923998833e-02" rms="3.5334223508834839e-01" purity="4.8181816935539246e-01" nType="0">
        <Node pos="l" depth="1" NCoef="0" IVar="1" Cut="1.4707927703857422e+00" cType="1" res="-8.3773545920848846e-02" rms="3.2431682944297791e-01" purity="1.5815085172653198e-01" nType="0">
          <Node pos="l" depth="2" NCoef="0" IVar="-1" Cut="0.0000000000000000e+00" cType="1" res="-5.9658646583557129e-02" rms="1.9107984006404877e-01" purity="3.4883722662925720e-02" nType="-99"/>
          <Node pos="r" depth="2" NCoef="0" IVar="-1" Cut="0.0000000000000000e+00" cType="1" res="-1.7318595200777054e-02" rms="3.4666785597801208e-01" purity="1.9076922535896301e-01" nType="-99"/>
        </Node>
        <Node pos="r" depth="1" NCoef="0" IVar="10" Cut="-5.3119630813598633e+00" cType="1" res="3.5560913383960724e-02" rms="3.6455565690994263e-01" purity="7.1157169342041016e-01" nType="0">
          <Node pos="l" depth="2" NCoef="0" IVar="-1" Cut="0.0000000000000000e+00" cType="1" res="1.4864299446344376e-02" rms="3.5943061113357544e-01" purity="7.4134790897369385e-01" nType="-99"/>
          <Node pos="r" depth="2" NCoef="0" IVar="-1" Cut="0.0000000000000000e+00" cType="1" res="-8.2264587283134460e-02" rms="3.1306773424148560e-01" purity="1.6666667163372040e-01" nType="-99"/>
        </Node>
      </Node>
    </BinaryTree>
    <BinaryTree type="DecisionTree" boostWeight="1.0000000000000000e+00" itree="28">
      <Node pos="s" depth="0" NCoef="0" IVar="11" Cut="5.7402272224426270e+00" cType="1" res="-2.0081715658307076e-02" rms="3.6433705687522888e-01" purity="4.6871796250343323e-01" nType="0">
        <Node pos="l" depth="1" NCoef="0" IVar="6" Cut="6.0509421875000000e+04" cType="1" res="-3.8063865154981613e-02" rms="3.6556035280227661e-01" purity="4.2613637447357178e-01" nType="0">
          <Node pos="l" depth="2" NCoef="0" IVar="-1" Cut="0.0000000000000000e+00" cType="1" res="-6.4518218860030174e-03" rms="3.5802263021469116e-01" purity="4.2980295419692993e-01" nType="-99"/>
          <Node pos="r" depth="2" NCoef="0" IVar="-1" Cut="0.0000000000000000e+00" cType="1" res="-6.9217011332511902e-02" rms="3.9731901884078979e-01" purity="3.8235294818878174e-01" nType="-99"/>
        </Node>
        <Node pos="r" depth="1" NCoef="0" IVar="11" Cut="6.1723065376281738e+00" cType="1" res="1.4648975431919098e-01" rms="3.0615249276161194e-01" purity="8.6315786838531494e-01" nType="0">
          <Node pos="l" depth="2" NCoef="0" IVar="-1" Cut="0.0000000000000000e+00" cType="1" res="9.0042345225811005e-02" rms="2.5677967071533203e-01" purity="9.7142857313156128e-01" nType="-99"/>
          <Node pos="r" depth="2" NCoef="0" IVar="-1" Cut="0.0000000000000000e+00" cType="1" res="1.6906889155507088e-02" rms="2.9102867841720581e-01" purity="8.0000001192092896e-01" nType="-99"/>
        </Node>
      </Node>
    </BinaryTree>
    <BinaryTree type="DecisionTree" boostWeight="1.0000000000000000e+00" itree="29">
      <Node pos="s" depth="0" NCoef="0" IVar="13" Cut="1.1235659179687500e+03" cType="1" res="2.0352641120553017e-02" rms="3.7034484744071960e-01" purity="5.2144247293472290e-01" nType="0">
        <Node pos="l" depth="1" NCoef="0" IVar="9" Cut="5.0510153198242188e+02" cType="1" res="-8.7202169001102448e-02" rms="3.5987085103988647e-01" purity="2.5520834326744080e-01" nType="0">
          <Node pos="l" depth="2" NCoef="0" IVar="-1" Cut="0.0000000000000000e+00" cType="1" res="7.6851777732372284e-02" rms="3.7923052906990051e-01" purity="8.9285713434219360e-01" nType="-99"/>
          <Node pos="r" depth="2" NCoef="0" IVar="-1" Cut="0.0000000000000000e+00" cType="1" res="-4.7035545110702515e-02" rms="3.1142705678939819e-01" purity="1.4634145796298981e-01" nType="-99"/>
        </Node>
        <Node pos="r" depth="1" NCoef="0" IVar="8" Cut="2.0698400878906250e+03" cType="1" res="4.5113462954759598e-02" rms="3.6829310655593872e-01" purity="5.8273380994796753e-01" nType="0">
          <Node pos="l" depth="2" NCoef="0" IVar="-1" Cut="0.0000000000000000e+00" cType="1" res="2.9534934088587761e-02" rms="3.5759478807449341e-01" purity="6.3068181276321411e-01" nType="-99"/>
          <Node pos="r" depth="2" NCoef="0" IVar="-1" Cut="0.0000000000000000e+00" cType="1" res="-1.4193177223205566e-02" rms="3.6838209629058838e-01" purity="5.0000000000000000e-01" nType="-99"/>
        </Node>
      </Node>
    </BinaryTree>
    <BinaryTree type="DecisionTree" boostWeight="1.0000000000000000e+00" itree="30">
      <Node pos="s" depth="0" NCoef="0" IVar="2" Cut="5.1366767883300781e+00" cType="1" res="3.4821443259716034e-02" rms="3.6803406476974487e-01" purity="5.3966701030731201e-01" nType="0">
        <Node pos="l" depth="1" NCoef="0" IVar="6" Cut="8.4854867187500000e+04" cType="1" res="9.1480679810047150e-02" rms="3.6222743988037109e-01" purity="6.6897749900817871e-01" nType="0">
          <Node pos="l" depth="2" NCoef="0" IVar="-1" Cut="0.0000000000000000e+00" cType="1" res="2.9937826097011566e-02" rms="3.5877636075019836e-01" purity="6.7941713333129883e-01" nType="-99"/>
          <Node pos="r" depth="2" NCoef="0" IVar="-1" Cut="0.0000000000000000e+00" cType="1" res="-4.1201740503311157e-02" rms="3.4968048334121704e-01" purity="4.6428570151329041e-01" nType="-99"/>
        </Node>
        <Node pos="r" depth="1" NCoef="0" IVar="11" Cut="2.1123402118682861e+00" cType="1" res="-3.8810048252344131e-02" rms="3.6244463920593262e-01" purity="3.7162160873413086e-01" nType="0">
          <Node pos="l" depth="2" NCoef="0" IVar="-1" Cut="0.0000000000000000e+00" cType="1" res="-5.8315090835094452e-02" rms="2.2903776168823242e-01" purity="7.1428574621677399e-02" nType="-99"/>
          <Node pos="r" depth="2" NCoef="0" IVar="-1" Cut="0.0000000000000000e+00" cType="1" res="-4.8349709250032902e-03" rms="3.7803733348846436e-01" purity="4.2780748009681702e-01" nType="-99"/>
        </Node>
      </Node>
    </BinaryTree>
    <BinaryTree type="DecisionTree" boostWeight="1.0000000000000000e+00" itree="31">
      <Node pos="s" depth="0" NCoef="0" IVar="11" Cut="5.5954394340515137e+00" cType="1" res="1.4688496477901936e-02" rms="3.6304691433906555e-01" purity="5.2178317308425903e-01" nType="0">
        <Node pos="l" depth="1" NCoef="0" IVar="1" Cut="7.1225175857543945e+00" cType="1" res="-1.5308241127058864e-03" rms="3.7441694736480713e-01" purity="4.7146117687225342e-01" nType="0">
          <Node pos="l" depth="2" NCoef="0" IVar="-1" Cut="0.0000000000000000e+00" cType="1" res="6.5863160416483879e-03" rms="3.7807393074035645e-01" purity="5.6468796730041504e-01" nType="-99"/>
          <Node pos="r" depth="2" NCoef="0" IVar="-1" Cut="0.0000000000000000e+00" cType="1" res="-2.2849945351481438e-02" rms="3.5357928276062012e-01" purity="1.9178082048892975e-01" nType="-99"/>
        </Node>
        <Node pos="r" depth="1" NCoef="0" IVar="13" Cut="2.3691645507812500e+03" cType="1" res="1.4268961548805237e-01" rms="2.1718451380729675e-01" purity="9.1891890764236450e-01" nType="0">
          <Node pos="l" depth="2" NCoef="0" IVar="-1" Cut="0.0000000000000000e+00" cType="1" res="7.7766664326190948e-02" rms="1.9932332634925842e-01" purity="9.3548387289047241e-01" nType="-99"/>
          <Node pos="r" depth="2" NCoef="0" IVar="-1" Cut="0.0000000000000000e+00" cType="1" res="3.5270635038614273e-02" rms="1.9932739436626434e-01" purity="9.1250002384185791e-01" nType="-99"/>
        </Node>
      </Node>
    </BinaryTree>
    <BinaryTree type="DecisionTree" boostWeight="1.0000000000000000e+00" itree="32">
      <Node pos="s" depth="0" NCoef="0" IVar="12" Cut="4.0647029876708984e+00" cType="1" res="-8.3814719691872597e-03" rms="3.5428875684738159e-01" purity="4.8818087577819824e-01" nType="0">
        <Node pos="l" depth="1" NCoef="0" IVar="5" Cut="1.0149929046630859e+01" cType="1" res="-8.3421207964420319e-02" rms="3.1945288181304932e-01" purity="2.0202019810676575e-01" nType="0">
          <Node pos="l" depth="2" NCoef="0" IVar="-1" Cut="0.0000000000000000e+00" cType="1" res="-3.4921340644359589e-02" rms="3.0354091525077820e-01" purity="1.6853933036327362e-01" nType="-99"/>
          <Node pos="r" depth="2" NCoef="0" IVar="-1" Cut="0.0000000000000000e+00" cType="1" res="3.4144371747970581e-02" rms="3.7306475639343262e-01" purity="5.0000000000000000e-01" nType="-99"/>
        </Node>
        <Node pos="r" depth="1" NCoef="0" IVar="1" Cut="7.0418348312377930e+00" cType="1" res="2.4587171152234077e-02" rms="3.6369124054908752e-01" purity="6.1390531063079834e-01" nType="0">
          <Node pos="l" depth="2" NCoef="0" IVar="-1" Cut="0.0000000000000000e+00" cType="1" res="1.9406527280807495e-02" rms="3.4577351808547974e-01" purity="7.4338084459304810e-01" nType="-99"/>
          <Node pos="r" depth="2" NCoef="0" IVar="-1" Cut="0.0000000000000000e+00" cType="1" res="-1.9975980743765831e-02" rms="3.9096251130104065e-01" purity="2.7027025818824768e-01" nType="-99"/>
        </Node>
      </Node>
    </BinaryTree>
    <BinaryTree type="DecisionTree" boostWeight="1.0000000000000000e+00" itree="33">
      <Node pos="s" depth="0" NCoef="0" IVar="11" Cut="2.1398806571960449e+00" cType="1" res="-1.9488636404275894e-02" rms="3.5241797566413879e-01" purity="4.7330594062805176e-01" nType="0">
        <Node pos="l" depth="1" NCoef="0" IVar="12" Cut="4.6985087394714355e+00" cType="1" res="-1.5210047364234924e-01" rms="2.8147605061531067e-01" purity="1.2500000000000000e-01" nType="0">
          <Node pos="l" depth="2" NCoef="0" IVar="-1" Cut="0.0000000000000000e+00" cType="1" res="-3.6747723817825317e-02" rms="2.7510505914688110e-01" purity="1.3684210181236267e-01" nType="-99"/>
          <Node pos="r" depth="2" NCoef="0" IVar="-1" Cut="0.0000000000000000e+00" cType="1" res="-8.6235992610454559e-02" rms="2.5121793150901794e-01" purity="7.9999998211860657e-02" nType="-99"/>
        </Node>
        <Node pos="r" depth="1" NCoef="0" IVar="1" Cut="9.9687662124633789e+00" cType="1" res="-8.5465464508160949e-04" rms="3.5735002160072327e-01" purity="5.2224826812744141e-01" nType="0">
          <Node pos="l" depth="2" NCoef="0" IVar="-1" Cut="0.0000000000000000e+00" cType="1" res="6.9362842477858067e-03" rms="3.6378198862075806e-01" purity="6.0901165008544922e-01" nType="-99"/>
          <Node pos="r" depth="2" NCoef="0" IVar="-1" Cut="0.0000000000000000e+00" cType="1" res="-2.9614714905619621e-02" rms="3.1142005324363708e-01" purity="1.6265060007572174e-01" nType="-99"/>
        </Node>
      </Node>
    </BinaryTree>
    <BinaryTree type="DecisionTree" boostWeight="1.0000000000000000e+00" itree="34">
      <Node pos="s" depth="0" NCoef="0" IVar="3" Cut="7.4166986083984375e+02" cType="1" res="5.1244517089799047e-04" rms="3.5153788328170776e-01" purity="4.9494948983192444e-01" nType="0">
        <Node pos="l" depth="1" NCoef="0" IVar="13" Cut="5.7472271728515625e+02" cType="1" res="-5.3852882236242294e-02" rms="3.3072915673255920e-01" purity="3.4753364324569702e-01" nType="0">
          <Node pos="l" depth="2" NCoef="0" IVar="-1" Cut="0.0000000000000000e+00" cType="1" res="-5.9745561331510544e-02" rms="2.7239039540290833e-01" purity="1.0989011079072952e-01" nType="-99"/>
          <Node pos="r" depth="2" NCoef="0" IVar="-1" Cut="0.0000000000000000e+00" cType="1" res="-6.2871258705854416e-03" rms="3.3578020334243774e-01" purity="4.0845069289207458e-01" nType="-99"/>
        </Node>
        <Node pos="r" depth="1" NCoef="0" IVar="1" Cut="9.9899778366088867e+00" cType="1" res="4.5084018260240555e-02" rms="3.6167475581169128e-01" purity="6.1580884456634521e-01" nType="0">
          <Node pos="l" depth="2" NCoef="0" IVar="-1" Cut="0.0000000000000000e+00" cType="1" res="2.2911502048373222e-02" rms="3.5611176490783691e-01" purity="7.0044052600860596e-01" nType="-99"/>
          <Node pos="r" depth="2" NCoef="0" IVar="-1" Cut="0.0000000000000000e+00" cType="1" res="-2.8066894039511681e-02" rms="3.5609161853790283e-01" purity="1.8888889253139496e-01" nType="-99"/>
        </Node>
      </Node>
    </BinaryTree>
    <BinaryTree type="DecisionTree" boostWeight="1.0000000000000000e+00" itree="35">
      <Node pos="s" depth="0" NCoef="0" IVar="2" Cut="4.2814402580261230e+00" cType="1" res="2.2499116137623787e-02" rms="3.5194447636604309e-01" purity="5.4453629255294800e-01" nType="0">
        <Node pos="l" depth="1" NCoef="0" IVar="10" Cut="-7.8452305793762207e+00" cType="1" res="7.1648068726062775e-02" rms="3.5372373461723328e-01" purity="6.8796992301940918e-01" nType="0">
          <Node pos="l" depth="2" NCoef="0" IVar="-1" Cut="0.0000000000000000e+00" cType="1" res="6.1845734715461731e-02" rms="4.0710520744323730e-01" purity="6.1904764175415039e-01" nType="-99"/>
          <Node pos="r" depth="2" NCoef="0" IVar="-1" Cut="0.0000000000000000e+00" cType="1" res="1.8029438331723213e-02" rms="3.4518811106681824e-01" purity="6.9387757778167725e-01" nType="-99"/>
        </Node>
        <Node pos="r" depth="1" NCoef="0" IVar="4" Cut="4.5914902687072754e+00" cType="1" res="-2.4443870410323143e-02" rms="3.4373661875724792e-01" purity="4.0754038095474243e-01" nType="0">
          <Node pos="l" depth="2" NCoef="0" IVar="-1" Cut="0.0000000000000000e+00" cType="1" res="-1.9581994041800499e-02" rms="3.3879178762435913e-01" purity="2.4742268025875092e-01" nType="-99"/>
          <Node pos="r" depth="2" NCoef="0" IVar="-1" Cut="0.0000000000000000e+00" cType="1" res="1.9289819523692131e-02" rms="3.3982968330383301e-01" purity="7.7514791488647461e-01" nType="-99"/>
        </Node>
      </Node>
    </BinaryTree>
    <BinaryTree type="DecisionTree" boostWeight="1.0000000000000000e+00" itree="36">
      <Node pos="s" depth="0" NCoef="0" IVar="2" Cut="5.1399602890014648e+00" cType="1" res="1.3956542126834393e-02" rms="3.4797722101211548e-01" purity="5.2038836479187012e-01" nType="0">
        <Node pos="l" depth="1" NCoef="0" IVar="1" Cut="1.6473907470703125e+01" cType="1" res="5.4816491901874542e-02" rms="3.5296744108200073e-01" purity="6.6137564182281494e-01" nType="0">
          <Node pos="l" depth="2" NCoef="0" IVar="-1" Cut="0.0000000000000000e+00" cType="1" res="2.4435102939605713e-02" rms="3.5108938813209534e-01" purity="7.2102159261703491e-01" nType="-99"/>
          <Node pos="r" depth="2" NCoef="0" IVar="-1" Cut="0.0000000000000000e+00" cType="1" res="-4.0806893259286880e-02" rms="3.0329573154449463e-01" purity="1.3793103396892548e-01" nType="-99"/>
        </Node>
        <Node pos="r" depth="1" NCoef="0" IVar="4" Cut="5.6344494819641113e+00" cType="1" res="-3.6081451922655106e-02" rms="3.3504658937454224e-01" purity="3.4773218631744385e-01" nType="0">
          <Node pos="l" depth="2" NCoef="0" IVar="-1" Cut="0.0000000000000000e+00" cType="1" res="-2.0492795854806900e-02" rms="3.3744642138481140e-01" purity="2.5773194432258606e-01" nType="-99"/>
          <Node pos="r" depth="2" NCoef="0" IVar="-1" Cut="0.0000000000000000e+00" cType="1" res="3.3335108309984207e-02" rms="2.8668218851089478e-01" purity="8.1333333253860474e-01" nType="-99"/>
        </Node>
      </Node>
    </BinaryTree>
    <BinaryTree type="DecisionTree" boostWeight="1.0000000000000000e+00" itree="37">
      <Node pos="s" depth="0" NCoef="0" IVar="7" Cut="1.5825332031250000e+04" cType="1" res="-7.4033695273101330e-03" rms="3.5446938872337341e-01" purity="4.9638056755065918e-01" nType="0">
        <Node pos="l" depth="1" NCoef="0" IVar="7" Cut="5.4412382812500000e+03" cType="1" res="-3.1595963984727859e-02" rms="3.4909164905548096e-01" purity="4.5310434699058533e-01" nType="0">
          <Node pos="l" depth="2" NCoef="0" IVar="-1" Cut="0.0000000000000000e+00" cType="1" res="1.2009881436824799e-02" rms="3.5704785585403442e-01" purity="5.2747255563735962e-01" nType="-99"/>
          <Node pos="r" depth="2" NCoef="0" IVar="-1" Cut="0.0000000000000000e+00" cType="1" res="-1.7645714804530144e-02" rms="3.4352070093154907e-01" purity="4.2956522107124329e-01" nType="-99"/>
        </Node>
        <Node pos="r" depth="1" NCoef="0" IVar="11" Cut="2.7013380527496338e+00" cType="1" res="7.9805172979831696e-02" rms="3.5996145009994507e-01" purity="6.5238094329833984e-01" nType="0">
          <Node pos="l" depth="2" NCoef="0" IVar="-1" Cut="0.0000000000000000e+00" cType="1" res="8.1246584653854370e-02" rms="3.9733660221099854e-01" purity="6.7391306161880493e-01" nType="-99"/>
          <Node pos="r" depth="2" NCoef="0" IVar="-1" Cut="0.0000000000000000e+00" cType="1" res="7.8771142289042473e-03" rms="3.2733869552612305e-01" purity="6.4634144306182861e-01" nType="-99"/>
        </Node>
      </Node>
    </BinaryTree>
    <BinaryTree type="DecisionTree" boostWeight="1.0000000000000000e+00" itree="38">
      <Node pos="s" depth="0" NCoef="0" IVar="5" Cut="8.0383253097534180e+00" cType="1" res="-2.3093106225132942e-02" rms="3.5458824038505554e-01" purity="4.7394788265228271e-01" nType="0">
        <Node pos="l" depth="1" NCoef="0" IVar="-1" Cut="0.0000000000000000e+00" cType="1" res="-9.6731178462505341e-02" rms="2.3299567401409149e-01" purity="0.0000000000000000e+00" nType="-99"/>
        <Node pos="r" depth="1" NCoef="0" IVar="0" Cut="9.9991959333419800e-01" cType="1" res="-1.4947730116546154e-02" rms="3.5416150093078613e-01" purity="4.8762887716293335e-01" nType="0">
          <Node pos="l" depth="2" NCoef="0" IVar="-1" Cut="0.0000000000000000e+00" cType="1" res="-6.8308517336845398e-02" rms="1.2472436577081680e-01" purity="0.0000000000000000e+00" nType="-99"/>
          <Node pos="r" depth="2" NCoef="0" IVar="-1" Cut="0.0000000000000000e+00" cType="1" res="-8.9165620738640428e-04" rms="3.6214199662208557e-01" purity="5.2265191078186035e-01" nType="-99"/>
        </Node>
      </Node>
    </BinaryTree>
    <BinaryTree type="DecisionTree" boostWeight="1.0000000000000000e+00" itree="39">
      <Node pos="s" depth="0" NCoef="0" IVar="4" Cut="3.9380855560302734e+00" cType="1" res="7.5906561687588692e-03" rms="3.4055772423744202e-01" purity="5.2348995208740234e-01" nType="0">
        <Node pos="l" depth="1" NCoef="0" IVar="5" Cut="9.7764625549316406e+00" cType="1" res="-3.6099605262279510e-02" rms="3.3557969331741333e-01" purity="3.1040892004966736e-01" nType="0">
          <Node pos="l" depth="2" NCoef="0" IVar="-1" Cut="0.0000000000000000e+00" cType="1" res="-2.8091456741094589e-02" rms="3.0963039398193359e-01" purity="2.0967741310596466e-01" nType="-99"/>
          <Node pos="r" depth="2" NCoef="0" IVar="-1" Cut="0.0000000000000000e+00" cType="1" res="2.2481320425868034e-02" rms="3.6220401525497437e-01" purity="5.3614455461502075e-01" nType="-99"/>
        </Node>
        <Node pos="r" depth="1" NCoef="0" IVar="10" Cut="-7.1680812835693359e+00" cType="1" res="5.4135926067829132e-02" rms="3.3965468406677246e-01" purity="7.5049507617950439e-01" nType="0">
          <Node pos="l" depth="2" NCoef="0" IVar="-1" Cut="0.0000000000000000e+00" cType="1" res="-2.0960863679647446e-02" rms="4.0378957986831665e-01" purity="4.8837208747863770e-01" nType="-99"/>
          <Node pos="r" depth="2" NCoef="0" IVar="-1" Cut="0.0000000000000000e+00" cType="1" res="2.7716044336557388e-02" rms="3.1860807538032532e-01" purity="8.0429595708847046e-01" nType="-99"/>
        </Node>
      </Node>
    </BinaryTree>
    <BinaryTree type="DecisionTree" boostWeight="1.0000000000000000e+00" itree="40">
      <Node pos="s" depth="0" NCoef="0" IVar="6" Cut="7.1550734375000000e+04" cType="1" res="-1.7365349456667900e-02" rms="3.6351493000984192e-01" purity="4.7956132888793945e-01" nType="0">
        <Node pos="l" depth="1" NCoef="0" IVar="13" Cut="7.1424224853515625e+02" cType="1" res="-6.3626384362578392e-03" rms="3.5996648669242859e-01" purity="4.8671627044677734e-01" nType="0">
          <Node pos="l" depth="2" NCoef="0" IVar="-1" Cut="0.0000000000000000e+00" cType="1" res="-3.6542475223541260e-02" rms="3.1791713833808899e-01" purity="1.7692308127880096e-01" nType="-99"/>
          <Node pos="r" depth="2" NCoef="0" IVar="-1" Cut="0.0000000000000000e+00" cType="1" res="3.5176926758140326e-03" rms="3.6329051852226257e-01" purity="5.3637486696243286e-01" nType="-99"/>
        </Node>
        <Node pos="r" depth="1" NCoef="0" IVar="4" Cut="4.4933176040649414e+00" cType="1" res="-1.8435809016227722e-01" rms="3.7600937485694885e-01" purity="3.7096774578094482e-01" nType="0">
          <Node pos="l" depth="2" NCoef="0" IVar="-1" Cut="0.0000000000000000e+00" cType="1" res="-7.9445965588092804e-02" rms="3.6908099055290222e-01" purity="1.9444444775581360e-01" nType="-99"/>
          <Node pos="r" depth="2" NCoef="0" IVar="-1" Cut="0.0000000000000000e+00" cType="1" res="-2.1789327263832092e-02" rms="3.5500878095626831e-01" purity="6.1538463830947876e-01" nType="-99"/>
        </Node>
      </Node>
    </BinaryTree>
    <BinaryTree type="DecisionTree" boostWeight="1.0000000000000000e+00" itree="41">
      <Node pos="s" depth="0" NCoef="0" IVar="2" Cut="9.0570898056030273e+00" cType="1" res="5.4195504635572433e-03" rms="3.3748650550842285e-01" purity="5.1964634656906128e-01" nType="0">
        <Node pos="l" depth="1" NCoef="0" IVar="1" Cut="5.5950055122375488e+00" cType="1" res="3.1760960817337036e-02" rms="3.3429840207099915e-01" purity="5.8852261304855347e-01" nType="0">
          <Node pos="l" depth="2" NCoef="0" IVar="-1" Cut="0.0000000000000000e+00" cType="1" res="2.1367102861404419e-02" rms="3.0791667103767395e-01" purity="7.2142857313156128e-01" nType="-99"/>
          <Node pos="r" depth="2" NCoef="0" IVar="-1" Cut="0.0000000000000000e+00" cType="1" res="-9.4844205304980278e-03" rms="3.7715119123458862e-01" purity="3.0115830898284912e-01" nType="-99"/>
        </Node>
        <Node pos="r" depth="1" NCoef="0" IVar="12" Cut="5.7524328231811523e+00" cType="1" res="-1.0299057513475418e-01" rms="3.2879039645195007e-01" purity="2.3618090152740479e-01" nType="0">
          <Node pos="l" depth="2" NCoef="0" IVar="-1" Cut="0.0000000000000000e+00" cType="1" res="-4.8011925071477890e-02" rms="3.1740272045135498e-01" purity="1.3664595782756805e-01" nType="-99"/>
          <Node pos="r" depth="2" NCoef="0" IVar="-1" Cut="0.0000000000000000e+00" cType="1" res="1.6611758619546890e-02" rms="3.3010685443878174e-01" purity="6.5789473056793213e-01" nType="-99"/>
        </Node>
      </Node>
    </BinaryTree>
    <BinaryTree type="DecisionTree" boostWeight="1.0000000000000000e+00" itree="42">
      <Node pos="s" depth="0" NCoef="0" IVar="10" Cut="-6.8071146011352539e+00" cType="1" res="6.4842114225029945e-03" rms="3.4818983078002930e-01" purity="5.0885826349258423e-01" nType="0">
        <Node pos="l" depth="1" NCoef="0" IVar="14" Cut="6.9095101356506348e+00" cType="1" res="-3.8462698459625244e-02" rms="3.7153166532516479e-01" purity="3.5546875000000000e-01" nType="0">
          <Node pos="l" depth="2" NCoef="0" IVar="-1" Cut="0.0000000000000000e+00" cType="1" res="-1.6350207850337029e-02" rms="3.7084090709686279e-01" purity="3.2150313258171082e-01" nType="-99"/>
          <Node pos="r" depth="2" NCoef="0" IVar="-1" Cut="0.0000000000000000e+00" cType="1" res="5.4184973239898682e-02" rms="3.1050336360931396e-01" purity="8.4848487377166748e-01" nType="-99"/>
        </Node>
        <Node pos="r" depth="1" NCoef="0" IVar="12" Cut="4.1968412399291992e+00" cType="1" res="5.2144564688205719e-02" rms="3.1627953052520752e-01" purity="6.6468256711959839e-01" nType="0">
          <Node pos="l" depth="2" NCoef="0" IVar="-1" Cut="0.0000000000000000e+00" cType="1" res="-4.9943022429943085e-02" rms="2.2052696347236633e-01" purity="9.4594597816467285e-02" nType="-99"/>
          <Node pos="r" depth="2" NCoef="0" IVar="-1" Cut="0.0000000000000000e+00" cType="1" res="2.8708856552839279e-02" rms="3.2014253735542297e-01" purity="7.6279067993164062e-01" nType="-99"/>
        </Node>
      </Node>
    </BinaryTree>
    <BinaryTree type="DecisionTree" boostWeight="1.0000000000000000e+00" itree="43">
      <Node pos="s" depth="0" NCoef="0" IVar="6" Cut="4.9772921875000000e+04" cType="1" res="1.6783842816948891e-02" rms="3.5154306888580322e-01" purity="5.3916579484939575e-01" nType="0">
        <Node pos="l" depth="1" NCoef="0" IVar="2" Cut="6.8499951362609863e+00" cType="1" res="3.3183198422193527e-02" rms="3.4683507680892944e-01" purity="5.4770320653915405e-01" nType="0">
          <Node pos="l" depth="2" NCoef="0" IVar="-1" Cut="0.0000000000000000e+00" cType="1" res="2.1151831373572350e-02" rms="3.3860486745834351e-01" purity="6.5187710523605347e-01" nType="-99"/>
          <Node pos="r" depth="2" NCoef="0" IVar="-1" Cut="0.0000000000000000e+00" cType="1" res="-1.3111769221723080e-02" rms="3.5428473353385925e-01" purity="3.1558936834335327e-01" nType="-99"/>
        </Node>
        <Node pos="r" depth="1" NCoef="0" IVar="1" Cut="6.8084192276000977e+00" cType="1" res="-8.7119549512863159e-02" rms="3.6320054531097412e-01" purity="4.8507463932037354e-01" nType="0">
          <Node pos="l" depth="2" NCoef="0" IVar="-1" Cut="0.0000000000000000e+00" cType="1" res="3.3188143279403448e-03" rms="3.6394557356834412e-01" purity="7.1764707565307617e-01" nType="-99"/>
          <Node pos="r" depth="2" NCoef="0" IVar="-1" Cut="0.0000000000000000e+00" cType="1" res="-7.2969034314155579e-02" rms="2.9402720928192139e-01" purity="8.1632651388645172e-02" nType="-99"/>
        </Node>
      </Node>
    </BinaryTree>
    <BinaryTree type="DecisionTree" boostWeight="1.0000000000000000e+00" itree="44">
      <Node pos="s" depth="0" NCoef="0" IVar="13" Cut="1.1059143066406250e+03" cType="1" res="-1.1157066561281681e-02" rms="3.4360948204994202e-01" purity="4.9214145541191101e-01" nType="0">
        <Node pos="l" depth="1" NCoef="0" IVar="9" Cut="5.2491693115234375e+02" cType="1" res="-9.2154979705810547e-02" rms="2.7314996719360352e-01" purity="1.9270832836627960e-01" nType="0">
          <Node pos="l" depth="2" NCoef="0" IVar="-1" Cut="0.0000000000000000e+00" cType="1" res="2.9581690207123756e-02" rms="3.3027267456054688e-01" purity="5.8536583185195923e-01" nType="-99"/>
          <Node pos="r" depth="2" NCoef="0" IVar="-1" Cut="0.0000000000000000e+00" cType="1" res="-5.6306988000869751e-02" rms="2.2799873352050781e-01" purity="8.6092717945575714e-02" nType="-99"/>
        </Node>
        <Node pos="r" depth="1" NCoef="0" IVar="1" Cut="2.1361904144287109e+01" cType="1" res="7.6705347746610641e-03" rms="3.5537204146385193e-01" purity="5.6174331903457642e-01" nType="0">
          <Node pos="l" depth="2" NCoef="0" IVar="-1" Cut="0.0000000000000000e+00" cType="1" res="1.1919437383767217e-04" rms="3.4999862313270569e-01" purity="5.6620430946350098e-01" nType="-99"/>
          <Node pos="r" depth="2" NCoef="0" IVar="-1" Cut="0.0000000000000000e+00" cType="1" res="5.6237056851387024e-02" rms="4.3039959669113159e-01" purity="4.5454546809196472e-01" nType="-99"/>
        </Node>
      </Node>
    </BinaryTree>
    <BinaryTree type="DecisionTree" boostWeight="1.0000000000000000e+00" itree="45">
      <Node pos="s" depth="0" NCoef="0" IVar="10" Cut="-5.3469038009643555e+00" cType="1" res="-1.5131073072552681e-02" rms="3.3699950575828552e-01" purity="4.8191592097282410e-01" nType="0">
        <Node pos="l" depth="1" NCoef="0" IVar="0" Cut="9.9997162818908691e-01" cType="1" res="-7.1103451773524284e-03" rms="3.3546459674835205e-01" purity="4.9338757991790771e-01" nType="0">
          <Node pos="l" depth="2" NCoef="0" IVar="-1" Cut="0.0000000000000000e+00" cType="1" res="-2.4836238473653793e-02" rms="3.1288480758666992e-01" purity="1.2903225421905518e-01" nType="-99"/>
          <Node pos="r" depth="2" NCoef="0" IVar="-1" Cut="0.0000000000000000e+00" cType="1" res="6.5528964623808861e-03" rms="3.4177038073539734e-01" purity="6.6121840476989746e-01" nType="-99"/>
        </Node>
        <Node pos="r" depth="1" NCoef="0" IVar="-1" Cut="0.0000000000000000e+00" cType="1" res="-7.3971614241600037e-02" rms="3.1384900212287903e-01" purity="2.0000000298023224e-01" nType="-99"/>
      </Node>
    </BinaryTree>
    <BinaryTree type="DecisionTree" boostWeight="1.0000000000000000e+00" itree="46">
      <Node pos="s" depth="0" NCoef="0" IVar="1" Cut="5.6987218856811523e+00" cType="1" res="-1.0716883465647697e-02" rms="3.5040888190269470e-01" purity="5.1387560367584229e-01" nType="0">
        <Node pos="l" depth="1" NCoef="0" IVar="11" Cut="2.1386165618896484e+00" cType="1" res="2.1692667156457901e-02" rms="3.3769792318344116e-01" purity="6.4305949211120605e-01" nType="0">
          <Node pos="l" depth="2" NCoef="0" IVar="-1" Cut="0.0000000000000000e+00" cType="1" res="-2.6581663638353348e-02" rms="3.6022517085075378e-01" purity="2.4489796161651611e-01" nType="-99"/>
          <Node pos="r" depth="2" NCoef="0" IVar="-1" Cut="0.0000000000000000e+00" cType="1" res="1.3732763007283211e-02" rms="3.3109858632087708e-01" purity="7.0723682641983032e-01" nType="-99"/>
        </Node>
        <Node pos="r" depth="1" NCoef="0" IVar="2" Cut="2.4772832393646240e+00" cType="1" res="-7.8212879598140717e-02" rms="3.6641308665275574e-01" purity="2.4483776092529297e-01" nType="0">
          <Node pos="l" depth="2" NCoef="0" IVar="-1" Cut="0.0000000000000000e+00" cType="1" res="-5.2450180053710938e-02" rms="3.8402009010314941e-01" purity="2.5555557012557983e-01" nType="-99"/>
          <Node pos="r" depth="2" NCoef="0" IVar="-1" Cut="0.0000000000000000e+00" cType="1" res="-1.2356933206319809e-02" rms="3.5035577416419983e-01" purity="2.4096386134624481e-01" nType="-99"/>
        </Node>
      </Node>
    </BinaryTree>
    <BinaryTree type="DecisionTree" boostWeight="1.0000000000000000e+00" itree="47">
      <Node pos="s" depth="0" NCoef="0" IVar="6" Cut="8.4504570312500000e+04" cType="1" res="-6.2039531767368317e-03" rms="3.5076531767845154e-01" purity="5.0778210163116455e-01" nType="0">
        <Node pos="l" depth="1" NCoef="0" IVar="7" Cut="1.4633888671875000e+04" cType="1" res="7.9928041668608785e-04" rms="3.4913095831871033e-01" purity="5.1564079523086548e-01" nType="0">
          <Node pos="l" depth="2" NCoef="0" IVar="-1" Cut="0.0000000000000000e+00" cType="1" res="-6.3256151042878628e-03" rms="3.3740603923797607e-01" purity="4.7466665506362915e-01" nType="-99"/>
          <Node pos="r" depth="2" NCoef="0" IVar="-1" Cut="0.0000000000000000e+00" cType="1" res="2.0427292212843895e-02" rms="3.7707591056823730e-01" purity="6.4315354824066162e-01" nType="-99"/>
        </Node>
        <Node pos="r" depth="1" NCoef="0" IVar="-1" Cut="0.0000000000000000e+00" cType="1" res="-5.5903505533933640e-02" rms="3.4231033921241760e-01" purity="2.9729729890823364e-01" nType="-99"/>
      </Node>
    </BinaryTree>
    <BinaryTree type="DecisionTree" boostWeight="1.0000000000000000e+00" itree="48">
      <Node pos="s" depth="0" NCoef="0" IVar="6" Cut="6.1770703125000000e+04" cType="1" res="1.0022146161645651e-03" rms="3.4757667779922485e-01" purity="5.1929092407226562e-01" nType="0">
        <Node pos="l" depth="1" NCoef="0" IVar="11" Cut="3.7148683071136475e+00" cType="1" res="1.1969082988798618e-02" rms="3.4112057089805603e-01" purity="5.2208381891250610e-01" nType="0">
          <Node pos="l" depth="2" NCoef="0" IVar="-1" Cut="0.0000000000000000e+00" cType="1" res="-6.8000140599906445e-03" rms="3.5755404829978943e-01" purity="3.5220125317573547e-01" nType="-99"/>
          <Node pos="r" depth="2" NCoef="0" IVar="-1" Cut="0.0000000000000000e+00" cType="1" res="1.7697777599096298e-02" rms="3.1662124395370483e-01" purity="7.2167485952377319e-01" nType="-99"/>
        </Node>
        <Node pos="r" depth="1" NCoef="0" IVar="5" Cut="1.0131227493286133e+01" cType="1" res="-1.2641547620296478e-01" rms="3.9349186420440674e-01" purity="4.8684209585189819e-01" nType="0">
          <Node pos="l" depth="2" NCoef="0" IVar="-1" Cut="0.0000000000000000e+00" cType="1" res="-9.2241890728473663e-02" rms="3.8479879498481750e-01" purity="2.4390244483947754e-01" nType="-99"/>
          <Node pos="r" depth="2" NCoef="0" IVar="-1" Cut="0.0000000000000000e+00" cType="1" res="1.5689466148614883e-02" rms="3.2297745347023010e-01" purity="7.7142858505249023e-01" nType="-99"/>
        </Node>
      </Node>
    </BinaryTree>
    <BinaryTree type="DecisionTree" boostWeight="1.0000000000000000e+00" itree="49">
      <Node pos="s" depth="0" NCoef="0" IVar="3" Cut="1.9802924804687500e+03" cType="1" res="-5.4901582188904285e-03" rms="3.5096681118011475e-01" purity="4.9800798296928406e-01" nType="0">
        <Node pos="l" depth="1" NCoef="0" IVar="2" Cut="3.1329038143157959e+00" cType="1" res="-2.1777713671326637e-02" rms="3.4157791733741760e-01" purity="4.5955452322959900e-01" nType="0">
          <Node pos="l" depth="2" NCoef="0" IVar="-1" Cut="0.0000000000000000e+00" cType="1" res="7.6947570778429508e-03" rms="3.5443139076232910e-01" purity="6.5705126523971558e-01" nType="-99"/>
          <Node pos="r" depth="2" NCoef="0" IVar="-1" Cut="0.0000000000000000e+00" cType="1" res="-1.7807388678193092e-02" rms="3.3098310232162476e-01" purity="3.4565618634223938e-01" nType="-99"/>
        </Node>
        <Node pos="r" depth="1" NCoef="0" IVar="4" Cut="3.6205568313598633e+00" cType="1" res="8.6518347263336182e-02" rms="3.8722687959671021e-01" purity="7.1523177623748779e-01" nType="0">
          <Node pos="l" depth="2" NCoef="0" IVar="-1" Cut="0.0000000000000000e+00" cType="1" res="9.8771952092647552e-02" rms="3.6630538105964661e-01" purity="7.3469388484954834e-01" nType="-99"/>
          <Node pos="r" depth="2" NCoef="0" IVar="-1" Cut="0.0000000000000000e+00" cType="1" res="-1.2771189212799072e-02" rms="3.3552500605583191e-01" purity="7.0588237047195435e-01" nType="-99"/>
        </Node>
      </Node>
    </BinaryTree>
    <BinaryTree type="DecisionTree" boostWeight="1.0000000000000000e+00" itree="50">
      <Node pos="s" depth="0" NCoef="0" IVar="1" Cut="8.5477237701416016e+00" cType="1" res="8.6850328370928764e-03" rms="3.3928832411766052e-01" purity="5.0576925277709961e-01" nType="0">
        <Node pos="l" depth="1" NCoef="0" IVar="13" Cut="9.6559753417968750e+02" cType="1" res="2.7632176876068115e-02" rms="3.3944493532180786e-01" purity="5.9263801574707031e-01" nType="0">
          <Node pos="l" depth="2" NCoef="0" IVar="-1" Cut="0.0000000000000000e+00" cType="1" res="-2.4919753894209862e-02" rms="3.2076600193977356e-01" purity="2.4427480995655060e-01" nType="-99"/>
          <Node pos="r" depth="2" NCoef="0" IVar="-1" Cut="0.0000000000000000e+00" cType="1" res="1.6352593898773193e-02" rms="3.3950972557067871e-01" purity="6.5935671329498291e-01" nType="-99"/>
        </Node>
        <Node pos="r" depth="1" NCoef="0" IVar="4" Cut="5.8645186424255371e+00" cType="1" res="-5.9945736080408096e-02" rms="3.2972866296768188e-01" purity="1.9111111760139465e-01" nType="0">
          <Node pos="l" depth="2" NCoef="0" IVar="-1" Cut="0.0000000000000000e+00" cType="1" res="-3.2412793487310410e-02" rms="2.8499993681907654e-01" purity="1.2886597216129303e-01" nType="-99"/>
          <Node pos="r" depth="2" NCoef="0" IVar="-1" Cut="0.0000000000000000e+00" cType="1" res="3.3031765371561050e-02" rms="4.8445868492126465e-01" purity="5.8064514398574829e-01" nType="-99"/>
        </Node>
      </Node>
    </BinaryTree>
    <BinaryTree type="DecisionTree" boostWeight="1.0000000000000000e+00" itree="51">
      <Node pos="s" depth="0" NCoef="0" IVar="1" Cut="8.4555587768554688e+00" cType="1" res="4.0624779649078846e-03" rms="3.4851920604705811e-01" purity="4.8917323350906372e-01" nType="0">
        <Node pos="l" depth="1" NCoef="0" IVar="13" Cut="9.6806115722656250e+02" cType="1" res="2.5352155789732933e-02" rms="3.5536178946495056e-01" purity="5.7788944244384766e-01" nType="0">
          <Node pos="l" depth="2" NCoef="0" IVar="-1" Cut="0.0000000000000000e+00" cType="1" res="-2.7988435700535774e-02" rms="3.4657776355743408e-01" purity="2.1985815465450287e-01" nType="-99"/>
          <Node pos="r" depth="2" NCoef="0" IVar="-1" Cut="0.0000000000000000e+00" cType="1" res="1.6771417111158371e-02" rms="3.5276710987091064e-01" purity="6.5496182441711426e-01" nType="-99"/>
        </Node>
        <Node pos="r" depth="1" NCoef="0" IVar="1" Cut="2.1528324127197266e+01" cType="1" res="-7.2967447340488434e-02" rms="3.1058916449546814e-01" purity="1.6818182170391083e-01" nType="0">
          <Node pos="l" depth="2" NCoef="0" IVar="-1" Cut="0.0000000000000000e+00" cType="1" res="-3.4964267164468765e-02" rms="2.8188228607177734e-01" purity="1.4062500000000000e-01" nType="-99"/>
          <Node pos="r" depth="2" NCoef="0" IVar="-1" Cut="0.0000000000000000e+00" cType="1" res="4.6411678194999695e-02" rms="4.0610542893409729e-01" purity="3.5714286565780640e-01" nType="-99"/>
        </Node>
      </Node>
    </BinaryTree>
    <BinaryTree type="DecisionTree" boostWeight="1.0000000000000000e+00" itree="52">
      <Node pos="s" depth="0" NCoef="0" IVar="8" Cut="2.2346875000000000e+03" cType="1" res="-2.2522471845149994e-02" rms="3.4441608190536499e-01" purity="4.6222662925720215e-01" nType="0">
        <Node pos="l" depth="1" NCoef="0" IVar="9" Cut="4.8311926269531250e+02" cType="1" res="3.4859064035117626e-03" rms="3.4013804793357849e-01" purity="4.7572815418243408e-01" nType="0">
          <Node pos="l" depth="2" NCoef="0" IVar="-1" Cut="0.0000000000000000e+00" cType="1" res="8.2098551094532013e-02" rms="1.8259614706039429e-01" purity="1.0000000000000000e+00" nType="-99"/>
          <Node pos="r" depth="2" NCoef="0" IVar="-1" Cut="0.0000000000000000e+00" cType="1" res="-6.8479618057608604e-03" rms="3.4113597869873047e-01" purity="4.3072289228439331e-01" nType="-99"/>
        </Node>
        <Node pos="r" depth="1" NCoef="0" IVar="1" Cut="2.5392792224884033e+00" cType="1" res="-8.8319107890129089e-02" rms="3.4639671444892883e-01" purity="4.2807018756866455e-01" nType="0">
          <Node pos="l" depth="2" NCoef="0" IVar="-1" Cut="0.0000000000000000e+00" cType="1" res="3.8443750236183405e-03" rms="3.2010212540626526e-01" purity="7.4137932062149048e-01" nType="-99"/>
          <Node pos="r" depth="2" NCoef="0" IVar="-1" Cut="0.0000000000000000e+00" cType="1" res="-5.3387656807899475e-02" rms="3.4746313095092773e-01" purity="2.1301774680614471e-01" nType="-99"/>
        </Node>
      </Node>
    </BinaryTree>
    <BinaryTree type="DecisionTree" boostWeight="1.0000000000000000e+00" itree="53">
      <Node pos="s" depth="0" NCoef="0" IVar="2" Cut="6.8140230178833008e+00" cType="1" res="3.4813361708074808e-04" rms="3.2409030199050903e-01" purity="5.0305497646331787e-01" nType="0">
        <Node pos="l" depth="1" NCoef="0" IVar="6" Cut="8.3046132812500000e+04" cType="1" res="2.7866138145327568e-02" rms="3.2116895914077759e-01" purity="6.0837072134017944e-01" nType="0">
          <Node pos="l" depth="2" NCoef="0" IVar="-1" Cut="0.0000000000000000e+00" cType="1" res="1.3335312716662884e-02" rms="3.2007810473442078e-01" purity="6.2519687414169312e-01" nType="-99"/>
          <Node pos="r" depth="2" NCoef="0" IVar="-1" Cut="0.0000000000000000e+00" cType="1" res="-6.0912620276212692e-02" rms="2.6474052667617798e-01" purity="2.9411765933036804e-01" nType="-99"/>
        </Node>
        <Node pos="r" depth="1" NCoef="0" IVar="12" Cut="6.1497330665588379e+00" cType="1" res="-5.8468304574489594e-02" rms="3.2246801257133484e-01" purity="2.7795526385307312e-01" nType="0">
          <Node pos="l" depth="2" NCoef="0" IVar="-1" Cut="0.0000000000000000e+00" cType="1" res="-1.1147215962409973e-02" rms="3.0505025386810303e-01" purity="2.2891566157341003e-01" nType="-99"/>
          <Node pos="r" depth="2" NCoef="0" IVar="-1" Cut="0.0000000000000000e+00" cType="1" res="-6.1532102525234222e-02" rms="3.5858839750289917e-01" purity="4.6875000000000000e-01" nType="-99"/>
        </Node>
      </Node>
    </BinaryTree>
    <BinaryTree type="DecisionTree" boostWeight="1.0000000000000000e+00" itree="54">
      <Node pos="s" depth="0" NCoef="0" IVar="7" Cut="1.3228624023437500e+04" cType="1" res="1.7713186098262668e-03" rms="3.3389467000961304e-01" purity="4.8987853527069092e-01" nType="0">
        <Node pos="l" depth="1" NCoef="0" IVar="12" Cut="5.5643887519836426e+00" cType="1" res="-3.0373524874448776e-02" rms="3.0967769026756287e-01" purity="4.5109489560127258e-01" nType="0">
          <Node pos="l" depth="2" NCoef="0" IVar="-1" Cut="0.0000000000000000e+00" cType="1" res="-2.5200940668582916e-02" rms="3.0516111850738525e-01" purity="2.8639617562294006e-01" nType="-99"/>
          <Node pos="r" depth="2" NCoef="0" IVar="-1" Cut="0.0000000000000000e+00" cType="1" res="1.2711198069155216e-02" rms="3.0571529269218445e-01" purity="7.1052628755569458e-01" nType="-99"/>
        </Node>
        <Node pos="r" depth="1" NCoef="0" IVar="4" Cut="2.5170960426330566e+00" cType="1" res="7.4442006647586823e-02" rms="3.7296503782272339e-01" purity="5.7755774259567261e-01" nType="0">
          <Node pos="l" depth="2" NCoef="0" IVar="-1" Cut="0.0000000000000000e+00" cType="1" res="-1.2332115322351456e-02" rms="3.1400150060653687e-01" purity="1.9480518996715546e-01" nType="-99"/>
          <Node pos="r" depth="2" NCoef="0" IVar="-1" Cut="0.0000000000000000e+00" cType="1" res="3.6544546484947205e-02" rms="3.8403072953224182e-01" purity="7.0796459913253784e-01" nType="-99"/>
        </Node>
      </Node>
    </BinaryTree>
    <BinaryTree type="DecisionTree" boostWeight="1.0000000000000000e+00" itree="55">
      <Node pos="s" depth="0" NCoef="0" IVar="7" Cut="1.5825332031250000e+04" cType="1" res="1.3912646099925041e-03" rms="3.3247506618499756e-01" purity="5.0199997425079346e-01" nType="0">
        <Node pos="l" depth="1" NCoef="0" IVar="4" Cut="4.7542290687561035e+00" cType="1" res="-2.3781388998031616e-02" rms="3.2003772258758545e-01" purity="4.5466321706771851e-01" nType="0">
          <Node pos="l" depth="2" NCoef="0" IVar="-1" Cut="0.0000000000000000e+00" cType="1" res="-1.8611418083310127e-02" rms="3.2883015275001526e-01" purity="3.1499052047729492e-01" nType="-99"/>
          <Node pos="r" depth="2" NCoef="0" IVar="-1" Cut="0.0000000000000000e+00" cType="1" res="1.5374940820038319e-02" rms="2.8991705179214478e-01" purity="7.5510203838348389e-01" nType="-99"/>
        </Node>
        <Node pos="r" depth="1" NCoef="0" IVar="11" Cut="4.2383403778076172e+00" cType="1" res="8.6624987423419952e-02" rms="3.5861986875534058e-01" purity="6.6228067874908447e-01" nType="0">
          <Node pos="l" depth="2" NCoef="0" IVar="-1" Cut="0.0000000000000000e+00" cType="1" res="4.6933498233556747e-02" rms="3.4788817167282104e-01" purity="6.2666666507720947e-01" nType="-99"/>
          <Node pos="r" depth="2" NCoef="0" IVar="-1" Cut="0.0000000000000000e+00" cType="1" res="-8.9995646849274635e-03" rms="3.5304984450340271e-01" purity="7.3076921701431274e-01" nType="-99"/>
        </Node>
      </Node>
    </BinaryTree>
    <BinaryTree type="DecisionTree" boostWeight="1.0000000000000000e+00" itree="56">
      <Node pos="s" depth="0" NCoef="0" IVar="8" Cut="3.8941469726562500e+03" cType="1" res="-2.3864232935011387e-03" rms="3.2095649838447571e-01" purity="4.9060541391372681e-01" nType="0">
        <Node pos="l" depth="1" NCoef="0" IVar="9" Cut="5.2639459228515625e+02" cType="1" res="6.6656060516834259e-03" rms="3.1749612092971802e-01" purity="4.9150621891021729e-01" nType="0">
          <Node pos="l" depth="2" NCoef="0" IVar="-1" Cut="0.0000000000000000e+00" cType="1" res="3.0097246170043945e-02" rms="3.2242965698242188e-01" purity="6.8840581178665161e-01" nType="-99"/>
          <Node pos="r" depth="2" NCoef="0" IVar="-1" Cut="0.0000000000000000e+00" cType="1" res="-3.2914376351982355e-03" rms="3.1418168544769287e-01" purity="4.5503357052803040e-01" nType="-99"/>
        </Node>
        <Node pos="r" depth="1" NCoef="0" IVar="1" Cut="3.4021692276000977e+00" cType="1" res="-1.0895898193120956e-01" rms="3.4161573648452759e-01" purity="4.7999998927116394e-01" nType="0">
          <Node pos="l" depth="2" NCoef="0" IVar="-1" Cut="0.0000000000000000e+00" cType="1" res="2.1221749484539032e-03" rms="3.3379739522933960e-01" purity="8.3333331346511841e-01" nType="-99"/>
          <Node pos="r" depth="2" NCoef="0" IVar="-1" Cut="0.0000000000000000e+00" cType="1" res="-7.6481901109218597e-02" rms="3.1401869654655457e-01" purity="1.5384615957736969e-01" nType="-99"/>
        </Node>
      </Node>
    </BinaryTree>
    <BinaryTree type="DecisionTree" boostWeight="1.0000000000000000e+00" itree="57">
      <Node pos="s" depth="0" NCoef="0" IVar="1" Cut="1.4077122688293457e+01" cType="1" res="-9.8792221397161484e-03" rms="3.3285167813301086e-01" purity="4.7064220905303955e-01" nType="0">
        <Node pos="l" depth="1" NCoef="0" IVar="10" Cut="-6.8644814491271973e+00" cType="1" res="4.2986264452338219e-03" rms="3.3741152286529541e-01" purity="5.2836132049560547e-01" nType="0">
          <Node pos="l" depth="2" NCoef="0" IVar="-1" Cut="0.0000000000000000e+00" cType="1" res="-9.4721503555774689e-03" rms="3.5696613788604736e-01" purity="3.3962264657020569e-01" nType="-99"/>
          <Node pos="r" depth="2" NCoef="0" IVar="-1" Cut="0.0000000000000000e+00" cType="1" res="1.4465264044702053e-02" rms="3.1307411193847656e-01" purity="7.1789473295211792e-01" nType="-99"/>
        </Node>
        <Node pos="r" depth="1" NCoef="0" IVar="3" Cut="1.4001799316406250e+03" cType="1" res="-1.0768583416938782e-01" rms="2.8063061833381653e-01" purity="7.2463765740394592e-02" nType="0">
          <Node pos="l" depth="2" NCoef="0" IVar="-1" Cut="0.0000000000000000e+00" cType="1" res="-1.4044407755136490e-02" rms="2.6866656541824341e-01" purity="9.7826085984706879e-02" nType="-99"/>
          <Node pos="r" depth="2" NCoef="0" IVar="-1" Cut="0.0000000000000000e+00" cType="1" res="-8.3842821419239044e-02" rms="2.3008234798908234e-01" purity="2.1739130839705467e-02" nType="-99"/>
        </Node>
      </Node>
    </BinaryTree>
    <BinaryTree type="DecisionTree" boostWeight="1.0000000000000000e+00" itree="58">
      <Node pos="s" depth="0" NCoef="0" IVar="1" Cut="3.8028428554534912e+00" cType="1" res="-2.6112116873264313e-02" rms="3.3583915233612061e-01" purity="4.5800000429153442e-01" nType="0">
        <Node pos="l" depth="1" NCoef="0" IVar="14" Cut="4.0359916687011719e+00" cType="1" res="1.1489280499517918e-02" rms="3.1949451565742493e-01" purity="6.0948902368545532e-01" nType="0">
          <Node pos="l" depth="2" NCoef="0" IVar="-1" Cut="0.0000000000000000e+00" cType="1" res="-5.4625265300273895e-02" rms="1.7581777274608612e-01" purity="6.8965516984462738e-02" nType="-99"/>
          <Node pos="r" depth="2" NCoef="0" IVar="-1" Cut="0.0000000000000000e+00" cType="1" res="1.0747708380222321e-02" rms="3.2779401540756226e-01" purity="6.7346936464309692e-01" nType="-99"/>
        </Node>
        <Node pos="r" depth="1" NCoef="0" IVar="8" Cut="2.7295646972656250e+03" cType="1" res="-7.1699656546115875e-02" rms="3.4925878047943115e-01" purity="2.7433627843856812e-01" nType="0">
          <Node pos="l" depth="2" NCoef="0" IVar="-1" Cut="0.0000000000000000e+00" cType="1" res="-1.6013886779546738e-02" rms="3.5169658064842224e-01" purity="3.0422535538673401e-01" nType="-99"/>
          <Node pos="r" depth="2" NCoef="0" IVar="-1" Cut="0.0000000000000000e+00" cType="1" res="-5.3221970796585083e-02" rms="3.2429382205009460e-01" purity="1.6494844853878021e-01" nType="-99"/>
        </Node>
      </Node>
    </BinaryTree>
    <BinaryTree type="DecisionTree" boostWeight="1.0000000000000000e+00" itree="59">
      <Node pos="s" depth="0" NCoef="0" IVar="4" Cut="3.1340770721435547e+00" cType="1" res="1.5021953731775284e-02" rms="3.2878065109252930e-01" purity="5.1938682794570923e-01" nType="0">
        <Node pos="l" depth="1" NCoef="0" IVar="15" Cut="3.6805679687500000e+04" cType="1" res="-3.8004290312528610e-02" rms="3.1475952267646790e-01" purity="2.1822541952133179e-01" nType="0">
          <Node pos="l" depth="2" NCoef="0" IVar="-1" Cut="0.0000000000000000e+00" cType="1" res="-3.7994340062141418e-02" rms="2.2189475595951080e-01" purity="9.4674557447433472e-02" nType="-99"/>
          <Node pos="r" depth="2" NCoef="0" IVar="-1" Cut="0.0000000000000000e+00" cType="1" res="-1.0569674195721745e-03" rms="3.6059844493865967e-01" purity="3.0241936445236206e-01" nType="-99"/>
        </Node>
        <Node pos="r" depth="1" NCoef="0" IVar="4" Cut="3.6838603019714355e+00" cType="1" res="4.6975631266832352e-02" rms="3.3289438486099243e-01" purity="7.0086705684661865e-01" nType="0">
          <Node pos="l" depth="2" NCoef="0" IVar="-1" Cut="0.0000000000000000e+00" cType="1" res="4.8049423843622208e-02" rms="3.7735643982887268e-01" purity="6.3281250000000000e-01" nType="-99"/>
          <Node pos="r" depth="2" NCoef="0" IVar="-1" Cut="0.0000000000000000e+00" cType="1" res="8.7743075564503670e-03" rms="3.1752952933311462e-01" purity="7.1631205081939697e-01" nType="-99"/>
        </Node>
      </Node>
    </BinaryTree>
    <BinaryTree type="DecisionTree" boostWeight="1.0000000000000000e+00" itree="60">
      <Node pos="s" depth="0" NCoef="0" IVar="13" Cut="1.1136376953125000e+03" cType="1" res="-3.8833697326481342e-03" rms="3.3024567365646362e-01" purity="4.8792755603790283e-01" nType="0">
        <Node pos="l" depth="1" NCoef="0" IVar="9" Cut="5.1143927001953125e+02" cType="1" res="-6.4489819109439850e-02" rms="2.7517133951187134e-01" purity="2.1287128329277039e-01" nType="0">
          <Node pos="l" depth="2" NCoef="0" IVar="-1" Cut="0.0000000000000000e+00" cType="1" res="4.3015003204345703e-02" rms="2.9923227429389954e-01" purity="8.1818181276321411e-01" nType="-99"/>
          <Node pos="r" depth="2" NCoef="0" IVar="-1" Cut="0.0000000000000000e+00" cType="1" res="-4.6036094427108765e-02" rms="2.5250580906867981e-01" purity="9.4674557447433472e-02" nType="-99"/>
        </Node>
        <Node pos="r" depth="1" NCoef="0" IVar="6" Cut="1.4227300781250000e+04" cType="1" res="1.1574336327612400e-02" rms="3.4116062521934509e-01" purity="5.5808079242706299e-01" nType="0">
          <Node pos="l" depth="2" NCoef="0" IVar="-1" Cut="0.0000000000000000e+00" cType="1" res="3.0173381790518761e-02" rms="3.2488954067230225e-01" purity="6.2777775526046753e-01" nType="-99"/>
          <Node pos="r" depth="2" NCoef="0" IVar="-1" Cut="0.0000000000000000e+00" cType="1" res="-3.6939899437129498e-03" rms="3.4278178215026855e-01" purity="5.3758168220520020e-01" nType="-99"/>
        </Node>
      </Node>
    </BinaryTree>
    <BinaryTree type="DecisionTree" boostWeight="1.0000000000000000e+00" itree="61">
      <Node pos="s" depth="0" NCoef="0" IVar="10" Cut="-5.3753180503845215e+00" cType="1" res="2.0344282966107130e-03" rms="3.4759119153022766e-01" purity="5.0401604175567627e-01" nType="0">
        <Node pos="l" depth="1" NCoef="0" IVar="2" Cut="1.2771907806396484e+01" cType="1" res="9.0191569179296494e-03" rms="3.4839662909507751e-01" purity="5.1670145988464355e-01" nType="0">
          <Node pos="l" depth="2" NCoef="0" IVar="-1" Cut="0.0000000000000000e+00" cType="1" res="3.3962223096750677e-04" rms="3.4397116303443909e-01" purity="5.1942288875579834e-01" nType="-99"/>
          <Node pos="r" depth="2" NCoef="0" IVar="-1" Cut="0.0000000000000000e+00" cType="1" res="5.5405862629413605e-02" rms="3.9060071110725403e-01" purity="4.7368422150611877e-01" nType="-99"/>
        </Node>
        <Node pos="r" depth="1" NCoef="0" IVar="-1" Cut="0.0000000000000000e+00" cType="1" res="-9.0348571538925171e-02" rms="2.7285537123680115e-01" purity="1.8421052396297455e-01" nType="-99"/>
      </Node>
    </BinaryTree>
    <BinaryTree type="DecisionTree" boostWeight="1.0000000000000000e+00" itree="62">
      <Node pos="s" depth="0" NCoef="0" IVar="6" Cut="7.2759328125000000e+04" cType="1" res="2.0232840906828642e-03" rms="3.4266856312751770e-01" purity="5.1297402381896973e-01" nType="0">
        <Node pos="l" depth="1" NCoef="0" IVar="15" Cut="1.2149367187500000e+05" cType="1" res="1.2149446643888950e-02" rms="3.3899733424186707e-01" purity="5.2727270126342773e-01" nType="0">
          <Node pos="l" depth="2" NCoef="0" IVar="-1" Cut="0.0000000000000000e+00" cType="1" res="2.6466317940503359e-03" rms="3.3935436606407166e-01" purity="5.1651984453201294e-01" nType="-99"/>
          <Node pos="r" depth="2" NCoef="0" IVar="-1" Cut="0.0000000000000000e+00" cType="1" res="5.7689551264047623e-02" rms="2.7479162812232971e-01" purity="8.8888889551162720e-01" nType="-99"/>
        </Node>
        <Node pos="r" depth="1" NCoef="0" IVar="8" Cut="3.6105075683593750e+03" cType="1" res="-1.3928957283496857e-01" rms="3.6186346411705017e-01" purity="3.1343284249305725e-01" nType="0">
          <Node pos="l" depth="2" NCoef="0" IVar="-1" Cut="0.0000000000000000e+00" cType="1" res="-8.2989268004894257e-02" rms="3.9240688085556030e-01" purity="2.6666668057441711e-01" nType="-99"/>
          <Node pos="r" depth="2" NCoef="0" IVar="-1" Cut="0.0000000000000000e+00" cType="1" res="-9.9947871640324593e-03" rms="2.9093122482299805e-01" purity="3.5135135054588318e-01" nType="-99"/>
        </Node>
