<?xml version="1.0"?>
<MethodSetup Method="BDT::BDTMitFisher">
  <GeneralInfo>
    <Info name="TMVA Release" value="4.2.1 [262657]"/>
    <Info name="ROOT Release" value="6.04/02 [394242]"/>
    <Info name="Creator" value="atrisovi"/>
    <Info name="Date" value="Fri Oct 30 16:51:06 2015"/>
    <Info name="Host" value="Linux lcgapp-slc6-physical1.cern.ch 2.6.32-504.23.4.el6.x86_64 #1 SMP Wed Jun 10 07:47:59 CEST 2015 x86_64 x86_64 x86_64 GNU/Linux"/>
    <Info name="Dir" value="/afs/cern.ch/work/a/atrisovi/public/Step4_TMVA"/>
    <Info name="Training events" value="2000"/>
    <Info name="TrainingTime" value="2.37442398e+00"/>
    <Info name="AnalysisType" value="Classification"/>
  </GeneralInfo>
  <Options>
    <Option name="V" modified="Yes">False</Option>
    <Option name="VerbosityLevel" modified="No">Default</Option>
    <Option name="VarTransform" modified="No">None</Option>
    <Option name="H" modified="Yes">False</Option>
    <Option name="CreateMVAPdfs" modified="No">False</Option>
    <Option name="IgnoreNegWeightsInTraining" modified="No">False</Option>
    <Option name="NTrees" modified="Yes">50</Option>
    <Option name="MaxDepth" modified="Yes">3</Option>
    <Option name="MinNodeSize" modified="Yes">2.5%</Option>
    <Option name="nCuts" modified="Yes">20</Option>
    <Option name="BoostType" modified="Yes">AdaBoost</Option>
    <Option name="AdaBoostR2Loss" modified="No">quadratic</Option>
    <Option name="UseBaggedBoost" modified="No">False</Option>
    <Option name="Shrinkage" modified="No">1.000000e+00</Option>
    <Option name="AdaBoostBeta" modified="Yes">5.000000e-01</Option>
    <Option name="UseRandomisedTrees" modified="No">False</Option>
    <Option name="UseNvars" modified="No">4</Option>
    <Option name="UsePoissonNvars" modified="No">True</Option>
    <Option name="BaggedSampleFraction" modified="No">6.000000e-01</Option>
    <Option name="UseYesNoLeaf" modified="No">True</Option>
    <Option name="NegWeightTreatment" modified="No">inverseboostnegweights</Option>
    <Option name="Css" modified="No">1.000000e+00</Option>
    <Option name="Cts_sb" modified="No">1.000000e+00</Option>
    <Option name="Ctb_ss" modified="No">1.000000e+00</Option>
    <Option name="Cbb" modified="No">1.000000e+00</Option>
    <Option name="NodePurityLimit" modified="No">5.000000e-01</Option>
    <Option name="SeparationType" modified="Yes">giniindex</Option>
    <Option name="DoBoostMonitor" modified="No">False</Option>
    <Option name="UseFisherCuts" modified="Yes">True</Option>
    <Option name="MinLinCorrForFisher" modified="No">8.000000e-01</Option>
    <Option name="UseExclusiveVars" modified="No">False</Option>
    <Option name="DoPreselection" modified="No">False</Option>
    <Option name="SigToBkgFraction" modified="No">1.000000e+00</Option>
    <Option name="PruneMethod" modified="No">nopruning</Option>
    <Option name="PruneStrength" modified="No">0.000000e+00</Option>
    <Option name="PruningValFraction" modified="No">5.000000e-01</Option>
    <Option name="nEventsMin" modified="No">0</Option>
    <Option name="UseBaggedGrad" modified="No">False</Option>
    <Option name="GradBaggingFraction" modified="No">6.000000e-01</Option>
    <Option name="UseNTrainEvents" modified="No">0</Option>
    <Option name="NNodesMax" modified="No">0</Option>
  </Options>
  <Variables NVar="16">
    <Variable VarIndex="0" Expression="D_DIRA_OWNPV" Label="D_dira" Title="D_dira" Unit="" Internal="D_dira" Type="F" Min="9.99899924e-01" Max="1.00000000e+00"/>
    <Variable VarIndex="1" Expression="D_IPCHI2_OWNPV" Label="D_ipchi" Title="D_ipchi" Unit="" Internal="D_ipchi" Type="F" Min="1.25734059e-05" Max="2.93587418e+01"/>
    <Variable VarIndex="2" Expression="D_ENDVERTEX_CHI2" Label="D_edchi" Title="D_edchi" Unit="" Internal="D_edchi" Type="F" Min="1.32976621e-02" Max="1.79160042e+01"/>
    <Variable VarIndex="3" Expression="piplus_PT" Label="pi_pt" Title="pi_pt" Unit="" Internal="pi_pt" Type="F" Min="3.00254852e+02" Max="1.26722646e+04"/>
    <Variable VarIndex="4" Expression="log(piplus_IPCHI2_OWNPV)" Label="pi_ipchi" Title="pi_ipchi" Unit="" Internal="pi_ipchi" Type="F" Min="1.79495215e+00" Max="9.88039970e+00"/>
    <Variable VarIndex="5" Expression="log(piplus_P)" Label="pi_p" Title="pi_p" Unit="" Internal="pi_p" Type="F" Min="7.60153866e+00" Max="1.25063572e+01"/>
    <Variable VarIndex="6" Expression="max(muminus_P,muplus_P)" Label="max_mu_p" Title="max_mu_p" Unit="" Internal="max_mu_p" Type="F" Min="3.57376245e+03" Max="3.20239062e+05"/>
    <Variable VarIndex="7" Expression="min(muminus_P,muplus_P)" Label="min_mu_p" Title="min_mu_p" Unit="" Internal="min_mu_p" Type="F" Min="3.02818823e+03" Max="1.60492578e+05"/>
    <Variable VarIndex="8" Expression="max(muminus_PT,muplus_PT)" Label="max_mu_pt" Title="max_mu_pt" Unit="" Internal="max_mu_pt" Type="F" Min="4.19728210e+02" Max="2.01567441e+04"/>
    <Variable VarIndex="9" Expression="min(muminus_PT,muplus_PT)" Label="min_mu_pt" Title="min_mu_pt" Unit="" Internal="min_mu_pt" Type="F" Min="4.00446411e+02" Max="1.07823311e+04"/>
    <Variable VarIndex="10" Expression="log(D_TAU)" Label="D_tau" Title="D_tau" Unit="" Internal="D_tau" Type="F" Min="-9.22151470e+00" Max="-3.33075023e+00"/>
    <Variable VarIndex="11" Expression="log(min(muminus_IPCHI2_OWNPV,muplus_IPCHI2_OWNPV))" Label="min_mu_ip" Title="min_mu_ip" Unit="" Internal="min_mu_ip" Type="F" Min="1.79293251e+00" Max="9.05229855e+00"/>
    <Variable VarIndex="12" Expression="log(max(muminus_IPCHI2_OWNPV,muplus_IPCHI2_OWNPV))" Label="max_mu_ip" Title="max_mu_ip" Unit="" Internal="max_mu_ip" Type="F" Min="1.89573157e+00" Max="1.02229290e+01"/>
    <Variable VarIndex="13" Expression="D_PT" Label="D_pt" Title="D_pt" Unit="" Internal="D_pt" Type="F" Min="9.62692547e+00" Max="3.20237441e+04"/>
    <Variable VarIndex="14" Expression="log(D_FDCHI2_OWNPV)" Label="D_fd" Title="D_fd" Unit="" Internal="D_fd" Type="F" Min="1.92333925e+00" Max="1.31021833e+01"/>
    <Variable VarIndex="15" Expression="D_P" Label="D_p" Title="D_p" Unit="" Internal="D_p" Type="F" Min="9.93117578e+03" Max="5.44629188e+05"/>
  </Variables>
  <Spectators NSpec="0"/>
  <Classes NClass="2">
    <Class Name="Signal" Index="0"/>
    <Class Name="Background" Index="1"/>
  </Classes>
  <Transformations NTransformations="0"/>
  <MVAPdfs/>
  <Weights NTrees="50" AnalysisType="0">
    <BinaryTree type="DecisionTree" boostWeight="6.4161767122517177e-01" itree="0">
      <Node pos="s" depth="0" NCoef="0" IVar="0" Cut="9.9999523162841797e-01" cType="0" res="-9.9000000000000000e+01" rms="0.0000000000000000e+00" purity="5.0000000000000000e-01" nType="0">
        <Node pos="l" depth="1" NCoef="17" fC0="0.0000000000000000e+00" fC1="0.0000000000000000e+00" fC2="0.0000000000000000e+00" fC3="0.0000000000000000e+00" fC4="0.0000000000000000e+00" fC5="0.0000000000000000e+00" fC6="1.5212315540817326e-07" fC7="7.9042790386296702e-06" fC8="-1.2589688831629711e-04" fC9="-2.8483831160515849e-04" fC10="1.2208596533501793e-01" fC11="0.0000000000000000e+00" fC12="8.9900141773137404e-02" fC13="1.4745124227719597e-04" fC14="-7.7302793874512915e-02" fC15="-2.6564987827710159e-06" fC16="9.2120400830448645e-01" IVar="16" Cut="-2.1719118952751160e-01" cType="0" res="-9.9000000000000000e+01" rms="0.0000000000000000e+00" purity="8.0327868461608887e-01" nType="0">
          <Node pos="l" depth="2" NCoef="0" IVar="-1" Cut="2.9843690395355225e+00" cType="0" res="-9.9000000000000000e+01" rms="0.0000000000000000e+00" purity="8.5925924777984619e-01" nType="1"/>
          <Node pos="r" depth="2" NCoef="0" IVar="-1" Cut="0.0000000000000000e+00" cType="1" res="-9.9000000000000000e+01" rms="0.0000000000000000e+00" purity="1.4035087823867798e-01" nType="-1"/>
        </Node>
        <Node pos="r" depth="1" NCoef="0" IVar="4" Cut="3.2585642337799072e+00" cType="0" res="-9.9000000000000000e+01" rms="0.0000000000000000e+00" purity="3.2492113113403320e-01" nType="0">
          <Node pos="l" depth="2" NCoef="0" IVar="1" Cut="8.3578672409057617e+00" cType="1" res="-9.9000000000000000e+01" rms="0.0000000000000000e+00" purity="4.8599669337272644e-01" nType="0">
            <Node pos="l" depth="3" NCoef="0" IVar="-1" Cut="0.0000000000000000e+00" cType="1" res="-9.9000000000000000e+01" rms="0.0000000000000000e+00" purity="5.9854012727737427e-01" nType="1"/>
            <Node pos="r" depth="3" NCoef="0" IVar="-1" Cut="0.0000000000000000e+00" cType="1" res="-9.9000000000000000e+01" rms="0.0000000000000000e+00" purity="2.5000000000000000e-01" nType="-1"/>
          </Node>
          <Node pos="r" depth="2" NCoef="17" fC0="0.0000000000000000e+00" fC1="0.0000000000000000e+00" fC2="0.0000000000000000e+00" fC3="-1.4571769290192782e-04" fC4="0.0000000000000000e+00" fC5="0.0000000000000000e+00" fC6="2.6740867147373323e-06" fC7="0.0000000000000000e+00" fC8="-3.6438423695297074e-04" fC9="0.0000000000000000e+00" fC10="5.4422218314477144e-01" fC11="0.0000000000000000e+00" fC12="1.2341981276775285e-01" fC13="2.7488416985245641e-04" fC14="-3.2441939245263879e-01" fC15="-2.4554542510070670e-06" fC16="5.1847804467069798e+00" IVar="-1" Cut="-3.1196586787700653e-02" cType="0" res="-9.9000000000000000e+01" rms="0.0000000000000000e+00" purity="1.7700454592704773e-01" nType="-1"/>
        </Node>
      </Node>
    </BinaryTree>
    <BinaryTree type="DecisionTree" boostWeight="4.9222217741390567e-01" itree="1">
      <Node pos="s" depth="0" NCoef="0" IVar="0" Cut="9.9998569488525391e-01" cType="0" res="-9.9000000000000000e+01" rms="0.0000000000000000e+00" purity="4.8381835222244263e-01" nType="0">
        <Node pos="l" depth="1" NCoef="0" IVar="4" Cut="2.9517374038696289e+00" cType="0" res="-9.9000000000000000e+01" rms="0.0000000000000000e+00" purity="6.5270584821701050e-01" nType="0">
          <Node pos="l" depth="2" NCoef="0" IVar="1" Cut="4.7385640144348145e+00" cType="1" res="-9.9000000000000000e+01" rms="0.0000000000000000e+00" purity="7.3343348503112793e-01" nType="0">
            <Node pos="l" depth="3" NCoef="0" IVar="-1" Cut="0.0000000000000000e+00" cType="1" res="-9.9000000000000000e+01" rms="0.0000000000000000e+00" purity="8.2706475257873535e-01" nType="1"/>
            <Node pos="r" depth="3" NCoef="0" IVar="-1" Cut="0.0000000000000000e+00" cType="1" res="-9.9000000000000000e+01" rms="0.0000000000000000e+00" purity="4.9803701043128967e-01" nType="-1"/>
          </Node>
          <Node pos="r" depth="2" NCoef="17" fC0="0.0000000000000000e+00" fC1="0.0000000000000000e+00" fC2="0.0000000000000000e+00" fC3="-7.7886137141712733e-05" fC4="0.0000000000000000e+00" fC5="0.0000000000000000e+00" fC6="-9.6733468366083664e-07" fC7="0.0000000000000000e+00" fC8="-3.0304993964143877e-04" fC9="0.0000000000000000e+00" fC10="3.0002931726609755e-01" fC11="0.0000000000000000e+00" fC12="1.5964995716868835e-01" fC13="1.9764453624035238e-04" fC14="-2.3332014003929322e-01" fC15="-1.9864547771962188e-07" fC16="2.8196294672593081e+00" IVar="16" Cut="-1.0133938491344452e-01" cType="0" res="-9.9000000000000000e+01" rms="0.0000000000000000e+00" purity="3.6295813322067261e-01" nType="0">
            <Node pos="l" depth="3" NCoef="0" IVar="-1" Cut="0.0000000000000000e+00" cType="1" res="-9.9000000000000000e+01" rms="0.0000000000000000e+00" purity="5.2239209413528442e-01" nType="1"/>
            <Node pos="r" depth="3" NCoef="0" IVar="-1" Cut="0.0000000000000000e+00" cType="1" res="-9.9000000000000000e+01" rms="0.0000000000000000e+00" purity="4.3233990669250488e-02" nType="-1"/>
          </Node>
        </Node>
        <Node pos="r" depth="1" NCoef="17" fC0="0.0000000000000000e+00" fC1="0.0000000000000000e+00" fC2="0.0000000000000000e+00" fC3="0.0000000000000000e+00" fC4="0.0000000000000000e+00" fC5="0.0000000000000000e+00" fC6="7.2084122662365048e-06" fC7="0.0000000000000000e+00" fC8="-2.1205166062452142e-04" fC9="0.0000000000000000e+00" fC10="3.9914700353229338e-01" fC11="0.0000000000000000e+00" fC12="0.0000000000000000e+00" fC13="1.6216768589914936e-04" fC14="-1.6602082650189529e-01" fC15="-5.0190894790544003e-06" fC16="3.7394824384663217e+00" IVar="16" Cut="-2.0994106307625771e-02" cType="0" res="-9.9000000000000000e+01" rms="0.0000000000000000e+00" purity="3.0054998397827148e-01" nType="0">
          <Node pos="l" depth="2" NCoef="17" fC0="0.0000000000000000e+00" fC1="0.0000000000000000e+00" fC2="0.0000000000000000e+00" fC3="-4.5949681763596506e-04" fC4="0.0000000000000000e+00" fC5="0.0000000000000000e+00" fC6="-2.6659608264768850e-06" fC7="0.0000000000000000e+00" fC8="-5.9101435952421883e-04" fC9="-3.3534062957519769e-04" fC10="5.0096482486354965e-01" fC11="0.0000000000000000e+00" fC12="3.9470186413832833e-02" fC13="4.8857232430528179e-04" fC14="-3.0469232959726372e-01" fC15="-3.1112071552016588e-06" fC16="5.5242911120959413e+00" IVar="16" Cut="-5.1801321096718311e-03" cType="0" res="-9.9000000000000000e+01" rms="0.0000000000000000e+00" purity="4.3917927145957947e-01" nType="0">
            <Node pos="l" depth="3" NCoef="0" IVar="-1" Cut="0.0000000000000000e+00" cType="1" res="-9.9000000000000000e+01" rms="0.0000000000000000e+00" purity="5.7194095849990845e-01" nType="1"/>
            <Node pos="r" depth="3" NCoef="0" IVar="-1" Cut="0.0000000000000000e+00" cType="1" res="-9.9000000000000000e+01" rms="0.0000000000000000e+00" purity="2.9656407237052917e-01" nType="-1"/>
          </Node>
          <Node pos="r" depth="2" NCoef="0" IVar="-1" Cut="5.4283282470703125e+02" cType="1" res="-9.9000000000000000e+01" rms="0.0000000000000000e+00" purity="1.6078507900238037e-01" nType="-1"/>
        </Node>
      </Node>
    </BinaryTree>
    <BinaryTree type="DecisionTree" boostWeight="4.4419286041617145e-01" itree="2">
      <Node pos="s" depth="0" NCoef="0" IVar="4" Cut="4.4901013374328613e+00" cType="0" res="-9.9000000000000000e+01" rms="0.0000000000000000e+00" purity="4.8410803079605103e-01" nType="0">
        <Node pos="l" depth="1" NCoef="0" IVar="0" Cut="9.9997311830520630e-01" cType="0" res="-9.9000000000000000e+01" rms="0.0000000000000000e+00" purity="6.9701522588729858e-01" nType="0">
          <Node pos="l" depth="2" NCoef="0" IVar="-1" Cut="9.9999874830245972e-01" cType="0" res="-9.9000000000000000e+01" rms="0.0000000000000000e+00" purity="7.5638848543167114e-01" nType="1"/>
          <Node pos="r" depth="2" NCoef="0" IVar="-1" Cut="8.0469042968750000e+03" cType="0" res="-9.9000000000000000e+01" rms="0.0000000000000000e+00" purity="3.8639450073242188e-01" nType="-1"/>
        </Node>
        <Node pos="r" depth="1" NCoef="17" fC0="0.0000000000000000e+00" fC1="0.0000000000000000e+00" fC2="0.0000000000000000e+00" fC3="0.0000000000000000e+00" fC4="0.0000000000000000e+00" fC5="0.0000000000000000e+00" fC6="5.6980463788626139e-07" fC7="0.0000000000000000e+00" fC8="-1.4882405054874131e-04" fC9="0.0000000000000000e+00" fC10="2.1482857975601122e-01" fC11="0.0000000000000000e+00" fC12="1.2715844432230874e-01" fC13="9.0635341418904842e-05" fC14="-1.6073799533586797e-01" fC15="1.2815437755632085e-07" fC16="1.8166238196646503e+00" IVar="16" Cut="-5.1922932267189026e-02" cType="0" res="-9.9000000000000000e+01" rms="0.0000000000000000e+00" purity="3.6333939433097839e-01" nType="0">
          <Node pos="l" depth="2" NCoef="17" fC0="0.0000000000000000e+00" fC1="0.0000000000000000e+00" fC2="0.0000000000000000e+00" fC3="-1.6253653984805142e-04" fC4="0.0000000000000000e+00" fC5="0.0000000000000000e+00" fC6="-4.1210579579393325e-06" fC7="-7.9566674636703849e-06" fC8="-3.1487796487835639e-04" fC9="0.0000000000000000e+00" fC10="1.8845376128272928e-01" fC11="0.0000000000000000e+00" fC12="-1.1243123204789371e-01" fC13="1.6652681824755046e-04" fC14="6.3632584840306691e-02" fC15="3.8958044250317225e-06" fC16="1.6858156111317923e+00" IVar="16" Cut="-2.8662849217653275e-02" cType="0" res="-9.9000000000000000e+01" rms="0.0000000000000000e+00" purity="4.6864718198776245e-01" nType="0">
            <Node pos="l" depth="3" NCoef="0" IVar="-1" Cut="0.0000000000000000e+00" cType="1" res="-9.9000000000000000e+01" rms="0.0000000000000000e+00" purity="5.7853609323501587e-01" nType="1"/>
            <Node pos="r" depth="3" NCoef="0" IVar="-1" Cut="0.0000000000000000e+00" cType="1" res="-9.9000000000000000e+01" rms="0.0000000000000000e+00" purity="3.1339555978775024e-01" nType="-1"/>
          </Node>
          <Node pos="r" depth="2" NCoef="17" fC0="0.0000000000000000e+00" fC1="0.0000000000000000e+00" fC2="0.0000000000000000e+00" fC3="0.0000000000000000e+00" fC4="0.0000000000000000e+00" fC5="0.0000000000000000e+00" fC6="9.2816392546483898e-06" fC7="0.0000000000000000e+00" fC8="-3.2431989407332194e-04" fC9="0.0000000000000000e+00" fC10="1.7500326442847283e-01" fC11="0.0000000000000000e+00" fC12="0.0000000000000000e+00" fC13="2.4819148926191737e-04" fC14="-1.0004390759816743e-01" fC15="-5.2729005602228640e-06" fC16="1.7498625900957692e+00" IVar="-1" Cut="-2.0875200629234314e-02" cType="0" res="-9.9000000000000000e+01" rms="0.0000000000000000e+00" purity="1.8554130196571350e-01" nType="-1"/>
        </Node>
      </Node>
    </BinaryTree>
    <BinaryTree type="DecisionTree" boostWeight="2.5781780185740910e-01" itree="3">
      <Node pos="s" depth="0" NCoef="0" IVar="4" Cut="5.2601437568664551e+00" cType="0" res="-9.9000000000000000e+01" rms="0.0000000000000000e+00" purity="4.7325891256332397e-01" nType="0">
        <Node pos="l" depth="1" NCoef="0" IVar="0" Cut="9.9999552965164185e-01" cType="0" res="-9.9000000000000000e+01" rms="0.0000000000000000e+00" purity="7.0737475156784058e-01" nType="0">
          <Node pos="l" depth="2" NCoef="17" fC0="0.0000000000000000e+00" fC1="0.0000000000000000e+00" fC2="0.0000000000000000e+00" fC3="-2.0275835805218573e-04" fC4="0.0000000000000000e+00" fC5="-2.1068416300338094e-01" fC6="-3.5573803270093825e-06" fC7="1.4822546527968226e-05" fC8="-2.5631861532582670e-04" fC9="-5.2844411838350654e-04" fC10="4.3145349949862499e-01" fC11="0.0000000000000000e+00" fC12="6.6501071348450430e-02" fC13="3.2471306710264036e-04" fC14="-1.7821458063897033e-01" fC15="-2.1307009312537833e-07" fC16="5.6623557770513093e+00" IVar="-1" Cut="-4.7839011996984482e-02" cType="0" res="-9.9000000000000000e+01" rms="0.0000000000000000e+00" purity="8.2493364810943604e-01" nType="1"/>
          <Node pos="r" depth="2" NCoef="0" IVar="2" Cut="5.5238943099975586e+00" cType="1" res="-9.9000000000000000e+01" rms="0.0000000000000000e+00" purity="5.4808139801025391e-01" nType="0">
            <Node pos="l" depth="3" NCoef="0" IVar="-1" Cut="0.0000000000000000e+00" cType="1" res="-9.9000000000000000e+01" rms="0.0000000000000000e+00" purity="6.6106295585632324e-01" nType="1"/>
            <Node pos="r" depth="3" NCoef="0" IVar="-1" Cut="0.0000000000000000e+00" cType="1" res="-9.9000000000000000e+01" rms="0.0000000000000000e+00" purity="3.9222827553749084e-01" nType="-1"/>
          </Node>
        </Node>
        <Node pos="r" depth="1" NCoef="17" fC0="0.0000000000000000e+00" fC1="0.0000000000000000e+00" fC2="0.0000000000000000e+00" fC3="0.0000000000000000e+00" fC4="0.0000000000000000e+00" fC5="0.0000000000000000e+00" fC6="1.0646289997476199e-06" fC7="0.0000000000000000e+00" fC8="-8.3758115087539210e-05" fC9="0.0000000000000000e+00" fC10="1.1161188917407701e-01" fC11="0.0000000000000000e+00" fC12="7.5174567972216624e-02" fC13="5.1940344628627401e-05" fC14="-9.8908243871574208e-02" fC15="-1.2662046228343047e-07" fC16="9.7071258542834538e-01" IVar="-1" Cut="-1.7939694225788116e-01" cType="0" res="-9.9000000000000000e+01" rms="0.0000000000000000e+00" purity="4.0749907493591309e-01" nType="-1"/>
      </Node>
    </BinaryTree>
    <BinaryTree type="DecisionTree" boostWeight="3.1725878408708452e-01" itree="4">
      <Node pos="s" depth="0" NCoef="17" fC0="0.0000000000000000e+00" fC1="0.0000000000000000e+00" fC2="0.0000000000000000e+00" fC3="0.0000000000000000e+00" fC4="0.0000000000000000e+00" fC5="0.0000000000000000e+00" fC6="1.0589990161967744e-06" fC7="0.0000000000000000e+00" fC8="-7.1040302048856451e-05" fC9="0.0000000000000000e+00" fC10="8.9308256841007239e-02" fC11="0.0000000000000000e+00" fC12="5.8866099996934922e-02" fC13="4.9607132862445290e-05" fC14="-4.7643062243089757e-02" fC15="-1.2527134991986969e-07" fC16="5.6074592893987751e-01" IVar="16" Cut="-1.3863582909107208e-01" cType="0" res="-9.9000000000000000e+01" rms="0.0000000000000000e+00" purity="5.1473933458328247e-01" nType="0">
        <Node pos="l" depth="1" NCoef="0" IVar="2" Cut="8.5383958816528320e+00" cType="1" res="-9.9000000000000000e+01" rms="0.0000000000000000e+00" purity="5.5144530534744263e-01" nType="0">
          <Node pos="l" depth="2" NCoef="0" IVar="1" Cut="6.9901862144470215e+00" cType="1" res="-9.9000000000000000e+01" rms="0.0000000000000000e+00" purity="6.0125195980072021e-01" nType="0">
            <Node pos="l" depth="3" NCoef="0" IVar="-1" Cut="0.0000000000000000e+00" cType="1" res="-9.9000000000000000e+01" rms="0.0000000000000000e+00" purity="6.6055864095687866e-01" nType="1"/>
            <Node pos="r" depth="3" NCoef="0" IVar="-1" Cut="0.0000000000000000e+00" cType="1" res="-9.9000000000000000e+01" rms="0.0000000000000000e+00" purity="4.3522697687149048e-01" nType="-1"/>
          </Node>
          <Node pos="r" depth="2" NCoef="17" fC0="0.0000000000000000e+00" fC1="0.0000000000000000e+00" fC2="0.0000000000000000e+00" fC3="0.0000000000000000e+00" fC4="0.0000000000000000e+00" fC5="0.0000000000000000e+00" fC6="-5.6920174893359647e-06" fC7="-2.1013863673110755e-06" fC8="5.0633167392782762e-05" fC9="0.0000000000000000e+00" fC10="2.3030666618070189e-01" fC11="0.0000000000000000e+00" fC12="2.3939179748216140e-02" fC13="-6.3414865898838854e-06" fC14="-8.0562981613800683e-02" fC15="4.6753800238624873e-06" fC16="1.8144439928251361e+00" IVar="-1" Cut="-4.8499652184545994e-03" cType="0" res="-9.9000000000000000e+01" rms="0.0000000000000000e+00" purity="3.6839038133621216e-01" nType="-1"/>
        </Node>
        <Node pos="r" depth="1" NCoef="0" IVar="-1" Cut="3.5019540786743164e+00" cType="0" res="-9.9000000000000000e+01" rms="0.0000000000000000e+00" purity="1.6663379967212677e-01" nType="-1"/>
      </Node>
    </BinaryTree>
    <BinaryTree type="DecisionTree" boostWeight="2.9581785841824970e-01" itree="5">
      <Node pos="s" depth="0" NCoef="0" IVar="4" Cut="2.9500160217285156e+00" cType="0" res="-9.9000000000000000e+01" rms="0.0000000000000000e+00" purity="5.1152694225311279e-01" nType="0">
        <Node pos="l" depth="1" NCoef="0" IVar="0" Cut="9.9999523162841797e-01" cType="0" res="-9.9000000000000000e+01" rms="0.0000000000000000e+00" purity="5.8125245571136475e-01" nType="0">
          <Node pos="l" depth="2" NCoef="0" IVar="-1" Cut="9.9999934434890747e-01" cType="0" res="-9.9000000000000000e+01" rms="0.0000000000000000e+00" purity="7.0084643363952637e-01" nType="1"/>
          <Node pos="r" depth="2" NCoef="0" IVar="9" Cut="6.1737255859375000e+02" cType="1" res="-9.9000000000000000e+01" rms="0.0000000000000000e+00" purity="5.0833559036254883e-01" nType="0">
            <Node pos="l" depth="3" NCoef="0" IVar="-1" Cut="0.0000000000000000e+00" cType="1" res="-9.9000000000000000e+01" rms="0.0000000000000000e+00" purity="6.0007554292678833e-01" nType="1"/>
            <Node pos="r" depth="3" NCoef="0" IVar="-1" Cut="0.0000000000000000e+00" cType="1" res="-9.9000000000000000e+01" rms="0.0000000000000000e+00" purity="4.5478114485740662e-01" nType="-1"/>
          </Node>
        </Node>
        <Node pos="r" depth="1" NCoef="17" fC0="0.0000000000000000e+00" fC1="0.0000000000000000e+00" fC2="0.0000000000000000e+00" fC3="-3.4707665226302752e-05" fC4="0.0000000000000000e+00" fC5="0.0000000000000000e+00" fC6="3.4351808809544113e-07" fC7="0.0000000000000000e+00" fC8="-1.6958784031948418e-04" fC9="0.0000000000000000e+00" fC10="2.1343180202847245e-01" fC11="0.0000000000000000e+00" fC12="1.0012554027528107e-01" fC13="1.2693575991080846e-04" fC14="-1.6959327884068556e-01" fC15="-6.4304143781206721e-07" fC16="1.9965012585101103e+00" IVar="16" Cut="-5.1865875720977783e-02" cType="0" res="-9.9000000000000000e+01" rms="0.0000000000000000e+00" purity="3.5539385676383972e-01" nType="0">
          <Node pos="l" depth="2" NCoef="17" fC0="0.0000000000000000e+00" fC1="0.0000000000000000e+00" fC2="0.0000000000000000e+00" fC3="-1.4817616994380813e-04" fC4="0.0000000000000000e+00" fC5="0.0000000000000000e+00" fC6="1.9514082394718558e-06" fC7="-3.0597247234036621e-06" fC8="-2.5519297298241085e-04" fC9="-2.1312015284620010e-04" fC10="1.7893583441592573e-01" fC11="0.0000000000000000e+00" fC12="-1.8691201428074203e-01" fC13="2.0924782340996743e-04" fC14="1.1535956774864638e-01" fC15="-6.0914018589257939e-07" fC16="1.7221739870869699e+00" IVar="16" Cut="3.9675362408161163e-02" cType="0" res="-9.9000000000000000e+01" rms="0.0000000000000000e+00" purity="4.4864711165428162e-01" nType="0">
            <Node pos="l" depth="3" NCoef="0" IVar="-1" Cut="0.0000000000000000e+00" cType="1" res="-9.9000000000000000e+01" rms="0.0000000000000000e+00" purity="6.2993544340133667e-01" nType="1"/>
            <Node pos="r" depth="3" NCoef="0" IVar="-1" Cut="0.0000000000000000e+00" cType="1" res="-9.9000000000000000e+01" rms="0.0000000000000000e+00" purity="3.6342227458953857e-01" nType="-1"/>
          </Node>
          <Node pos="r" depth="2" NCoef="17" fC0="-3.2523641878810326e+03" fC1="0.0000000000000000e+00" fC2="0.0000000000000000e+00" fC3="-1.0643183323249522e-04" fC4="0.0000000000000000e+00" fC5="1.7564866218773251e-01" fC6="2.0084214217302066e-05" fC7="0.0000000000000000e+00" fC8="-6.0963257675227987e-04" fC9="0.0000000000000000e+00" fC10="-4.3844116832582453e-01" fC11="0.0000000000000000e+00" fC12="-6.5380581948059430e-02" fC13="5.6138785174272474e-04" fC14="2.9784701359257709e-01" fC15="-2.4889972816455506e-05" fC16="3.2463796903561988e+03" IVar="-1" Cut="-1.4264573156833649e-01" cType="0" res="-9.9000000000000000e+01" rms="0.0000000000000000e+00" purity="1.1854983121156693e-01" nType="-1"/>
        </Node>
      </Node>
    </BinaryTree>
    <BinaryTree type="DecisionTree" boostWeight="2.1605631618452514e-01" itree="6">
      <Node pos="s" depth="0" NCoef="0" IVar="4" Cut="2.1799733638763428e+00" cType="0" res="-9.9000000000000000e+01" rms="0.0000000000000000e+00" purity="5.1342087984085083e-01" nType="0">
        <Node pos="l" depth="1" NCoef="17" fC0="0.0000000000000000e+00" fC1="0.0000000000000000e+00" fC2="0.0000000000000000e+00" fC3="0.0000000000000000e+00" fC4="0.0000000000000000e+00" fC5="0.0000000000000000e+00" fC6="-6.1961180669742037e-07" fC7="0.0000000000000000e+00" fC8="-3.4976697050113625e-05" fC9="0.0000000000000000e+00" fC10="-2.2394069547734950e-02" fC11="0.0000000000000000e+00" fC12="4.0849489883232878e-02" fC13="2.2681253635836650e-05" fC14="1.7784687071104165e-03" fC15="5.7045564417763267e-07" fC16="-3.9912321497168152e-01" IVar="16" Cut="-1.1331402510404587e-01" cType="0" res="-9.9000000000000000e+01" rms="0.0000000000000000e+00" purity="5.4379713535308838e-01" nType="0">
          <Node pos="l" depth="2" NCoef="0" IVar="0" Cut="9.9997138977050781e-01" cType="0" res="-9.9000000000000000e+01" rms="0.0000000000000000e+00" purity="5.5907285213470459e-01" nType="0">
            <Node pos="l" depth="3" NCoef="0" IVar="-1" Cut="0.0000000000000000e+00" cType="1" res="-9.9000000000000000e+01" rms="0.0000000000000000e+00" purity="6.0181403160095215e-01" nType="1"/>
            <Node pos="r" depth="3" NCoef="0" IVar="-1" Cut="0.0000000000000000e+00" cType="1" res="-9.9000000000000000e+01" rms="0.0000000000000000e+00" purity="4.6283310651779175e-01" nType="-1"/>
          </Node>
          <Node pos="r" depth="2" NCoef="0" IVar="-1" Cut="0.0000000000000000e+00" cType="1" res="-9.9000000000000000e+01" rms="0.0000000000000000e+00" purity="2.1161462366580963e-01" nType="-1"/>
        </Node>
        <Node pos="r" depth="1" NCoef="0" IVar="-1" Cut="4.5498056411743164e+00" cType="0" res="-9.9000000000000000e+01" rms="0.0000000000000000e+00" purity="2.7094203233718872e-01" nType="-1"/>
      </Node>
    </BinaryTree>
    <BinaryTree type="DecisionTree" boostWeight="1.9094106613528491e-01" itree="7">
      <Node pos="s" depth="0" NCoef="17" fC0="0.0000000000000000e+00" fC1="0.0000000000000000e+00" fC2="0.0000000000000000e+00" fC3="0.0000000000000000e+00" fC4="0.0000000000000000e+00" fC5="0.0000000000000000e+00" fC6="2.1729095206896780e-07" fC7="0.0000000000000000e+00" fC8="-4.9041629262776292e-05" fC9="0.0000000000000000e+00" fC10="1.5559280543451476e-03" fC11="0.0000000000000000e+00" fC12="3.7790402681695798e-02" fC13="3.3890765105331469e-05" fC14="-1.3830861018514294e-02" fC15="-2.3664637184143253e-07" fC16="-1.0746372595500064e-01" IVar="16" Cut="-9.2820726335048676e-02" cType="0" res="-9.9000000000000000e+01" rms="0.0000000000000000e+00" purity="5.0400835275650024e-01" nType="0">
        <Node pos="l" depth="1" NCoef="17" fC0="0.0000000000000000e+00" fC1="0.0000000000000000e+00" fC2="0.0000000000000000e+00" fC3="0.0000000000000000e+00" fC4="0.0000000000000000e+00" fC5="0.0000000000000000e+00" fC6="-2.0140604862414962e-06" fC7="0.0000000000000000e+00" fC8="-3.0992225666028193e-05" fC9="0.0000000000000000e+00" fC10="-3.3824528219219647e-03" fC11="0.0000000000000000e+00" fC12="-3.9255798554995565e-02" fC13="1.6863061867045203e-05" fC14="6.3459606290160703e-02" fC15="7.6936904961403944e-07" fC16="-2.0449001961485874e-01" IVar="16" Cut="-1.2270411243662238e-03" cType="0" res="-9.9000000000000000e+01" rms="0.0000000000000000e+00" purity="5.2081918716430664e-01" nType="0">
          <Node pos="l" depth="2" NCoef="0" IVar="4" Cut="2.9627854824066162e+00" cType="0" res="-9.9000000000000000e+01" rms="0.0000000000000000e+00" purity="5.9446036815643311e-01" nType="0">
            <Node pos="l" depth="3" NCoef="0" IVar="-1" Cut="0.0000000000000000e+00" cType="1" res="-9.9000000000000000e+01" rms="0.0000000000000000e+00" purity="6.2663185596466064e-01" nType="1"/>
            <Node pos="r" depth="3" NCoef="0" IVar="-1" Cut="0.0000000000000000e+00" cType="1" res="-9.9000000000000000e+01" rms="0.0000000000000000e+00" purity="3.6199751496315002e-01" nType="-1"/>
          </Node>
          <Node pos="r" depth="2" NCoef="17" fC0="0.0000000000000000e+00" fC1="0.0000000000000000e+00" fC2="0.0000000000000000e+00" fC3="0.0000000000000000e+00" fC4="0.0000000000000000e+00" fC5="0.0000000000000000e+00" fC6="-1.4021108926388388e-06" fC7="0.0000000000000000e+00" fC8="-7.4188409481971675e-05" fC9="0.0000000000000000e+00" fC10="2.1968315690120199e-02" fC11="0.0000000000000000e+00" fC12="-6.8290727270002460e-02" fC13="3.6402072686608924e-05" fC14="6.3475379944734261e-02" fC15="9.4894574741591262e-07" fC16="1.5395153579493390e-01" IVar="-1" Cut="-2.9891850426793098e-02" cType="0" res="-9.9000000000000000e+01" rms="0.0000000000000000e+00" purity="4.5649367570877075e-01" nType="-1"/>
        </Node>
        <Node pos="r" depth="1" NCoef="17" fC0="0.0000000000000000e+00" fC1="0.0000000000000000e+00" fC2="0.0000000000000000e+00" fC3="0.0000000000000000e+00" fC4="0.0000000000000000e+00" fC5="0.0000000000000000e+00" fC6="6.7677140790486389e-05" fC7="8.1167370708209414e-05" fC8="-8.2770097039837516e-04" fC9="-1.2442706803179155e-03" fC10="3.9484467251084099e-01" fC11="0.0000000000000000e+00" fC12="0.0000000000000000e+00" fC13="7.5767702020676736e-04" fC14="-2.1912835313887086e-01" fC15="-6.0796234108753493e-05" fC16="4.8684881882474542e+00" IVar="16" Cut="-2.1583583950996399e-01" cType="0" res="-9.9000000000000000e+01" rms="0.0000000000000000e+00" purity="2.4389596283435822e-01" nType="0">
          <Node pos="l" depth="2" NCoef="0" IVar="-1" Cut="0.0000000000000000e+00" cType="1" res="-9.9000000000000000e+01" rms="0.0000000000000000e+00" purity="5.1577609777450562e-01" nType="1"/>
          <Node pos="r" depth="2" NCoef="0" IVar="-1" Cut="0.0000000000000000e+00" cType="1" res="-9.9000000000000000e+01" rms="0.0000000000000000e+00" purity="0.0000000000000000e+00" nType="-1"/>
        </Node>
      </Node>
    </BinaryTree>
    <BinaryTree type="DecisionTree" boostWeight="1.6867047869190779e-01" itree="8">
      <Node pos="s" depth="0" NCoef="17" fC0="0.0000000000000000e+00" fC1="0.0000000000000000e+00" fC2="0.0000000000000000e+00" fC3="0.0000000000000000e+00" fC4="0.0000000000000000e+00" fC5="0.0000000000000000e+00" fC6="2.9717035299402071e-07" fC7="0.0000000000000000e+00" fC8="-3.4090507460681285e-05" fC9="0.0000000000000000e+00" fC10="-5.1954320674595508e-03" fC11="0.0000000000000000e+00" fC12="4.4438164404030603e-02" fC13="2.2465360310775921e-05" fC14="-2.9538406782336123e-02" fC15="-1.3631515798207943e-07" fC16="-8.6622334466492812e-02" IVar="16" Cut="-9.7422823309898376e-02" cType="0" res="-9.9000000000000000e+01" rms="0.0000000000000000e+00" purity="5.1247483491897583e-01" nType="0">
        <Node pos="l" depth="1" NCoef="0" IVar="2" Cut="7.6858863830566406e+00" cType="1" res="-9.9000000000000000e+01" rms="0.0000000000000000e+00" purity="5.2801686525344849e-01" nType="0">
          <Node pos="l" depth="2" NCoef="17" fC0="0.0000000000000000e+00" fC1="0.0000000000000000e+00" fC2="0.0000000000000000e+00" fC3="0.0000000000000000e+00" fC4="0.0000000000000000e+00" fC5="0.0000000000000000e+00" fC6="-1.5106459992228019e-06" fC7="0.0000000000000000e+00" fC8="-4.6796806487236088e-05" fC9="0.0000000000000000e+00" fC10="-8.0561959336459738e-02" fC11="0.0000000000000000e+00" fC12="-4.4077621128106016e-02" fC13="1.8983568701641658e-05" fC14="8.3454378003834567e-02" fC15="1.3288636049619778e-07" fC16="-7.8942681809991744e-01" IVar="16" Cut="-1.6412839293479919e-02" cType="0" res="-9.9000000000000000e+01" rms="0.0000000000000000e+00" purity="5.5872350931167603e-01" nType="0">
            <Node pos="l" depth="3" NCoef="0" IVar="-1" Cut="0.0000000000000000e+00" cType="1" res="-9.9000000000000000e+01" rms="0.0000000000000000e+00" purity="6.1046916246414185e-01" nType="1"/>
            <Node pos="r" depth="3" NCoef="0" IVar="-1" Cut="0.0000000000000000e+00" cType="1" res="-9.9000000000000000e+01" rms="0.0000000000000000e+00" purity="4.7321051359176636e-01" nType="-1"/>
          </Node>
          <Node pos="r" depth="2" NCoef="0" IVar="-1" Cut="2.1032183170318604e+00" cType="0" res="-9.9000000000000000e+01" rms="0.0000000000000000e+00" purity="4.4370174407958984e-01" nType="-1"/>
        </Node>
        <Node pos="r" depth="1" NCoef="0" IVar="-1" Cut="0.0000000000000000e+00" cType="1" res="-9.9000000000000000e+01" rms="0.0000000000000000e+00" purity="2.0667818188667297e-01" nType="-1"/>
      </Node>
    </BinaryTree>
    <BinaryTree type="DecisionTree" boostWeight="1.6552070186504184e-01" itree="9">
      <Node pos="s" depth="0" NCoef="0" IVar="10" Cut="-5.2943382263183594e+00" cType="1" res="-9.9000000000000000e+01" rms="0.0000000000000000e+00" purity="5.1823389530181885e-01" nType="0">
        <Node pos="l" depth="1" NCoef="17" fC0="0.0000000000000000e+00" fC1="0.0000000000000000e+00" fC2="0.0000000000000000e+00" fC3="0.0000000000000000e+00" fC4="0.0000000000000000e+00" fC5="0.0000000000000000e+00" fC6="-1.2514778433785205e-07" fC7="0.0000000000000000e+00" fC8="-1.0434997085191985e-05" fC9="0.0000000000000000e+00" fC10="5.8834735120971933e-02" fC11="0.0000000000000000e+00" fC12="2.9563882846559395e-02" fC13="1.1891043370295175e-05" fC14="-3.1718750726025549e-02" fC15="2.0250897573420222e-07" fC16="4.2702094642776012e-01" IVar="16" Cut="-6.4141802489757538e-02" cType="0" res="-9.9000000000000000e+01" rms="0.0000000000000000e+00" purity="5.2880001068115234e-01" nType="0">
          <Node pos="l" depth="2" NCoef="0" IVar="1" Cut="1.2582324981689453e+01" cType="1" res="-9.9000000000000000e+01" rms="0.0000000000000000e+00" purity="5.4655563831329346e-01" nType="0">
            <Node pos="l" depth="3" NCoef="0" IVar="-1" Cut="0.0000000000000000e+00" cType="1" res="-9.9000000000000000e+01" rms="0.0000000000000000e+00" purity="5.6201881170272827e-01" nType="1"/>
            <Node pos="r" depth="3" NCoef="0" IVar="-1" Cut="0.0000000000000000e+00" cType="1" res="-9.9000000000000000e+01" rms="0.0000000000000000e+00" purity="4.2979013919830322e-01" nType="-1"/>
          </Node>
          <Node pos="r" depth="2" NCoef="17" fC0="0.0000000000000000e+00" fC1="-4.4736252766800705e-03" fC2="-4.1153204751972552e-02" fC3="0.0000000000000000e+00" fC4="0.0000000000000000e+00" fC5="0.0000000000000000e+00" fC6="3.2254127818207197e-05" fC7="0.0000000000000000e+00" fC8="-4.9390999026138315e-04" fC9="-2.8175261645275860e-04" fC10="1.8961352257237341e-01" fC11="-9.4767864138649183e-02" fC12="-2.4461320558931979e-01" fC13="4.0414493580163491e-04" fC14="5.0420019593432418e-02" fC15="-1.4414134169114466e-05" fC16="2.1169936004783287e+00" IVar="16" Cut="-6.4660668373107910e-02" cType="0" res="-9.9000000000000000e+01" rms="0.0000000000000000e+00" purity="2.5896248221397400e-01" nType="0">
            <Node pos="l" depth="3" NCoef="0" IVar="-1" Cut="0.0000000000000000e+00" cType="1" res="-9.9000000000000000e+01" rms="0.0000000000000000e+00" purity="5.0122386217117310e-01" nType="1"/>
            <Node pos="r" depth="3" NCoef="0" IVar="-1" Cut="0.0000000000000000e+00" cType="1" res="-9.9000000000000000e+01" rms="0.0000000000000000e+00" purity="3.0918540433049202e-02" nType="-1"/>
          </Node>
        </Node>
        <Node pos="r" depth="1" NCoef="0" IVar="-1" Cut="0.0000000000000000e+00" cType="1" res="-9.9000000000000000e+01" rms="0.0000000000000000e+00" purity="1.1031110584735870e-01" nType="-1"/>
      </Node>
    </BinaryTree>
    <BinaryTree type="DecisionTree" boostWeight="1.2014848215770378e-01" itree="10">
      <Node pos="s" depth="0" NCoef="17" fC0="0.0000000000000000e+00" fC1="0.0000000000000000e+00" fC2="0.0000000000000000e+00" fC3="0.0000000000000000e+00" fC4="0.0000000000000000e+00" fC5="0.0000000000000000e+00" fC6="2.7030693581092779e-07" fC7="0.0000000000000000e+00" fC8="-2.1077192442762557e-05" fC9="0.0000000000000000e+00" fC10="2.8767227172265104e-02" fC11="0.0000000000000000e+00" fC12="4.3430332953940394e-02" fC13="1.7632159873658132e-05" fC14="-4.2683342042055837e-02" fC15="4.0214407144482869e-08" fC16="2.1627880396110624e-01" IVar="16" Cut="-4.7840587794780731e-02" cType="0" res="-9.9000000000000000e+01" rms="0.0000000000000000e+00" purity="4.9029225111007690e-01" nType="0">
        <Node pos="l" depth="1" NCoef="0" IVar="4" Cut="6.3262243270874023e+00" cType="0" res="-9.9000000000000000e+01" rms="0.0000000000000000e+00" purity="5.1375412940979004e-01" nType="0">
          <Node pos="l" depth="2" NCoef="0" IVar="-1" Cut="5.5298519134521484e+00" cType="1" res="-9.9000000000000000e+01" rms="0.0000000000000000e+00" purity="6.9268238544464111e-01" nType="1"/>
          <Node pos="r" depth="2" NCoef="0" IVar="5" Cut="8.3022270202636719e+00" cType="0" res="-9.9000000000000000e+01" rms="0.0000000000000000e+00" purity="4.9965098500251770e-01" nType="0">
            <Node pos="l" depth="3" NCoef="0" IVar="-1" Cut="0.0000000000000000e+00" cType="1" res="-9.9000000000000000e+01" rms="0.0000000000000000e+00" purity="5.1070624589920044e-01" nType="1"/>
            <Node pos="r" depth="3" NCoef="0" IVar="-1" Cut="0.0000000000000000e+00" cType="1" res="-9.9000000000000000e+01" rms="0.0000000000000000e+00" purity="3.1614959239959717e-01" nType="-1"/>
          </Node>
        </Node>
        <Node pos="r" depth="1" NCoef="0" IVar="4" Cut="3.7261862754821777e+00" cType="0" res="-9.9000000000000000e+01" rms="0.0000000000000000e+00" purity="3.2020437717437744e-01" nType="0">
          <Node pos="l" depth="2" NCoef="17" fC0="0.0000000000000000e+00" fC1="0.0000000000000000e+00" fC2="0.0000000000000000e+00" fC3="0.0000000000000000e+00" fC4="0.0000000000000000e+00" fC5="0.0000000000000000e+00" fC6="-8.4939287837074360e-06" fC7="0.0000000000000000e+00" fC8="9.2754471414598086e-05" fC9="0.0000000000000000e+00" fC10="2.6646003334746038e-01" fC11="0.0000000000000000e+00" fC12="0.0000000000000000e+00" fC13="-1.7905035384622131e-05" fC14="-1.2494711963670796e-01" fC15="2.1541921229916999e-06" fC16="2.6605300889276502e+00" IVar="16" Cut="3.3733602613210678e-02" cType="0" res="-9.9000000000000000e+01" rms="0.0000000000000000e+00" purity="5.0587743520736694e-01" nType="0">
            <Node pos="l" depth="3" NCoef="0" IVar="-1" Cut="0.0000000000000000e+00" cType="1" res="-9.9000000000000000e+01" rms="0.0000000000000000e+00" purity="6.3256299495697021e-01" nType="1"/>
            <Node pos="r" depth="3" NCoef="0" IVar="-1" Cut="0.0000000000000000e+00" cType="1" res="-9.9000000000000000e+01" rms="0.0000000000000000e+00" purity="3.6520487070083618e-01" nType="-1"/>
          </Node>
          <Node pos="r" depth="2" NCoef="0" IVar="-1" Cut="6.9853790283203125e+02" cType="0" res="-9.9000000000000000e+01" rms="0.0000000000000000e+00" purity="1.1459192633628845e-01" nType="-1"/>
        </Node>
      </Node>
    </BinaryTree>
    <BinaryTree type="DecisionTree" boostWeight="8.0206950893437184e-02" itree="11">
      <Node pos="s" depth="0" NCoef="17" fC0="0.0000000000000000e+00" fC1="0.0000000000000000e+00" fC2="0.0000000000000000e+00" fC3="0.0000000000000000e+00" fC4="0.0000000000000000e+00" fC5="0.0000000000000000e+00" fC6="3.2634902141216608e-07" fC7="0.0000000000000000e+00" fC8="-1.8456759013315521e-05" fC9="0.0000000000000000e+00" fC10="1.8640715190166149e-02" fC11="0.0000000000000000e+00" fC12="3.4044270885710493e-02" fC13="1.4702372575739919e-05" fC14="-3.0034027081940220e-02" fC15="-2.1934237397334704e-08" fC16="1.2135877019399403e-01" IVar="16" Cut="-7.5288087129592896e-02" cType="0" res="-9.9000000000000000e+01" rms="0.0000000000000000e+00" purity="4.6810200810432434e-01" nType="0">
        <Node pos="l" depth="1" NCoef="0" IVar="11" Cut="2.1386165618896484e+00" cType="0" res="-9.9000000000000000e+01" rms="0.0000000000000000e+00" purity="4.7913870215415955e-01" nType="0">
          <Node pos="l" depth="2" NCoef="0" IVar="14" Cut="4.2321615219116211e+00" cType="0" res="-9.9000000000000000e+01" rms="0.0000000000000000e+00" purity="4.9494454264640808e-01" nType="0">
            <Node pos="l" depth="3" NCoef="0" IVar="-1" Cut="0.0000000000000000e+00" cType="1" res="-9.9000000000000000e+01" rms="0.0000000000000000e+00" purity="5.0496029853820801e-01" nType="1"/>
            <Node pos="r" depth="3" NCoef="0" IVar="-1" Cut="0.0000000000000000e+00" cType="1" res="-9.9000000000000000e+01" rms="0.0000000000000000e+00" purity="3.1472322344779968e-01" nType="-1"/>
          </Node>
          <Node pos="r" depth="2" NCoef="17" fC0="0.0000000000000000e+00" fC1="0.0000000000000000e+00" fC2="0.0000000000000000e+00" fC3="0.0000000000000000e+00" fC4="0.0000000000000000e+00" fC5="0.0000000000000000e+00" fC6="8.7579142768191691e-06" fC7="-1.1831084169685016e-05" fC8="-6.6952159533842305e-05" fC9="0.0000000000000000e+00" fC10="1.3625660641169729e-01" fC11="0.0000000000000000e+00" fC12="-1.4997986658444412e-01" fC13="9.9932320442601901e-05" fC14="2.2233206414911708e-02" fC15="-1.9290215187590135e-06" fC16="1.2862018601056442e+00" IVar="-1" Cut="-7.7445290982723236e-02" cType="0" res="-9.9000000000000000e+01" rms="0.0000000000000000e+00" purity="3.3836814761161804e-01" nType="-1"/>
        </Node>
        <Node pos="r" depth="1" NCoef="0" IVar="-1" Cut="0.0000000000000000e+00" cType="1" res="-9.9000000000000000e+01" rms="0.0000000000000000e+00" purity="1.9641588628292084e-01" nType="-1"/>
      </Node>
    </BinaryTree>
    <BinaryTree type="DecisionTree" boostWeight="1.2541911729013638e-01" itree="12">
      <Node pos="s" depth="0" NCoef="17" fC0="0.0000000000000000e+00" fC1="0.0000000000000000e+00" fC2="0.0000000000000000e+00" fC3="0.0000000000000000e+00" fC4="0.0000000000000000e+00" fC5="0.0000000000000000e+00" fC6="2.1847812389820443e-07" fC7="0.0000000000000000e+00" fC8="-1.7448207538112035e-05" fC9="0.0000000000000000e+00" fC10="1.1674646647050460e-02" fC11="0.0000000000000000e+00" fC12="2.7145910898487297e-02" fC13="1.3078249474207272e-05" fC14="-2.5156449741445843e-02" fC15="4.5270333754574078e-08" fC16="8.0065878773781421e-02" IVar="16" Cut="-7.8311532735824585e-02" cType="0" res="-9.9000000000000000e+01" rms="0.0000000000000000e+00" purity="4.5519337058067322e-01" nType="0">
        <Node pos="l" depth="1" NCoef="0" IVar="4" Cut="2.1799733638763428e+00" cType="0" res="-9.9000000000000000e+01" rms="0.0000000000000000e+00" purity="4.6378251910209656e-01" nType="0">
          <Node pos="l" depth="2" NCoef="0" IVar="10" Cut="-6.4658865928649902e+00" cType="0" res="-9.9000000000000000e+01" rms="0.0000000000000000e+00" purity="4.7898229956626892e-01" nType="0">
            <Node pos="l" depth="3" NCoef="0" IVar="-1" Cut="0.0000000000000000e+00" cType="1" res="-9.9000000000000000e+01" rms="0.0000000000000000e+00" purity="5.4000383615493774e-01" nType="1"/>
            <Node pos="r" depth="3" NCoef="0" IVar="-1" Cut="0.0000000000000000e+00" cType="1" res="-9.9000000000000000e+01" rms="0.0000000000000000e+00" purity="4.5849138498306274e-01" nType="-1"/>
          </Node>
          <Node pos="r" depth="2" NCoef="0" IVar="-1" Cut="4.5498056411743164e+00" cType="0" res="-9.9000000000000000e+01" rms="0.0000000000000000e+00" purity="3.2618439197540283e-01" nType="-1"/>
        </Node>
        <Node pos="r" depth="1" NCoef="0" IVar="-1" Cut="0.0000000000000000e+00" cType="1" res="-9.9000000000000000e+01" rms="0.0000000000000000e+00" purity="1.7340309917926788e-01" nType="-1"/>
      </Node>
    </BinaryTree>
    <BinaryTree type="DecisionTree" boostWeight="1.1589875735872361e-01" itree="13">
      <Node pos="s" depth="0" NCoef="17" fC0="0.0000000000000000e+00" fC1="0.0000000000000000e+00" fC2="0.0000000000000000e+00" fC3="0.0000000000000000e+00" fC4="0.0000000000000000e+00" fC5="0.0000000000000000e+00" fC6="1.9111485033114948e-07" fC7="0.0000000000000000e+00" fC8="-1.6903270243568460e-05" fC9="0.0000000000000000e+00" fC10="-1.4387164948934716e-02" fC11="0.0000000000000000e+00" fC12="2.2877571072163969e-02" fC13="1.2221894609548723e-05" fC14="-2.0827336690640418e-02" fC15="5.6642205830371287e-08" fC16="-1.0344274373281558e-01" IVar="16" Cut="-8.5153363645076752e-02" cType="0" res="-9.9000000000000000e+01" rms="0.0000000000000000e+00" purity="4.7253441810607910e-01" nType="0">
        <Node pos="l" depth="1" NCoef="17" fC0="0.0000000000000000e+00" fC1="0.0000000000000000e+00" fC2="0.0000000000000000e+00" fC3="0.0000000000000000e+00" fC4="0.0000000000000000e+00" fC5="0.0000000000000000e+00" fC6="-6.0790383775127066e-07" fC7="0.0000000000000000e+00" fC8="-1.1005283499279447e-05" fC9="0.0000000000000000e+00" fC10="1.0389550270331262e-02" fC11="0.0000000000000000e+00" fC12="-1.9898683975066122e-02" fC13="6.1387690030162680e-06" fC14="1.6144695126837836e-02" fC15="4.5253807476003817e-07" fC16="6.3609887460097575e-02" IVar="16" Cut="-2.5499910116195679e-02" cType="0" res="-9.9000000000000000e+01" rms="0.0000000000000000e+00" purity="4.8229986429214478e-01" nType="0">
          <Node pos="l" depth="2" NCoef="0" IVar="6" Cut="1.5077742187500000e+04" cType="0" res="-9.9000000000000000e+01" rms="0.0000000000000000e+00" purity="4.9418658018112183e-01" nType="0">
            <Node pos="l" depth="3" NCoef="0" IVar="-1" Cut="0.0000000000000000e+00" cType="1" res="-9.9000000000000000e+01" rms="0.0000000000000000e+00" purity="5.2432888746261597e-01" nType="1"/>
            <Node pos="r" depth="3" NCoef="0" IVar="-1" Cut="0.0000000000000000e+00" cType="1" res="-9.9000000000000000e+01" rms="0.0000000000000000e+00" purity="4.3228188157081604e-01" nType="-1"/>
          </Node>
          <Node pos="r" depth="2" NCoef="17" fC0="0.0000000000000000e+00" fC1="0.0000000000000000e+00" fC2="0.0000000000000000e+00" fC3="0.0000000000000000e+00" fC4="0.0000000000000000e+00" fC5="0.0000000000000000e+00" fC6="3.5267557846515840e-05" fC7="2.8567329893007998e-05" fC8="-7.6292802257000604e-04" fC9="-1.1747609259156623e-04" fC10="2.9467943039084171e-01" fC11="0.0000000000000000e+00" fC12="-4.4173975258227799e-01" fC13="6.2966867228312717e-04" fC14="4.0830537484429258e-01" fC15="-3.1332744327220997e-05" fC16="2.0098415654157789e+00" IVar="16" Cut="-8.8445924222469330e-02" cType="0" res="-9.9000000000000000e+01" rms="0.0000000000000000e+00" purity="2.7360957860946655e-01" nType="0">
            <Node pos="l" depth="3" NCoef="0" IVar="-1" Cut="0.0000000000000000e+00" cType="1" res="-9.9000000000000000e+01" rms="0.0000000000000000e+00" purity="5.0444549322128296e-01" nType="1"/>
            <Node pos="r" depth="3" NCoef="0" IVar="-1" Cut="0.0000000000000000e+00" cType="1" res="-9.9000000000000000e+01" rms="0.0000000000000000e+00" purity="4.8272062093019485e-02" nType="-1"/>
          </Node>
        </Node>
        <Node pos="r" depth="1" NCoef="0" IVar="-1" Cut="0.0000000000000000e+00" cType="1" res="-9.9000000000000000e+01" rms="0.0000000000000000e+00" purity="1.6869312524795532e-01" nType="-1"/>
      </Node>
    </BinaryTree>
    <BinaryTree type="DecisionTree" boostWeight="1.0017026944596132e-01" itree="14">
      <Node pos="s" depth="0" NCoef="17" fC0="0.0000000000000000e+00" fC1="0.0000000000000000e+00" fC2="0.0000000000000000e+00" fC3="0.0000000000000000e+00" fC4="0.0000000000000000e+00" fC5="0.0000000000000000e+00" fC6="-1.3262075396105474e-07" fC7="0.0000000000000000e+00" fC8="-1.3816023014548024e-05" fC9="0.0000000000000000e+00" fC10="-1.3808035132263183e-02" fC11="0.0000000000000000e+00" fC12="2.2423841022041098e-02" fC13="1.0129515944073375e-05" fC14="-1.9451558543695492e-02" fC15="-1.9554701066815120e-08" fC16="-9.0738018167619006e-02" IVar="16" Cut="-3.0017081648111343e-02" cType="0" res="-9.9000000000000000e+01" rms="0.0000000000000000e+00" purity="4.6405920386314392e-01" nType="0">
        <Node pos="l" depth="1" NCoef="17" fC0="0.0000000000000000e+00" fC1="0.0000000000000000e+00" fC2="0.0000000000000000e+00" fC3="0.0000000000000000e+00" fC4="0.0000000000000000e+00" fC5="0.0000000000000000e+00" fC6="-1.5532607606367792e-06" fC7="0.0000000000000000e+00" fC8="-7.6198482416237477e-06" fC9="0.0000000000000000e+00" fC10="-2.8924194952517964e-03" fC11="0.0000000000000000e+00" fC12="-7.5550478661243620e-02" fC13="-6.5711684461539931e-06" fC14="8.1632524970074949e-02" fC15="6.1956229012033296e-07" fC16="-8.2224825193633611e-02" IVar="-1" Cut="-8.6624637246131897e-02" cType="0" res="-9.9000000000000000e+01" rms="0.0000000000000000e+00" purity="4.8007321357727051e-01" nType="-1"/>
        <Node pos="r" depth="1" NCoef="0" IVar="4" Cut="4.1108245849609375e+00" cType="0" res="-9.9000000000000000e+01" rms="0.0000000000000000e+00" purity="3.5260179638862610e-01" nType="0">
          <Node pos="l" depth="2" NCoef="17" fC0="0.0000000000000000e+00" fC1="0.0000000000000000e+00" fC2="0.0000000000000000e+00" fC3="0.0000000000000000e+00" fC4="0.0000000000000000e+00" fC5="0.0000000000000000e+00" fC6="-1.0815462476190979e-05" fC7="0.0000000000000000e+00" fC8="1.3025245176241177e-04" fC9="0.0000000000000000e+00" fC10="0.0000000000000000e+00" fC11="6.5785018961587116e-02" fC12="-1.4146138899982774e-01" fC13="-5.2765344832441519e-05" fC14="5.7428848403259174e-02" fC15="7.3214193183209923e-06" fC16="-1.5637769080689545e-01" IVar="16" Cut="-2.7225466445088387e-02" cType="0" res="-9.9000000000000000e+01" rms="0.0000000000000000e+00" purity="4.9042114615440369e-01" nType="0">
            <Node pos="l" depth="3" NCoef="0" IVar="-1" Cut="0.0000000000000000e+00" cType="1" res="-9.9000000000000000e+01" rms="0.0000000000000000e+00" purity="7.0070177316665649e-01" nType="1"/>
            <Node pos="r" depth="3" NCoef="0" IVar="-1" Cut="0.0000000000000000e+00" cType="1" res="-9.9000000000000000e+01" rms="0.0000000000000000e+00" purity="2.9761874675750732e-01" nType="-1"/>
          </Node>
          <Node pos="r" depth="2" NCoef="17" fC0="-7.8590811513890176e+03" fC1="0.0000000000000000e+00" fC2="0.0000000000000000e+00" fC3="-2.2313208465983003e-03" fC4="3.5959237549806999e-01" fC5="1.3658315173879801e-01" fC6="7.6092222494435300e-05" fC7="1.6446332813499666e-04" fC8="-2.2278935262381784e-03" fC9="-6.9281049196466844e-03" fC10="-3.2890579559961872e-02" fC11="6.6129060354520131e-01" fC12="-2.9693085733355118e-01" fC13="1.6279457004679363e-03" fC14="6.2029241786368573e-02" fC15="-7.2504249614860163e-05" fC16="7.8607488209103913e+03" IVar="-1" Cut="-9.3711382150650024e-01" cType="0" res="-9.9000000000000000e+01" rms="0.0000000000000000e+00" purity="1.6268046200275421e-01" nType="-1"/>
        </Node>
      </Node>
    </BinaryTree>
    <BinaryTree type="DecisionTree" boostWeight="1.2903443431430095e-01" itree="15">
      <Node pos="s" depth="0" NCoef="17" fC0="0.0000000000000000e+00" fC1="0.0000000000000000e+00" fC2="0.0000000000000000e+00" fC3="0.0000000000000000e+00" fC4="0.0000000000000000e+00" fC5="0.0000000000000000e+00" fC6="-1.1144823802665585e-07" fC7="0.0000000000000000e+00" fC8="-1.5866003652835359e-05" fC9="0.0000000000000000e+00" fC10="-1.3379590163907015e-02" fC11="0.0000000000000000e+00" fC12="2.5622854107512978e-02" fC13="1.1076301366503366e-05" fC14="-2.2767767989225272e-02" fC15="-5.2750273354083459e-08" fC16="-8.1356772872420408e-02" IVar="16" Cut="-3.8050532341003418e-02" cType="0" res="-9.9000000000000000e+01" rms="0.0000000000000000e+00" purity="4.8727467656135559e-01" nType="0">
        <Node pos="l" depth="1" NCoef="0" IVar="4" Cut="2.1299104690551758e+00" cType="0" res="-9.9000000000000000e+01" rms="0.0000000000000000e+00" purity="5.0308513641357422e-01" nType="0">
          <Node pos="l" depth="2" NCoef="17" fC0="0.0000000000000000e+00" fC1="0.0000000000000000e+00" fC2="0.0000000000000000e+00" fC3="0.0000000000000000e+00" fC4="0.0000000000000000e+00" fC5="0.0000000000000000e+00" fC6="-1.7881577227776360e-06" fC7="0.0000000000000000e+00" fC8="1.0577082321503268e-07" fC9="0.0000000000000000e+00" fC10="-4.9461221794255043e-02" fC11="0.0000000000000000e+00" fC12="-5.6147146720971541e-02" fC13="-1.2673911051128963e-05" fC14="7.5317063947938079e-02" fC15="8.6433032676191061e-07" fC16="-4.7306845088113841e-01" IVar="16" Cut="-1.8052952364087105e-02" cType="0" res="-9.9000000000000000e+01" rms="0.0000000000000000e+00" purity="5.1601487398147583e-01" nType="0">
            <Node pos="l" depth="3" NCoef="0" IVar="-1" Cut="0.0000000000000000e+00" cType="1" res="-9.9000000000000000e+01" rms="0.0000000000000000e+00" purity="5.4236322641372681e-01" nType="1"/>
            <Node pos="r" depth="3" NCoef="0" IVar="-1" Cut="0.0000000000000000e+00" cType="1" res="-9.9000000000000000e+01" rms="0.0000000000000000e+00" purity="4.4773614406585693e-01" nType="-1"/>
          </Node>
          <Node pos="r" depth="2" NCoef="17" fC0="0.0000000000000000e+00" fC1="0.0000000000000000e+00" fC2="0.0000000000000000e+00" fC3="0.0000000000000000e+00" fC4="0.0000000000000000e+00" fC5="0.0000000000000000e+00" fC6="6.0389186507596391e-06" fC7="0.0000000000000000e+00" fC8="-2.9266497353312861e-04" fC9="0.0000000000000000e+00" fC10="5.3204674463858326e-01" fC11="-6.3423433051332120e-02" fC12="1.9385928077264691e-01" fC13="1.8309204454523497e-04" fC14="-3.6169786462684633e-01" fC15="-3.8588204585873467e-06" fC16="5.0989483827540747e+00" IVar="-1" Cut="6.4923483878374100e-03" cType="0" res="-9.9000000000000000e+01" rms="0.0000000000000000e+00" purity="3.6764112114906311e-01" nType="-1"/>
        </Node>
        <Node pos="r" depth="1" NCoef="0" IVar="4" Cut="4.1108245849609375e+00" cType="0" res="-9.9000000000000000e+01" rms="0.0000000000000000e+00" purity="3.4537154436111450e-01" nType="0">
          <Node pos="l" depth="2" NCoef="0" IVar="-1" Cut="0.0000000000000000e+00" cType="1" res="-9.9000000000000000e+01" rms="0.0000000000000000e+00" purity="5.1202231645584106e-01" nType="1"/>
          <Node pos="r" depth="2" NCoef="0" IVar="-1" Cut="0.0000000000000000e+00" cType="1" res="-9.9000000000000000e+01" rms="0.0000000000000000e+00" purity="1.7361712455749512e-01" nType="-1"/>
        </Node>
      </Node>
    </BinaryTree>
    <BinaryTree type="DecisionTree" boostWeight="1.2119601076813674e-01" itree="16">
      <Node pos="s" depth="0" NCoef="17" fC0="0.0000000000000000e+00" fC1="0.0000000000000000e+00" fC2="0.0000000000000000e+00" fC3="0.0000000000000000e+00" fC4="0.0000000000000000e+00" fC5="0.0000000000000000e+00" fC6="1.2933754175094910e-07" fC7="0.0000000000000000e+00" fC8="-1.1196767859758054e-05" fC9="0.0000000000000000e+00" fC10="6.1248218529983585e-03" fC11="0.0000000000000000e+00" fC12="3.0091359590394173e-02" fC13="1.1960618276647965e-05" fC14="-3.6383750976310261e-02" fC15="-1.5520412428630944e-07" fC16="1.0239531208086071e-01" IVar="16" Cut="-6.5382219851016998e-02" cType="0" res="-9.9000000000000000e+01" rms="0.0000000000000000e+00" purity="4.7784444689750671e-01" nType="0">
        <Node pos="l" depth="1" NCoef="0" IVar="11" Cut="2.1218750476837158e+00" cType="0" res="-9.9000000000000000e+01" rms="0.0000000000000000e+00" purity="4.8752281069755554e-01" nType="0">
          <Node pos="l" depth="2" NCoef="0" IVar="11" Cut="4.0020918846130371e+00" cType="1" res="-9.9000000000000000e+01" rms="0.0000000000000000e+00" purity="4.9686151742935181e-01" nType="0">
            <Node pos="l" depth="3" NCoef="0" IVar="-1" Cut="0.0000000000000000e+00" cType="1" res="-9.9000000000000000e+01" rms="0.0000000000000000e+00" purity="5.3224879503250122e-01" nType="1"/>
            <Node pos="r" depth="3" NCoef="0" IVar="-1" Cut="0.0000000000000000e+00" cType="1" res="-9.9000000000000000e+01" rms="0.0000000000000000e+00" purity="4.4046512246131897e-01" nType="-1"/>
          </Node>
          <Node pos="r" depth="2" NCoef="0" IVar="13" Cut="3.0189870605468750e+03" cType="0" res="-9.9000000000000000e+01" rms="0.0000000000000000e+00" purity="3.9314693212509155e-01" nType="0">
            <Node pos="l" depth="3" NCoef="0" IVar="-1" Cut="0.0000000000000000e+00" cType="1" res="-9.9000000000000000e+01" rms="0.0000000000000000e+00" purity="5.5072176456451416e-01" nType="1"/>
            <Node pos="r" depth="3" NCoef="0" IVar="-1" Cut="0.0000000000000000e+00" cType="1" res="-9.9000000000000000e+01" rms="0.0000000000000000e+00" purity="2.6197072863578796e-01" nType="-1"/>
          </Node>
        </Node>
        <Node pos="r" depth="1" NCoef="0" IVar="-1" Cut="3.3415479660034180e+00" cType="0" res="-9.9000000000000000e+01" rms="0.0000000000000000e+00" purity="2.9897904396057129e-01" nType="-1"/>
      </Node>
    </BinaryTree>
    <BinaryTree type="DecisionTree" boostWeight="1.1319117730031766e-01" itree="17">
      <Node pos="s" depth="0" NCoef="0" IVar="10" Cut="-5.5748510360717773e+00" cType="1" res="-9.9000000000000000e+01" rms="0.0000000000000000e+00" purity="4.7346085309982300e-01" nType="0">
        <Node pos="l" depth="1" NCoef="0" IVar="10" Cut="-6.2744159698486328e+00" cType="0" res="-9.9000000000000000e+01" rms="0.0000000000000000e+00" purity="4.8091500997543335e-01" nType="0">
          <Node pos="l" depth="2" NCoef="0" IVar="13" Cut="1.1930780029296875e+03" cType="0" res="-9.9000000000000000e+01" rms="0.0000000000000000e+00" purity="5.7607406377792358e-01" nType="0">
            <Node pos="l" depth="3" NCoef="0" IVar="-1" Cut="0.0000000000000000e+00" cType="1" res="-9.9000000000000000e+01" rms="0.0000000000000000e+00" purity="6.6828513145446777e-01" nType="1"/>
            <Node pos="r" depth="3" NCoef="0" IVar="-1" Cut="0.0000000000000000e+00" cType="1" res="-9.9000000000000000e+01" rms="0.0000000000000000e+00" purity="3.8065749406814575e-01" nType="-1"/>
          </Node>
          <Node pos="r" depth="2" NCoef="0" IVar="-1" Cut="4.9053816795349121e+00" cType="1" res="-9.9000000000000000e+01" rms="0.0000000000000000e+00" purity="4.6592065691947937e-01" nType="-1"/>
        </Node>
        <Node pos="r" depth="1" NCoef="0" IVar="-1" Cut="0.0000000000000000e+00" cType="1" res="-9.9000000000000000e+01" rms="0.0000000000000000e+00" purity="3.0393210053443909e-01" nType="-1"/>
      </Node>
    </BinaryTree>
    <BinaryTree type="DecisionTree" boostWeight="8.6462607970243063e-02" itree="18">
      <Node pos="s" depth="0" NCoef="17" fC0="0.0000000000000000e+00" fC1="0.0000000000000000e+00" fC2="0.0000000000000000e+00" fC3="0.0000000000000000e+00" fC4="0.0000000000000000e+00" fC5="0.0000000000000000e+00" fC6="-9.5412270789972925e-08" fC7="0.0000000000000000e+00" fC8="-1.0228001735283074e-05" fC9="0.0000000000000000e+00" fC10="7.0877045917329814e-03" fC11="0.0000000000000000e+00" fC12="2.6615412561281880e-02" fC13="1.2480594384448526e-05" fC14="-2.8593613414101399e-02" fC15="-1.2103848641614820e-07" fC16="7.8811802713527848e-02" IVar="16" Cut="-7.7834844589233398e-02" cType="0" res="-9.9000000000000000e+01" rms="0.0000000000000000e+00" purity="4.9669909477233887e-01" nType="0">
        <Node pos="l" depth="1" NCoef="0" IVar="4" Cut="2.1799733638763428e+00" cType="0" res="-9.9000000000000000e+01" rms="0.0000000000000000e+00" purity="5.0363737344741821e-01" nType="0">
          <Node pos="l" depth="2" NCoef="0" IVar="4" Cut="3.2800562381744385e+00" cType="1" res="-9.9000000000000000e+01" rms="0.0000000000000000e+00" purity="5.1431459188461304e-01" nType="0">
            <Node pos="l" depth="3" NCoef="0" IVar="-1" Cut="0.0000000000000000e+00" cType="1" res="-9.9000000000000000e+01" rms="0.0000000000000000e+00" purity="5.7011747360229492e-01" nType="1"/>
            <Node pos="r" depth="3" NCoef="0" IVar="-1" Cut="0.0000000000000000e+00" cType="1" res="-9.9000000000000000e+01" rms="0.0000000000000000e+00" purity="4.9092814326286316e-01" nType="-1"/>
          </Node>
          <Node pos="r" depth="2" NCoef="0" IVar="12" Cut="4.5498056411743164e+00" cType="0" res="-9.9000000000000000e+01" rms="0.0000000000000000e+00" purity="4.0203604102134705e-01" nType="0">
            <Node pos="l" depth="3" NCoef="0" IVar="-1" Cut="0.0000000000000000e+00" cType="1" res="-9.9000000000000000e+01" rms="0.0000000000000000e+00" purity="5.3353744745254517e-01" nType="1"/>
            <Node pos="r" depth="3" NCoef="0" IVar="-1" Cut="0.0000000000000000e+00" cType="1" res="-9.9000000000000000e+01" rms="0.0000000000000000e+00" purity="2.3845514655113220e-01" nType="-1"/>
          </Node>
        </Node>
        <Node pos="r" depth="1" NCoef="0" IVar="-1" Cut="0.0000000000000000e+00" cType="1" res="-9.9000000000000000e+01" rms="0.0000000000000000e+00" purity="2.6436978578567505e-01" nType="-1"/>
      </Node>
    </BinaryTree>
    <BinaryTree type="DecisionTree" boostWeight="1.3650537617834282e-01" itree="19">
      <Node pos="s" depth="0" NCoef="17" fC0="0.0000000000000000e+00" fC1="0.0000000000000000e+00" fC2="0.0000000000000000e+00" fC3="0.0000000000000000e+00" fC4="0.0000000000000000e+00" fC5="0.0000000000000000e+00" fC6="1.2844688959098432e-07" fC7="0.0000000000000000e+00" fC8="-1.3843465091738994e-05" fC9="0.0000000000000000e+00" fC10="1.4450646721331787e-02" fC11="0.0000000000000000e+00" fC12="2.2085999698645858e-02" fC13="1.5586074978799729e-05" fC14="-2.4002400923459476e-02" fC15="-2.6275938966329553e-07" fC16="1.2186454639414510e-01" IVar="16" Cut="-2.5153664872050285e-02" cType="0" res="-9.9000000000000000e+01" rms="0.0000000000000000e+00" purity="5.0489687919616699e-01" nType="0">
        <Node pos="l" depth="1" NCoef="0" IVar="14" Cut="4.0361752510070801e+00" cType="0" res="-9.9000000000000000e+01" rms="0.0000000000000000e+00" purity="5.1769042015075684e-01" nType="0">
          <Node pos="l" depth="2" NCoef="0" IVar="0" Cut="9.9991911649703979e-01" cType="0" res="-9.9000000000000000e+01" rms="0.0000000000000000e+00" purity="5.2666097879409790e-01" nType="0">
            <Node pos="l" depth="3" NCoef="0" IVar="-1" Cut="0.0000000000000000e+00" cType="1" res="-9.9000000000000000e+01" rms="0.0000000000000000e+00" purity="5.3570795059204102e-01" nType="1"/>
            <Node pos="r" depth="3" NCoef="0" IVar="-1" Cut="0.0000000000000000e+00" cType="1" res="-9.9000000000000000e+01" rms="0.0000000000000000e+00" purity="3.2707968354225159e-01" nType="-1"/>
          </Node>
          <Node pos="r" depth="2" NCoef="0" IVar="-1" Cut="3.6230878829956055e+00" cType="1" res="-9.9000000000000000e+01" rms="0.0000000000000000e+00" purity="3.7968340516090393e-01" nType="-1"/>
        </Node>
        <Node pos="r" depth="1" NCoef="0" IVar="13" Cut="5.9121716308593750e+02" cType="0" res="-9.9000000000000000e+01" rms="0.0000000000000000e+00" purity="4.1854232549667358e-01" nType="0">
          <Node pos="l" depth="2" NCoef="17" fC0="0.0000000000000000e+00" fC1="0.0000000000000000e+00" fC2="0.0000000000000000e+00" fC3="0.0000000000000000e+00" fC4="0.0000000000000000e+00" fC5="0.0000000000000000e+00" fC6="-3.6586201857778239e-06" fC7="0.0000000000000000e+00" fC8="3.3186345328457606e-05" fC9="0.0000000000000000e+00" fC10="4.6619775279354797e-01" fC11="0.0000000000000000e+00" fC12="0.0000000000000000e+00" fC13="6.0213611104242264e-05" fC14="-1.9666756348310610e-01" fC15="8.4271275541456015e-07" fC16="4.2744764351455151e+00" IVar="16" Cut="-5.7786658406257629e-02" cType="0" res="-9.9000000000000000e+01" rms="0.0000000000000000e+00" purity="5.1846176385879517e-01" nType="0">
            <Node pos="l" depth="3" NCoef="0" IVar="-1" Cut="0.0000000000000000e+00" cType="1" res="-9.9000000000000000e+01" rms="0.0000000000000000e+00" purity="6.2324649095535278e-01" nType="1"/>
            <Node pos="r" depth="3" NCoef="0" IVar="-1" Cut="0.0000000000000000e+00" cType="1" res="-9.9000000000000000e+01" rms="0.0000000000000000e+00" purity="2.8726527094841003e-01" nType="-1"/>
          </Node>
          <Node pos="r" depth="2" NCoef="0" IVar="-1" Cut="0.0000000000000000e+00" cType="1" res="-9.9000000000000000e+01" rms="0.0000000000000000e+00" purity="8.3660006523132324e-02" nType="-1"/>
        </Node>
      </Node>
    </BinaryTree>
    <BinaryTree type="DecisionTree" boostWeight="6.2848488684653633e-02" itree="20">
      <Node pos="s" depth="0" NCoef="0" IVar="10" Cut="-5.5748510360717773e+00" cType="1" res="-9.9000000000000000e+01" rms="0.0000000000000000e+00" purity="4.8081836104393005e-01" nType="0">
        <Node pos="l" depth="1" NCoef="0" IVar="4" Cut="2.1799733638763428e+00" cType="0" res="-9.9000000000000000e+01" rms="0.0000000000000000e+00" purity="4.8740214109420776e-01" nType="0">
          <Node pos="l" depth="2" NCoef="0" IVar="2" Cut="1.3653454780578613e+01" cType="0" res="-9.9000000000000000e+01" rms="0.0000000000000000e+00" purity="4.9715310335159302e-01" nType="0">
            <Node pos="l" depth="3" NCoef="0" IVar="-1" Cut="0.0000000000000000e+00" cType="1" res="-9.9000000000000000e+01" rms="0.0000000000000000e+00" purity="6.5061604976654053e-01" nType="1"/>
            <Node pos="r" depth="3" NCoef="0" IVar="-1" Cut="0.0000000000000000e+00" cType="1" res="-9.9000000000000000e+01" rms="0.0000000000000000e+00" purity="4.8956695199012756e-01" nType="-1"/>
          </Node>
          <Node pos="r" depth="2" NCoef="0" IVar="-1" Cut="8.0070343017578125e+00" cType="1" res="-9.9000000000000000e+01" rms="0.0000000000000000e+00" purity="4.0272548794746399e-01" nType="-1"/>
        </Node>
        <Node pos="r" depth="1" NCoef="0" IVar="-1" Cut="0.0000000000000000e+00" cType="1" res="-9.9000000000000000e+01" rms="0.0000000000000000e+00" purity="3.2719820737838745e-01" nType="-1"/>
      </Node>
    </BinaryTree>
    <BinaryTree type="DecisionTree" boostWeight="1.2125466156560850e-01" itree="21">
      <Node pos="s" depth="0" NCoef="0" IVar="10" Cut="-5.5748510360717773e+00" cType="1" res="-9.9000000000000000e+01" rms="0.0000000000000000e+00" purity="4.9524348974227905e-01" nType="0">
        <Node pos="l" depth="1" NCoef="17" fC0="0.0000000000000000e+00" fC1="0.0000000000000000e+00" fC2="0.0000000000000000e+00" fC3="0.0000000000000000e+00" fC4="0.0000000000000000e+00" fC5="0.0000000000000000e+00" fC6="-4.9110752394483446e-07" fC7="0.0000000000000000e+00" fC8="-1.5844038841212036e-06" fC9="0.0000000000000000e+00" fC10="4.1420888936013839e-02" fC11="0.0000000000000000e+00" fC12="-3.6991799443742610e-03" fC13="8.2377748746918864e-06" fC14="-5.2031350555842622e-03" fC15="-4.1207591791611899e-08" fC16="3.2974765308862247e-01" IVar="16" Cut="-3.2230787910521030e-03" cType="0" res="-9.9000000000000000e+01" rms="0.0000000000000000e+00" purity="5.0178498029708862e-01" nType="0">
          <Node pos="l" depth="2" NCoef="17" fC0="0.0000000000000000e+00" fC1="0.0000000000000000e+00" fC2="0.0000000000000000e+00" fC3="0.0000000000000000e+00" fC4="0.0000000000000000e+00" fC5="0.0000000000000000e+00" fC6="7.5776665229598975e-07" fC7="0.0000000000000000e+00" fC8="-1.4204498486814367e-05" fC9="0.0000000000000000e+00" fC10="0.0000000000000000e+00" fC11="0.0000000000000000e+00" fC12="0.0000000000000000e+00" fC13="7.8629217782574630e-06" fC14="0.0000000000000000e+00" fC15="-7.9158430919269704e-07" fC16="2.0873413689627963e-02" IVar="16" Cut="2.3378375917673111e-03" cType="0" res="-9.9000000000000000e+01" rms="0.0000000000000000e+00" purity="5.3357243537902832e-01" nType="0">
            <Node pos="l" depth="3" NCoef="0" IVar="-1" Cut="0.0000000000000000e+00" cType="1" res="-9.9000000000000000e+01" rms="0.0000000000000000e+00" purity="5.8998399972915649e-01" nType="1"/>
            <Node pos="r" depth="3" NCoef="0" IVar="-1" Cut="0.0000000000000000e+00" cType="1" res="-9.9000000000000000e+01" rms="0.0000000000000000e+00" purity="4.8082143068313599e-01" nType="-1"/>
          </Node>
          <Node pos="r" depth="2" NCoef="0" IVar="14" Cut="5.4389519691467285e+00" cType="1" res="-9.9000000000000000e+01" rms="0.0000000000000000e+00" purity="4.6204295754432678e-01" nType="0">
            <Node pos="l" depth="3" NCoef="0" IVar="-1" Cut="0.0000000000000000e+00" cType="1" res="-9.9000000000000000e+01" rms="0.0000000000000000e+00" purity="5.1700592041015625e-01" nType="1"/>
            <Node pos="r" depth="3" NCoef="0" IVar="-1" Cut="0.0000000000000000e+00" cType="1" res="-9.9000000000000000e+01" rms="0.0000000000000000e+00" purity="3.6591884493827820e-01" nType="-1"/>
          </Node>
        </Node>
        <Node pos="r" depth="1" NCoef="0" IVar="-1" Cut="0.0000000000000000e+00" cType="1" res="-9.9000000000000000e+01" rms="0.0000000000000000e+00" purity="3.4118092060089111e-01" nType="-1"/>
      </Node>
    </BinaryTree>
    <BinaryTree type="DecisionTree" boostWeight="2.3124372711102564e-01" itree="22">
      <Node pos="s" depth="0" NCoef="0" IVar="7" Cut="1.0526492187500000e+04" cType="0" res="-9.9000000000000000e+01" rms="0.0000000000000000e+00" purity="4.9345374107360840e-01" nType="0">
        <Node pos="l" depth="1" NCoef="17" fC0="0.0000000000000000e+00" fC1="0.0000000000000000e+00" fC2="0.0000000000000000e+00" fC3="0.0000000000000000e+00" fC4="0.0000000000000000e+00" fC5="0.0000000000000000e+00" fC6="2.1949416868642721e-07" fC7="0.0000000000000000e+00" fC8="-4.3115388623990732e-05" fC9="-1.4179735237459555e-04" fC10="3.8403905273971993e-02" fC11="0.0000000000000000e+00" fC12="-6.8412760528593439e-03" fC13="5.3711212393947747e-05" fC14="-8.9067724064435562e-03" fC15="-4.6646944484249451e-07" fC16="4.2879572417831580e-01" IVar="16" Cut="-6.0101401060819626e-02" cType="0" res="-9.9000000000000000e+01" rms="0.0000000000000000e+00" purity="5.3344249725341797e-01" nType="0">
          <Node pos="l" depth="2" NCoef="0" IVar="-1" Cut="6.6955108642578125e+00" cType="0" res="-9.9000000000000000e+01" rms="0.0000000000000000e+00" purity="5.6074827909469604e-01" nType="1"/>
          <Node pos="r" depth="2" NCoef="0" IVar="-1" Cut="0.0000000000000000e+00" cType="1" res="-9.9000000000000000e+01" rms="0.0000000000000000e+00" purity="3.5394379496574402e-01" nType="-1"/>
        </Node>
        <Node pos="r" depth="1" NCoef="0" IVar="9" Cut="4.8776147460937500e+02" cType="1" res="-9.9000000000000000e+01" rms="0.0000000000000000e+00" purity="4.6521875262260437e-01" nType="0">
          <Node pos="l" depth="2" NCoef="0" IVar="-1" Cut="0.0000000000000000e+00" cType="1" res="-9.9000000000000000e+01" rms="0.0000000000000000e+00" purity="1.0000000000000000e+00" nType="1"/>
          <Node pos="r" depth="2" NCoef="0" IVar="-1" Cut="1.4293565673828125e+03" cType="0" res="-9.9000000000000000e+01" rms="0.0000000000000000e+00" purity="4.0034180879592896e-01" nType="-1"/>
        </Node>
      </Node>
    </BinaryTree>
    <BinaryTree type="DecisionTree" boostWeight="2.0355347684614225e-01" itree="23">
      <Node pos="s" depth="0" NCoef="17" fC0="0.0000000000000000e+00" fC1="0.0000000000000000e+00" fC2="0.0000000000000000e+00" fC3="0.0000000000000000e+00" fC4="0.0000000000000000e+00" fC5="0.0000000000000000e+00" fC6="4.0335149403048708e-09" fC7="0.0000000000000000e+00" fC8="-9.4360250147798336e-07" fC9="0.0000000000000000e+00" fC10="-1.0706672653756844e-02" fC11="0.0000000000000000e+00" fC12="1.9725761561505462e-02" fC13="8.7127170819298161e-06" fC14="-4.0009468608090933e-03" fC15="-4.8734906809590180e-07" fC16="-1.4825740515423541e-01" IVar="16" Cut="-1.6002461314201355e-02" cType="0" res="-9.9000000000000000e+01" rms="0.0000000000000000e+00" purity="5.0242322683334351e-01" nType="0">
        <Node pos="l" depth="1" NCoef="0" IVar="4" Cut="6.4152078628540039e+00" cType="0" res="-9.9000000000000000e+01" rms="0.0000000000000000e+00" purity="5.3075766563415527e-01" nType="0">
          <Node pos="l" depth="2" NCoef="0" IVar="-1" Cut="7.2405304908752441e+00" cType="1" res="-9.9000000000000000e+01" rms="0.0000000000000000e+00" purity="7.0548194646835327e-01" nType="1"/>
          <Node pos="r" depth="2" NCoef="0" IVar="1" Cut="1.2072059631347656e+01" cType="1" res="-9.9000000000000000e+01" rms="0.0000000000000000e+00" purity="5.1410549879074097e-01" nType="0">
            <Node pos="l" depth="3" NCoef="0" IVar="-1" Cut="0.0000000000000000e+00" cType="1" res="-9.9000000000000000e+01" rms="0.0000000000000000e+00" purity="5.3504276275634766e-01" nType="1"/>
            <Node pos="r" depth="3" NCoef="0" IVar="-1" Cut="0.0000000000000000e+00" cType="1" res="-9.9000000000000000e+01" rms="0.0000000000000000e+00" purity="3.3283987641334534e-01" nType="-1"/>
          </Node>
        </Node>
        <Node pos="r" depth="1" NCoef="17" fC0="0.0000000000000000e+00" fC1="0.0000000000000000e+00" fC2="0.0000000000000000e+00" fC3="0.0000000000000000e+00" fC4="0.0000000000000000e+00" fC5="0.0000000000000000e+00" fC6="3.7187365202035501e-06" fC7="1.0050804529394541e-05" fC8="-1.2013400817530997e-04" fC9="-3.9821661891322813e-04" fC10="9.1065878471726494e-02" fC11="0.0000000000000000e+00" fC12="0.0000000000000000e+00" fC13="1.0539402697629908e-04" fC14="-7.6390238068406155e-02" fC15="-2.5567565964219778e-06" fC16="1.1724278711216787e+00" IVar="16" Cut="-3.2799143344163895e-02" cType="0" res="-9.9000000000000000e+01" rms="0.0000000000000000e+00" purity="4.3493917584419250e-01" nType="0">
          <Node pos="l" depth="2" NCoef="17" fC0="0.0000000000000000e+00" fC1="0.0000000000000000e+00" fC2="0.0000000000000000e+00" fC3="0.0000000000000000e+00" fC4="0.0000000000000000e+00" fC5="0.0000000000000000e+00" fC6="4.7378662773290899e-09" fC7="4.2081719752873503e-06" fC8="-9.6980210065131871e-05" fC9="-2.6143637719077388e-04" fC10="1.3964243487628017e-01" fC11="0.0000000000000000e+00" fC12="-1.0237816168473386e-01" fC13="-4.9096930117956673e-05" fC14="5.5860770951478445e-03" fC15="2.3538045282603056e-06" fC16="1.5536111248787368e+00" IVar="16" Cut="1.2384956330060959e-01" cType="0" res="-9.9000000000000000e+01" rms="0.0000000000000000e+00" purity="5.1563137769699097e-01" nType="0">
            <Node pos="l" depth="3" NCoef="0" IVar="-1" Cut="0.0000000000000000e+00" cType="1" res="-9.9000000000000000e+01" rms="0.0000000000000000e+00" purity="7.9780644178390503e-01" nType="1"/>
            <Node pos="r" depth="3" NCoef="0" IVar="-1" Cut="0.0000000000000000e+00" cType="1" res="-9.9000000000000000e+01" rms="0.0000000000000000e+00" purity="4.2703762650489807e-01" nType="-1"/>
          </Node>
          <Node pos="r" depth="2" NCoef="17" fC0="0.0000000000000000e+00" fC1="0.0000000000000000e+00" fC2="0.0000000000000000e+00" fC3="0.0000000000000000e+00" fC4="0.0000000000000000e+00" fC5="0.0000000000000000e+00" fC6="1.5926066033790527e-06" fC7="2.2955042861094237e-05" fC8="-2.8617321542707004e-04" fC9="-1.3570617256999384e-03" fC10="2.6398853024595786e-01" fC11="2.8908680132494835e-01" fC12="-2.0879630825175982e-01" fC13="5.6045196456234417e-04" fC14="-1.1866316382527833e-01" fC15="-8.6561416969347674e-06" fC16="2.9620099003007487e+00" IVar="16" Cut="7.1413621306419373e-02" cType="0" res="-9.9000000000000000e+01" rms="0.0000000000000000e+00" purity="2.9601883888244629e-01" nType="0">
            <Node pos="l" depth="3" NCoef="0" IVar="-1" Cut="0.0000000000000000e+00" cType="1" res="-9.9000000000000000e+01" rms="0.0000000000000000e+00" purity="6.5867841243743896e-01" nType="1"/>
            <Node pos="r" depth="3" NCoef="0" IVar="-1" Cut="0.0000000000000000e+00" cType="1" res="-9.9000000000000000e+01" rms="0.0000000000000000e+00" purity="1.3479933142662048e-01" nType="-1"/>
          </Node>
        </Node>
      </Node>
    </BinaryTree>
    <BinaryTree type="DecisionTree" boostWeight="9.9081370754498410e-02" itree="24">
      <Node pos="s" depth="0" NCoef="0" IVar="4" Cut="2.1799733638763428e+00" cType="0" res="-9.9000000000000000e+01" rms="0.0000000000000000e+00" purity="4.8012626171112061e-01" nType="0">
        <Node pos="l" depth="1" NCoef="0" IVar="12" Cut="6.6541299819946289e+00" cType="0" res="-9.9000000000000000e+01" rms="0.0000000000000000e+00" purity="4.9210366606712341e-01" nType="0">
          <Node pos="l" depth="2" NCoef="17" fC0="0.0000000000000000e+00" fC1="0.0000000000000000e+00" fC2="0.0000000000000000e+00" fC3="0.0000000000000000e+00" fC4="0.0000000000000000e+00" fC5="0.0000000000000000e+00" fC6="3.2324854647475864e-07" fC7="2.4425101167077002e-05" fC8="-1.2750938103818843e-04" fC9="-5.5505420248188589e-04" fC10="0.0000000000000000e+00" fC11="0.0000000000000000e+00" fC12="0.0000000000000000e+00" fC13="1.5292325894833238e-04" fC14="0.0000000000000000e+00" fC15="-1.7069741439323548e-06" fC16="6.0232491708307814e-02" IVar="16" Cut="9.8060909658670425e-03" cType="0" res="-9.9000000000000000e+01" rms="0.0000000000000000e+00" purity="5.5765515565872192e-01" nType="0">
            <Node pos="l" depth="3" NCoef="0" IVar="-1" Cut="0.0000000000000000e+00" cType="1" res="-9.9000000000000000e+01" rms="0.0000000000000000e+00" purity="7.1886473894119263e-01" nType="1"/>
            <Node pos="r" depth="3" NCoef="0" IVar="-1" Cut="0.0000000000000000e+00" cType="1" res="-9.9000000000000000e+01" rms="0.0000000000000000e+00" purity="4.4848865270614624e-01" nType="-1"/>
          </Node>
          <Node pos="r" depth="2" NCoef="0" IVar="5" Cut="9.9371662139892578e+00" cType="1" res="-9.9000000000000000e+01" rms="0.0000000000000000e+00" purity="4.8262482881546021e-01" nType="0">
            <Node pos="l" depth="3" NCoef="0" IVar="-1" Cut="0.0000000000000000e+00" cType="1" res="-9.9000000000000000e+01" rms="0.0000000000000000e+00" purity="5.0679904222488403e-01" nType="1"/>
            <Node pos="r" depth="3" NCoef="0" IVar="-1" Cut="0.0000000000000000e+00" cType="1" res="-9.9000000000000000e+01" rms="0.0000000000000000e+00" purity="4.1811299324035645e-01" nType="-1"/>
          </Node>
        </Node>
        <Node pos="r" depth="1" NCoef="17" fC0="0.0000000000000000e+00" fC1="0.0000000000000000e+00" fC2="0.0000000000000000e+00" fC3="0.0000000000000000e+00" fC4="0.0000000000000000e+00" fC5="0.0000000000000000e+00" fC6="5.5273128108348976e-06" fC7="0.0000000000000000e+00" fC8="-2.6037238097007843e-04" fC9="0.0000000000000000e+00" fC10="3.6655762100758532e-01" fC11="0.0000000000000000e+00" fC12="0.0000000000000000e+00" fC13="1.5142758279358348e-04" fC14="-1.6367612196122261e-01" fC15="-3.6799936155832730e-06" fC16="3.5984554553994985e+00" IVar="16" Cut="1.0103365406394005e-02" cType="0" res="-9.9000000000000000e+01" rms="0.0000000000000000e+00" purity="3.7102848291397095e-01" nType="0">
          <Node pos="l" depth="2" NCoef="0" IVar="-1" Cut="0.0000000000000000e+00" cType="1" res="-9.9000000000000000e+01" rms="0.0000000000000000e+00" purity="5.1683723926544189e-01" nType="1"/>
          <Node pos="r" depth="2" NCoef="17" fC0="8.1272947581410551e+02" fC1="-3.5851624018577695e-03" fC2="0.0000000000000000e+00" fC3="4.5602146114275587e-05" fC4="0.0000000000000000e+00" fC5="0.0000000000000000e+00" fC6="-1.4889491169408494e-05" fC7="1.0457502682416197e-05" fC8="3.7393360101580316e-04" fC9="0.0000000000000000e+00" fC10="-1.8784844761538011e-01" fC11="1.9650129194458348e-02" fC12="2.1729033115888666e-01" fC13="-2.2057240410430768e-04" fC14="-4.9509334209663754e-02" fC15="4.5362224256790758e-06" fC16="-8.1501218047019961e+02" IVar="-1" Cut="-1.4868891797959805e-02" cType="0" res="-9.9000000000000000e+01" rms="0.0000000000000000e+00" purity="2.3636713624000549e-01" nType="-1"/>
        </Node>
      </Node>
    </BinaryTree>
    <BinaryTree type="DecisionTree" boostWeight="9.9268448092144204e-02" itree="25">
      <Node pos="s" depth="0" NCoef="0" IVar="4" Cut="2.1799733638763428e+00" cType="0" res="-9.9000000000000000e+01" rms="0.0000000000000000e+00" purity="4.7176572680473328e-01" nType="0">
        <Node pos="l" depth="1" NCoef="0" IVar="12" Cut="6.6541299819946289e+00" cType="0" res="-9.9000000000000000e+01" rms="0.0000000000000000e+00" purity="4.8280429840087891e-01" nType="0">
          <Node pos="l" depth="2" NCoef="0" IVar="1" Cut="5.3483424186706543e+00" cType="1" res="-9.9000000000000000e+01" rms="0.0000000000000000e+00" purity="5.6316381692886353e-01" nType="0">
            <Node pos="l" depth="3" NCoef="0" IVar="-1" Cut="0.0000000000000000e+00" cType="1" res="-9.9000000000000000e+01" rms="0.0000000000000000e+00" purity="7.0038181543350220e-01" nType="1"/>
            <Node pos="r" depth="3" NCoef="0" IVar="-1" Cut="0.0000000000000000e+00" cType="1" res="-9.9000000000000000e+01" rms="0.0000000000000000e+00" purity="4.4208022952079773e-01" nType="-1"/>
          </Node>
          <Node pos="r" depth="2" NCoef="0" IVar="-1" Cut="1.1352220458984375e+03" cType="0" res="-9.9000000000000000e+01" rms="0.0000000000000000e+00" purity="4.7129008173942566e-01" nType="-1"/>
        </Node>
        <Node pos="r" depth="1" NCoef="17" fC0="0.0000000000000000e+00" fC1="0.0000000000000000e+00" fC2="0.0000000000000000e+00" fC3="0.0000000000000000e+00" fC4="0.0000000000000000e+00" fC5="0.0000000000000000e+00" fC6="4.1594004929218090e-06" fC7="0.0000000000000000e+00" fC8="-2.1935705210908931e-04" fC9="0.0000000000000000e+00" fC10="2.9219416271902970e-01" fC11="0.0000000000000000e+00" fC12="0.0000000000000000e+00" fC13="1.2453799082514803e-04" fC14="-1.3103872585661636e-01" fC15="-2.8372974771695603e-06" fC16="2.8814784644195308e+00" IVar="-1" Cut="2.5775928515940905e-03" cType="0" res="-9.9000000000000000e+01" rms="0.0000000000000000e+00" purity="3.7014630436897278e-01" nType="-1"/>
      </Node>
    </BinaryTree>
    <BinaryTree type="DecisionTree" boostWeight="6.9540524624208983e-02" itree="26">
      <Node pos="s" depth="0" NCoef="17" fC0="0.0000000000000000e+00" fC1="0.0000000000000000e+00" fC2="0.0000000000000000e+00" fC3="0.0000000000000000e+00" fC4="0.0000000000000000e+00" fC5="0.0000000000000000e+00" fC6="-1.2544212780730250e-07" fC7="0.0000000000000000e+00" fC8="-1.2573803835836820e-05" fC9="0.0000000000000000e+00" fC10="1.5849226498990735e-02" fC11="0.0000000000000000e+00" fC12="7.3130839002811558e-03" fC13="1.3186206447274087e-05" fC14="-1.0011648186066265e-02" fC15="2.1239074458458316e-08" fC16="1.1478793909111623e-01" IVar="16" Cut="-2.9137235134840012e-02" cType="0" res="-9.9000000000000000e+01" rms="0.0000000000000000e+00" purity="4.9390447139739990e-01" nType="0">
        <Node pos="l" depth="1" NCoef="0" IVar="4" Cut="2.1799733638763428e+00" cType="0" res="-9.9000000000000000e+01" rms="0.0000000000000000e+00" purity="5.0028884410858154e-01" nType="0">
          <Node pos="l" depth="2" NCoef="0" IVar="12" Cut="3.9451904296875000e+00" cType="1" res="-9.9000000000000000e+01" rms="0.0000000000000000e+00" purity="5.1130247116088867e-01" nType="0">
            <Node pos="l" depth="3" NCoef="0" IVar="-1" Cut="0.0000000000000000e+00" cType="1" res="-9.9000000000000000e+01" rms="0.0000000000000000e+00" purity="5.6965208053588867e-01" nType="1"/>
            <Node pos="r" depth="3" NCoef="0" IVar="-1" Cut="0.0000000000000000e+00" cType="1" res="-9.9000000000000000e+01" rms="0.0000000000000000e+00" purity="4.9677228927612305e-01" nType="-1"/>
          </Node>
          <Node pos="r" depth="2" NCoef="17" fC0="0.0000000000000000e+00" fC1="0.0000000000000000e+00" fC2="0.0000000000000000e+00" fC3="0.0000000000000000e+00" fC4="0.0000000000000000e+00" fC5="0.0000000000000000e+00" fC6="2.2685241710949237e-06" fC7="0.0000000000000000e+00" fC8="-2.1446410319976721e-04" fC9="0.0000000000000000e+00" fC10="3.9944803575172727e-01" fC11="-2.6538268040658043e-02" fC12="2.1648678593758930e-01" fC13="1.3849659365939296e-04" fC14="-3.6468046196127535e-01" fC15="-2.0972239245336782e-06" fC16="3.9294750939049603e+00" IVar="16" Cut="2.9808830469846725e-02" cType="0" res="-9.9000000000000000e+01" rms="0.0000000000000000e+00" purity="3.8870757818222046e-01" nType="0">
            <Node pos="l" depth="3" NCoef="0" IVar="-1" Cut="0.0000000000000000e+00" cType="1" res="-9.9000000000000000e+01" rms="0.0000000000000000e+00" purity="5.4973596334457397e-01" nType="1"/>
            <Node pos="r" depth="3" NCoef="0" IVar="-1" Cut="0.0000000000000000e+00" cType="1" res="-9.9000000000000000e+01" rms="0.0000000000000000e+00" purity="2.4506814777851105e-01" nType="-1"/>
          </Node>
        </Node>
        <Node pos="r" depth="1" NCoef="0" IVar="-1" Cut="0.0000000000000000e+00" cType="1" res="-9.9000000000000000e+01" rms="0.0000000000000000e+00" purity="2.8451347351074219e-01" nType="-1"/>
      </Node>
    </BinaryTree>
    <BinaryTree type="DecisionTree" boostWeight="1.2738064215815523e-01" itree="27">
      <Node pos="s" depth="0" NCoef="0" IVar="4" Cut="2.1799733638763428e+00" cType="0" res="-9.9000000000000000e+01" rms="0.0000000000000000e+00" purity="5.0374281406402588e-01" nType="0">
        <Node pos="l" depth="1" NCoef="0" IVar="5" Cut="9.4700412750244141e+00" cType="0" res="-9.9000000000000000e+01" rms="0.0000000000000000e+00" purity="5.1532936096191406e-01" nType="0">
          <Node pos="l" depth="2" NCoef="17" fC0="0.0000000000000000e+00" fC1="0.0000000000000000e+00" fC2="0.0000000000000000e+00" fC3="0.0000000000000000e+00" fC4="0.0000000000000000e+00" fC5="0.0000000000000000e+00" fC6="-2.4420536524410809e-06" fC7="0.0000000000000000e+00" fC8="6.9876684563476590e-05" fC9="0.0000000000000000e+00" fC10="6.0696557781075001e-02" fC11="0.0000000000000000e+00" fC12="3.4458652144200679e-02" fC13="-1.1964660121356072e-05" fC14="-4.1121700651769455e-02" fC15="8.0226835876062820e-07" fC16="4.3561258290235533e-01" IVar="16" Cut="-1.9415976712480187e-03" cType="0" res="-9.9000000000000000e+01" rms="0.0000000000000000e+00" purity="5.4845404624938965e-01" nType="0">
            <Node pos="l" depth="3" NCoef="0" IVar="-1" Cut="0.0000000000000000e+00" cType="1" res="-9.9000000000000000e+01" rms="0.0000000000000000e+00" purity="6.1899524927139282e-01" nType="1"/>
            <Node pos="r" depth="3" NCoef="0" IVar="-1" Cut="0.0000000000000000e+00" cType="1" res="-9.9000000000000000e+01" rms="0.0000000000000000e+00" purity="4.7749421000480652e-01" nType="-1"/>
          </Node>
          <Node pos="r" depth="2" NCoef="17" fC0="0.0000000000000000e+00" fC1="0.0000000000000000e+00" fC2="0.0000000000000000e+00" fC3="0.0000000000000000e+00" fC4="0.0000000000000000e+00" fC5="0.0000000000000000e+00" fC6="7.7883050809190327e-06" fC7="0.0000000000000000e+00" fC8="-6.1318558535384716e-05" fC9="0.0000000000000000e+00" fC10="-6.1260204250453906e-02" fC11="0.0000000000000000e+00" fC12="-1.5783590222820200e-04" fC13="2.8171077828290733e-05" fC14="2.7111321078527199e-02" fC15="-6.7000988880080043e-06" fC16="-4.6216776557508882e-01" IVar="16" Cut="-5.9854194521903992e-02" cType="0" res="-9.9000000000000000e+01" rms="0.0000000000000000e+00" purity="4.8623529076576233e-01" nType="0">
            <Node pos="l" depth="3" NCoef="0" IVar="-1" Cut="0.0000000000000000e+00" cType="1" res="-9.9000000000000000e+01" rms="0.0000000000000000e+00" purity="5.1256978511810303e-01" nType="1"/>
            <Node pos="r" depth="3" NCoef="0" IVar="-1" Cut="0.0000000000000000e+00" cType="1" res="-9.9000000000000000e+01" rms="0.0000000000000000e+00" purity="3.0844661593437195e-01" nType="-1"/>
          </Node>
        </Node>
        <Node pos="r" depth="1" NCoef="17" fC0="-3.3983834847247617e+03" fC1="-2.1462157649471160e-02" fC2="0.0000000000000000e+00" fC3="0.0000000000000000e+00" fC4="0.0000000000000000e+00" fC5="0.0000000000000000e+00" fC6="4.6754251972278120e-06" fC7="0.0000000000000000e+00" fC8="-2.3363199632936679e-04" fC9="0.0000000000000000e+00" fC10="3.2657655139095232e-01" fC11="0.0000000000000000e+00" fC12="0.0000000000000000e+00" fC13="1.3891275996606267e-04" fC14="-1.0651656097619305e-01" fC15="-2.1738051799669572e-06" fC16="3.4012914925543560e+03" IVar="16" Cut="8.2489930093288422e-02" cType="0" res="-9.9000000000000000e+01" rms="0.0000000000000000e+00" purity="3.9517107605934143e-01" nType="0">
          <Node pos="l" depth="2" NCoef="0" IVar="-1" Cut="0.0000000000000000e+00" cType="1" res="-9.9000000000000000e+01" rms="0.0000000000000000e+00" purity="6.2065410614013672e-01" nType="1"/>
          <Node pos="r" depth="2" NCoef="0" IVar="-1" Cut="1.4334301757812500e+04" cType="0" res="-9.9000000000000000e+01" rms="0.0000000000000000e+00" purity="3.1450346112251282e-01" nType="-1"/>
        </Node>
      </Node>
    </BinaryTree>
    <BinaryTree type="DecisionTree" boostWeight="6.1438384206125789e-02" itree="28">
      <Node pos="s" depth="0" NCoef="17" fC0="0.0000000000000000e+00" fC1="0.0000000000000000e+00" fC2="0.0000000000000000e+00" fC3="0.0000000000000000e+00" fC4="0.0000000000000000e+00" fC5="0.0000000000000000e+00" fC6="-4.1785246989021099e-08" fC7="0.0000000000000000e+00" fC8="-2.1148214439710246e-05" fC9="0.0000000000000000e+00" fC10="1.0354365970933246e-02" fC11="0.0000000000000000e+00" fC12="7.5613880010565893e-03" fC13="1.5805247510185489e-05" fC14="-5.8108209392544394e-03" fC15="1.9455713274409654e-07" fC16="4.4145954061761909e-02" IVar="16" Cut="-3.1946185976266861e-02" cType="0" res="-9.9000000000000000e+01" rms="0.0000000000000000e+00" purity="4.9375212192535400e-01" nType="0">
        <Node pos="l" depth="1" NCoef="0" IVar="10" Cut="-5.4888777732849121e+00" cType="1" res="-9.9000000000000000e+01" rms="0.0000000000000000e+00" purity="5.0681066513061523e-01" nType="0">
          <Node pos="l" depth="2" NCoef="0" IVar="-1" Cut="-5.8378725051879883e+00" cType="0" res="-9.9000000000000000e+01" rms="0.0000000000000000e+00" purity="5.1283508539199829e-01" nType="1"/>
          <Node pos="r" depth="2" NCoef="0" IVar="-1" Cut="0.0000000000000000e+00" cType="1" res="-9.9000000000000000e+01" rms="0.0000000000000000e+00" purity="2.9272317886352539e-01" nType="-1"/>
        </Node>
        <Node pos="r" depth="1" NCoef="17" fC0="0.0000000000000000e+00" fC1="-1.4068697196363163e-02" fC2="0.0000000000000000e+00" fC3="-2.9719539052513121e-04" fC4="0.0000000000000000e+00" fC5="0.0000000000000000e+00" fC6="2.4140553408836541e-05" fC7="0.0000000000000000e+00" fC8="-8.6898807989760579e-04" fC9="0.0000000000000000e+00" fC10="5.4104530978836307e-01" fC11="1.0273121854093263e-01" fC12="-1.5981161366909610e-01" fC13="7.3835355363154661e-04" fC14="-1.5211086314446484e-01" fC15="-1.3258110482444707e-05" fC16="5.2130481747217621e+00" IVar="16" Cut="-2.0869864150881767e-02" cType="0" res="-9.9000000000000000e+01" rms="0.0000000000000000e+00" purity="3.0123916268348694e-01" nType="0">
          <Node pos="l" depth="2" NCoef="0" IVar="-1" Cut="0.0000000000000000e+00" cType="1" res="-9.9000000000000000e+01" rms="0.0000000000000000e+00" purity="5.1635628938674927e-01" nType="1"/>
          <Node pos="r" depth="2" NCoef="0" IVar="-1" Cut="0.0000000000000000e+00" cType="1" res="-9.9000000000000000e+01" rms="0.0000000000000000e+00" purity="8.1032276153564453e-02" nType="-1"/>
        </Node>
      </Node>
    </BinaryTree>
    <BinaryTree type="DecisionTree" boostWeight="1.7049054131442687e-01" itree="29">
      <Node pos="s" depth="0" NCoef="17" fC0="0.0000000000000000e+00" fC1="0.0000000000000000e+00" fC2="0.0000000000000000e+00" fC3="0.0000000000000000e+00" fC4="0.0000000000000000e+00" fC5="0.0000000000000000e+00" fC6="-1.1066678344117481e-07" fC7="0.0000000000000000e+00" fC8="-1.9536596670793761e-05" fC9="0.0000000000000000e+00" fC10="1.0950379451951237e-02" fC11="0.0000000000000000e+00" fC12="6.7346541700802611e-03" fC13="1.4703358012423407e-05" fC14="-4.4305280590886242e-03" fC15="2.2152751133945435e-07" fC16="4.5045475032179635e-02" IVar="16" Cut="-3.2295532524585724e-02" cType="0" res="-9.9000000000000000e+01" rms="0.0000000000000000e+00" purity="4.8011097311973572e-01" nType="0">
        <Node pos="l" depth="1" NCoef="0" IVar="5" Cut="9.4700412750244141e+00" cType="0" res="-9.9000000000000000e+01" rms="0.0000000000000000e+00" purity="4.9210873246192932e-01" nType="0">
          <Node pos="l" depth="2" NCoef="0" IVar="1" Cut="5.5973291397094727e+00" cType="1" res="-9.9000000000000000e+01" rms="0.0000000000000000e+00" purity="5.2652066946029663e-01" nType="0">
            <Node pos="l" depth="3" NCoef="0" IVar="-1" Cut="0.0000000000000000e+00" cType="1" res="-9.9000000000000000e+01" rms="0.0000000000000000e+00" purity="5.7739508152008057e-01" nType="1"/>
            <Node pos="r" depth="3" NCoef="0" IVar="-1" Cut="0.0000000000000000e+00" cType="1" res="-9.9000000000000000e+01" rms="0.0000000000000000e+00" purity="4.3885049223899841e-01" nType="-1"/>
          </Node>
          <Node pos="r" depth="2" NCoef="17" fC0="0.0000000000000000e+00" fC1="0.0000000000000000e+00" fC2="0.0000000000000000e+00" fC3="0.0000000000000000e+00" fC4="0.0000000000000000e+00" fC5="0.0000000000000000e+00" fC6="-1.2778275303810506e-09" fC7="0.0000000000000000e+00" fC8="-5.3523274323246006e-05" fC9="-1.5030191744651859e-04" fC10="-1.0909300860809520e-01" fC11="0.0000000000000000e+00" fC12="-1.3549547538607166e-02" fC13="3.8764157379728455e-05" fC14="5.3987378721085041e-02" fC15="-1.6918965734946901e-07" fC16="-8.8588859157279121e-01" IVar="16" Cut="-1.9272128120064735e-02" cType="0" res="-9.9000000000000000e+01" rms="0.0000000000000000e+00" purity="4.5913478732109070e-01" nType="0">
            <Node pos="l" depth="3" NCoef="0" IVar="-1" Cut="0.0000000000000000e+00" cType="1" res="-9.9000000000000000e+01" rms="0.0000000000000000e+00" purity="5.2573513984680176e-01" nType="1"/>
            <Node pos="r" depth="3" NCoef="0" IVar="-1" Cut="0.0000000000000000e+00" cType="1" res="-9.9000000000000000e+01" rms="0.0000000000000000e+00" purity="3.0761423707008362e-01" nType="-1"/>
          </Node>
        </Node>
        <Node pos="r" depth="1" NCoef="17" fC0="0.0000000000000000e+00" fC1="8.3212522992520850e-04" fC2="0.0000000000000000e+00" fC3="-6.4995665163790481e-04" fC4="2.1171905211449774e-01" fC5="0.0000000000000000e+00" fC6="1.9272081529011208e-05" fC7="0.0000000000000000e+00" fC8="-7.2030597995636678e-04" fC9="0.0000000000000000e+00" fC10="5.2507148924055391e-01" fC11="2.4535835858969405e-02" fC12="-2.6197024150691284e-01" fC13="6.3266826292656742e-04" fC14="-1.5825599338714938e-01" fC15="-1.5165625151741798e-05" fC16="5.1915491505251898e+00" IVar="16" Cut="-3.7979178130626678e-02" cType="0" res="-9.9000000000000000e+01" rms="0.0000000000000000e+00" purity="2.7974870800971985e-01" nType="0">
          <Node pos="l" depth="2" NCoef="0" IVar="-1" Cut="0.0000000000000000e+00" cType="1" res="-9.9000000000000000e+01" rms="0.0000000000000000e+00" purity="5.3692132234573364e-01" nType="1"/>
          <Node pos="r" depth="2" NCoef="0" IVar="-1" Cut="0.0000000000000000e+00" cType="1" res="-9.9000000000000000e+01" rms="0.0000000000000000e+00" purity="2.1448330953717232e-02" nType="-1"/>
        </Node>
      </Node>
    </BinaryTree>
    <BinaryTree type="DecisionTree" boostWeight="1.4609749418400628e-01" itree="30">
      <Node pos="s" depth="0" NCoef="0" IVar="5" Cut="9.4700412750244141e+00" cType="0" res="-9.9000000000000000e+01" rms="0.0000000000000000e+00" purity="4.6643403172492981e-01" nType="0">
        <Node pos="l" depth="1" NCoef="0" IVar="12" Cut="6.8463473320007324e+00" cType="0" res="-9.9000000000000000e+01" rms="0.0000000000000000e+00" purity="5.1202493906021118e-01" nType="0">
          <Node pos="l" depth="2" NCoef="0" IVar="-1" Cut="0.0000000000000000e+00" cType="1" res="-9.9000000000000000e+01" rms="0.0000000000000000e+00" purity="6.9799244403839111e-01" nType="1"/>
          <Node pos="r" depth="2" NCoef="0" IVar="5" Cut="1.0049152374267578e+01" cType="1" res="-9.9000000000000000e+01" rms="0.0000000000000000e+00" purity="4.9474540352821350e-01" nType="0">
            <Node pos="l" depth="3" NCoef="0" IVar="-1" Cut="0.0000000000000000e+00" cType="1" res="-9.9000000000000000e+01" rms="0.0000000000000000e+00" purity="5.4896152019500732e-01" nType="1"/>
            <Node pos="r" depth="3" NCoef="0" IVar="-1" Cut="0.0000000000000000e+00" cType="1" res="-9.9000000000000000e+01" rms="0.0000000000000000e+00" purity="4.2630472779273987e-01" nType="-1"/>
          </Node>
        </Node>
        <Node pos="r" depth="1" NCoef="0" IVar="-1" Cut="8.1350154876708984e+00" cType="0" res="-9.9000000000000000e+01" rms="0.0000000000000000e+00" purity="4.2668327689170837e-01" nType="-1"/>
      </Node>
    </BinaryTree>
    <BinaryTree type="DecisionTree" boostWeight="7.7455029611361650e-02" itree="31">
      <Node pos="s" depth="0" NCoef="17" fC0="0.0000000000000000e+00" fC1="0.0000000000000000e+00" fC2="0.0000000000000000e+00" fC3="0.0000000000000000e+00" fC4="0.0000000000000000e+00" fC5="0.0000000000000000e+00" fC6="-3.9606445468146773e-07" fC7="0.0000000000000000e+00" fC8="-1.5984059358505736e-05" fC9="0.0000000000000000e+00" fC10="3.8445144026098957e-02" fC11="0.0000000000000000e+00" fC12="6.9155905918648420e-03" fC13="1.5986872304375270e-05" fC14="-1.2567314401148583e-02" fC15="4.1356847114576773e-07" fC16="2.7038385405616044e-01" IVar="16" Cut="-4.5026153326034546e-02" cType="0" res="-9.9000000000000000e+01" rms="0.0000000000000000e+00" purity="4.8248019814491272e-01" nType="0">
        <Node pos="l" depth="1" NCoef="0" IVar="10" Cut="-5.5045619010925293e+00" cType="1" res="-9.9000000000000000e+01" rms="0.0000000000000000e+00" purity="4.9121463298797607e-01" nType="0">
          <Node pos="l" depth="2" NCoef="0" IVar="12" Cut="6.7099599838256836e+00" cType="0" res="-9.9000000000000000e+01" rms="0.0000000000000000e+00" purity="4.9749365448951721e-01" nType="0">
            <Node pos="l" depth="3" NCoef="0" IVar="-1" Cut="0.0000000000000000e+00" cType="1" res="-9.9000000000000000e+01" rms="0.0000000000000000e+00" purity="6.2256753444671631e-01" nType="1"/>
            <Node pos="r" depth="3" NCoef="0" IVar="-1" Cut="0.0000000000000000e+00" cType="1" res="-9.9000000000000000e+01" rms="0.0000000000000000e+00" purity="4.8485621809959412e-01" nType="-1"/>
          </Node>
          <Node pos="r" depth="2" NCoef="0" IVar="-1" Cut="0.0000000000000000e+00" cType="1" res="-9.9000000000000000e+01" rms="0.0000000000000000e+00" purity="3.0348417162895203e-01" nType="-1"/>
        </Node>
        <Node pos="r" depth="1" NCoef="0" IVar="-1" Cut="0.0000000000000000e+00" cType="1" res="-9.9000000000000000e+01" rms="0.0000000000000000e+00" purity="1.9274434447288513e-01" nType="-1"/>
      </Node>
    </BinaryTree>
    <BinaryTree type="DecisionTree" boostWeight="4.9432996813957915e-02" itree="32">
